{"learner":{"attributes":{"best_iteration":"35","best_score":"0.018362","scikit_learn":"{\"_estimator_type\": \"regressor\"}"},"feature_names":["ret_21d","ret_63d","macd_hist","atr_pct","vol_20d","vol_60d","dist_sma200","dist_52w_high","zscore_20d","zscore_60d","beta_60d","excess_ret_5d","excess_ret_21d","spy_ret_21d","spy_rsi_14","vix_level","excess_ret_21d_vs_sector","days_to_earnings","days_since_earnings","earnings_yield","book_to_market","roa","debt_to_equity","current_ratio","sales_growth_yoy","ret_63d_rank","macd_hist_rank","atr_pct_rank","vol_20d_rank","vol_60d_rank","dist_sma200_rank","dist_52w_high_rank","zscore_20d_rank","zscore_60d_rank","earnings_yield_rank","book_to_market_rank","roa_rank","debt_to_equity_rank","current_ratio_rank","insider_buy_count_60d","insider_sell_count_60d","insider_net_dollar_60d","days_since_last_insider_buy","gics_sector"],"feature_types":["float","float","float","float","float","float","float","float","float","float","float","float","float","float","float","float","float","float","float","float","float","float","float","float","float","float","float","float","float","float","float","float","float","float","float","float","float","float","float","float","float","float","float","c"],"gradient_booster":{"model":{"cats":{"enc":[],"feature_segments":[],"sorted_idx":[]},"gbtree_model_param":{"num_parallel_tree":"1","num_trees":"36"},"iteration_indptr":[0,1,2,3,4,5,6,7,8,9,10,11,12,13,14,15,16,17,18,19,20,21,22,23,24,25,26,27,28,29,30,31,32,33,34,35,36],"tree_info":[0,0,0,0,0,0,0,0,0,0,0,0,0,0,0,0,0,0,0,0,0,0,0,0,0,0,0,0,0,0,0,0,0,0,0,0],"trees":[{"base_weights":[-3.7477505E-5,6.453759E-2,-5.173004E-4,-1.276141E-1,7.0453554E-2,-2.237217E-5,-9.11741E-3,-1.705124E-1,1.190193E-1,6.2255353E-2,1.8550439E-1,-2.2605917E-4,2.3331901E-2,8.089837E-3,-1.7712263E-2,-1.2204793E-3,-2.3151282E-5,9.795948E-4,-1.6435357E-4,-3.0722268E-4,3.730897E-4,1.227395E-3,5.2569533E-4,5.9661043E-6,-1.2151184E-5,5.641802E-4,1.0168661E-4,3.465691E-5,6.14903E-4,-5.499985E-5,-3.1578197E-4],"categories":[3,4,8,9,11],"categories_nodes":[11],"categories_segments":[0],"categories_sizes":[5],"default_left":[0,0,0,0,0,0,0,0,0,0,0,1,0,0,0,0,0,0,0,0,0,0,0,0,0,0,0,0,0,0,0],"id":0,"left_children":[1,3,5,7,9,11,13,15,17,19,21,23,25,27,29,-1,-1,-1,-1,-1,-1,-1,-1,-1,-1,-1,-1,-1,-1,-1,-1],"loss_changes":[2.2785854E1,6.1658974E0,3.1070669E0,1.7142949E0,4.963066E0,3.283474E0,5.8747873E0,1.2468548E0,2.2036108E-1,3.784027E0,1.2603855E0,1.8251101E0,2.2117813E0,2.3729956E0,8.124933E0,0E0,0E0,0E0,0E0,0E0,0E0,0E0,0E0,0E0,0E0,0E0,0E0,0E0,0E0,0E0,0E0],"parents":[2147483647,0,0,1,1,2,2,3,3,4,4,5,5,6,6,7,7,8,8,9,9,10,10,11,11,12,12,13,13,14,14],"right_children":[2,4,6,8,10,12,14,16,18,20,22,24,26,28,30,-1,-1,-1,-1,-1,-1,-1,-1,-1,-1,-1,-1,-1,-1,-1,-1],"split_conditions":[-6.728866E-1,1.8814147E-1,3.602E1,1.0234331E0,1.09797254E-1,7.103001E-1,4.3063584E-1,3.1599432E-2,-1.3952832E-1,4.232804E-2,5.1594204E-1,1E-45,3.9986813E1,2.5691173E0,5.4228004E1,-1.2204793E-3,-2.3151282E-5,9.795948E-4,-1.6435357E-4,-3.0722268E-4,3.730897E-4,1.227395E-3,5.2569533E-4,5.9661043E-6,-1.2151184E-5,5.641802E-4,1.0168661E-4,3.465691E-5,6.14903E-4,-5.499985E-5,-3.1578197E-4],"split_indices":[7,22,15,5,13,5,30,1,0,26,33,43,14,10,14,0,0,0,0,0,0,0,0,0,0,0,0,0,0,0,0],"split_type":[0,0,0,0,0,0,0,0,0,0,0,1,0,0,0,0,0,0,0,0,0,0,0,0,0,0,0,0,0,0,0],"sum_hessian":[7.35393E5,5.424E3,7.29969E5,1.62E2,5.262E3,6.90246E5,3.9723E4,1.38E2,2.4E1,4.912E3,3.5E2,6.84278E5,5.968E3,1.3232E4,2.6491E4,1.04E2,3.4E1,1.7E1,7E0,2.54E2,4.658E3,2.4E2,1.1E2,4.12599E5,2.71679E5,3.22E2,5.646E3,1.3021E4,2.11E2,2.2312E4,4.179E3],"tree_param":{"num_deleted":"0","num_feature":"44","num_nodes":"31","size_leaf_vector":"1"}},{"base_weights":[3.7331487E-5,7.184643E-2,-2.4211324E-4,1.0411849E-1,1.9832388E-2,-6.3539844E-4,1.2542124E-2,3.595172E-4,1.3603222E-1,1.0294913E-2,3.693056E-1,-5.430768E-4,-8.491427E-2,4.475593E-3,3.0263228E-2,-7.000912E-4,2.1103909E-4,5.728586E-4,1.0920927E-3,4.27304E-4,-2.0040138E-4,1.8538017E-4,2.3832717E-3,1.18477416E-4,-3.692886E-6,-7.4240274E-4,-1.2020264E-4,3.833781E-4,8.244871E-6,1.7045777E-4,-2.1830222E-3],"categories":[],"categories_nodes":[],"categories_segments":[],"categories_sizes":[],"default_left":[0,1,0,0,1,0,0,0,0,0,0,0,0,0,0,0,0,0,0,0,0,0,0,0,0,0,0,0,0,0,0],"id":1,"left_children":[1,3,5,7,9,11,13,15,17,19,21,23,25,27,29,-1,-1,-1,-1,-1,-1,-1,-1,-1,-1,-1,-1,-1,-1,-1,-1],"loss_changes":[1.4763756E1,4.787364E0,3.684827E0,5.827986E0,3.6397316E0,5.5322027E0,3.1266978E0,2.0628345E0,2.674467E0,3.4346182E0,6.783025E-1,2.181296E0,2.5326943E0,2.9400318E0,3.3770757E0,0E0,0E0,0E0,0E0,0E0,0E0,0E0,0E0,0E0,0E0,0E0,0E0,0E0,0E0,0E0,0E0],"parents":[2147483647,0,0,1,1,2,2,3,3,4,4,5,5,6,6,7,7,8,8,9,9,10,10,11,11,12,12,13,13,14,14],"right_children":[2,4,6,8,10,12,14,16,18,20,22,24,26,28,30,-1,-1,-1,-1,-1,-1,-1,-1,-1,-1,-1,-1,-1,-1,-1,-1],"split_conditions":[-5.409684E-1,5.8E1,2.0093417E0,9.478673E-3,2.4747865E0,1.431114E0,6.287049E-1,1.5370591E-1,2.114183E0,3.967144E1,1.8237082E-2,-4.066635E-1,1.79E2,-1.7216803E-1,2.1E1,-7.000912E-4,2.1103909E-4,5.728586E-4,1.0920927E-3,4.27304E-4,-2.0040138E-4,1.8538017E-4,2.3832717E-3,1.18477416E-4,-3.692886E-6,-7.4240274E-4,-1.2020264E-4,3.833781E-4,8.244871E-6,1.7045777E-4,-2.1830222E-3],"split_indices":[6,18,10,30,20,5,5,19,10,14,32,6,42,24,39,0,0,0,0,0,0,0,0,0,0,0,0,0,0,0,0],"split_type":[0,0,0,0,0,0,0,0,0,0,0,0,0,0,0,0,0,0,0,0,0,0,0,0,0,0,0,0,0,0,0],"sum_hessian":[7.35735E5,2.852E3,7.32883E5,1.76E3,1.092E3,7.1101E5,2.1873E4,4.14E2,1.346E3,1.063E3,2.9E1,7.10232E5,7.78E2,1.5031E4,6.842E3,9.5E1,3.19E2,9.17E2,4.29E2,4.34E2,6.29E2,5E0,2.4E1,4.332E3,7.059E5,4.26E2,3.52E2,6.43E2,1.4388E4,6.824E3,1.8E1],"tree_param":{"num_deleted":"0","num_feature":"44","num_nodes":"31","size_leaf_vector":"1"}},{"base_weights":[4.074941E-5,5.1924236E-2,-1.6536337E-4,9.457403E-2,-5.3201932E-3,-5.3632224E-4,1.3514307E-2,1.9986358E-1,6.484867E-2,-1.5232308E-2,2.849649E-1,-4.8110643E-4,-4.808057E-2,3.6425006E-2,4.9957274E-3,3.564247E-4,1.2474791E-3,5.879425E-4,1.3484508E-4,-2.3969033E-4,3.5143754E-4,8.166625E-4,2.2413197E-3,-4.225772E-6,4.2078333E-5,-3.815911E-4,5.68384E-4,1.8948157E-4,2.5828406E-3,1.8248258E-5,6.308205E-4],"categories":[],"categories_nodes":[],"categories_segments":[],"categories_sizes":[],"default_left":[0,1,0,0,1,0,0,0,0,0,0,0,0,1,0,0,0,0,0,0,0,0,0,0,0,0,0,0,0,0,0],"id":2,"left_children":[1,3,5,7,9,11,13,15,17,19,21,23,25,27,29,-1,-1,-1,-1,-1,-1,-1,-1,-1,-1,-1,-1,-1,-1,-1,-1],"loss_changes":[7.861861E0,7.102246E0,3.7159593E0,5.217227E0,3.5737276E0,1.8715907E0,3.773156E0,1.4757986E0,2.2608209E0,2.778696E0,7.0525837E-1,1.7438923E0,2.8082113E0,3.4896703E0,2.5608513E0,0E0,0E0,0E0,0E0,0E0,0E0,0E0,0E0,0E0,0E0,0E0,0E0,0E0,0E0,0E0,0E0],"parents":[2147483647,0,0,1,1,2,2,3,3,4,4,5,5,6,6,7,7,8,8,9,9,10,10,11,11,12,12,13,13,14,14],"right_children":[2,4,6,8,10,12,14,16,18,20,22,24,26,28,30,-1,-1,-1,-1,-1,-1,-1,-1,-1,-1,-1,-1,-1,-1,-1,-1],"split_conditions":[-4.945362E-1,4.7E1,9.538905E-1,6.2E1,1.1064898E0,1.431114E0,3.0294595E-2,8.4594595E-1,8.595989E-2,8.9E1,1.0477862E0,6.082681E-1,3E0,9.6363634E-1,1.0339114E-1,3.564247E-4,1.2474791E-3,5.879425E-4,1.3484508E-4,-2.3969033E-4,3.5143754E-4,8.166625E-4,2.2413197E-3,-4.225772E-6,4.2078333E-5,-3.815911E-4,5.68384E-4,1.8948157E-4,2.5828406E-3,1.8248258E-5,6.308205E-4],"split_indices":[1,18,29,17,22,5,21,27,30,18,4,5,39,38,13,0,0,0,0,0,0,0,0,0,0,0,0,0,0,0,0],"split_type":[0,0,0,0,0,0,0,0,0,0,0,0,0,0,0,0,0,0,0,0,0,0,0,0,0,0,0,0,0,0,0],"sum_hessian":[7.35176E5,2.909E3,7.32267E5,1.667E3,1.242E3,7.12934E5,1.9333E4,3.67E2,1.3E3,1.201E3,4.1E1,7.12107E5,8.27E2,5.24E3,1.4093E4,6.7E1,3E2,6.23E2,6.77E2,8.82E2,3.19E2,2E1,2.1E1,6.87279E5,2.4828E4,7.22E2,1.05E2,5.222E3,1.8E1,1.3889E4,2.04E2],"tree_param":{"num_deleted":"0","num_feature":"44","num_nodes":"31","size_leaf_vector":"1"}},{"base_weights":[1.0883431E-5,6.4187765E-2,-4.5623776E-4,-1.2002701E-1,6.983196E-2,2.81393E-5,-8.864413E-3,-1.6280203E-1,1.3100517E-1,2.9589646E-2,9.659934E-2,-1.721805E-4,2.2975832E-2,1.2026382E-2,-1.38054155E-2,1.824578E-5,-1.1992948E-3,9.890383E-4,-7.683927E-5,-3.0609095E-4,2.3100401E-4,5.668831E-4,-4.628459E-4,6.4037754E-6,-1.2093037E-5,7.686909E-4,1.1049677E-4,3.856753E-4,2.185523E-5,-1.2615407E-4,2.1747508E-5],"categories":[3,4,8,9,11,0,3,4,5,6,7,8,9,10,11],"categories_nodes":[11,13],"categories_segments":[0,5],"categories_sizes":[5,10],"default_left":[0,0,0,0,0,0,0,0,0,0,0,1,0,1,1,0,0,0,0,0,0,0,0,0,0,0,0,0,0,0,0],"id":3,"left_children":[1,3,5,7,9,11,13,15,17,19,21,23,25,27,29,-1,-1,-1,-1,-1,-1,-1,-1,-1,-1,-1,-1,-1,-1,-1,-1],"loss_changes":[2.205012E1,5.526327E0,2.9739828E0,1.6969106E0,5.55501E0,3.1738865E0,4.1056376E0,1.3045695E0,1.7108199E-1,2.2972877E0,4.4167156E0,1.9024241E0,1.8561001E0,3.5926807E0,5.406904E0,0E0,0E0,0E0,0E0,0E0,0E0,0E0,0E0,0E0,0E0,0E0,0E0,0E0,0E0,0E0,0E0],"parents":[2147483647,0,0,1,1,2,2,3,3,4,4,5,5,6,6,7,7,8,8,9,9,10,10,11,11,12,12,13,13,14,14],"right_children":[2,4,6,8,10,12,14,16,18,20,22,24,26,28,30,-1,-1,-1,-1,-1,-1,-1,-1,-1,-1,-1,-1,-1,-1,-1,-1],"split_conditions":[-6.728866E-1,1.6491228E-1,3.602E1,1.0234331E0,-1.5553414E-2,7.103001E-1,-5.2258974E-1,2.5670977E0,-3.251215E-1,5.0147492E-2,9.3891585E-1,1E-45,-3.2776204E-1,1E-45,6.1E1,1.824578E-5,-1.1992948E-3,9.890383E-4,-7.683927E-5,-3.0609095E-4,2.3100401E-4,5.668831E-4,-4.628459E-4,6.4037754E-6,-1.2093037E-5,7.686909E-4,1.1049677E-4,3.856753E-4,2.185523E-5,-1.2615407E-4,2.1747508E-5],"split_indices":[7,37,15,5,2,5,7,23,1,26,2,43,24,43,18,0,0,0,0,0,0,0,0,0,0,0,0,0,0,0,0],"split_type":[0,0,0,0,0,0,0,0,0,0,0,1,0,1,0,0,0,0,0,0,0,0,0,0,0,0,0,0,0,0,0],"sum_hessian":[7.35534E5,5.315E3,7.30219E5,1.58E2,5.157E3,6.90444E5,3.9775E4,1.35E2,2.3E1,2.06E3,3.097E3,6.84469E5,5.975E3,7.608E3,3.2167E4,3.5E1,1E2,1.7E1,6E0,2.7E2,1.79E3,2.969E3,1.28E2,4.12916E5,2.71553E5,1.29E2,5.846E3,9.08E2,6.7E3,2.1027E4,1.114E4],"tree_param":{"num_deleted":"0","num_feature":"44","num_nodes":"31","size_leaf_vector":"1"}},{"base_weights":[2.6235106E-5,6.936434E-2,-2.4216312E-4,8.029448E-2,-1.1343578E-1,1.6895464E-2,-4.4712925E-4,-4.089549E-4,1.007917E-1,-6.991201E-2,-3.376371E-1,1.2970733E-2,1.4169367E-1,6.989471E-5,-1.0715045E-2,-1.781618E-4,4.4104565E-4,7.7809824E-4,3.5125585E-4,-1.1950507E-3,-1.7357526E-4,-2.121229E-3,-8.6869503E-4,-4.7584377E-5,1.7102092E-4,-1.762952E-4,1.0411667E-3,-8.2513407E-7,1.3810617E-4,5.5970002E-5,-9.114966E-5],"categories":[],"categories_nodes":[],"categories_segments":[],"categories_sizes":[],"default_left":[0,0,0,0,0,0,0,0,0,0,0,0,0,0,0,0,0,0,0,0,0,0,0,0,0,0,0,0,0,0,0],"id":4,"left_children":[1,3,5,7,9,11,13,15,17,19,21,23,25,27,29,-1,-1,-1,-1,-1,-1,-1,-1,-1,-1,-1,-1,-1,-1,-1,-1],"loss_changes":[1.3687672E1,5.6665277E0,2.573552E0,4.4266453E0,1.5611548E0,4.2411585E0,3.8435252E0,1.4348284E0,3.2767754E0,7.637631E-1,2.4497628E-1,3.3828564E0,2.3050895E0,3.8813329E0,4.4357386E0,0E0,0E0,0E0,0E0,0E0,0E0,0E0,0E0,0E0,0E0,0E0,0E0,0E0,0E0,0E0,0E0],"parents":[2147483647,0,0,1,1,2,2,3,3,4,4,5,5,6,6,7,7,8,8,9,9,10,10,11,11,12,12,13,13,14,14],"right_children":[2,4,6,8,10,12,14,16,18,20,22,24,26,28,30,-1,-1,-1,-1,-1,-1,-1,-1,-1,-1,-1,-1,-1,-1,-1,-1],"split_conditions":[-5.409684E-1,9.84326E-1,-3.681737E-1,9.798271E-2,1.4E1,1.09797254E-1,3.602E1,4.846E1,5.9620596E-2,6.1904764E-1,5.573E1,2.802198E-1,5.0758667E1,7.103001E-1,4.1576087E-1,-1.781618E-4,4.4104565E-4,7.7809824E-4,3.5125585E-4,-1.1950507E-3,-1.7357526E-4,-2.121229E-3,-8.6869503E-4,-4.7584377E-5,1.7102092E-4,-1.762952E-4,1.0411667E-3,-8.2513407E-7,1.3810617E-4,5.5970002E-5,-9.114966E-5],"split_indices":[6,26,6,33,39,13,15,15,25,34,15,33,14,5,30,0,0,0,0,0,0,0,0,0,0,0,0,0,0,0,0],"split_type":[0,0,0,0,0,0,0,0,0,0,0,0,0,0,0,0,0,0,0,0,0,0,0,0,0,0,0,0,0,0,0],"sum_hessian":[7.35492E5,2.836E3,7.32656E5,2.676E3,1.6E2,8.659E3,7.23997E5,5.42E2,2.134E3,1.34E2,2.6E1,8.395E3,2.64E2,6.89289E5,3.4708E4,3.88E2,1.54E2,9.79E2,1.155E3,2.7E1,1.07E2,2E1,6E0,3.864E3,4.531E3,5.9E1,2.05E2,6.83313E5,5.976E3,7.783E3,2.6925E4],"tree_param":{"num_deleted":"0","num_feature":"44","num_nodes":"31","size_leaf_vector":"1"}},{"base_weights":[3.5879532E-6,6.143782E-2,-4.444167E-4,5.3087518E-2,1.7942837E-1,-3.275402E-4,-2.9711438E-2,5.7908703E-2,-1.3240321E-1,1.3128345E-1,2.5868872E-1,-5.941237E-4,1.2095585E-2,2.4159111E-2,-6.0753465E-2,5.1070884E-4,1.9843932E-4,-4.3137035E-5,-1.4383525E-3,8.7315746E-4,-2.8572911E-5,6.6554645E-4,1.5921574E-3,3.6186416E-6,-1.5870244E-5,5.0437526E-4,4.7411944E-5,7.585114E-4,9.155927E-5,-4.6223763E-4,-3.8346392E-5],"categories":[0,3,4,6,9,10,11,3,4,9,11,0,2,3,4,5,6,7,8,9,10,11],"categories_nodes":[7,11,13],"categories_segments":[0,7,11],"categories_sizes":[7,4,11],"default_left":[0,0,0,1,0,0,0,1,1,0,0,1,0,1,0,0,0,0,0,0,0,0,0,0,0,0,0,0,0,0,0],"id":5,"left_children":[1,3,5,7,9,11,13,15,17,19,21,23,25,27,29,-1,-1,-1,-1,-1,-1,-1,-1,-1,-1,-1,-1,-1,-1,-1,-1],"loss_changes":[2.0247826E1,5.247389E0,2.4982486E0,4.448263E0,1.3429232E0,2.4091454E0,4.8579206E0,3.7448483E0,2.0794034E0,8.847256E-1,6.26667E-1,2.0918834E0,4.151063E0,8.949204E-1,2.4150896E0,0E0,0E0,0E0,0E0,0E0,0E0,0E0,0E0,0E0,0E0,0E0,0E0,0E0,0E0,0E0,0E0],"parents":[2147483647,0,0,1,1,2,2,3,3,4,4,5,5,6,6,7,7,8,8,9,9,10,10,11,11,12,12,13,13,14,14],"right_children":[2,4,6,8,10,12,14,16,18,20,22,24,26,28,30,-1,-1,-1,-1,-1,-1,-1,-1,-1,-1,-1,-1,-1,-1,-1,-1],"split_conditions":[-6.728866E-1,1.09797254E-1,1.3511412E-1,2.654127E0,2.16E2,9.594272E-1,4.566474E-1,1E-45,8E1,3.9E1,-3.0483E5,1E-45,1.54639175E-2,1E-45,6.2728733E1,5.1070884E-4,1.9843932E-4,-4.3137035E-5,-1.4383525E-3,8.7315746E-4,-2.8572911E-5,6.6554645E-4,1.5921574E-3,3.6186416E-6,-1.5870244E-5,5.0437526E-4,4.7411944E-5,7.585114E-4,9.155927E-5,-4.6223763E-4,-3.8346392E-5],"split_indices":[7,13,13,23,42,29,31,43,42,17,41,43,34,43,14,0,0,0,0,0,0,0,0,0,0,0,0,0,0,0,0],"split_type":[0,0,0,0,0,0,0,1,0,0,0,1,0,1,0,0,0,0,0,0,0,0,0,0,0,0,0,0,0,0,0],"sum_hessian":[7.35674E5,5.326E3,7.30348E5,4.974E3,3.52E2,7.27443E5,2.905E3,4.848E3,1.26E2,2.19E2,1.33E2,7.12161E5,1.5282E4,1.062E3,1.843E3,1.799E3,3.049E3,6.5E1,6.1E1,1.8E2,3.9E1,2.7E1,1.06E2,4.62089E5,2.50072E5,6.1E2,1.4672E4,6.3E1,9.99E2,1.267E3,5.76E2],"tree_param":{"num_deleted":"0","num_feature":"44","num_nodes":"31","size_leaf_vector":"1"}},{"base_weights":[3.6494396E-6,6.872924E-2,-2.6616122E-4,8.027325E-2,-1.0114577E-1,-6.6583394E-4,1.2705946E-2,1.1341932E-1,1.2443272E-2,-1.9651802E-1,-3.0285792E-2,-5.727722E-4,-8.482223E-2,4.473443E-3,3.0731076E-2,-5.684667E-5,7.6233735E-4,5.455151E-4,-2.8952866E-4,-1.2881707E-3,4.393767E-4,1.6224648E-4,-7.170467E-4,5.2308365E-6,-1.6073767E-5,8.334221E-4,-5.100399E-4,3.3197753E-4,8.91314E-6,-1.7720915E-3,1.7417614E-4],"categories":[4,6,9,3,4,8,9,11,1,4,6,8,9],"categories_nodes":[8,11,12],"categories_segments":[0,3,8],"categories_sizes":[3,5,5],"default_left":[0,0,0,1,0,0,0,0,1,1,0,1,1,0,0,0,0,0,0,0,0,0,0,0,0,0,0,0,0,0,0],"id":6,"left_children":[1,3,5,7,9,11,13,15,17,19,21,23,25,27,29,-1,-1,-1,-1,-1,-1,-1,-1,-1,-1,-1,-1,-1,-1,-1,-1],"loss_changes":[1.3637319E1,5.64005E0,3.7980857E0,6.0546722E0,1.236736E0,5.5658236E0,3.24919E0,6.058277E0,5.1211753E0,8.83533E-1,6.434669E-1,2.605328E0,1.7115064E0,2.4125414E0,3.3315558E0,0E0,0E0,0E0,0E0,0E0,0E0,0E0,0E0,0E0,0E0,0E0,0E0,0E0,0E0,0E0,0E0],"parents":[2147483647,0,0,1,1,2,2,3,3,4,4,5,5,6,6,7,7,8,8,9,9,10,10,11,11,12,12,13,13,14,14],"right_children":[2,4,6,8,10,12,14,16,18,20,22,24,26,28,30,-1,-1,-1,-1,-1,-1,-1,-1,-1,-1,-1,-1,-1,-1,-1,-1],"split_conditions":[-5.409684E-1,9.802817E-1,2.0093417E0,6.7E1,3.0819672E-1,1.431114E0,6.287049E-1,1.0928961E-2,1E-45,6.574074E-1,-3.0776547E-2,1E-45,1E-45,3.301887E-2,1.270903E-1,-5.684667E-5,7.6233735E-4,5.455151E-4,-2.8952866E-4,-1.2881707E-3,4.393767E-4,1.6224648E-4,-7.170467E-4,5.2308365E-6,-1.6073767E-5,8.334221E-4,-5.100399E-4,3.3197753E-4,8.91314E-6,-1.7720915E-3,1.7417614E-4],"split_indices":[6,26,10,18,33,5,5,31,43,34,16,43,43,34,37,0,0,0,0,0,0,0,0,0,0,0,0,0,0,0,0],"split_type":[0,0,0,0,0,0,0,0,1,0,0,1,1,0,0,0,0,0,0,0,0,0,0,0,0,0,0,0,0,0,0],"sum_hessian":[7.35447E5,2.876E3,7.32571E5,2.693E3,1.83E2,7.10675E5,2.1896E4,1.809E3,8.84E2,7.8E1,1.05E2,7.0989E5,7.85E2,1.5031E4,6.865E3,3.24E2,1.485E3,3.78E2,5.06E2,6.8E1,1E1,6.6E1,3.9E1,4.32002E5,2.77888E5,2.9E1,7.56E2,7.15E2,1.4316E4,2.6E1,6.839E3],"tree_param":{"num_deleted":"0","num_feature":"44","num_nodes":"31","size_leaf_vector":"1"}},{"base_weights":[-1.184272E-5,6.384703E-2,-4.7954344E-4,-1.20978504E-1,6.9767945E-2,-3.9729793E-4,-4.7909707E-2,-1.6455835E-1,1.2477924E-1,3.779079E-2,1.01474464E-1,1.6046267E-2,-6.817195E-4,-8.7677E-2,3.798771E-2,-4.934108E-7,-1.210755E-3,1.0035466E-3,-1.619347E-4,4.911769E-4,-2.0630592E-5,6.390519E-4,-1.2908471E-4,9.3957664E-5,-1.4806322E-3,-2.8975417E-6,-2.3988618E-4,-7.2120473E-4,-3.0803896E-4,6.7161745E-4,-1.5951671E-4],"categories":[],"categories_nodes":[],"categories_segments":[],"categories_sizes":[],"default_left":[0,0,0,0,0,0,0,0,0,0,0,1,0,0,0,0,0,0,0,0,0,0,0,0,0,0,0,0,0,0,0],"id":7,"left_children":[1,3,5,7,9,11,13,15,17,19,21,23,25,27,29,-1,-1,-1,-1,-1,-1,-1,-1,-1,-1,-1,-1,-1,-1,-1,-1],"loss_changes":[2.1968672E1,5.8526077E0,2.8484733E0,1.7781875E0,5.2539215E0,3.409192E0,4.3177757E0,1.3568642E0,2.3249638E-1,5.655285E0,5.3001766E0,4.525467E0,4.611096E0,1.2075176E0,2.3110728E0,0E0,0E0,0E0,0E0,0E0,0E0,0E0,0E0,0E0,0E0,0E0,0E0,0E0,0E0,0E0,0E0],"parents":[2147483647,0,0,1,1,2,2,3,3,4,4,5,5,6,6,7,7,8,8,9,9,10,10,11,11,12,12,13,13,14,14],"right_children":[2,4,6,8,10,12,14,16,18,20,22,24,26,28,30,-1,-1,-1,-1,-1,-1,-1,-1,-1,-1,-1,-1,-1,-1,-1,-1],"split_conditions":[-6.728866E-1,1.6491228E-1,1.431114E0,1.0234331E0,1.0801761E-2,-5.2258974E-1,2.8795075E0,2.5670977E0,-3.251215E-1,3.9986813E1,9.67655E-1,1.5413813E-1,1.3511412E-1,4.3583536E-1,3.6832586E-1,-4.934108E-7,-1.210755E-3,1.0035466E-3,-1.619347E-4,4.911769E-4,-2.0630592E-5,6.390519E-4,-1.2908471E-4,9.3957664E-5,-1.4806322E-3,-2.8975417E-6,-2.3988618E-4,-7.2120473E-4,-3.0803896E-4,6.7161745E-4,-1.5951671E-4],"split_indices":[7,37,5,5,2,7,10,23,1,14,26,21,13,26,1,0,0,0,0,0,0,0,0,0,0,0,0,0,0,0,0],"split_type":[0,0,0,0,0,0,0,0,0,0,0,0,0,0,0,0,0,0,0,0,0,0,0,0,0,0,0,0,0,0,0],"sum_hessian":[7.35554E5,5.348E3,7.30206E5,1.66E2,5.182E3,7.28942E5,1.264E3,1.41E2,2.5E1,2.58E3,2.602E3,1.2394E4,7.16548E5,8.64E2,4E2,3.7E1,1.04E2,1.8E1,7E0,1.138E3,1.442E3,2.303E3,2.99E2,1.234E4,5.4E1,7.14121E5,2.427E3,3.51E2,5.13E2,1.76E2,2.24E2],"tree_param":{"num_deleted":"0","num_feature":"44","num_nodes":"31","size_leaf_vector":"1"}},{"base_weights":[1.3856612E-5,5.0036035E-2,-1.8219031E-4,9.111356E-2,-5.3953854E-3,-5.038373E-4,1.3828423E-2,1.9791791E-1,6.2439393E-2,3.58303E-1,-1.3927266E-2,7.95292E-4,-2.9015718E-3,1.1145752E-1,1.1156092E-2,1.3059736E-3,4.1724418E-4,3.9211195E-4,-7.604988E-4,8.455565E-4,2.3106358E-3,-2.611448E-4,4.2688192E-4,1.1958763E-6,8.5126994E-5,-1.3269248E-5,-1.770254E-4,1.2489E-4,7.4699766E-4,3.8444228E-4,4.5869125E-5],"categories":[3,4,9,11,0,2,3,5,7,8,10,11],"categories_nodes":[5,7],"categories_segments":[0,4],"categories_sizes":[4,8],"default_left":[0,1,0,0,0,1,0,1,0,0,0,0,0,0,0,0,0,0,0,0,0,0,0,0,0,0,0,0,0,0,0],"id":8,"left_children":[1,3,5,7,9,11,13,15,17,19,21,23,25,27,29,-1,-1,-1,-1,-1,-1,-1,-1,-1,-1,-1,-1,-1,-1,-1,-1],"loss_changes":[7.2120495E0,6.5372534E0,3.3012156E0,5.0500116E0,3.791985E0,2.230659E0,4.2891407E0,1.8033123E0,2.5811234E0,3.8166976E-1,3.7786849E0,3.9758804E0,3.416324E0,1.0136967E0,2.5832446E0,0E0,0E0,0E0,0E0,0E0,0E0,0E0,0E0,0E0,0E0,0E0,0E0,0E0,0E0,0E0,0E0],"parents":[2147483647,0,0,1,1,2,2,3,3,4,4,5,5,6,6,7,7,8,8,9,9,10,10,11,11,12,12,13,13,14,14],"right_children":[2,4,6,8,10,12,14,16,18,20,22,24,26,28,30,-1,-1,-1,-1,-1,-1,-1,-1,-1,-1,-1,-1,-1,-1,-1,-1],"split_conditions":[-4.945362E-1,4.7E1,9.594272E-1,6.1E1,-1.3798003E-1,1E-45,1.0928961E-2,1E-45,9.84326E-1,6.8E1,8.9E1,5.736008E-1,1.0234331E0,2.1E1,-2.3731975E-1,1.3059736E-3,4.1724418E-4,3.9211195E-4,-7.604988E-4,8.455565E-4,2.3106358E-3,-2.611448E-4,4.2688192E-4,1.1958763E-6,8.5126994E-5,-1.3269248E-5,-1.770254E-4,1.2489E-4,7.4699766E-4,3.8444228E-4,4.5869125E-5],"split_indices":[1,18,29,17,24,43,34,43,26,18,18,5,5,18,24,0,0,0,0,0,0,0,0,0,0,0,0,0,0,0,0],"split_type":[0,0,0,0,0,1,0,1,0,0,0,0,0,0,0,0,0,0,0,0,0,0,0,0,0,0,0,0,0,0,0],"sum_hessian":[7.35421E5,2.871E3,7.3255E5,1.649E3,1.222E3,7.1611E5,1.644E4,3.49E2,1.3E3,2.8E1,1.194E3,4.64459E5,2.51651E5,4.38E2,1.6002E4,2.58E2,9.1E1,1.24E3,6E1,7E0,2.1E1,8.72E2,3.22E2,4.47189E5,1.727E4,2.4784E5,3.811E3,1E2,3.38E2,6.94E2,1.5308E4],"tree_param":{"num_deleted":"0","num_feature":"44","num_nodes":"31","size_leaf_vector":"1"}},{"base_weights":[-2.3470111E-5,6.120706E-2,-4.7239626E-4,5.273384E-2,1.835143E-1,-2.744897E-4,-1.8694073E-2,-1.2579355E-1,5.8359023E-2,-3.5340473E-2,1.9977655E-1,-6.575772E-4,1.2186796E-2,-1.9894144E-3,-4.527584E-2,-1.2713295E-3,1.1409093E-4,1.583672E-4,4.4817894E-4,-1.0686605E-3,2.4699335E-4,1.33598E-3,5.311806E-4,-2.8879156E-6,-2.431608E-4,1.3314662E-4,-5.722264E-6,-5.807867E-5,2.4658718E-4,-2.5531245E-4,1.0609778E-3],"categories":[],"categories_nodes":[],"categories_segments":[],"categories_sizes":[],"default_left":[0,0,0,0,0,0,0,0,0,0,0,0,0,0,1,0,0,0,0,0,0,0,0,0,0,0,0,0,0,0,0],"id":9,"left_children":[1,3,5,7,9,11,13,15,17,19,21,23,25,27,29,-1,-1,-1,-1,-1,-1,-1,-1,-1,-1,-1,-1,-1,-1,-1,-1],"loss_changes":[2.022786E1,5.5505295E0,2.6344078E0,5.030369E0,1.2351036E0,3.4498794E0,3.4852684E0,2.4358473E0,3.430996E0,3.136674E-1,1.525878E0,3.8845959E0,3.5228512E0,1.9909757E0,1.2849932E0,0E0,0E0,0E0,0E0,0E0,0E0,0E0,0E0,0E0,0E0,0E0,0E0,0E0,0E0,0E0,0E0],"parents":[2147483647,0,0,1,1,2,2,3,3,4,4,5,5,6,6,7,7,8,8,9,9,10,10,11,11,12,12,13,13,14,14],"right_children":[2,4,6,8,10,12,14,16,18,20,22,24,26,28,30,-1,-1,-1,-1,-1,-1,-1,-1,-1,-1,-1,-1,-1,-1,-1,-1],"split_conditions":[-6.728866E-1,1.09797254E-1,9.2246014E-1,1.6491228E-1,5.0758667E1,6.082681E-1,-4.8459974E-1,9.401732E-1,-4.4816067E-3,1.8384402E-1,-1.7520837E-1,1.3511412E-1,3.6103153E-1,1.01876E5,6.940063E-1,-1.2713295E-3,1.1409093E-4,1.583672E-4,4.4817894E-4,-1.0686605E-3,2.4699335E-4,1.33598E-3,5.311806E-4,-2.8879156E-6,-2.431608E-4,1.3314662E-4,-5.722264E-6,-5.807867E-5,2.4658718E-4,-2.5531245E-4,1.0609778E-3],"split_indices":[7,13,5,37,14,5,7,4,2,33,1,13,31,41,38,0,0,0,0,0,0,0,0,0,0,0,0,0,0,0,0],"split_type":[0,0,0,0,0,0,0,0,0,0,0,0,0,0,0,0,0,0,0,0,0,0,0,0,0,0,0,0,0,0,0],"sum_hessian":[7.3588E5,5.356E3,7.30524E5,5.009E3,3.47E2,7.22675E5,7.849E3,1.53E2,4.856E3,2.4E1,3.23E2,7.01121E5,2.1554E4,4.82E3,3.029E3,8.8E1,6.5E1,2.202E3,2.654E3,8E0,1.6E1,2.22E2,1.01E2,6.99133E5,1.988E3,1.1155E4,1.0399E4,4.072E3,7.48E2,3.007E3,2.2E1],"tree_param":{"num_deleted":"0","num_feature":"44","num_nodes":"31","size_leaf_vector":"1"}},{"base_weights":[-2.1377284E-5,6.1446033E-2,-4.7375908E-4,5.2815102E-2,1.8346542E-1,-3.5593766E-4,-2.9698431E-2,-1.1976447E-1,5.8314893E-2,1.3636298E-1,2.5929853E-1,-2.7744815E-4,-4.812485E-2,1.849006E-2,-6.1560094E-2,-1.2335541E-3,1.1639344E-4,-2.9114218E-4,3.537807E-4,8.930733E-4,-3.472147E-4,6.1387196E-4,1.6039158E-3,8.094915E-5,-2.8852626E-6,-5.496485E-4,-9.205808E-5,7.5472635E-4,6.049715E-5,-4.240963E-4,-1.4206862E-4],"categories":[0,2,3,4,5,6,7,8,9,10,11],"categories_nodes":[13],"categories_segments":[0],"categories_sizes":[11],"default_left":[0,0,0,0,0,0,0,0,0,0,0,0,0,1,0,0,0,0,0,0,0,0,0,0,0,0,0,0,0,0,0],"id":10,"left_children":[1,3,5,7,9,11,13,15,17,19,21,23,25,27,29,-1,-1,-1,-1,-1,-1,-1,-1,-1,-1,-1,-1,-1,-1,-1,-1],"loss_changes":[2.0453747E1,5.6594906E0,2.514271E0,4.7638702E0,1.2677155E0,2.7267656E0,4.5017185E0,2.353111E0,3.7380047E0,1.2362199E0,7.1951675E-1,2.8029387E0,1.9757135E0,1.0332692E0,1.0351262E0,0E0,0E0,0E0,0E0,0E0,0E0,0E0,0E0,0E0,0E0,0E0,0E0,0E0,0E0,0E0,0E0],"parents":[2147483647,0,0,1,1,2,2,3,3,4,4,5,5,6,6,7,7,8,8,9,9,10,10,11,11,12,12,13,13,14,14],"right_children":[2,4,6,8,10,12,14,16,18,20,22,24,26,28,30,-1,-1,-1,-1,-1,-1,-1,-1,-1,-1,-1,-1,-1,-1,-1,-1],"split_conditions":[-6.728866E-1,1.09797254E-1,1.3511412E-1,1.6491228E-1,2.23E2,1.431114E0,4.8265895E-1,9.401732E-1,5.0147492E-2,6.5E-1,-3.0483E5,-5.2258974E-1,4.3583536E-1,1E-45,5.9E1,-1.2335541E-3,1.1639344E-4,-2.9114218E-4,3.537807E-4,8.930733E-4,-3.472147E-4,6.1387196E-4,1.6039158E-3,8.094915E-5,-2.8852626E-6,-5.496485E-4,-9.205808E-5,7.5472635E-4,6.049715E-5,-4.240963E-4,-1.4206862E-4],"split_indices":[7,13,13,37,42,5,31,4,26,33,41,7,26,43,17,0,0,0,0,0,0,0,0,0,0,0,0,0,0,0,0],"split_type":[0,0,0,0,0,0,0,0,0,0,0,0,0,1,0,0,0,0,0,0,0,0,0,0,0,0,0,0,0,0,0],"sum_hessian":[7.35568E5,5.374E3,7.30194E5,5.019E3,3.55E2,7.27262E5,2.932E3,1.55E2,4.864E3,2.19E2,1.36E2,7.26069E5,1.193E3,1.167E3,1.765E3,8.8E1,6.7E1,2.81E2,4.583E3,1.92E2,2.7E1,2.7E1,1.09E2,1.1946E4,7.14123E5,4.41E2,7.52E2,6.7E1,1.1E3,1.202E3,5.63E2],"tree_param":{"num_deleted":"0","num_feature":"44","num_nodes":"31","size_leaf_vector":"1"}},{"base_weights":[-3.443941E-5,6.8205E-2,-3.004732E-4,4.356633E-3,9.3687914E-2,1.5092315E-3,-2.1229952E-3,2.0566987E-2,-2.286652E-1,1.12815514E-1,2.6017701E-2,8.7727373E-4,1.6077403E-2,-1.4455584E-3,-1.6946653E-2,-9.865976E-4,2.2099409E-4,-7.053232E-4,-2.1244697E-3,8.2354964E-4,3.4862064E-4,4.3524266E-4,-5.166161E-4,1.2849978E-6,3.9664657E-5,4.3006238E-4,6.587271E-5,-9.6086505E-6,1.3961302E-4,-3.3085066E-4,-6.808964E-5],"categories":[2,3,4,8,9,11,0,3,5,6,7,9,10,11],"categories_nodes":[2,9],"categories_segments":[0,6],"categories_sizes":[6,8],"default_left":[0,0,1,0,0,0,0,0,0,1,1,1,0,0,0,0,0,0,0,0,0,0,0,0,0,0,0,0,0,0,0],"id":11,"left_children":[1,3,5,7,9,11,13,15,17,19,21,23,25,27,29,-1,-1,-1,-1,-1,-1,-1,-1,-1,-1,-1,-1,-1,-1,-1,-1],"loss_changes":[1.3355878E1,4.6484737E0,2.417079E0,3.0786388E0,2.6430836E0,3.3853483E0,3.6666489E0,3.1065333E0,8.511212E-1,3.0098038E0,2.9544976E0,1.4515957E0,3.8053715E0,3.0801692E0,3.0912857E0,0E0,0E0,0E0,0E0,0E0,0E0,0E0,0E0,0E0,0E0,0E0,0E0,0E0,0E0,0E0,0E0],"parents":[2147483647,0,0,1,1,2,2,3,3,4,4,5,5,6,6,7,7,8,8,9,9,10,10,11,11,12,12,13,13,14,14],"right_children":[2,4,6,8,10,12,14,16,18,20,22,24,26,28,30,-1,-1,-1,-1,-1,-1,-1,-1,-1,-1,-1,-1,-1,-1,-1,-1],"split_conditions":[-5.409684E-1,1.5522388E-1,1E-45,1.3E1,2.6473337E-1,6.082681E-1,3.919E1,1.4916499E-1,-3.1493235E-1,1E-45,4.6E1,7.7952605E-1,3.125E-1,7.496859E-1,-1.2025479E-1,-9.865976E-4,2.2099409E-4,-7.053232E-4,-2.1244697E-3,8.2354964E-4,3.4862064E-4,4.3524266E-4,-5.166161E-4,1.2849978E-6,3.9664657E-5,4.3006238E-4,6.587271E-5,-9.6086505E-6,1.3961302E-4,-3.3085066E-4,-6.808964E-5],"split_indices":[6,33,43,39,2,5,15,19,0,43,18,20,36,5,16,0,0,0,0,0,0,0,0,0,0,0,0,0,0,0,0],"split_type":[0,0,1,0,0,0,0,0,0,1,0,0,0,0,0,0,0,0,0,0,0,0,0,0,0,0,0,0,0,0,0],"sum_hessian":[7.35699E5,2.857E3,7.32842E5,8.15E2,2.042E3,3.67714E5,3.65128E5,7.62E2,5.3E1,1.592E3,4.5E2,3.52426E5,1.5288E4,3.49171E5,1.5957E4,6.9E1,6.93E2,3.3E1,2E1,8.84E2,7.08E2,3.11E2,1.39E2,3.20501E5,3.1925E4,8.98E2,1.439E4,3.45047E5,4.124E3,1.451E3,1.4506E4],"tree_param":{"num_deleted":"0","num_feature":"44","num_nodes":"31","size_leaf_vector":"1"}},{"base_weights":[2.581408E-5,6.1341036E-2,-4.25E-4,5.3061258E-2,1.7937005E-1,5.045773E-5,-8.676043E-3,-1.1390408E-1,5.8454107E-2,1.8950905E-1,-6.537479E-2,-1.3915428E-4,2.1764865E-2,9.44641E-3,-1.6573396E-2,-1.1946508E-3,1.5608376E-4,5.202163E-4,2.0230182E-4,2.9304955E-4,1.1190248E-3,-7.1811007E-4,2.9916968E-4,6.2626E-6,-1.1423025E-5,3.3016808E-4,7.227724E-5,4.3407435E-5,6.5236585E-4,-1.4960578E-4,3.5090903E-5],"categories":[0,3,4,6,9,10,11,3,4,8,9,11,0,1,4,5,6,8,9,10],"categories_nodes":[8,11,12],"categories_segments":[0,7,12],"categories_sizes":[7,5,8],"default_left":[0,0,0,0,0,0,0,0,1,0,0,1,1,0,1,0,0,0,0,0,0,0,0,0,0,0,0,0,0,0,0],"id":12,"left_children":[1,3,5,7,9,11,13,15,17,19,21,23,25,27,29,-1,-1,-1,-1,-1,-1,-1,-1,-1,-1,-1,-1,-1,-1,-1,-1],"loss_changes":[2.033729E1,5.2477684E0,2.8652773E0,4.518381E0,8.736267E-1,2.843338E0,5.6952963E0,2.3787174E0,3.8498592E0,7.6284695E-1,1.1305358E-1,1.739678E0,1.9729958E0,1.9383502E0,7.017121E0,0E0,0E0,0E0,0E0,0E0,0E0,0E0,0E0,0E0,0E0,0E0,0E0,0E0,0E0,0E0,0E0],"parents":[2147483647,0,0,1,1,2,2,3,3,4,4,5,5,6,6,7,7,8,8,9,9,10,10,11,11,12,12,13,13,14,14],"right_children":[2,4,6,8,10,12,14,16,18,20,22,24,26,28,30,-1,-1,-1,-1,-1,-1,-1,-1,-1,-1,-1,-1,-1,-1,-1,-1],"split_conditions":[-6.728866E-1,1.09797254E-1,3.602E1,1.6491228E-1,3.189636E-1,7.103001E-1,4.0419948E-1,9.401732E-1,1E-45,-1.2025479E-1,2.0980184E0,1E-45,1E-45,1.3E1,6.3E1,-1.1946508E-3,1.5608376E-4,5.202163E-4,2.0230182E-4,2.9304955E-4,1.1190248E-3,-7.1811007E-4,2.9916968E-4,6.2626E-6,-1.1423025E-5,3.3016808E-4,7.227724E-5,4.3407435E-5,6.5236585E-4,-1.4960578E-4,3.5090903E-5],"split_indices":[7,13,15,37,1,5,30,4,43,16,9,43,43,39,18,0,0,0,0,0,0,0,0,0,0,0,0,0,0,0,0],"split_type":[0,0,0,0,0,0,0,0,1,0,0,1,1,0,0,0,0,0,0,0,0,0,0,0,0,0,0,0,0,0,0],"sum_hessian":[7.35745E5,5.37E3,7.30375E5,5.018E3,3.52E2,6.90581E5,3.9794E4,1.57E2,4.861E3,3.38E2,1.4E1,6.84603E5,5.978E3,1.2078E4,2.7716E4,9E1,6.7E1,1.758E3,3.103E3,3.7E1,3.01E2,9E0,5E0,4.12943E5,2.7166E5,1.063E3,4.915E3,1.1922E4,1.56E2,1.8765E4,8.951E3],"tree_param":{"num_deleted":"0","num_feature":"44","num_nodes":"31","size_leaf_vector":"1"}},{"base_weights":[-4.878005E-5,5.9027825E-2,-4.8555058E-4,5.0675176E-2,1.8204778E-1,5.159358E-6,-8.996331E-3,5.7857048E-2,-8.06242E-2,1.361334E-1,2.572604E-1,-1.7837847E-4,2.1204486E-2,7.733545E-3,-1.7366948E-2,-3.1202554E-4,3.5631462E-4,-6.289564E-4,7.6344126E-4,9.135958E-4,-9.207325E-5,1.5879814E-3,6.979928E-4,6.016727E-6,-1.1590978E-5,3.174355E-4,7.042051E-5,3.2608164E-5,6.243709E-4,-1.577675E-4,2.9812692E-5],"categories":[3,4,8,9,11,0,1,4,5,6,8,9,10],"categories_nodes":[11,12],"categories_segments":[0,5],"categories_sizes":[5,8],"default_left":[0,0,0,0,0,0,0,0,1,0,0,1,1,0,1,0,0,0,0,0,0,0,0,0,0,0,0,0,0,0,0],"id":13,"left_children":[1,3,5,7,9,11,13,15,17,19,21,23,25,27,29,-1,-1,-1,-1,-1,-1,-1,-1,-1,-1,-1,-1,-1,-1,-1,-1],"loss_changes":[1.8968035E1,5.5435085E0,3.0475347E0,4.7639704E0,1.1841793E0,2.684461E0,5.5707693E0,4.3034744E0,2.0439978E0,1.0495925E0,5.9017086E-1,1.722728E0,1.8169894E0,2.4567215E0,7.0910873E0,0E0,0E0,0E0,0E0,0E0,0E0,0E0,0E0,0E0,0E0,0E0,0E0,0E0,0E0,0E0,0E0],"parents":[2147483647,0,0,1,1,2,2,3,3,4,4,5,5,6,6,7,7,8,8,9,9,10,10,11,11,12,12,13,13,14,14],"right_children":[2,4,6,8,10,12,14,16,18,20,22,24,26,28,30,-1,-1,-1,-1,-1,-1,-1,-1,-1,-1,-1,-1,-1,-1,-1,-1],"split_conditions":[-6.728866E-1,1.09797254E-1,3.602E1,9.802817E-1,2.23E2,7.103001E-1,4.3063584E-1,4.610951E-2,3.65E2,1.2128881E0,1E0,1E-45,1E-45,2.5691173E0,6.2E1,-3.1202554E-4,3.5631462E-4,-6.289564E-4,7.6344126E-4,9.135958E-4,-9.207325E-5,1.5879814E-3,6.979928E-4,6.016727E-6,-1.1590978E-5,3.174355E-4,7.042051E-5,3.2608164E-5,6.243709E-4,-1.577675E-4,2.9812692E-5],"split_indices":[7,13,15,26,42,5,30,26,42,9,40,43,43,10,18,0,0,0,0,0,0,0,0,0,0,0,0,0,0,0,0],"split_type":[0,0,0,0,0,0,0,0,0,0,0,1,1,0,0,0,0,0,0,0,0,0,0,0,0,0,0,0,0,0,0],"sum_hessian":[7.35112E5,5.395E3,7.29717E5,5.052E3,3.43E2,6.89937E5,3.978E4,4.79E3,2.62E2,2.13E2,1.3E2,6.84015E5,5.922E3,1.3266E4,2.6514E4,3.03E2,4.487E3,2.26E2,3.6E1,1.76E2,3.7E1,1.02E2,2.8E1,4.12668E5,2.71347E5,1.071E3,4.851E3,1.3056E4,2.1E2,1.7538E4,8.976E3],"tree_param":{"num_deleted":"0","num_feature":"44","num_nodes":"31","size_leaf_vector":"1"}},{"base_weights":[3.9028426E-5,6.1463512E-2,-4.1135552E-4,-1.12864375E-1,6.6590026E-2,7.9217876E-5,-8.941023E-3,-2.1992524E-1,2.4569387E-2,3.4905188E-2,9.8044045E-2,1.4816389E-2,-1.0364886E-4,7.6715234E-3,-1.726016E-2,-1.0402416E-3,-1.5895768E-3,3.8900864E-4,-6.183418E-4,4.7286015E-4,-3.0276286E-5,6.277035E-4,-9.534844E-5,2.7120437E-3,7.574634E-5,6.445114E-6,-1.1202249E-5,1.4625497E-4,3.7138088E-6,-5.2321706E-5,-3.1552385E-4],"categories":[3,4,8,9,11,0,3,4,5,6,8,9,10,11],"categories_nodes":[12,13],"categories_segments":[0,5],"categories_sizes":[5,9],"default_left":[0,0,0,0,0,0,0,0,0,0,0,0,1,1,0,0,0,0,0,0,0,0,0,0,0,0,0,0,0,0,0],"id":14,"left_children":[1,3,5,7,9,11,13,15,17,19,21,23,25,27,29,-1,-1,-1,-1,-1,-1,-1,-1,-1,-1,-1,-1,-1,-1,-1,-1],"loss_changes":[2.035622E1,4.7867107E0,3.056582E0,2.25141E0,5.1853676E0,1.8614992E0,5.4903564E0,1.7680264E-1,4.3718332E-1,5.4788494E0,5.3133144E0,3.5346832E0,1.7266829E0,1.7852275E0,8.244655E0,0E0,0E0,0E0,0E0,0E0,0E0,0E0,0E0,0E0,0E0,0E0,0E0,0E0,0E0,0E0,0E0],"parents":[2147483647,0,0,1,1,2,2,3,3,4,4,5,5,6,6,7,7,8,8,9,9,10,10,11,11,12,12,13,13,14,14],"right_children":[2,4,6,8,10,12,14,16,18,20,22,24,26,28,30,-1,-1,-1,-1,-1,-1,-1,-1,-1,-1,-1,-1,-1,-1,-1,-1],"split_conditions":[-6.728866E-1,1.8814147E-1,3.602E1,9.401732E-1,1.0801761E-2,-4.8459974E-1,4.3063584E-1,-5.409684E-1,5.945946E-1,3.9986813E1,9.636804E-1,4.138565E-2,1E-45,1E-45,5.4228004E1,-1.0402416E-3,-1.5895768E-3,3.8900864E-4,-6.183418E-4,4.7286015E-4,-3.0276286E-5,6.277035E-4,-9.534844E-5,2.7120437E-3,7.574634E-5,6.445114E-6,-1.1202249E-5,1.4625497E-4,3.7138088E-6,-5.2321706E-5,-3.1552385E-4],"split_indices":[7,22,15,4,2,7,30,6,32,14,26,22,43,43,14,0,0,0,0,0,0,0,0,0,0,0,0,0,0,0,0],"split_type":[0,0,0,0,0,0,0,0,0,0,0,0,1,1,0,0,0,0,0,0,0,0,0,0,0,0,0,0,0,0,0],"sum_hessian":[7.35822E5,5.356E3,7.30466E5,1.53E2,5.203E3,6.90739E5,3.9727E4,8.6E1,6.7E1,2.592E3,2.611E3,8.466E3,6.82273E5,1.3256E4,2.6471E4,6.2E1,2.4E1,5E1,1.7E1,1.132E3,1.46E3,2.266E3,3.45E2,1.5E1,8.451E3,4.11345E5,2.70928E5,3.527E3,9.729E3,2.2311E4,4.16E3],"tree_param":{"num_deleted":"0","num_feature":"44","num_nodes":"31","size_leaf_vector":"1"}},{"base_weights":[4.298004E-6,6.664824E-2,-2.541376E-4,7.821984E-2,-1.0044326E-1,-5.9167715E-4,1.4643012E-2,5.232522E-3,9.679393E-2,-1.9236118E-1,-2.151234E-2,-1.7210467E-2,-3.9960767E-4,4.0666547E-2,4.379773E-3,2.9560033E-4,-2.6697924E-4,6.901918E-4,2.9840908E-4,4.946276E-4,-1.2728653E-3,2.3831133E-4,-6.8666803E-4,-5.393767E-5,-3.9406333E-4,1.2825501E-4,-3.2620512E-6,2.1150976E-4,2.6999912E-3,3.177897E-5,-5.2296714E-4],"categories":[4,6,8,0,3,6,7,9,10,11],"categories_nodes":[7,8],"categories_segments":[0,3],"categories_sizes":[3,7],"default_left":[0,0,0,0,0,0,0,1,1,0,0,0,0,1,0,0,0,0,0,0,0,0,0,0,0,0,0,0,0,0,0],"id":15,"left_children":[1,3,5,7,9,11,13,15,17,19,21,23,25,27,29,-1,-1,-1,-1,-1,-1,-1,-1,-1,-1,-1,-1,-1,-1,-1,-1],"loss_changes":[1.2667036E1,5.4932156E0,3.6839104E0,3.6020317E0,1.3349819E0,2.2866967E0,4.3353367E0,1.4440182E0,2.6892223E0,1.015934E0,6.8012446E-1,3.2974403E0,3.4269803E0,3.5621395E0,1.7296607E0,0E0,0E0,0E0,0E0,0E0,0E0,0E0,0E0,0E0,0E0,0E0,0E0,0E0,0E0,0E0,0E0],"parents":[2147483647,0,0,1,1,2,2,3,3,4,4,5,5,6,6,7,7,8,8,9,9,10,10,11,11,12,12,13,13,14,14],"right_children":[2,4,6,8,10,12,14,16,18,20,22,24,26,28,30,-1,-1,-1,-1,-1,-1,-1,-1,-1,-1,-1,-1,-1,-1,-1,-1],"split_conditions":[-5.409684E-1,9.802817E-1,9.594272E-1,9.798271E-2,3.0819672E-1,-1.4777741E-1,3.0294595E-2,1E-45,1E-45,1.270903E-1,-3.0776547E-2,9.401732E-1,-3.681737E-1,4.1577563E0,4.846E1,2.9560033E-4,-2.6697924E-4,6.901918E-4,2.9840908E-4,4.946276E-4,-1.2728653E-3,2.3831133E-4,-6.8666803E-4,-5.393767E-5,-3.9406333E-4,1.2825501E-4,-3.2620512E-6,2.1150976E-4,2.6999912E-3,3.177897E-5,-5.2296714E-4],"split_indices":[6,26,29,33,33,16,21,43,43,37,16,4,6,23,15,0,0,0,0,0,0,0,0,0,0,0,0,0,0,0,0],"split_type":[0,0,0,0,0,0,0,1,1,0,0,0,0,0,0,0,0,0,0,0,0,0,0,0,0,0,0,0,0,0,0],"sum_hessian":[7.35465E5,2.841E3,7.32624E5,2.657E3,1.84E2,7.16392E5,1.6232E4,5.39E2,2.118E3,8.5E1,9.9E1,8.185E3,7.08207E5,4.591E3,1.1641E4,2.83E2,2.56E2,1.227E3,8.91E2,1.1E1,7.4E1,6.1E1,3.8E1,7.235E3,9.5E2,5.886E3,7.02321E5,4.574E3,1.7E1,1.1473E4,1.68E2],"tree_param":{"num_deleted":"0","num_feature":"44","num_nodes":"31","size_leaf_vector":"1"}},{"base_weights":[2.2581919E-5,6.1327852E-2,-4.2968683E-4,-1.1562417E-1,6.664204E-2,-2.3175612E-4,-1.8536273E-2,-1.5440741E-1,1.2232584E-1,2.5773138E-2,9.328091E-2,-6.2410923E-4,1.2510983E-2,-1.4096748E-3,-4.576005E-2,7.8475525E-5,-1.1588689E-3,9.5735426E-4,-1.1871229E-4,4.6951906E-4,-1.5896802E-4,5.5001926E-4,-4.597094E-4,-5.448011E-6,2.636128E-5,1.5589633E-4,-5.9724744E-6,-1.0782972E-4,1.793673E-4,-2.5693903E-4,9.853422E-4],"categories":[0,4,5,6,8,9,10],"categories_nodes":[12],"categories_segments":[0],"categories_sizes":[7],"default_left":[0,0,0,0,0,0,0,0,0,0,0,1,1,0,1,0,0,0,0,0,0,0,0,0,0,0,0,0,0,0,0],"id":16,"left_children":[1,3,5,7,9,11,13,15,17,19,21,23,25,27,29,-1,-1,-1,-1,-1,-1,-1,-1,-1,-1,-1,-1,-1,-1,-1,-1],"loss_changes":[2.0387983E1,5.063904E0,2.6159983E0,1.4491525E0,5.691717E0,3.6099904E0,3.6801214E0,1.347389E0,1.7159316E-1,6.8983393E0,4.536127E0,1.4574108E0,4.7589936E0,3.0810964E0,1.0929618E0,0E0,0E0,0E0,0E0,0E0,0E0,0E0,0E0,0E0,0E0,0E0,0E0,0E0,0E0,0E0,0E0],"parents":[2147483647,0,0,1,1,2,2,3,3,4,4,5,5,6,6,7,7,8,8,9,9,10,10,11,11,12,12,13,13,14,14],"right_children":[2,4,6,8,10,12,14,16,18,20,22,24,26,28,30,-1,-1,-1,-1,-1,-1,-1,-1,-1,-1,-1,-1,-1,-1,-1,-1],"split_conditions":[-6.728866E-1,1.8814147E-1,9.2246014E-1,1.0234331E0,-1.5553414E-2,6.082681E-1,-4.8459974E-1,-6.9255106E-2,-1.3952832E-1,3.9986813E1,9.3891585E-1,1.4266492E0,1E-45,2.114183E0,6.940063E-1,7.8475525E-5,-1.1588689E-3,9.5735426E-4,-1.1871229E-4,4.6951906E-4,-1.5896802E-4,5.5001926E-4,-4.597094E-4,-5.448011E-6,2.636128E-5,1.5589633E-4,-5.9724744E-6,-1.0782972E-4,1.793673E-4,-2.5693903E-4,9.853422E-4],"split_indices":[7,22,5,5,2,5,7,21,0,14,2,20,43,10,38,0,0,0,0,0,0,0,0,0,0,0,0,0,0,0,0],"split_type":[0,0,0,0,0,0,0,0,0,0,0,0,1,0,0,0,0,0,0,0,0,0,0,0,0,0,0,0,0,0,0],"sum_hessian":[7.35326E5,5.385E3,7.29941E5,1.57E2,5.228E3,7.22048E5,7.893E3,1.35E2,2.2E1,2.063E3,3.165E3,7.0048E5,2.1568E4,4.845E3,3.048E3,3.5E1,1E2,1.6E1,6E0,9.81E2,1.082E3,3.028E3,1.37E2,6.55106E5,4.5374E4,9.844E3,1.1724E4,3.155E3,1.69E3,3.027E3,2.1E1],"tree_param":{"num_deleted":"0","num_feature":"44","num_nodes":"31","size_leaf_vector":"1"}},{"base_weights":[2.0713682E-5,5.9550222E-2,-4.1864338E-4,-1.2416693E-1,6.528172E-2,-3.4053755E-4,-4.584688E-2,-1.5755166E-1,1.1449323E-1,2.7023107E-2,9.0282835E-2,1.6512087E-2,-6.3159753E-4,-6.7947514E-2,3.1306986E-2,2.7689935E-5,-1.1632985E-3,9.577705E-4,-1.635957E-4,4.6366887E-4,-1.3522553E-4,5.3568947E-4,-4.9469795E-4,1.0516163E-4,-5.16963E-4,-2.6336172E-6,-2.3564066E-4,-6.269653E-4,-1.9786693E-4,3.7121744E-4,-4.6694675E-4],"categories":[],"categories_nodes":[],"categories_segments":[],"categories_sizes":[],"default_left":[0,0,0,0,0,0,0,0,0,0,0,1,0,0,0,0,0,0,0,0,0,0,0,0,0,0,0,0,0,0,0],"id":17,"left_children":[1,3,5,7,9,11,13,15,17,19,21,23,25,27,29,-1,-1,-1,-1,-1,-1,-1,-1,-1,-1,-1,-1,-1,-1,-1,-1],"loss_changes":[1.9234749E1,5.673519E0,2.5903137E0,1.2989807E0,4.9977417E0,3.5747614E0,2.1365907E0,1.3205462E0,1.7938176E-1,6.263565E0,4.821947E0,3.9581666E0,4.4867387E0,1.4589186E0,1.2141337E0,0E0,0E0,0E0,0E0,0E0,0E0,0E0,0E0,0E0,0E0,0E0,0E0,0E0,0E0,0E0,0E0],"parents":[2147483647,0,0,1,1,2,2,3,3,4,4,5,5,6,6,7,7,8,8,9,9,10,10,11,11,12,12,13,13,14,14],"right_children":[2,4,6,8,10,12,14,16,18,20,22,24,26,28,30,-1,-1,-1,-1,-1,-1,-1,-1,-1,-1,-1,-1,-1,-1,-1,-1],"split_conditions":[-6.728866E-1,1.8814147E-1,1.431114E0,1.0234331E0,-1.5553414E-2,-5.2258974E-1,1.01876E5,-1.6831674E-1,-3.251215E-1,3.9986813E1,9.3891585E-1,6.08871E-1,1.3511412E-1,4.3583536E-1,6.5E1,2.7689935E-5,-1.1632985E-3,9.577705E-4,-1.635957E-4,4.6366887E-4,-1.3522553E-4,5.3568947E-4,-4.9469795E-4,1.0516163E-4,-5.16963E-4,-2.6336172E-6,-2.3564066E-4,-6.269653E-4,-1.9786693E-4,3.7121744E-4,-4.6694675E-4],"split_indices":[7,22,5,5,2,7,41,19,1,14,2,36,13,26,18,0,0,0,0,0,0,0,0,0,0,0,0,0,0,0,0],"split_type":[0,0,0,0,0,0,0,0,0,0,0,0,0,0,0,0,0,0,0,0,0,0,0,0,0,0,0,0,0,0,0],"sum_hessian":[7.35422E5,5.388E3,7.30034E5,1.63E2,5.225E3,7.28781E5,1.253E3,1.43E2,2E1,2.065E3,3.16E3,1.2373E4,7.16408E5,9.74E2,2.79E2,3.7E1,1.06E2,1.4E1,6E0,9.72E2,1.093E3,3.02E3,1.4E2,1.2064E4,3.09E2,7.13965E5,2.443E3,3.88E2,5.86E2,2.12E2,6.7E1],"tree_param":{"num_deleted":"0","num_feature":"44","num_nodes":"31","size_leaf_vector":"1"}},{"base_weights":[-2.5303354E-5,5.8440164E-2,-4.5369798E-4,6.550381E-2,-7.443236E-2,1.9466055E-5,-8.657108E-3,2.363119E-2,9.535817E-2,1.0700771E-1,-1.1875011E-1,-2.1301024E-4,1.867293E-2,5.9973653E-3,-1.7987939E-2,-3.316601E-4,1.9906342E-4,3.3688647E-4,6.955E-4,1.2237078E-3,4.662784E-4,2.728016E-4,-8.209725E-4,5.7260513E-6,-1.1631955E-5,1.9734862E-4,6.122574E-6,2.421188E-5,6.306238E-4,-1.6204914E-4,3.4802626E-5],"categories":[0,2,3,4,5,6,7,8,9,10,11,3,4,8,9,11],"categories_nodes":[9,11],"categories_segments":[0,11],"categories_sizes":[11,5],"default_left":[0,0,0,0,0,0,0,0,0,1,0,1,0,0,1,0,0,0,0,0,0,0,0,0,0,0,0,0,0,0,0],"id":18,"left_children":[1,3,5,7,9,11,13,15,17,19,21,23,25,27,29,-1,-1,-1,-1,-1,-1,-1,-1,-1,-1,-1,-1,-1,-1,-1,-1],"loss_changes":[1.8418016E1,5.020439E0,2.8335764E0,6.3491497E0,2.1712828E0,2.9930444E0,5.4435587E0,2.336522E0,3.2354412E0,1.3230056E-1,1.1921823E0,1.6682541E0,2.6362886E0,2.6222348E0,7.043048E0,0E0,0E0,0E0,0E0,0E0,0E0,0E0,0E0,0E0,0E0,0E0,0E0,0E0,0E0,0E0,0E0],"parents":[2147483647,0,0,1,1,2,2,3,3,4,4,5,5,6,6,7,7,8,8,9,9,10,10,11,11,12,12,13,13,14,14],"right_children":[2,4,6,8,10,12,14,16,18,20,22,24,26,28,30,-1,-1,-1,-1,-1,-1,-1,-1,-1,-1,-1,-1,-1,-1,-1,-1],"split_conditions":[-6.728866E-1,9.802817E-1,3.602E1,-1.5553414E-2,9.2840093E-1,6.5092206E-1,4.827586E-1,4.232804E-2,1.6938912E0,1E-45,1.5E1,1E-45,2.684E1,2.5691173E0,6.3E1,-3.316601E-4,1.9906342E-4,3.3688647E-4,6.955E-4,1.2237078E-3,4.662784E-4,2.728016E-4,-8.209725E-4,5.7260513E-6,-1.1631955E-5,1.9734862E-4,6.122574E-6,2.421188E-5,6.306238E-4,-1.6204914E-4,3.4802626E-5],"split_indices":[7,26,15,2,29,5,30,26,10,43,17,43,15,10,18,0,0,0,0,0,0,0,0,0,0,0,0,0,0,0,0],"split_type":[0,0,0,0,0,0,0,0,0,1,0,1,0,0,0,0,0,0,0,0,0,0,0,0,0,0,0,0,0,0,0],"sum_hessian":[7.35359E5,5.349E3,7.3001E5,5.079E3,2.7E2,6.902E5,3.981E4,2.114E3,2.965E3,5.3E1,2.17E2,6.81704E5,8.496E3,1.5487E4,2.4323E4,2.82E2,1.832E3,1.471E3,1.494E3,8E0,4.5E1,3.5E1,1.82E2,4.11417E5,2.70287E5,4.231E3,4.265E3,1.5274E4,2.13E2,1.6364E4,7.959E3],"tree_param":{"num_deleted":"0","num_feature":"44","num_nodes":"31","size_leaf_vector":"1"}},{"base_weights":[5.907743E-6,5.907087E-2,-4.3016463E-4,-1.1412618E-1,6.450627E-2,2.0672116E-5,-8.2656145E-3,-2.2170463E-1,1.6724782E-2,2.7713666E-2,8.858029E-2,-2.4337252E-4,1.5189801E-2,6.5547195E-3,-1.7287105E-2,-1.2992482E-3,-2.202256E-4,-1.8418423E-4,8.864019E-4,4.611237E-4,-1.3573233E-4,5.238666E-4,-4.99087E-4,-2.7003894E-6,3.9470073E-5,6.243043E-4,7.039407E-5,2.68856E-5,6.1534106E-4,-5.172956E-5,-3.19856E-4],"categories":[],"categories_nodes":[],"categories_segments":[],"categories_sizes":[],"default_left":[0,0,0,0,0,0,0,0,0,0,0,1,0,0,0,0,0,0,0,0,0,0,0,0,0,0,0,0,0,0,0],"id":19,"left_children":[1,3,5,7,9,11,13,15,17,19,21,23,25,27,29,-1,-1,-1,-1,-1,-1,-1,-1,-1,-1,-1,-1,-1,-1,-1,-1],"loss_changes":[1.8942795E1,5.0742054E0,2.5789576E0,2.3087645E0,4.628891E0,2.7650495E0,5.3107595E0,2.8789282E-1,5.4962605E-1,6.237914E0,4.525408E0,1.2959241E0,2.6183324E0,2.5709155E0,7.97524E0,0E0,0E0,0E0,0E0,0E0,0E0,0E0,0E0,0E0,0E0,0E0,0E0,0E0,0E0,0E0,0E0],"parents":[2147483647,0,0,1,1,2,2,3,3,4,4,5,5,6,6,7,7,8,8,9,9,10,10,11,11,12,12,13,13,14,14],"right_children":[2,4,6,8,10,12,14,16,18,20,22,24,26,28,30,-1,-1,-1,-1,-1,-1,-1,-1,-1,-1,-1,-1,-1,-1,-1,-1],"split_conditions":[-6.728866E-1,1.8814147E-1,3.602E1,9.401732E-1,-1.5553414E-2,6.082681E-1,4.7164178E-1,5.601387E-2,7.035176E-1,3.9986813E1,9.3891585E-1,9.249012E-1,1.54639175E-2,2.5691173E0,5.4228004E1,-1.2992482E-3,-2.202256E-4,-1.8418423E-4,8.864019E-4,4.611237E-4,-1.3573233E-4,5.238666E-4,-4.99087E-4,-2.7003894E-6,3.9470073E-5,6.243043E-4,7.039407E-5,2.68856E-5,6.1534106E-4,-5.172956E-5,-3.19856E-4],"split_indices":[7,22,15,4,2,5,30,13,34,14,2,35,34,10,14,0,0,0,0,0,0,0,0,0,0,0,0,0,0,0,0],"split_type":[0,0,0,0,0,0,0,0,0,0,0,0,0,0,0,0,0,0,0,0,0,0,0,0,0,0,0,0,0,0,0],"sum_hessian":[7.35454E5,5.39E3,7.30064E5,1.64E2,5.226E3,6.90343E5,3.9721E4,9E1,7.4E1,2.067E3,3.159E3,6.78532E5,1.1811E4,1.503E4,2.4691E4,8.2E1,8E0,5.5E1,1.9E1,9.91E2,1.076E3,3.026E3,1.33E2,6.56337E5,2.2195E4,2.57E2,1.1554E4,1.4808E4,2.22E2,2.0814E4,3.877E3],"tree_param":{"num_deleted":"0","num_feature":"44","num_nodes":"31","size_leaf_vector":"1"}},{"base_weights":[-3.6846162E-5,-3.9754572E-4,2.2730961E-2,-3.0310848E-4,-5.3245805E-2,6.658315E-2,1.2712642E-2,-6.8649015E-4,9.465292E-3,-1.1060298E-1,9.503911E-3,2.2420859E-2,1.32516E-1,7.9767816E-2,9.946931E-3,-3.066852E-6,-2.3437064E-4,1.3858202E-4,-5.6371842E-5,-7.107559E-5,-8.0766354E-4,6.1294046E-4,-1.7245629E-4,1.59908E-4,-2.0589326E-3,8.205409E-4,-3.0523277E-4,3.6996862E-4,2.6981693E-3,3.6091824E-5,3.264386E-4],"categories":[],"categories_nodes":[],"categories_segments":[],"categories_sizes":[],"default_left":[0,0,0,0,0,0,0,0,0,0,0,0,0,1,0,0,0,0,0,0,0,0,0,0,0,0,0,0,0,0,0],"id":20,"left_children":[1,3,5,7,9,11,13,15,17,19,21,23,25,27,29,-1,-1,-1,-1,-1,-1,-1,-1,-1,-1,-1,-1,-1,-1,-1,-1],"loss_changes":[6.042573E0,3.614953E0,5.041253E0,2.7077472E0,4.6501446E0,6.213665E0,1.732331E0,3.590887E0,8.708609E0,2.5141392E0,2.6339989E0,3.614754E0,3.0146313E0,1.7918482E0,1.4848595E0,0E0,0E0,0E0,0E0,0E0,0E0,0E0,0E0,0E0,0E0,0E0,0E0,0E0,0E0,0E0,0E0],"parents":[2147483647,0,0,1,1,2,2,3,3,4,4,5,5,6,6,7,7,8,8,9,9,10,10,11,11,12,12,13,13,14,14],"right_children":[2,4,6,8,10,12,14,16,18,20,22,24,26,28,30,-1,-1,-1,-1,-1,-1,-1,-1,-1,-1,-1,-1,-1,-1,-1,-1],"split_conditions":[2.2697778E0,1.431114E0,8.2051285E-2,6.082681E-1,1.85E2,1.0234331E0,-7.578499E-2,1.3511412E-1,3.8439307E-1,2.5E1,3.2E1,2E1,9.8876405E-1,4.1577563E0,1.4352E5,-3.066852E-6,-2.3437064E-4,1.3858202E-4,-5.6371842E-5,-7.107559E-5,-8.0766354E-4,6.1294046E-4,-1.7245629E-4,1.59908E-4,-2.0589326E-3,8.205409E-4,-3.0523277E-4,3.6996862E-4,2.6981693E-3,3.6091824E-5,3.264386E-4],"split_indices":[10,5,25,5,42,5,19,13,31,42,18,39,26,23,41,0,0,0,0,0,0,0,0,0,0,0,0,0,0,0,0],"split_type":[0,0,0,0,0,0,0,0,0,0,0,0,0,0,0,0,0,0,0,0,0,0,0,0,0,0,0,0,0,0,0],"sum_hessian":[7.35792E5,7.24317E5,1.1475E4,7.23025E5,1.292E3,2.134E3,9.341E3,6.9572E5,2.7305E4,6.75E2,6.17E2,1.278E3,8.56E2,3.7E2,8.971E3,6.93737E5,1.983E3,1.5091E4,1.2214E4,1.9E2,4.85E2,1.76E2,4.41E2,1.256E3,2.2E1,7.79E2,7.7E1,3.6E2,1E1,8.418E3,5.53E2],"tree_param":{"num_deleted":"0","num_feature":"44","num_nodes":"31","size_leaf_vector":"1"}},{"base_weights":[-3.060789E-7,5.7248633E-2,-4.2244646E-4,6.208656E-2,-1.2935805E-1,6.837255E-5,-8.92861E-3,2.3954004E-2,8.7198675E-2,-2.3618929E-1,-4.2448677E-2,-2.0672266E-4,1.2540678E-2,5.2325046E-3,-1.7932823E-2,-7.309983E-5,2.875933E-4,5.454551E-4,-1.0478254E-4,-1.0333386E-3,-1.8750847E-3,4.194843E-4,-9.7303925E-4,1.9000656E-6,-2.6101698E-5,3.793972E-4,4.445195E-5,1.9891013E-5,6.131501E-4,-1.6130513E-4,3.5072055E-5],"categories":[],"categories_nodes":[],"categories_segments":[],"categories_sizes":[],"default_left":[0,1,0,0,0,0,0,0,0,0,0,0,0,0,1,0,0,0,0,0,0,0,0,0,0,0,0,0,0,0,0],"id":21,"left_children":[1,3,5,7,9,11,13,15,17,19,21,23,25,27,29,-1,-1,-1,-1,-1,-1,-1,-1,-1,-1,-1,-1,-1,-1,-1,-1],"loss_changes":[1.7769289E1,4.858902E0,3.0472646E0,5.0235004E0,1.2627032E0,2.3676727E0,5.0771837E0,2.262977E0,4.4783936E0,3.04739E-1,1.2289485E0,1.7300771E0,3.7165287E0,2.6141925E0,6.9980135E0,0E0,0E0,0E0,0E0,0E0,0E0,0E0,0E0,0E0,0E0,0E0,0E0,0E0,0E0,0E0,0E0],"parents":[2147483647,0,0,1,1,2,2,3,3,4,4,5,5,6,6,7,7,8,8,9,9,10,10,11,11,12,12,13,13,14,14],"right_children":[2,4,6,8,10,12,14,16,18,20,22,24,26,28,30,-1,-1,-1,-1,-1,-1,-1,-1,-1,-1,-1,-1,-1,-1,-1,-1],"split_conditions":[-6.728866E-1,2.654127E0,3.602E1,-1.5553414E-2,1.941E1,9.594272E-1,4.827586E-1,2.1613833E-1,9.636804E-1,8.5E1,1.8343195E-1,8.855586E-1,-1.7216803E-1,2.5691173E0,6.3E1,-7.309983E-5,2.875933E-4,5.454551E-4,-1.0478254E-4,-1.0333386E-3,-1.8750847E-3,4.194843E-4,-9.7303925E-4,1.9000656E-6,-2.6101698E-5,3.793972E-4,4.445195E-5,1.9891013E-5,6.131501E-4,-1.6130513E-4,3.5072055E-5],"split_indices":[7,23,15,2,15,29,30,33,26,18,32,26,24,10,18,0,0,0,0,0,0,0,0,0,0,0,0,0,0,0,0],"split_type":[0,0,0,0,0,0,0,0,0,0,0,0,0,0,0,0,0,0,0,0,0,0,0,0,0,0,0,0,0,0,0],"sum_hessian":[7.35268E5,5.382E3,7.29886E5,5.246E3,1.36E2,6.90068E5,3.9818E4,2.083E3,3.163E3,6.1E1,7.5E1,6.75176E5,1.4892E4,1.5477E4,2.4341E4,9.1E2,1.173E3,2.812E3,3.51E2,4.3E1,1.8E1,4E1,3.5E1,6.02307E5,7.2869E4,1.05E3,1.3842E4,1.5255E4,2.22E2,1.6412E4,7.929E3],"tree_param":{"num_deleted":"0","num_feature":"44","num_nodes":"31","size_leaf_vector":"1"}},{"base_weights":[-1.7495814E-6,5.8553815E-2,-4.313743E-4,5.023036E-2,1.7725898E-1,4.2146745E-5,-8.643733E-3,5.7355676E-2,-8.143259E-2,1.3097669E-1,2.5219324E-1,-2.1323997E-4,1.4707246E-2,5.832494E-3,-1.739904E-2,-2.9025413E-4,3.5565527E-4,-6.230983E-4,7.065263E-4,8.942103E-4,-1.0017992E-4,6.137605E-4,1.5682391E-3,4.952469E-6,-1.2651235E-5,6.073498E-4,6.781875E-5,2.3246339E-5,6.020181E-4,-1.5835166E-4,3.7187314E-5],"categories":[3,4,9,11],"categories_nodes":[11],"categories_segments":[0],"categories_sizes":[4],"default_left":[0,0,0,0,0,0,0,0,1,0,0,1,0,0,1,0,0,0,0,0,0,0,0,0,0,0,0,0,0,0,0],"id":22,"left_children":[1,3,5,7,9,11,13,15,17,19,21,23,25,27,29,-1,-1,-1,-1,-1,-1,-1,-1,-1,-1,-1,-1,-1,-1,-1,-1],"loss_changes":[1.8502638E1,5.2928333E0,2.8392825E0,4.6963863E0,1.2170162E0,2.585466E0,5.0449133E0,4.299676E0,1.8146428E0,1.0951238E0,6.8449306E-1,1.6173582E0,2.5408537E0,2.4427783E0,7.0824947E0,0E0,0E0,0E0,0E0,0E0,0E0,0E0,0E0,0E0,0E0,0E0,0E0,0E0,0E0,0E0,0E0],"parents":[2147483647,0,0,1,1,2,2,3,3,4,4,5,5,6,6,7,7,8,8,9,9,10,10,11,11,12,12,13,13,14,14],"right_children":[2,4,6,8,10,12,14,16,18,20,22,24,26,28,30,-1,-1,-1,-1,-1,-1,-1,-1,-1,-1,-1,-1,-1,-1,-1,-1],"split_conditions":[-6.728866E-1,1.09797254E-1,3.602E1,9.802817E-1,2.23E2,6.082681E-1,4.7164178E-1,5.0147492E-2,3.63E2,3.9E1,-3.0483E5,1E-45,1.54639175E-2,2.5691173E0,6.3E1,-2.9025413E-4,3.5565527E-4,-6.230983E-4,7.065263E-4,8.942103E-4,-1.0017992E-4,6.137605E-4,1.5682391E-3,4.952469E-6,-1.2651235E-5,6.073498E-4,6.781875E-5,2.3246339E-5,6.020181E-4,-1.5835166E-4,3.7187314E-5],"split_indices":[7,13,15,26,42,5,30,26,42,17,41,43,34,10,18,0,0,0,0,0,0,0,0,0,0,0,0,0,0,0,0],"split_type":[0,0,0,0,0,0,0,0,0,0,0,1,0,0,0,0,0,0,0,0,0,0,0,0,0,0,0,0,0,0,0],"sum_hessian":[7.35489E5,5.357E3,7.30132E5,5.006E3,3.51E2,6.90328E5,3.9804E4,4.749E3,2.57E2,2.17E2,1.34E2,6.78512E5,1.1816E4,1.5001E4,2.4803E4,3.26E2,4.423E3,2.22E2,3.5E1,1.77E2,4E1,2.8E1,1.06E2,4.43014E5,2.35498E5,2.63E2,1.1553E4,1.4783E4,2.18E2,1.6696E4,8.107E3],"tree_param":{"num_deleted":"0","num_feature":"44","num_nodes":"31","size_leaf_vector":"1"}},{"base_weights":[-1.0068867E-5,5.7724837E-2,-4.380273E-4,-9.836861E-2,6.290926E-2,2.0670479E-5,-8.384397E-3,-1.9371906E-1,1.3678417E-2,4.722696E-2,1.0914002E-1,-1.6434319E-4,2.1281924E-2,7.7369413E-3,-1.6434755E-2,-1.1838624E-3,-5.234009E-5,-1.895571E-4,8.6534483E-4,4.766161E-4,1.1979302E-4,8.6913543E-4,6.200768E-5,2.7672065E-6,-2.1208982E-5,5.474783E-4,9.123014E-5,3.1863252E-5,6.458701E-4,-4.8763126E-5,-3.091009E-4],"categories":[],"categories_nodes":[],"categories_segments":[],"categories_sizes":[],"default_left":[0,0,0,0,0,0,0,0,0,0,0,0,0,0,0,0,0,0,0,0,0,0,0,0,0,0,0,0,0,0,0],"id":23,"left_children":[1,3,5,7,9,11,13,15,17,19,21,23,25,27,29,-1,-1,-1,-1,-1,-1,-1,-1,-1,-1,-1,-1,-1,-1,-1,-1],"loss_changes":[1.8177038E1,4.3805656E0,2.6617737E0,1.8591038E0,3.798256E0,2.7157886E0,5.172227E0,4.2207408E-1,5.668217E-1,3.9938984E0,6.611388E0,1.727189E0,2.1206656E0,2.7563574E0,8.023274E0,0E0,0E0,0E0,0E0,0E0,0E0,0E0,0E0,0E0,0E0,0E0,0E0,0E0,0E0,0E0,0E0],"parents":[2147483647,0,0,1,1,2,2,3,3,4,4,5,5,6,6,7,7,8,8,9,9,10,10,11,11,12,12,13,13,14,14],"right_children":[2,4,6,8,10,12,14,16,18,20,22,24,26,28,30,-1,-1,-1,-1,-1,-1,-1,-1,-1,-1,-1,-1,-1,-1,-1,-1],"split_conditions":[-6.728866E-1,2.3791821E-1,3.602E1,9.401732E-1,5.4228004E1,7.103001E-1,4.3063584E-1,1E0,1.0234331E0,3.9986813E1,3.6389685E-1,8.428571E-1,3.9986813E1,2.5691173E0,5.4228004E1,-1.1838624E-3,-5.234009E-5,-1.895571E-4,8.6534483E-4,4.766161E-4,1.1979302E-4,8.6913543E-4,6.200768E-5,2.7672065E-6,-2.1208982E-5,5.474783E-4,9.123014E-5,3.1863252E-5,6.458701E-4,-4.8763126E-5,-3.091009E-4],"split_indices":[7,37,15,4,14,5,30,40,5,14,25,26,14,10,14,0,0,0,0,0,0,0,0,0,0,0,0,0,0,0,0],"split_type":[0,0,0,0,0,0,0,0,0,0,0,0,0,0,0,0,0,0,0,0,0,0,0,0,0,0,0,0,0,0,0],"sum_hessian":[7.3567E5,5.413E3,7.30257E5,1.74E2,5.239E3,6.90404E5,3.9853E4,9.4E1,8E1,3.912E3,1.327E3,6.84448E5,5.956E3,1.3273E4,2.658E4,8.3E1,1.1E1,6E1,2E1,1.497E3,2.415E3,8.72E2,4.55E2,5.79988E5,1.0446E5,3.17E2,5.639E3,1.3054E4,2.19E2,2.2451E4,4.129E3],"tree_param":{"num_deleted":"0","num_feature":"44","num_nodes":"31","size_leaf_vector":"1"}},{"base_weights":[2.245773E-5,4.3795034E-2,-3.216077E-4,-4.264969E-3,6.376367E-2,-6.4904365E-4,1.22621525E-2,-1.1691298E-1,1.3286229E-2,5.356108E-2,1.4524567E-1,-2.2046104E-4,-8.1672175E-3,3.7082035E-2,2.7767562E-3,-1.138289E-3,-2.7851833E-4,-3.64073E-5,7.744156E-4,3.63348E-4,-3.0641582E-5,5.8556423E-5,1.1448264E-3,1.7180108E-6,-2.536645E-5,4.183439E-5,-9.186972E-5,1.9310067E-4,2.3935246E-3,-4.7174885E-6,2.60828E-4],"categories":[],"categories_nodes":[],"categories_segments":[],"categories_sizes":[],"default_left":[0,0,0,0,0,0,0,0,0,0,0,0,0,1,0,0,0,0,0,0,0,0,0,0,0,0,0,0,0,0,0],"id":24,"left_children":[1,3,5,7,9,11,13,15,17,19,21,23,25,27,29,-1,-1,-1,-1,-1,-1,-1,-1,-1,-1,-1,-1,-1,-1,-1,-1],"loss_changes":[1.1078734E1,5.5057707E0,3.0073473E0,3.3294847E0,3.3693008E0,2.2921212E0,4.357744E0,1.3818707E0,3.7692678E0,2.853633E0,3.9824991E0,1.6092417E0,5.3342147E0,3.112637E0,2.2106984E0,0E0,0E0,0E0,0E0,0E0,0E0,0E0,0E0,0E0,0E0,0E0,0E0,0E0,0E0,0E0,0E0],"parents":[2147483647,0,0,1,1,2,2,3,3,4,4,5,5,6,6,7,7,8,8,9,9,10,10,11,11,12,12,13,13,14,14],"right_children":[2,4,6,8,10,12,14,16,18,20,22,24,26,28,30,-1,-1,-1,-1,-1,-1,-1,-1,-1,-1,-1,-1,-1,-1,-1,-1],"split_conditions":[-4.574007E-1,1.7179488E-1,9.538905E-1,3.4760618E0,5.4370014E1,3.602E1,3.125E-1,3.6E1,5.4228004E1,2.6473337E-1,9.478673E-3,8.855586E-1,4.7164178E-1,4.1577563E0,2.8795075E0,-1.138289E-3,-2.7851833E-4,-3.64073E-5,7.744156E-4,3.63348E-4,-3.0641582E-5,5.8556423E-5,1.1448264E-3,1.7180108E-6,-2.536645E-5,4.183439E-5,-9.186972E-5,1.9310067E-4,2.3935246E-3,-4.7174885E-6,2.60828E-4],"split_indices":[6,33,29,20,14,15,36,17,14,2,30,26,30,23,10,0,0,0,0,0,0,0,0,0,0,0,0,0,0,0,0],"split_type":[0,0,0,0,0,0,0,0,0,0,0,0,0,0,0,0,0,0,0,0,0,0,0,0,0,0,0,0,0,0,0],"sum_hessian":[7.35609E5,5.737E3,7.29872E5,1.684E3,4.053E3,7.11362E5,1.851E4,2.27E2,1.457E3,3.602E3,4.51E2,6.72997E5,3.8365E4,5.118E3,1.3392E4,9.4E1,1.33E2,1.262E3,1.95E2,2.938E3,6.64E2,1.48E2,3.03E2,6.00574E5,7.2423E4,1.3641E4,2.4724E4,5.099E3,1.9E1,1.2394E4,9.98E2],"tree_param":{"num_deleted":"0","num_feature":"44","num_nodes":"31","size_leaf_vector":"1"}},{"base_weights":[1.6785154E-5,5.900427E-2,-4.161684E-4,6.618479E-2,-7.363712E-2,-3.343518E-4,-4.7484502E-2,3.3077497E-2,1.0122351E-1,8.234628E-2,-1.1175272E-1,1.5480624E-2,-6.077099E-4,-8.765552E-2,3.548384E-2,4.676529E-4,-3.3384265E-5,-2.918824E-4,5.9430685E-4,6.4360583E-4,-1.1494429E-4,-8.005652E-4,7.304E-4,2.6592035E-3,8.1524144E-5,-2.3512705E-6,-1.82913E-4,-4.0252393E-4,-1.0335898E-3,6.485479E-4,-1.6313152E-4],"categories":[],"categories_nodes":[],"categories_segments":[],"categories_sizes":[],"default_left":[0,0,0,0,0,0,0,0,0,0,0,0,0,0,0,0,0,0,0,0,0,0,0,0,0,0,0,0,0,0,0],"id":25,"left_children":[1,3,5,7,9,11,13,15,17,19,21,23,25,27,29,-1,-1,-1,-1,-1,-1,-1,-1,-1,-1,-1,-1,-1,-1,-1,-1],"loss_changes":[1.876964E1,5.1003437E0,2.8096294E0,5.892969E0,1.6351372E0,3.1486557E0,4.2195454E0,5.4389267E0,3.1634445E0,2.0259407E-1,1.9458771E0,2.7060194E0,4.1347075E0,1.1829572E0,2.2738187E0,0E0,0E0,0E0,0E0,0E0,0E0,0E0,0E0,0E0,0E0,0E0,0E0,0E0,0E0,0E0,0E0],"parents":[2147483647,0,0,1,1,2,2,3,3,4,4,5,5,6,6,7,7,8,8,9,9,10,10,11,11,12,12,13,13,14,14],"right_children":[2,4,6,8,10,12,14,16,18,20,22,24,26,28,30,-1,-1,-1,-1,-1,-1,-1,-1,-1,-1,-1,-1,-1,-1,-1,-1],"split_conditions":[-6.728866E-1,9.802817E-1,1.431114E0,1.0801761E-2,9.2840093E-1,-5.2258974E-1,2.8795075E0,3.9986813E1,7.1665186E-1,6.8038744E-1,-2.273943E-1,4.138565E-2,9.2246014E-1,-1.6293651E-1,3.6832586E-1,4.676529E-4,-3.3384265E-5,-2.918824E-4,5.9430685E-4,6.4360583E-4,-1.1494429E-4,-8.005652E-4,7.304E-4,2.6592035E-3,8.1524144E-5,-2.3512705E-6,-1.82913E-4,-4.0252393E-4,-1.0335898E-3,6.485479E-4,-1.6313152E-4],"split_indices":[7,26,5,2,29,7,10,14,22,33,6,22,5,6,1,0,0,0,0,0,0,0,0,0,0,0,0,0,0,0,0],"split_type":[0,0,0,0,0,0,0,0,0,0,0,0,0,0,0,0,0,0,0,0,0,0,0,0,0,0,0,0,0,0,0],"sum_hessian":[7.34945E5,5.355E3,7.2959E5,5.08E3,2.75E2,7.28324E5,1.266E3,2.612E3,2.468E3,5.4E1,2.21E2,1.2375E4,7.15949E5,8.53E2,4.13E2,1.11E3,1.502E3,1.25E2,2.343E3,4E1,1.4E1,1.93E2,2.8E1,1.2E1,1.2363E4,7.12193E5,3.756E3,7.54E2,9.9E1,1.81E2,2.32E2],"tree_param":{"num_deleted":"0","num_feature":"44","num_nodes":"31","size_leaf_vector":"1"}},{"base_weights":[-4.2584197E-6,6.1853513E-2,-2.4343148E-4,7.32321E-2,-9.547635E-2,-5.9516774E-4,1.1223192E-2,3.7252642E-2,1.0215776E-1,-5.7613116E-2,-2.9081762E-1,-5.0764094E-4,-8.278278E-2,6.346642E-2,8.650732E-3,5.075333E-4,-1.822523E-4,1.4348538E-3,4.7872457E-4,-1.0172143E-3,-7.7813755E-5,2.0154305E-4,-1.9207643E-3,-2.0363764E-6,-1.06607804E-4,6.948399E-6,-5.8675976E-4,2.65344E-3,3.0310306E-4,2.5259637E-6,1.4592298E-4],"categories":[],"categories_nodes":[],"categories_segments":[],"categories_sizes":[],"default_left":[0,0,0,0,0,0,0,0,0,0,0,0,0,0,0,0,0,0,0,0,0,0,0,0,0,0,0,0,0,0,0],"id":26,"left_children":[1,3,5,7,9,11,13,15,17,19,21,23,25,27,29,-1,-1,-1,-1,-1,-1,-1,-1,-1,-1,-1,-1,-1,-1,-1,-1],"loss_changes":[1.0878257E1,5.06991E0,2.9541297E0,2.748539E0,1.41259E0,5.112138E0,2.9296427E0,4.6897607E0,3.314454E0,8.987699E-1,6.414051E-1,1.7992451E0,1.6091323E0,3.3174677E0,3.100788E0,0E0,0E0,0E0,0E0,0E0,0E0,0E0,0E0,0E0,0E0,0E0,0E0,0E0,0E0,0E0,0E0],"parents":[2147483647,0,0,1,1,2,2,3,3,4,4,5,5,6,6,7,7,8,8,9,9,10,10,11,11,12,12,13,13,14,14],"right_children":[2,4,6,8,10,12,14,16,18,20,22,24,26,28,30,-1,-1,-1,-1,-1,-1,-1,-1,-1,-1,-1,-1,-1,-1,-1,-1],"split_conditions":[-5.409684E-1,9.802817E-1,2.0093417E0,-1.5553414E-2,1.4E1,1.431114E0,-1.7216803E-1,3.9986813E1,2.819149E-1,1.5370591E-1,3.4E1,9.2246014E-1,3.6E1,4.138565E-2,6.287049E-1,5.075333E-4,-1.822523E-4,1.4348538E-3,4.7872457E-4,-1.0172143E-3,-7.7813755E-5,2.0154305E-4,-1.9207643E-3,-2.0363764E-6,-1.06607804E-4,6.948399E-6,-5.8675976E-4,2.65344E-3,3.0310306E-4,2.5259637E-6,1.4592298E-4],"split_indices":[6,26,10,2,39,5,24,14,26,19,17,5,17,22,5,0,0,0,0,0,0,0,0,0,0,0,0,0,0,0,0],"split_type":[0,0,0,0,0,0,0,0,0,0,0,0,0,0,0,0,0,0,0,0,0,0,0,0,0,0,0,0,0,0,0],"sum_hessian":[7.3528E5,2.832E3,7.32448E5,2.641E3,1.91E2,7.10649E5,2.1799E4,1.177E3,1.464E3,1.6E2,3.1E1,7.09893E5,7.56E2,1.023E3,2.0776E4,6.56E2,5.21E2,1.16E2,1.348E3,4E1,1.2E2,5E0,2.6E1,7.05012E5,4.881E3,1.75E2,5.81E2,1.8E1,1.005E3,1.4339E4,6.437E3],"tree_param":{"num_deleted":"0","num_feature":"44","num_nodes":"31","size_leaf_vector":"1"}},{"base_weights":[-5.4497223E-6,5.8069292E-2,-4.3371273E-4,2.0697983E-2,8.239144E-2,3.197265E-5,-8.51397E-3,-6.468987E-2,3.579733E-2,9.950589E-2,-3.4693975E-2,-1.47437E-4,2.061557E-2,-1.8395845E-2,1.0916989E-3,-5.196034E-4,6.486582E-4,6.0565915E-4,1.3177955E-4,7.6381164E-4,3.779374E-4,-3.6035964E-4,8.128417E-4,6.104287E-6,-1.130057E-5,3.2527166E-4,6.851614E-5,8.626927E-5,-1.3506868E-4,9.697906E-5,-7.638179E-5],"categories":[0,3,4,6,7,8,9,10,11,3,4,8,9,11,0,1,2,4,5,6,8,9,10,0,2,4,6,8,9],"categories_nodes":[8,11,12,14],"categories_segments":[0,9,14,23],"categories_sizes":[9,5,9,6],"default_left":[0,0,0,0,0,0,1,1,1,0,1,1,1,0,1,0,0,0,0,0,0,0,0,0,0,0,0,0,0,0,0],"id":27,"left_children":[1,3,5,7,9,11,13,15,17,19,21,23,25,27,29,-1,-1,-1,-1,-1,-1,-1,-1,-1,-1,-1,-1,-1,-1,-1,-1],"loss_changes":[1.8295824E1,4.8946915E0,2.7477741E0,2.737222E0,6.536621E0,2.549738E0,3.7771385E0,1.8240398E0,1.5748234E0,3.5043983E0,2.432325E0,1.6844099E0,1.8744643E0,4.3640623E0,5.1329236E0,0E0,0E0,0E0,0E0,0E0,0E0,0E0,0E0,0E0,0E0,0E0,0E0,0E0,0E0,0E0,0E0],"parents":[2147483647,0,0,1,1,2,2,3,3,4,4,5,5,6,6,7,7,8,8,9,9,10,10,11,11,12,12,13,13,14,14],"right_children":[2,4,6,8,10,12,14,16,18,20,22,24,26,28,30,-1,-1,-1,-1,-1,-1,-1,-1,-1,-1,-1,-1,-1,-1,-1,-1],"split_conditions":[-6.728866E-1,-1.5553414E-2,3.602E1,5.0147492E-2,9.636804E-1,7.103001E-1,4.7E1,3.29E2,1E-45,4.2E1,2.95E2,1E-45,1E-45,-5.440513E-1,1E-45,-5.196034E-4,6.486582E-4,6.0565915E-4,1.3177955E-4,7.6381164E-4,3.779374E-4,-3.6035964E-4,8.128417E-4,6.104287E-6,-1.130057E-5,3.2527166E-4,6.851614E-5,8.626927E-5,-1.3506868E-4,9.697906E-5,-7.638179E-5],"split_indices":[7,2,15,26,26,5,18,42,43,17,42,43,43,7,43,0,0,0,0,0,0,0,0,0,0,0,0,0,0,0,0],"split_type":[0,0,0,0,0,0,0,0,1,0,0,1,1,0,1,0,0,0,0,0,0,0,0,0,0,0,0,0,0,0,0],"sum_hessian":[7.35621E5,5.385E3,7.30236E5,2.123E3,3.262E3,6.90444E5,3.9792E4,3.19E2,1.804E3,2.846E3,4.16E2,6.84478E5,5.966E3,1.9614E4,2.0178E4,2.73E2,4.6E1,2.38E2,1.566E3,1.196E3,1.65E3,3.55E2,6.1E1,4.12944E5,2.71534E5,1.008E3,4.958E3,3.121E3,1.6493E4,9.58E3,1.0598E4],"tree_param":{"num_deleted":"0","num_feature":"44","num_nodes":"31","size_leaf_vector":"1"}},{"base_weights":[-8.661771E-7,4.3412976E-2,-3.442149E-4,-9.151212E-2,5.0423823E-2,9.489431E-5,-8.167623E-3,-1.1630379E-1,1.5540057E-1,3.8404863E-2,1.407693E-1,-1.6141815E-4,1.9477082E-2,1.2001903E-2,-1.50627475E-2,-9.3001017E-4,2.2481414E-4,5.315769E-4,1.8805529E-3,4.0322612E-4,7.696546E-5,-7.383856E-4,8.689018E-4,5.829455E-6,-1.1082014E-5,2.1174793E-4,2.5645531E-6,8.8764784E-5,-3.264003E-4,-4.1874984E-5,-2.9382267E-4],"categories":[3,4,8,9,11],"categories_nodes":[11],"categories_segments":[0],"categories_sizes":[5],"default_left":[0,0,0,0,0,0,0,0,0,0,0,1,0,0,0,0,0,0,0,0,0,0,0,0,0,0,0,0,0,0,0],"id":28,"left_children":[1,3,5,7,9,11,13,15,17,19,21,23,25,27,29,-1,-1,-1,-1,-1,-1,-1,-1,-1,-1,-1,-1,-1,-1,-1,-1],"loss_changes":[1.0961102E1,5.458125E0,2.5063276E0,1.7448351E0,5.9558916E0,3.4318283E0,5.3922186E0,2.2484694E0,2.8523785E-1,4.208242E0,3.443265E0,1.583748E0,3.3471675E0,3.1009629E0,8.295208E0,0E0,0E0,0E0,0E0,0E0,0E0,0E0,0E0,0E0,0E0,0E0,0E0,0E0,0E0,0E0,0E0],"parents":[2147483647,0,0,1,1,2,2,3,3,4,4,5,5,6,6,7,7,8,8,9,9,10,10,11,11,12,12,13,13,14,14],"right_children":[2,4,6,8,10,12,14,16,18,20,22,24,26,28,30,-1,-1,-1,-1,-1,-1,-1,-1,-1,-1,-1,-1,-1,-1,-1,-1],"split_conditions":[-4.574007E-1,2.3305082E0,3.602E1,1.0234331E0,5.4228004E1,6.5092206E-1,3.8819876E-1,1.8269656E0,7.5886524E-1,3.9986813E1,-2.738266E-1,1E-45,2.684E1,1.3218893E-1,5.4228004E1,-9.3001017E-4,2.2481414E-4,5.315769E-4,1.8805529E-3,4.0322612E-4,7.696546E-5,-7.383856E-4,8.689018E-4,5.829455E-6,-1.1082014E-5,2.1174793E-4,2.5645531E-6,8.8764784E-5,-3.264003E-4,-4.1874984E-5,-2.9382267E-4],"split_indices":[6,20,15,5,14,5,31,22,35,14,2,43,15,3,14,0,0,0,0,0,0,0,0,0,0,0,0,0,0,0,0],"split_type":[0,0,0,0,0,0,0,0,0,0,0,1,0,0,0,0,0,0,0,0,0,0,0,0,0,0,0,0,0,0,0],"sum_hessian":[7.35344E5,5.77E3,7.29574E5,2.85E2,5.485E3,6.90801E5,3.8773E4,2.59E2,2.6E1,4.841E3,6.44E2,6.81785E5,9.016E3,9.878E3,2.8895E4,1.92E2,6.7E1,2E1,6E0,1.951E3,2.89E3,4.2E1,6.02E2,4.11449E5,2.70336E5,4.446E3,4.57E3,9.316E3,5.62E2,2.4321E4,4.574E3],"tree_param":{"num_deleted":"0","num_feature":"44","num_nodes":"31","size_leaf_vector":"1"}},{"base_weights":[2.7370565E-5,6.270455E-2,-2.1427024E-4,7.3659815E-2,-9.4594225E-2,-5.837928E-4,1.180146E-2,1.072094E-1,1.9099532E-2,-1.8602748E-1,-1.9444995E-2,-4.9196027E-4,-8.336683E-2,3.9194836E-3,2.9128404E-2,1.7289094E-4,7.5679587E-4,3.8686005E-5,1.9608466E-3,-6.0243893E-4,-1.7676392E-3,8.607965E-4,-3.2952975E-4,1.585451E-4,-3.1439386E-6,-8.687549E-4,-2.9928153E-4,3.329506E-4,6.119576E-6,-1.6511984E-3,1.6447848E-4],"categories":[],"categories_nodes":[],"categories_segments":[],"categories_sizes":[],"default_left":[0,0,0,1,0,0,0,0,1,0,0,0,0,0,0,0,0,0,0,0,0,0,0,0,0,0,0,0,0,0,0],"id":29,"left_children":[1,3,5,7,9,11,13,15,17,19,21,23,25,27,29,-1,-1,-1,-1,-1,-1,-1,-1,-1,-1,-1,-1,-1,-1,-1,-1],"loss_changes":[1.114458E1,4.8699913E0,3.2546477E0,4.836113E0,1.2643223E0,5.406249E0,2.9867985E0,3.972168E0,4.120986E0,8.693974E-1,7.422036E-1,1.8412473E0,1.7058039E0,2.4100008E0,2.6772676E0,0E0,0E0,0E0,0E0,0E0,0E0,0E0,0E0,0E0,0E0,0E0,0E0,0E0,0E0,0E0,0E0],"parents":[2147483647,0,0,1,1,2,2,3,3,4,4,5,5,6,6,7,7,8,8,9,9,10,10,11,11,12,12,13,13,14,14],"right_children":[2,4,6,8,10,12,14,16,18,20,22,24,26,28,30,-1,-1,-1,-1,-1,-1,-1,-1,-1,-1,-1,-1,-1,-1,-1,-1],"split_conditions":[-5.409684E-1,9.802817E-1,2.0093417E0,5.8E1,3.0819672E-1,1.431114E0,6.287049E-1,1.0677691E-1,2.4747865E0,1.431114E0,2.8250977E-1,-4.574007E-1,8.455285E-1,3.301887E-2,1.270903E-1,1.7289094E-4,7.5679587E-4,3.8686005E-5,1.9608466E-3,-6.0243893E-4,-1.7676392E-3,8.607965E-4,-3.2952975E-4,1.585451E-4,-3.1439386E-6,-8.687549E-4,-2.9928153E-4,3.329506E-4,6.119576E-6,-1.6511984E-3,1.6447848E-4],"split_indices":[6,26,10,18,33,5,5,3,20,5,2,6,28,34,37,0,0,0,0,0,0,0,0,0,0,0,0,0,0,0,0],"split_type":[0,0,0,0,0,0,0,0,0,0,0,0,0,0,0,0,0,0,0,0,0,0,0,0,0,0,0,0,0,0,0],"sum_hessian":[7.35841E5,2.826E3,7.33015E5,2.642E3,1.84E2,7.11145E5,2.187E4,1.636E3,1.006E3,8.3E1,1.01E2,7.10357E5,7.88E2,1.5032E4,6.838E3,4.9E2,1.146E3,9.72E2,3.4E1,5.4E1,2.9E1,1.9E1,8.2E1,2.081E3,7.08276E5,2.12E2,5.76E2,6.97E2,1.4335E4,2.4E1,6.814E3],"tree_param":{"num_deleted":"0","num_feature":"44","num_nodes":"31","size_leaf_vector":"1"}},{"base_weights":[1.0489846E-5,4.4985704E-2,-1.663731E-4,2.0541584E-2,1.4430661E-1,-5.135828E-4,1.0903563E-2,5.6086805E-2,-2.6011745E-2,1.7049888E-1,-4.5489497E-2,-4.1636886E-4,-2.5131853E-2,5.180451E-2,7.5335437E-3,6.920445E-4,1.11942136E-4,-2.8800426E-4,4.1854187E-4,1.1871037E-3,5.2628486E-4,7.396131E-4,-5.4480974E-4,-1.9704294E-6,-2.5302713E-4,7.7427256E-5,-3.3834344E-4,5.9526303E-4,2.3509946E-4,3.1182318E-4,2.769446E-5],"categories":[],"categories_nodes":[],"categories_segments":[],"categories_sizes":[],"default_left":[0,0,0,1,0,0,0,0,0,0,0,0,0,0,0,0,0,0,0,0,0,0,0,0,0,0,0,0,0,0,0],"id":30,"left_children":[1,3,5,7,9,11,13,15,17,19,21,23,25,27,29,-1,-1,-1,-1,-1,-1,-1,-1,-1,-1,-1,-1,-1,-1,-1,-1],"loss_changes":[5.8505373E0,6.994522E0,2.8159058E0,3.8258092E0,2.8287334E0,1.7000222E0,3.0710056E0,3.3201303E0,2.7922297E0,1.7724152E0,6.885395E-1,1.7437688E0,4.0951653E0,8.332138E-1,2.4979842E0,0E0,0E0,0E0,0E0,0E0,0E0,0E0,0E0,0E0,0E0,0E0,0E0,0E0,0E0,0E0,0E0],"parents":[2147483647,0,0,1,1,2,2,3,3,4,4,5,5,6,6,7,7,8,8,9,9,10,10,11,11,12,12,13,13,14,14],"right_children":[2,4,6,8,10,12,14,16,18,20,22,24,26,28,30,-1,-1,-1,-1,-1,-1,-1,-1,-1,-1,-1,-1,-1,-1,-1,-1],"split_conditions":[-4.945362E-1,2.2697778E0,2.0093417E0,4.7E1,9.84326E-1,1.3511412E-1,3.967144E1,-3.1493235E-1,8.9E1,4.4E1,9.6666664E-1,1.3218893E-1,5.231214E-1,-1.04076475E-1,-1.7216803E-1,6.920445E-4,1.11942136E-4,-2.8800426E-4,4.1854187E-4,1.1871037E-3,5.2628486E-4,7.396131E-4,-5.4480974E-4,-1.9704294E-6,-2.5302713E-4,7.7427256E-5,-3.3834344E-4,5.9526303E-4,2.3509946E-4,3.1182318E-4,2.769446E-5],"split_indices":[1,10,10,18,26,13,14,0,18,18,28,3,30,11,24,0,0,0,0,0,0,0,0,0,0,0,0,0,0,0,0],"split_type":[0,0,0,0,0,0,0,0,0,0,0,0,0,0,0,0,0,0,0,0,0,0,0,0,0,0,0,0,0,0,0],"sum_hessian":[7.35505E5,2.881E3,7.32624E5,2.312E3,5.69E2,7.10344E5,2.228E4,1.311E3,1.001E3,5E2,6.9E1,7.0755E5,2.794E3,1.696E3,2.0584E4,4.35E2,8.76E2,7.93E2,2.08E2,3.02E2,1.98E2,1.6E1,5.3E1,7.06734E5,8.16E2,1.357E3,1.437E3,2.17E2,1.479E3,9.56E2,1.9628E4],"tree_param":{"num_deleted":"0","num_feature":"44","num_nodes":"31","size_leaf_vector":"1"}},{"base_weights":[1.7542963E-5,4.264065E-2,-3.193636E-4,-1.04529355E-2,6.186871E-2,-6.045723E-4,1.2684441E-2,-1.3865808E-1,6.389676E-3,5.2310467E-2,1.3730785E-1,-1.8733028E-4,-7.961688E-3,3.9481577E-2,2.0797537E-3,-1.2217824E-3,-3.7813312E-4,-7.482574E-5,7.3156913E-4,3.5202535E-4,-5.8616526E-5,-1.8017416E-5,1.1068324E-3,1.9013289E-6,-2.5170293E-5,7.531284E-5,-7.970503E-5,2.0553854E-4,2.6342191E-3,1.6987406E-5,-6.488263E-4],"categories":[],"categories_nodes":[],"categories_segments":[],"categories_sizes":[],"default_left":[0,0,0,0,0,0,0,0,0,0,0,0,0,1,0,0,0,0,0,0,0,0,0,0,0,0,0,0,0,0,0],"id":31,"left_children":[1,3,5,7,9,11,13,15,17,19,21,23,25,27,29,-1,-1,-1,-1,-1,-1,-1,-1,-1,-1,-1,-1,-1,-1,-1,-1],"loss_changes":[1.0558079E1,5.886449E0,2.7054796E0,3.310252E0,3.052206E0,2.1912117E0,4.44905E0,1.0614235E0,3.5099654E0,2.974578E0,4.458946E0,1.6160927E0,5.6242156E0,3.1938367E0,1.432319E0,0E0,0E0,0E0,0E0,0E0,0E0,0E0,0E0,0E0,0E0,0E0,0E0,0E0,0E0,0E0,0E0],"parents":[2147483647,0,0,1,1,2,2,3,3,4,4,5,5,6,6,7,7,8,8,9,9,10,10,11,11,12,12,13,13,14,14],"right_children":[2,4,6,8,10,12,14,16,18,20,22,24,26,28,30,-1,-1,-1,-1,-1,-1,-1,-1,-1,-1,-1,-1,-1,-1,-1,-1],"split_conditions":[-4.574007E-1,1.5522388E-1,9.594272E-1,9.249012E-1,5.4370014E1,3.602E1,3.125E-1,3.6E1,5.4525284E1,2.8250977E-1,1.0928961E-2,8.855586E-1,3.767313E-1,4.1577563E0,5.573E1,-1.2217824E-3,-3.7813312E-4,-7.482574E-5,7.3156913E-4,3.5202535E-4,-5.8616526E-5,-1.8017416E-5,1.1068324E-3,1.9013289E-6,-2.5170293E-5,7.531284E-5,-7.970503E-5,2.0553854E-4,2.6342191E-3,1.6987406E-5,-6.488263E-4],"split_indices":[6,33,29,35,14,15,36,17,14,2,31,26,31,23,15,0,0,0,0,0,0,0,0,0,0,0,0,0,0,0,0],"split_type":[0,0,0,0,0,0,0,0,0,0,0,0,0,0,0,0,0,0,0,0,0,0,0,0,0,0,0,0,0,0,0],"sum_hessian":[7.35242E5,5.766E3,7.29476E5,1.533E3,4.233E3,7.1382E5,1.5656E4,1.78E2,1.355E3,3.757E3,4.76E2,6.7551E5,3.831E4,4.439E3,1.1217E4,7.9E1,9.9E1,1.171E3,1.84E2,3.134E3,6.23E2,1.53E2,3.23E2,6.02695E5,7.2815E4,9.018E3,2.9292E4,4.423E3,1.6E1,1.1121E4,9.6E1],"tree_param":{"num_deleted":"0","num_feature":"44","num_nodes":"31","size_leaf_vector":"1"}},{"base_weights":[-6.1739192E-6,6.109258E-2,-2.4374777E-4,7.205808E-2,-9.305827E-2,-6.07401E-4,1.1589316E-2,1.02569364E-1,1.1786713E-2,-5.9674773E-2,-2.8492326E-1,-5.198209E-4,-8.1286706E-2,6.5453514E-2,9.253522E-3,1.7560156E-4,7.2621705E-4,5.239702E-4,-3.05881E-4,-1.0753665E-3,-8.3612664E-5,2.0585158E-4,-1.9273803E-3,5.3164435E-6,-1.5468217E-5,8.19552E-4,-4.994607E-4,2.6241776E-3,3.1449646E-4,7.160142E-6,1.5011708E-4],"categories":[4,6,9,3,4,8,9,11,1,4,6,8,9],"categories_nodes":[8,11,12],"categories_segments":[0,3,8],"categories_sizes":[3,5,5],"default_left":[0,0,0,1,0,0,0,0,1,0,0,1,1,0,0,0,0,0,0,0,0,0,0,0,0,0,0,0,0,0,0],"id":32,"left_children":[1,3,5,7,9,11,13,15,17,19,21,23,25,27,29,-1,-1,-1,-1,-1,-1,-1,-1,-1,-1,-1,-1,-1,-1,-1,-1],"loss_changes":[1.0665632E1,4.810796E0,3.1495957E0,4.886113E0,1.2104621E0,5.0175514E0,2.7456708E0,3.8677635E0,5.157011E0,9.8681325E-1,6.3468623E-1,2.4779725E0,1.9196534E0,2.84778E0,3.0541577E0,0E0,0E0,0E0,0E0,0E0,0E0,0E0,0E0,0E0,0E0,0E0,0E0,0E0,0E0,0E0,0E0],"parents":[2147483647,0,0,1,1,2,2,3,3,4,4,5,5,6,6,7,7,8,8,9,9,10,10,11,11,12,12,13,13,14,14],"right_children":[2,4,6,8,10,12,14,16,18,20,22,24,26,28,30,-1,-1,-1,-1,-1,-1,-1,-1,-1,-1,-1,-1,-1,-1,-1,-1],"split_conditions":[-5.409684E-1,9.802817E-1,2.0093417E0,6.5E1,1.4E1,1.431114E0,3.301887E-2,1.0677691E-1,1E-45,6.1904764E-1,3.6E1,1E-45,1E-45,4.138565E-2,6.5092206E-1,1.7560156E-4,7.2621705E-4,5.239702E-4,-3.05881E-4,-1.0753665E-3,-8.3612664E-5,2.0585158E-4,-1.9273803E-3,5.3164435E-6,-1.5468217E-5,8.19552E-4,-4.994607E-4,2.6241776E-3,3.1449646E-4,7.160142E-6,1.5011708E-4],"split_indices":[6,26,10,18,39,5,34,3,43,34,17,43,43,22,5,0,0,0,0,0,0,0,0,0,0,0,0,0,0,0,0],"split_type":[0,0,0,0,0,0,0,0,1,0,0,1,1,0,0,0,0,0,0,0,0,0,0,0,0,0,0,0,0,0,0],"sum_hessian":[7.34777E5,2.846E3,7.31931E5,2.657E3,1.89E2,7.10108E5,2.1823E4,1.764E3,8.93E2,1.61E2,2.8E1,7.09338E5,7.7E2,9.07E2,2.0916E4,5.43E2,1.221E3,3.98E2,4.95E2,3.9E1,1.22E2,5E0,2.3E1,4.31607E5,2.77731E5,3.4E1,7.36E2,1.6E1,8.91E2,1.4615E4,6.301E3],"tree_param":{"num_deleted":"0","num_feature":"44","num_nodes":"31","size_leaf_vector":"1"}},{"base_weights":[7.644238E-6,5.7031255E-2,-4.1201364E-4,4.8607226E-2,1.729497E-1,-3.018496E-4,-2.7997958E-2,-1.1152361E-1,5.3584754E-2,1.3936229E-1,2.707971E-1,-5.508584E-4,1.1254074E-2,2.0155499E-2,-5.929764E-2,-1.1771929E-3,9.275242E-5,4.8067977E-4,1.8213413E-4,9.915753E-4,1.7454947E-4,5.325291E-4,1.664505E-3,3.3607528E-6,-1.4687762E-5,2.0621896E-4,1.5850779E-6,3.5350458E-4,3.2886663E-5,-1.7337811E-4,-4.239234E-4],"categories":[0,3,4,6,9,10,11,3,4,9,11],"categories_nodes":[8,11],"categories_segments":[0,7],"categories_sizes":[7,4],"default_left":[0,0,0,0,1,0,0,0,1,0,0,1,0,0,0,0,0,0,0,0,0,0,0,0,0,0,0,0,0,0,0],"id":33,"left_children":[1,3,5,7,9,11,13,15,17,19,21,23,25,27,29,-1,-1,-1,-1,-1,-1,-1,-1,-1,-1,-1,-1,-1,-1,-1,-1],"loss_changes":[1.7599953E1,5.246662E0,2.218731E0,3.9925184E0,1.19592E0,2.0925002E0,4.376901E0,2.0462725E0,3.402979E0,1.2585907E0,5.757494E-1,1.7950013E0,4.4960747E0,7.252575E-1,9.053211E-1,0E0,0E0,0E0,0E0,0E0,0E0,0E0,0E0,0E0,0E0,0E0,0E0,0E0,0E0,0E0,0E0],"parents":[2147483647,0,0,1,1,2,2,3,3,4,4,5,5,6,6,7,7,8,8,9,9,10,10,11,11,12,12,13,13,14,14],"right_children":[2,4,6,8,10,12,14,16,18,20,22,24,26,28,30,-1,-1,-1,-1,-1,-1,-1,-1,-1,-1,-1,-1,-1,-1,-1,-1],"split_conditions":[-6.728866E-1,1.09797254E-1,1.3511412E-1,1.6491228E-1,2.23E2,9.594272E-1,4.8265895E-1,9.401732E-1,1E-45,5.081522E-1,-9.855364E5,1E-45,3.125E-1,-5.674578E-1,7.029703E-1,-1.1771929E-3,9.275242E-5,4.8067977E-4,1.8213413E-4,9.915753E-4,1.7454947E-4,5.325291E-4,1.664505E-3,3.3607528E-6,-1.4687762E-5,2.0621896E-4,1.5850779E-6,3.5350458E-4,3.2886663E-5,-1.7337811E-4,-4.239234E-4],"split_indices":[7,13,13,37,42,29,31,4,43,33,41,43,36,7,31,0,0,0,0,0,0,0,0,0,0,0,0,0,0,0,0],"split_type":[0,0,0,0,0,0,0,0,1,0,0,1,0,0,0,0,0,0,0,0,0,0,0,0,0,0,0,0,0,0,0],"sum_hessian":[7.35464E5,5.373E3,7.30091E5,5.009E3,3.64E2,7.27187E5,2.904E3,1.51E2,4.858E3,2.71E2,9.3E1,7.11848E5,1.5339E4,1.144E3,1.76E3,8.3E1,6.8E1,1.769E3,3.089E3,1.93E2,7.8E1,1.6E1,7.7E1,4.61371E5,2.50477E5,4.46E3,1.0879E4,2.73E2,8.71E2,7.17E2,1.043E3],"tree_param":{"num_deleted":"0","num_feature":"44","num_nodes":"31","size_leaf_vector":"1"}},{"base_weights":[3.1988966E-5,5.602444E-2,-3.7825474E-4,4.8074115E-2,1.7027138E-1,6.4643544E-5,-8.075941E-3,-1.12674266E-1,5.328439E-2,-8.528662E-3,1.8470846E-1,-1.8595523E-4,1.1425512E-2,9.115261E-3,-1.5598259E-2,-7.5459003E-4,9.719591E-4,-3.5136612E-4,3.23784E-4,4.8552666E-4,-6.666342E-4,1.1827876E-3,4.1912193E-4,1.9194836E-6,-2.5270365E-5,1.8148443E-4,-8.825512E-6,3.998364E-5,5.8905303E-4,-4.588097E-5,-2.9370302E-4],"categories":[0,1,4],"categories_nodes":[9],"categories_segments":[0],"categories_sizes":[3],"default_left":[0,0,0,0,0,0,0,0,0,1,0,0,0,0,0,0,0,0,0,0,0,0,0,0,0,0,0,0,0,0,0],"id":34,"left_children":[1,3,5,7,9,11,13,15,17,19,21,23,25,27,29,-1,-1,-1,-1,-1,-1,-1,-1,-1,-1,-1,-1,-1,-1,-1,-1],"loss_changes":[1.6892841E1,4.858423E0,2.4890013E0,4.1886225E0,8.983526E-1,1.9654231E0,5.1365023E0,1.2071997E0,3.6407633E0,2.9137427E-1,1.1491289E0,1.6290783E0,4.280043E0,2.1018357E0,7.6033354E0,0E0,0E0,0E0,0E0,0E0,0E0,0E0,0E0,0E0,0E0,0E0,0E0,0E0,0E0,0E0,0E0],"parents":[2147483647,0,0,1,1,2,2,3,3,4,4,5,5,6,6,7,7,8,8,9,9,10,10,11,11,12,12,13,13,14,14],"right_children":[2,4,6,8,10,12,14,16,18,20,22,24,26,28,30,-1,-1,-1,-1,-1,-1,-1,-1,-1,-1,-1,-1,-1,-1,-1,-1],"split_conditions":[-6.728866E-1,1.09797254E-1,3.602E1,1.8814147E-1,5.0758667E1,9.594272E-1,4.0419948E-1,1.725984E-1,4.232804E-2,1E-45,1.2128881E0,8.855586E-1,4.9378727E-2,2.5691173E0,5.4228004E1,-7.5459003E-4,9.719591E-4,-3.5136612E-4,3.23784E-4,4.8552666E-4,-6.666342E-4,1.1827876E-3,4.1912193E-4,1.9194836E-6,-2.5270365E-5,1.8148443E-4,-8.825512E-6,3.998364E-5,5.8905303E-4,-4.588097E-5,-2.9370302E-4],"split_indices":[7,13,15,22,14,29,30,19,26,43,9,26,21,10,14,0,0,0,0,0,0,0,0,0,0,0,0,0,0,0,0],"split_type":[0,0,0,0,0,0,0,0,0,1,0,0,0,0,0,0,0,0,0,0,0,0,0,0,0,0,0,0,0,0,0],"sum_hessian":[7.35413E5,5.349E3,7.30064E5,5.001E3,3.48E2,6.90344E5,3.972E4,1.57E2,4.844E3,2.6E1,3.22E2,6.75445E5,1.4899E4,1.209E4,2.763E4,1.44E2,1.3E1,2.48E2,4.596E3,1.4E1,1.2E1,2.46E2,7.6E1,6.02688E5,7.2757E4,5.546E3,9.353E3,1.1881E4,2.09E2,2.3306E4,4.324E3],"tree_param":{"num_deleted":"0","num_feature":"44","num_nodes":"31","size_leaf_vector":"1"}},{"base_weights":[1.2418641E-5,4.1931428E-2,-3.1761712E-4,-1.493445E-1,4.65013E-2,1.0296391E-4,-7.7844425E-3,-2.0659319E-1,1.2691224E-1,3.508215E-2,1.289954E-1,-1.0450237E-4,2.2210822E-2,1.3955053E-2,-1.4422954E-2,-1.257036E-3,-2.526862E-4,9.375757E-4,-1.6241376E-5,3.8736587E-4,5.7311867E-5,1.8909936E-4,1.0289542E-3,5.5151413E-6,-1.1994246E-5,6.791142E-4,9.115722E-5,-7.885618E-5,1.419096E-4,-3.898364E-5,-2.8469518E-4],"categories":[3,4,9,11],"categories_nodes":[11],"categories_segments":[0],"categories_sizes":[4],"default_left":[0,0,0,0,0,0,0,0,0,0,0,1,0,0,0,0,0,0,0,0,0,0,0,0,0,0,0,0,0,0,0],"id":35,"left_children":[1,3,5,7,9,11,13,15,17,19,21,23,25,27,29,-1,-1,-1,-1,-1,-1,-1,-1,-1,-1,-1,-1,-1,-1,-1,-1],"loss_changes":[1.0171089E1,5.020075E0,2.290737E0,2.1196766E0,5.2837133E0,3.167273E0,5.613393E0,4.4401646E-1,1.3697606E-1,4.384139E0,3.889823E0,1.6139543E0,3.5783515E0,3.1592412E0,8.204694E0,0E0,0E0,0E0,0E0,0E0,0E0,0E0,0E0,0E0,0E0,0E0,0E0,0E0,0E0,0E0,0E0],"parents":[2147483647,0,0,1,1,2,2,3,3,4,4,5,5,6,6,7,7,8,8,9,9,10,10,11,11,12,12,13,13,14,14],"right_children":[2,4,6,8,10,12,14,16,18,20,22,24,26,28,30,-1,-1,-1,-1,-1,-1,-1,-1,-1,-1,-1,-1,-1,-1,-1,-1],"split_conditions":[-4.574007E-1,1.8814147E-1,3.602E1,1.0234331E0,5.4228004E1,7.103001E-1,3.6893204E-1,5.601387E-2,-1.3952832E-1,3.9986813E1,3.502E1,1E-45,3.967144E1,-1.5668258E-1,5.4228004E1,-1.257036E-3,-2.526862E-4,9.375757E-4,-1.6241376E-5,3.8736587E-4,5.7311867E-5,1.8909936E-4,1.0289542E-3,5.5151413E-6,-1.1994246E-5,6.791142E-4,9.115722E-5,-7.885618E-5,1.419096E-4,-3.898364E-5,-2.8469518E-4],"split_indices":[6,22,15,5,14,5,31,13,0,14,15,43,14,0,14,0,0,0,0,0,0,0,0,0,0,0,0,0,0,0,0],"split_type":[0,0,0,0,0,0,0,0,0,0,0,1,0,0,0,0,0,0,0,0,0,0,0,0,0,0,0,0,0,0,0],"sum_hessian":[7.35183E5,5.743E3,7.2944E5,1.34E2,5.609E3,6.90544E5,3.8896E4,1.11E2,2.3E1,4.927E3,6.82E2,6.84124E5,6.42E3,9.099E3,2.9797E4,9.6E1,1.5E1,1.7E1,6E0,1.987E3,2.94E3,2.67E2,4.15E2,4.46475E5,2.37649E5,3.21E2,6.099E3,2.727E3,6.372E3,2.5031E4,4.766E3],"tree_param":{"num_deleted":"0","num_feature":"44","num_nodes":"31","size_leaf_vector":"1"}}]},"name":"gbtree"},"learner_model_param":{"base_score":"[1.3351334E-3]","boost_from_average":"1","num_class":"0","num_feature":"44","num_target":"1"},"objective":{"name":"reg:squarederror","reg_loss_param":{"scale_pos_weight":"1"}}},"version":[3,2,0]}