{"learner":{"attributes":{"best_iteration":"10","best_score":"0.017279","scikit_learn":"{\"_estimator_type\": \"regressor\"}"},"feature_names":["ret_1d","ret_5d","ret_21d","ret_63d","rsi_14","mfi_14","macd_hist","atr_pct","vol_20d","vol_60d","vol_ratio","dist_sma50","dist_sma200","dist_52w_high","trend_regime","zscore_20d","zscore_60d","beta_60d","excess_ret_5d","excess_ret_21d","excess_ret_5d_vs_sector","excess_ret_21d_vs_sector","days_to_earnings","days_since_earnings","post_earnings_drift_window","ret_1d_rank","ret_5d_rank","ret_21d_rank","ret_63d_rank","rsi_14_rank","mfi_14_rank","macd_hist_rank","atr_pct_rank","vol_20d_rank","vol_60d_rank","vol_ratio_rank","dist_sma50_rank","dist_sma200_rank","dist_52w_high_rank","zscore_20d_rank","zscore_60d_rank","gics_sector"],"feature_types":["float","float","float","float","float","float","float","float","float","float","float","float","float","float","float","float","float","float","float","float","float","float","float","float","float","float","float","float","float","float","float","float","float","float","float","float","float","float","float","float","float","c"],"gradient_booster":{"model":{"cats":{"enc":[],"feature_segments":[],"sorted_idx":[]},"gbtree_model_param":{"num_parallel_tree":"1","num_trees":"11"},"iteration_indptr":[0,1,2,3,4,5,6,7,8,9,10,11],"tree_info":[0,0,0,0,0,0,0,0,0,0,0],"trees":[{"base_weights":[-3.151368E-7,6.455923E-2,-4.7699214E-4,7.176435E-2,-6.8118975E-2,1.3613931E-2,-7.3821214E-4,7.00017E-4,2.1852856E-3,-2.9166194E-3,7.408386E-4,-4.8615166E-4,4.2078676E-4,-1.034263E-5,-7.6716166E-4],"categories":[],"categories_nodes":[],"categories_segments":[],"categories_sizes":[],"default_left":[0,0,0,0,0,0,0,0,0,0,0,0,0,0,0],"id":0,"left_children":[1,3,5,7,9,11,13,-1,-1,-1,-1,-1,-1,-1,-1],"loss_changes":[2.3910215E1,5.4471054E0,2.838905E0,7.6226597E0,2.470232E0,4.1248984E0,6.1922774E0,0E0,0E0,0E0,0E0,0E0,0E0,0E0,0E0],"parents":[2147483647,0,0,1,1,2,2,3,3,4,4,5,5,6,6],"right_children":[2,4,6,8,10,12,14,-1,-1,-1,-1,-1,-1,-1,-1],"split_conditions":[-6.728866E-1,9.802817E-1,-5.2258974E-1,1.0801761E-2,4.764151E-1,6.7204304E-2,9.2246014E-1,7.00017E-4,2.1852856E-3,-2.9166194E-3,7.408386E-4,-4.8615166E-4,4.2078676E-4,-1.034263E-5,-7.6716166E-4],"split_indices":[13,31,13,6,29,36,9,0,0,0,0,0,0,0,0],"split_type":[0,0,0,0,0,0,0,0,0,0,0,0,0,0,0],"sum_hessian":[7.76959E5,5.694E3,7.71265E5,5.401E3,2.93E2,1.4037E4,7.57228E5,2.792E3,2.609E3,1.67E2,1.26E2,2.35E3,1.1687E4,7.52986E5,4.242E3],"tree_param":{"num_deleted":"0","num_feature":"42","num_nodes":"15","size_leaf_vector":"1"}},{"base_weights":[2.8785074E-5,7.044487E-2,-2.4459005E-4,8.218934E-2,-9.764352E-2,-5.8340444E-4,1.465042E-2,7.1148614E-5,2.0202566E-3,-3.8391855E-3,-3.902576E-4,4.1856358E-4,-1.4400086E-5,3.865888E-4,4.8977596E-5],"categories":[],"categories_nodes":[],"categories_segments":[],"categories_sizes":[],"default_left":[0,0,0,0,0,0,0,0,0,0,0,0,0,0,0],"id":1,"left_children":[1,3,5,7,9,11,13,-1,-1,-1,-1,-1,-1,-1,-1],"loss_changes":[1.4966171E1,5.9407644E0,3.9084125E0,4.434845E0,1.4786859E0,2.39955E0,1.031254E0,0E0,0E0,0E0,0E0,0E0,0E0,0E0,0E0],"parents":[2147483647,0,0,1,1,2,2,3,3,4,4,5,5,6,6],"right_children":[2,4,6,8,10,12,14,-1,-1,-1,-1,-1,-1,-1,-1],"split_conditions":[-5.409684E-1,9.802817E-1,9.594272E-1,9.798271E-2,3.0819672E-1,-4.066635E-1,1.1761296E-1,7.1148614E-5,2.0202566E-3,-3.8391855E-3,-3.902576E-4,4.1856358E-4,-1.4400086E-5,3.865888E-4,4.8977596E-5],"split_indices":[12,31,34,40,40,12,6,0,0,0,0,0,0,0,0],"split_type":[0,0,0,0,0,0,0,0,0,0,0,0,0,0,0],"sum_hessian":[7.77462E5,3.006E3,7.74456E5,2.81E3,1.96E2,7.57232E5,1.7224E4,5.72E2,2.238E3,8.7E1,1.09E2,5.028E3,7.52204E5,1.2266E4,4.958E3],"tree_param":{"num_deleted":"0","num_feature":"42","num_nodes":"15","size_leaf_vector":"1"}},{"base_weights":[2.7164779E-5,6.286239E-2,-4.3542928E-4,6.984038E-2,-6.296892E-2,-3.550687E-4,-4.7175728E-2,5.214228E-4,1.9830195E-3,1.97629E-3,-2.0759322E-3,3.190667E-4,-1.264317E-5,-1.9764283E-3,-3.419342E-4],"categories":[],"categories_nodes":[],"categories_segments":[],"categories_sizes":[],"default_left":[0,0,0,0,0,0,0,0,0,0,0,0,0,0,0],"id":2,"left_children":[1,3,5,7,9,11,13,-1,-1,-1,-1,-1,-1,-1,-1],"loss_changes":[2.2581938E1,4.9881706E0,2.8967118E0,7.1367435E0,2.0574265E0,3.62118E0,2.0891256E0,0E0,0E0,0E0,0E0,0E0,0E0,0E0,0E0],"parents":[2147483647,0,0,1,1,2,2,3,3,4,4,5,5,6,6],"right_children":[2,4,6,8,10,12,14,-1,-1,-1,-1,-1,-1,-1,-1],"split_conditions":[-6.728866E-1,9.802817E-1,1.431114E0,-1.5553414E-2,9.2840093E-1,-5.2258974E-1,4.3583536E-1,5.214228E-4,1.9830195E-3,1.97629E-3,-2.0759322E-3,3.190667E-4,-1.264317E-5,-1.9764283E-3,-3.419342E-4],"split_indices":[13,31,9,6,34,13,31,0,0,0,0,0,0,0,0],"split_type":[0,0,0,0,0,0,0,0,0,0,0,0,0,0,0],"sum_hessian":[7.76886E5,5.677E3,7.71209E5,5.379E3,2.98E2,7.69886E5,1.323E3,2.221E3,3.158E3,6.1E1,2.37E2,1.3064E4,7.56822E5,4.77E2,8.46E2],"tree_param":{"num_deleted":"0","num_feature":"42","num_nodes":"15","size_leaf_vector":"1"}},{"base_weights":[9.907017E-6,6.083954E-2,-4.372723E-4,-6.18524E-2,6.786967E-2,-3.5919E-4,-4.593123E-2,-5.374211E-4,-3.3913779E-3,1.5175446E-3,-8.6985296E-4,3.233657E-4,-1.2796256E-5,-1.6734293E-3,7.6511037E-4],"categories":[],"categories_nodes":[],"categories_segments":[],"categories_sizes":[],"default_left":[0,0,0,1,0,0,0,0,0,0,0,0,0,0,0],"id":3,"left_children":[1,3,5,7,9,11,13,-1,-1,-1,-1,-1,-1,-1,-1],"loss_changes":[2.1137077E1,4.893938E0,2.7401335E0,1.1675988E0,5.374445E0,3.7173727E0,4.341447E0,0E0,0E0,0E0,0E0,0E0,0E0,0E0,0E0],"parents":[2147483647,0,0,1,1,2,2,3,3,4,4,5,5,6,6],"right_children":[2,4,6,8,10,12,14,-1,-1,-1,-1,-1,-1,-1,-1],"split_conditions":[-6.728866E-1,4.232804E-2,1.431114E0,7.9E1,9.67655E-1,-5.2258974E-1,2.8795075E0,-5.374211E-4,-3.3913779E-3,1.5175446E-3,-8.6985296E-4,3.233657E-4,-1.2796256E-5,-1.6734293E-3,7.6511037E-4],"split_indices":[13,31,9,23,31,13,17,0,0,0,0,0,0,0,0],"split_type":[0,0,0,0,0,0,0,0,0,0,0,0,0,0,0],"sum_hessian":[7.77047E5,5.67E3,7.71377E5,3.07E2,5.363E3,7.70056E5,1.321E3,2.34E2,7.3E1,4.966E3,3.97E2,1.3058E4,7.56998E5,9.06E2,4.15E2],"tree_param":{"num_deleted":"0","num_feature":"42","num_nodes":"15","size_leaf_vector":"1"}},{"base_weights":[2.2897206E-5,5.8846347E-2,-4.0866455E-4,8.326369E-3,7.536662E-2,-3.3334692E-4,-4.440273E-2,1.115063E-3,-1.044541E-3,2.2510767E-3,1.0007315E-3,3.0798788E-4,-1.2026326E-5,-1.6556241E-3,8.048249E-4],"categories":[4,8],"categories_nodes":[3],"categories_segments":[0],"categories_sizes":[2],"default_left":[0,0,0,1,0,0,0,0,0,0,0,0,0,0,0],"id":4,"left_children":[1,3,5,7,9,11,13,-1,-1,-1,-1,-1,-1,-1,-1],"loss_changes":[1.9730703E1,4.723995E0,2.556605E0,4.1122475E0,4.063036E0,3.378466E0,4.4267464E0,0E0,0E0,0E0,0E0,0E0,0E0,0E0,0E0],"parents":[2147483647,0,0,1,1,2,2,3,3,4,4,5,5,6,6],"right_children":[2,4,6,8,10,12,14,-1,-1,-1,-1,-1,-1,-1,-1],"split_conditions":[-6.728866E-1,1.5522388E-1,1.431114E0,1E-45,7.7586204E-2,-5.2258974E-1,2.8795075E0,1.115063E-3,-1.044541E-3,2.2510767E-3,1.0007315E-3,3.0798788E-4,-1.2026326E-5,-1.6556241E-3,8.048249E-4],"split_indices":[13,40,9,41,28,13,17,0,0,0,0,0,0,0,0],"split_type":[0,0,0,1,0,0,0,0,0,0,0,0,0,0,0],"sum_hessian":[7.77228E5,5.66E3,7.71568E5,1.395E3,4.265E3,7.7025E5,1.318E3,7.81E2,6.14E2,1.664E3,2.601E3,1.3096E4,7.57154E5,9.01E2,4.17E2],"tree_param":{"num_deleted":"0","num_feature":"42","num_nodes":"15","size_leaf_vector":"1"}},{"base_weights":[2.5728302E-6,5.7813454E-2,-4.2114267E-4,-6.2157314E-2,6.4612344E-2,1.0651484E-3,-2.6773415E-3,1.6629198E-3,-1.6207937E-3,1.4247138E-3,-1.2547871E-3,3.2453673E-4,1.3896614E-5,-6.3503896E-5,1.9358333E-4],"categories":[3,4,8,9,11,1,4,6,7],"categories_nodes":[2,3],"categories_segments":[0,5],"categories_sizes":[5,4],"default_left":[0,0,1,1,0,0,0,0,0,0,0,0,0,0,0],"id":5,"left_children":[1,3,5,7,9,11,13,-1,-1,-1,-1,-1,-1,-1,-1],"loss_changes":[1.9040306E1,4.6157837E0,2.5876172E0,8.883747E-1,5.152796E0,2.5849235E0,2.054464E0,0E0,0E0,0E0,0E0,0E0,0E0,0E0,0E0],"parents":[2147483647,0,0,1,1,2,2,3,3,4,4,5,5,6,6],"right_children":[2,4,6,8,10,12,14,-1,-1,-1,-1,-1,-1,-1,-1],"split_conditions":[-6.728866E-1,4.232804E-2,1E-45,1E-45,9.802817E-1,-4.8459974E-1,2.0093417E0,1.6629198E-3,-1.6207937E-3,1.4247138E-3,-1.2547871E-3,3.2453673E-4,1.3896614E-5,-6.3503896E-5,1.9358333E-4],"split_indices":[13,31,41,41,31,13,17,0,0,0,0,0,0,0,0],"split_type":[0,0,1,1,0,0,0,0,0,0,0,0,0,0,0],"sum_hessian":[7.77301E5,5.655E3,7.71646E5,3.03E2,5.352E3,4.65195E5,3.06451E5,3.6E1,2.67E2,5.056E3,2.96E2,1.0699E4,4.54496E5,2.93799E5,1.2652E4],"tree_param":{"num_deleted":"0","num_feature":"42","num_nodes":"15","size_leaf_vector":"1"}},{"base_weights":[8.458077E-6,6.4371884E-2,-2.4329117E-4,9.527452E-2,1.3810052E-2,-5.7217985E-4,1.4205066E-2,3.6169135E-4,2.5369974E-3,1.9072285E-3,-9.825807E-4,1.384751E-5,-5.7678477E-5,1.9716445E-4,8.4912725E-4],"categories":[4,6,9,3,4,9,11],"categories_nodes":[4,5],"categories_segments":[0,3],"categories_sizes":[3,4],"default_left":[0,1,0,0,1,1,0,0,0,0,0,0,0,0,0],"id":6,"left_children":[1,3,5,7,9,11,13,-1,-1,-1,-1,-1,-1,-1,-1],"loss_changes":[1.2595752E1,4.731394E0,3.6795049E0,4.7944756E0,6.0479355E0,2.2628279E0,2.0948403E0,0E0,0E0,0E0,0E0,0E0,0E0,0E0,0E0],"parents":[2147483647,0,0,1,1,2,2,3,3,4,4,5,5,6,6],"right_children":[2,4,6,8,10,12,14,-1,-1,-1,-1,-1,-1,-1,-1],"split_conditions":[-5.409684E-1,5.8E1,9.594272E-1,1.0677691E-1,1E-45,1E-45,2.5691173E0,3.6169135E-4,2.5369974E-3,1.9072285E-3,-9.825807E-4,1.384751E-5,-5.7678477E-5,1.9716445E-4,8.4912725E-4],"split_indices":[12,23,34,7,41,41,17,0,0,0,0,0,0,0,0],"split_type":[0,0,0,0,1,1,0,0,0,0,0,0,0,0,0],"sum_hessian":[7.77349E5,3.028E3,7.74321E5,1.879E3,1.149E3,7.57088E5,1.7233E4,5.66E2,1.313E3,4.99E2,6.5E2,4.90874E5,2.66214E5,1.5028E4,2.205E3],"tree_param":{"num_deleted":"0","num_feature":"42","num_nodes":"15","size_leaf_vector":"1"}},{"base_weights":[-1.0318857E-5,5.763092E-2,-4.3232957E-4,2.3408689E-2,8.000586E-2,-2.3063908E-4,-1.891337E-2,-1.112246E-4,1.0625984E-3,1.87426E-3,-5.8959005E-4,-1.1896496E-5,2.3468252E-4,-6.5516576E-4,2.3456081E-4],"categories":[],"categories_nodes":[],"categories_segments":[],"categories_sizes":[],"default_left":[0,0,0,0,0,0,0,0,0,0,0,0,0,0,0],"id":7,"left_children":[1,3,5,7,9,11,13,-1,-1,-1,-1,-1,-1,-1,-1],"loss_changes":[1.8901798E1,4.3232937E0,2.8753433E0,1.9708468E0,5.580374E0,3.4338486E0,3.6542697E0,0E0,0E0,0E0,0E0,0E0,0E0,0E0,0E0],"parents":[2147483647,0,0,1,1,2,2,3,3,4,4,5,5,6,6],"right_children":[2,4,6,8,10,12,14,-1,-1,-1,-1,-1,-1,-1,-1],"split_conditions":[-6.728866E-1,-1.5553414E-2,9.2246014E-1,2.5135136E-1,4.814315E-1,6.082681E-1,2.114183E0,-1.112246E-4,1.0625984E-3,1.87426E-3,-5.8959005E-4,-1.1896496E-5,2.3468252E-4,-6.5516576E-4,2.3456081E-4],"split_indices":[13,6,9,39,6,9,17,0,0,0,0,0,0,0,0],"split_type":[0,0,0,0,0,0,0,0,0,0,0,0,0,0,0],"sum_hessian":[7.77044E5,5.647E3,7.71397E5,2.233E3,3.414E3,7.6307E5,8.327E3,1.142E3,1.091E3,3.007E3,4.07E2,7.40355E5,2.2715E4,5.692E3,2.635E3],"tree_param":{"num_deleted":"0","num_feature":"42","num_nodes":"15","size_leaf_vector":"1"}},{"base_weights":[-1.4866257E-5,5.5821035E-2,-4.2292022E-4,6.2566824E-2,-6.844035E-2,-2.3227581E-4,-1.7980851E-2,4.0542928E-4,1.8270378E-3,-2.858211E-3,6.688221E-4,-1.1814687E-5,2.3123094E-4,-3.8114802E-5,-8.614766E-4],"categories":[],"categories_nodes":[],"categories_segments":[],"categories_sizes":[],"default_left":[0,0,0,0,0,0,0,0,0,0,0,0,0,0,0],"id":8,"left_children":[1,3,5,7,9,11,13,-1,-1,-1,-1,-1,-1,-1,-1],"loss_changes":[1.7707825E1,4.7293777E0,2.582669E0,6.727125E0,2.270306E0,3.3330383E0,3.4092453E0,0E0,0E0,0E0,0E0,0E0,0E0,0E0,0E0],"parents":[2147483647,0,0,1,1,2,2,3,3,4,4,5,5,6,6],"right_children":[2,4,6,8,10,12,14,-1,-1,-1,-1,-1,-1,-1,-1],"split_conditions":[-6.728866E-1,9.802817E-1,9.2246014E-1,-1.5553414E-2,4.764151E-1,6.082681E-1,-4.8459974E-1,4.0542928E-4,1.8270378E-3,-2.858211E-3,6.688221E-4,-1.1814687E-5,2.3123094E-4,-3.8114802E-5,-8.614766E-4],"split_indices":[13,31,9,6,29,9,13,0,0,0,0,0,0,0,0],"split_type":[0,0,0,0,0,0,0,0,0,0,0,0,0,0,0],"sum_hessian":[7.77201E5,5.638E3,7.71563E5,5.348E3,2.9E2,7.63276E5,8.287E3,2.224E3,3.124E3,1.66E2,1.24E2,7.40583E5,2.2693E4,5.096E3,3.191E3],"tree_param":{"num_deleted":"0","num_feature":"42","num_nodes":"15","size_leaf_vector":"1"}},{"base_weights":[2.7750789E-6,5.4396667E-2,-3.9561364E-4,6.0960762E-2,-6.7651406E-2,1.0207165E-3,-2.543168E-3,5.514596E-4,1.9039056E-3,-2.892423E-3,2.9170967E-4,3.072876E-4,1.34265565E-5,-4.613564E-4,-4.14104E-5],"categories":[3,4,8,9,11],"categories_nodes":[2],"categories_segments":[0],"categories_sizes":[5],"default_left":[0,0,1,0,0,0,0,0,0,0,0,0,0,0,0],"id":9,"left_children":[1,3,5,7,9,11,13,-1,-1,-1,-1,-1,-1,-1,-1],"loss_changes":[1.6838049E1,4.528862E0,2.3462503E0,6.2733955E0,1.8753554E0,2.3040967E0,2.8511965E0,0E0,0E0,0E0,0E0,0E0,0E0,0E0,0E0],"parents":[2147483647,0,0,1,1,2,2,3,3,4,4,5,5,6,6],"right_children":[2,4,6,8,10,12,14,-1,-1,-1,-1,-1,-1,-1,-1],"split_conditions":[-6.728866E-1,9.802817E-1,1E-45,1.0801761E-2,4.0634006E-1,-4.8459974E-1,-1.2025479E-1,5.514596E-4,1.9039056E-3,-2.892423E-3,2.9170967E-4,3.072876E-4,1.34265565E-5,-4.613564E-4,-4.14104E-5],"split_indices":[13,31,41,6,29,13,21,0,0,0,0,0,0,0,0],"split_type":[0,0,1,0,0,0,0,0,0,0,0,0,0,0,0],"sum_hessian":[7.77023E5,5.649E3,7.71374E5,5.361E3,2.88E2,4.64821E5,3.06553E5,2.774E3,2.587E3,1.47E2,1.41E2,1.0656E4,4.54165E5,6.444E3,3.00109E5],"tree_param":{"num_deleted":"0","num_feature":"42","num_nodes":"15","size_leaf_vector":"1"}},{"base_weights":[-2.4492554E-5,-3.7581671E-4,2.2160612E-2,9.835254E-4,-2.9477705E-3,6.447421E-2,1.2563011E-2,8.858433E-5,-7.048115E-6,-4.670644E-5,-2.993344E-4,5.627793E-4,2.6581245E-3,-2.3349307E-3,2.7049286E-4],"categories":[3,4,9,11],"categories_nodes":[1],"categories_segments":[0],"categories_sizes":[4],"default_left":[0,1,0,0,0,0,0,0,0,0,0,0,0,0,0],"id":10,"left_children":[1,3,5,7,9,11,13,-1,-1,-1,-1,-1,-1,-1,-1],"loss_changes":[6.057003E0,2.6745882E0,4.9193377E0,2.348323E0,1.8835354E0,5.6459E0,1.4599233E0,0E0,0E0,0E0,0E0,0E0,0E0,0E0,0E0],"parents":[2147483647,0,0,1,1,2,2,3,3,4,4,5,5,6,6],"right_children":[2,4,6,8,10,12,14,-1,-1,-1,-1,-1,-1,-1,-1],"split_conditions":[2.2697778E0,1E-45,8.2051285E-2,3.3766234E-1,6.208205E-1,1.2120941E0,9.478673E-3,8.858433E-5,-7.048115E-6,-4.670644E-5,-2.993344E-4,5.627793E-4,2.6581245E-3,-2.3349307E-3,2.7049286E-4],"split_indices":[17,41,28,38,8,8,37,0,0,0,0,0,0,0,0],"split_type":[0,1,0,0,0,0,0,0,0,0,0,0,0,0,0],"sum_hessian":[7.77119E5,7.65005E5,1.2114E4,5.00486E5,2.64519E5,2.239E3,9.875E3,1.38566E5,3.6192E5,2.52452E5,1.2067E4,1.48E3,7.59E2,8.4E1,9.791E3],"tree_param":{"num_deleted":"0","num_feature":"42","num_nodes":"15","size_leaf_vector":"1"}}]},"name":"gbtree"},"learner_model_param":{"base_score":"[1.3351334E-3]","boost_from_average":"1","num_class":"0","num_feature":"42","num_target":"1"},"objective":{"name":"reg:squarederror","reg_loss_param":{"scale_pos_weight":"1"}}},"version":[3,2,0]}