{"learner":{"attributes":{"best_iteration":"29","best_score":"0.016083","scikit_learn":"{\"_estimator_type\": \"regressor\"}"},"feature_names":["ret_21d","ret_63d","macd_hist","atr_pct","vol_20d","vol_60d","dist_sma200","dist_52w_high","zscore_20d","zscore_60d","beta_60d","excess_ret_5d","excess_ret_21d","spy_ret_21d","spy_rsi_14","vix_level","excess_ret_21d_vs_sector","days_to_earnings","days_since_earnings","earnings_yield","book_to_market","roa","debt_to_equity","current_ratio","sales_growth_yoy","ret_63d_rank","macd_hist_rank","atr_pct_rank","vol_20d_rank","vol_60d_rank","dist_sma200_rank","dist_52w_high_rank","zscore_20d_rank","zscore_60d_rank","earnings_yield_rank","book_to_market_rank","roa_rank","debt_to_equity_rank","current_ratio_rank","insider_buy_count_60d","insider_sell_count_60d","insider_net_dollar_60d","days_since_last_insider_buy","gics_sector"],"feature_types":["float","float","float","float","float","float","float","float","float","float","float","float","float","float","float","float","float","float","float","float","float","float","float","float","float","float","float","float","float","float","float","float","float","float","float","float","float","float","float","float","float","float","float","c"],"gradient_booster":{"model":{"cats":{"enc":[],"feature_segments":[],"sorted_idx":[]},"gbtree_model_param":{"num_parallel_tree":"1","num_trees":"30"},"iteration_indptr":[0,1,2,3,4,5,6,7,8,9,10,11,12,13,14,15,16,17,18,19,20,21,22,23,24,25,26,27,28,29,30],"tree_info":[0,0,0,0,0,0,0,0,0,0,0,0,0,0,0,0,0,0,0,0,0,0,0,0,0,0,0,0,0,0],"trees":[{"base_weights":[-3.7477505E-5,6.453759E-2,-5.173004E-4,-1.276141E-1,7.0453554E-2,-2.237217E-5,-9.11741E-3,-1.705124E-1,1.190193E-1,6.2255353E-2,1.8550439E-1,-2.2605917E-4,2.3331901E-2,8.089837E-3,-1.7712263E-2,-1.2204793E-3,-2.3151282E-5,9.795948E-4,-1.6435357E-4,-3.0722268E-4,3.730897E-4,1.227395E-3,5.2569533E-4,5.9661043E-6,-1.2151184E-5,5.641802E-4,1.0168661E-4,3.465691E-5,6.14903E-4,-5.499985E-5,-3.1578197E-4],"categories":[3,4,8,9,11],"categories_nodes":[11],"categories_segments":[0],"categories_sizes":[5],"default_left":[0,0,0,0,0,0,0,0,0,0,0,1,0,0,0,0,0,0,0,0,0,0,0,0,0,0,0,0,0,0,0],"id":0,"left_children":[1,3,5,7,9,11,13,15,17,19,21,23,25,27,29,-1,-1,-1,-1,-1,-1,-1,-1,-1,-1,-1,-1,-1,-1,-1,-1],"loss_changes":[2.2785854E1,6.1658974E0,3.1070669E0,1.7142949E0,4.963066E0,3.283474E0,5.8747873E0,1.2468548E0,2.2036108E-1,3.784027E0,1.2603855E0,1.8251101E0,2.2117813E0,2.3729956E0,8.124933E0,0E0,0E0,0E0,0E0,0E0,0E0,0E0,0E0,0E0,0E0,0E0,0E0,0E0,0E0,0E0,0E0],"parents":[2147483647,0,0,1,1,2,2,3,3,4,4,5,5,6,6,7,7,8,8,9,9,10,10,11,11,12,12,13,13,14,14],"right_children":[2,4,6,8,10,12,14,16,18,20,22,24,26,28,30,-1,-1,-1,-1,-1,-1,-1,-1,-1,-1,-1,-1,-1,-1,-1,-1],"split_conditions":[-6.728866E-1,1.8814147E-1,3.602E1,1.0234331E0,1.09797254E-1,7.103001E-1,4.3063584E-1,3.1599432E-2,-1.3952832E-1,4.232804E-2,5.1594204E-1,1E-45,3.9986813E1,2.5691173E0,5.4228004E1,-1.2204793E-3,-2.3151282E-5,9.795948E-4,-1.6435357E-4,-3.0722268E-4,3.730897E-4,1.227395E-3,5.2569533E-4,5.9661043E-6,-1.2151184E-5,5.641802E-4,1.0168661E-4,3.465691E-5,6.14903E-4,-5.499985E-5,-3.1578197E-4],"split_indices":[7,22,15,5,13,5,30,1,0,26,33,43,14,10,14,0,0,0,0,0,0,0,0,0,0,0,0,0,0,0,0],"split_type":[0,0,0,0,0,0,0,0,0,0,0,1,0,0,0,0,0,0,0,0,0,0,0,0,0,0,0,0,0,0,0],"sum_hessian":[7.35393E5,5.424E3,7.29969E5,1.62E2,5.262E3,6.90246E5,3.9723E4,1.38E2,2.4E1,4.912E3,3.5E2,6.84278E5,5.968E3,1.3232E4,2.6491E4,1.04E2,3.4E1,1.7E1,7E0,2.54E2,4.658E3,2.4E2,1.1E2,4.12599E5,2.71679E5,3.22E2,5.646E3,1.3021E4,2.11E2,2.2312E4,4.179E3],"tree_param":{"num_deleted":"0","num_feature":"44","num_nodes":"31","size_leaf_vector":"1"}},{"base_weights":[3.7331487E-5,7.184643E-2,-2.4211324E-4,9.114891E-3,9.672999E-2,-6.3539844E-4,1.2542124E-2,-1.9240792E-1,2.6113147E-2,1.0067154E-1,-1.768084E-1,-5.430768E-4,-8.491427E-2,4.475593E-3,3.0263228E-2,-9.3985297E-4,-1.5370483E-3,2.3156975E-4,-1.0343825E-3,4.240015E-4,8.0312975E-4,-7.937406E-4,-1.1139268E-3,1.18477416E-4,-3.692886E-6,-7.4240274E-4,-1.2020264E-4,3.833781E-4,8.244871E-6,1.7045777E-4,-2.1830222E-3],"categories":[],"categories_nodes":[],"categories_segments":[],"categories_sizes":[],"default_left":[0,0,0,0,0,0,0,0,0,1,0,0,0,0,0,0,0,0,0,0,0,0,0,0,0,0,0,0,0,0,0],"id":1,"left_children":[1,3,5,7,9,11,13,15,17,19,21,23,25,27,29,-1,-1,-1,-1,-1,-1,-1,-1,-1,-1,-1,-1,-1,-1,-1,-1],"loss_changes":[1.4763756E1,4.451934E0,3.684827E0,2.7747688E0,2.2018032E0,5.5322027E0,3.1266978E0,1.0962582E-1,2.6790211E0,2.1472073E0,2.4902523E-2,2.181296E0,2.5326943E0,2.9400318E0,3.3770757E0,0E0,0E0,0E0,0E0,0E0,0E0,0E0,0E0,0E0,0E0,0E0,0E0,0E0,0E0,0E0,0E0],"parents":[2147483647,0,0,1,1,2,2,3,3,4,4,5,5,6,6,7,7,8,8,9,9,10,10,11,11,12,12,13,13,14,14],"right_children":[2,4,6,8,10,12,14,16,18,20,22,24,26,28,30,-1,-1,-1,-1,-1,-1,-1,-1,-1,-1,-1,-1,-1,-1,-1,-1],"split_conditions":[-5.409684E-1,1.5522388E-1,2.0093417E0,6.455696E-1,5.933834E-1,1.431114E0,6.287049E-1,2.6726726E-1,1.3E1,1.75E2,9.7574127E-1,-4.066635E-1,1.79E2,-1.7216803E-1,2.1E1,-9.3985297E-4,-1.5370483E-3,2.3156975E-4,-1.0343825E-3,4.240015E-4,8.0312975E-4,-7.937406E-4,-1.1139268E-3,1.18477416E-4,-3.692886E-6,-7.4240274E-4,-1.2020264E-4,3.833781E-4,8.244871E-6,1.7045777E-4,-2.1830222E-3],"split_indices":[6,33,10,34,1,5,5,32,39,42,25,6,42,24,39,0,0,0,0,0,0,0,0,0,0,0,0,0,0,0,0],"split_type":[0,0,0,0,0,0,0,0,0,0,0,0,0,0,0,0,0,0,0,0,0,0,0,0,0,0,0,0,0,0,0],"sum_hessian":[7.35735E5,2.852E3,7.32883E5,8.1E2,2.042E3,7.1101E5,2.1873E4,6.3E1,7.47E2,2.013E3,2.9E1,7.10232E5,7.78E2,1.5031E4,6.842E3,5.2E1,1.1E1,6.94E2,5.3E1,1.363E3,6.5E2,1.4E1,1.5E1,4.332E3,7.059E5,4.26E2,3.52E2,6.43E2,1.4388E4,6.824E3,1.8E1],"tree_param":{"num_deleted":"0","num_feature":"44","num_nodes":"31","size_leaf_vector":"1"}},{"base_weights":[4.075218E-5,5.194411E-2,-1.6543953E-4,-1.0802658E-1,6.0214832E-2,-5.363573E-4,1.3512714E-2,2.611186E-2,-2.0223473E-1,4.9854085E-2,1.9313401E-1,-4.811437E-4,-4.8078652E-2,3.6423888E-2,4.993958E-3,-1.002221E-3,5.6752097E-4,-1.6225395E-3,-6.638619E-4,1.9741987E-3,2.5179607E-4,5.1497067E-5,1.3805345E-3,-4.225763E-6,4.2072264E-5,-3.8160643E-4,5.685716E-4,1.8947548E-4,2.5828406E-3,1.8240045E-5,6.307161E-4],"categories":[],"categories_nodes":[],"categories_segments":[],"categories_sizes":[],"default_left":[0,0,0,0,0,0,0,0,0,0,0,0,0,1,0,0,0,0,0,0,0,0,0,0,0,0,0,0,0,0,0],"id":2,"left_children":[1,3,5,7,9,11,13,15,17,19,21,23,25,27,29,-1,-1,-1,-1,-1,-1,-1,-1,-1,-1,-1,-1,-1,-1,-1,-1],"loss_changes":[7.8678856E0,3.848897E0,3.7151346E0,1.8072617E0,3.8090906E0,1.8714368E0,3.773312E0,9.7581357E-1,6.4891696E-1,2.7897372E0,2.248314E0,1.7434348E0,2.8094115E0,3.489688E0,2.5600464E0,0E0,0E0,0E0,0E0,0E0,0E0,0E0,0E0,0E0,0E0,0E0,0E0,0E0,0E0,0E0,0E0],"parents":[2147483647,0,0,1,1,2,2,3,3,4,4,5,5,6,6,7,7,8,8,9,9,10,10,11,11,12,12,13,13,14,14],"right_children":[2,4,6,8,10,12,14,16,18,20,22,24,26,28,30,-1,-1,-1,-1,-1,-1,-1,-1,-1,-1,-1,-1,-1,-1,-1,-1],"split_conditions":[-4.945362E-1,2.7766597E0,9.538905E-1,2.684E1,5.4228004E1,1.431114E0,3.0294595E-2,2.019E1,7.953098E-1,-2.1304096E-1,9.272972E-2,6.082681E-1,3E0,9.6363634E-1,1.0339114E-1,-1.002221E-3,5.6752097E-4,-1.6225395E-3,-6.638619E-4,1.9741987E-3,2.5179607E-4,5.1497067E-5,1.3805345E-3,-4.225763E-6,4.2072264E-5,-3.8160643E-4,5.685716E-4,1.8947548E-4,2.5828406E-3,1.8240045E-5,6.307161E-4],"split_indices":[1,19,29,15,14,5,21,15,5,24,3,5,39,38,13,0,0,0,0,0,0,0,0,0,0,0,0,0,0,0,0],"split_type":[0,0,0,0,0,0,0,0,0,0,0,0,0,0,0,0,0,0,0,0,0,0,0,0,0,0,0,0,0,0,0],"sum_hessian":[7.35176E5,2.909E3,7.32267E5,1.43E2,2.766E3,7.12934E5,1.9333E4,5.9E1,8.4E1,2.566E3,2E2,7.12107E5,8.27E2,5.24E3,1.4093E4,1.6E1,4.3E1,3.8E1,4.6E1,2.8E1,2.538E3,5E1,1.5E2,6.87279E5,2.4828E4,7.22E2,1.05E2,5.222E3,1.8E1,1.3889E4,2.04E2],"tree_param":{"num_deleted":"0","num_feature":"44","num_nodes":"31","size_leaf_vector":"1"}},{"base_weights":[1.0877314E-5,6.42099E-2,-4.5640505E-4,-1.19844876E-1,6.9849186E-2,2.8166425E-5,-8.867955E-3,-1.6251244E-1,1.3055684E-1,2.9575715E-2,9.66373E-2,-1.7216598E-4,2.2977302E-2,1.2008005E-2,-1.3805449E-2,1.8245817E-5,-1.1971729E-3,9.867576E-4,-7.970134E-5,-3.0613624E-4,2.3092383E-4,5.671173E-4,-4.632922E-4,6.4038973E-6,-1.2093024E-5,7.686909E-4,1.1050492E-4,3.8560087E-4,2.1752054E-5,-5.7472393E-5,-2.5489368E-4],"categories":[3,4,8,9,11,0,3,4,5,6,7,8,9,10,11],"categories_nodes":[11,13],"categories_segments":[0,5],"categories_sizes":[5,10],"default_left":[0,0,0,0,0,0,0,0,0,0,0,1,0,1,0,0,0,0,0,0,0,0,0,0,0,0,0,0,0,0,0],"id":3,"left_children":[1,3,5,7,9,11,13,15,17,19,21,23,25,27,29,-1,-1,-1,-1,-1,-1,-1,-1,-1,-1,-1,-1,-1,-1,-1,-1],"loss_changes":[2.2065336E1,5.516735E0,2.97637E0,1.6883969E0,5.563612E0,3.1742857E0,4.0998077E0,1.3000269E0,1.7127007E-1,2.2969894E0,4.422556E0,1.9024463E0,1.8560538E0,3.593248E0,3.4308782E0,0E0,0E0,0E0,0E0,0E0,0E0,0E0,0E0,0E0,0E0,0E0,0E0,0E0,0E0,0E0,0E0],"parents":[2147483647,0,0,1,1,2,2,3,3,4,4,5,5,6,6,7,7,8,8,9,9,10,10,11,11,12,12,13,13,14,14],"right_children":[2,4,6,8,10,12,14,16,18,20,22,24,26,28,30,-1,-1,-1,-1,-1,-1,-1,-1,-1,-1,-1,-1,-1,-1,-1,-1],"split_conditions":[-6.728866E-1,1.6491228E-1,3.602E1,1.0234331E0,-1.5553414E-2,7.103001E-1,-5.2258974E-1,2.5670977E0,-3.251215E-1,5.0147492E-2,9.3891585E-1,1E-45,-3.2776204E-1,1E-45,9.2246014E-1,1.8245817E-5,-1.1971729E-3,9.867576E-4,-7.970134E-5,-3.0613624E-4,2.3092383E-4,5.671173E-4,-4.632922E-4,6.4038973E-6,-1.2093024E-5,7.686909E-4,1.1050492E-4,3.8560087E-4,2.1752054E-5,-5.7472393E-5,-2.5489368E-4],"split_indices":[7,37,15,5,2,5,7,23,1,26,2,43,24,43,5,0,0,0,0,0,0,0,0,0,0,0,0,0,0,0,0],"split_type":[0,0,0,0,0,0,0,0,0,0,0,1,0,1,0,0,0,0,0,0,0,0,0,0,0,0,0,0,0,0,0],"sum_hessian":[7.35534E5,5.315E3,7.30219E5,1.58E2,5.157E3,6.90444E5,3.9775E4,1.35E2,2.3E1,2.06E3,3.097E3,6.84469E5,5.975E3,7.608E3,3.2167E4,3.5E1,1E2,1.7E1,6E0,2.7E2,1.79E3,2.969E3,1.28E2,4.12916E5,2.71553E5,1.29E2,5.846E3,9.08E2,6.7E3,2.9322E4,2.845E3],"tree_param":{"num_deleted":"0","num_feature":"44","num_nodes":"31","size_leaf_vector":"1"}},{"base_weights":[2.6241343E-5,6.941862E-2,-2.4236694E-4,8.034578E-2,-1.13331735E-1,1.6880613E-2,-4.471579E-4,-3.043291E-4,1.00829445E-1,-6.983442E-2,-3.3739677E-1,1.2956785E-2,1.416501E-1,6.989409E-5,-1.0715631E-2,-1.7806397E-4,4.427977E-4,7.7894283E-4,3.5091853E-4,-1.1904179E-3,-1.7421719E-4,-2.1199542E-3,-8.672947E-4,-4.7638092E-5,1.7092645E-4,-1.7657461E-4,1.0409427E-3,-8.251334E-7,1.3810572E-4,5.593961E-5,-9.114498E-5],"categories":[],"categories_nodes":[],"categories_segments":[],"categories_sizes":[],"default_left":[0,0,0,0,0,0,0,0,0,0,0,0,0,0,0,0,0,0,0,0,0,0,0,0,0,0,0,0,0,0,0],"id":4,"left_children":[1,3,5,7,9,11,13,15,17,19,21,23,25,27,29,-1,-1,-1,-1,-1,-1,-1,-1,-1,-1,-1,-1,-1,-1,-1,-1],"loss_changes":[1.3709105E1,5.6634398E0,2.5691547E0,4.4207973E0,1.5592577E0,4.2392063E0,3.843942E0,1.4425048E0,3.2949505E0,7.5589526E-1,2.4502707E-1,3.381596E0,2.3052993E0,3.8813071E0,4.4336233E0,0E0,0E0,0E0,0E0,0E0,0E0,0E0,0E0,0E0,0E0,0E0,0E0,0E0,0E0,0E0,0E0],"parents":[2147483647,0,0,1,1,2,2,3,3,4,4,5,5,6,6,7,7,8,8,9,9,10,10,11,11,12,12,13,13,14,14],"right_children":[2,4,6,8,10,12,14,16,18,20,22,24,26,28,30,-1,-1,-1,-1,-1,-1,-1,-1,-1,-1,-1,-1,-1,-1,-1,-1],"split_conditions":[-5.409684E-1,9.84326E-1,-3.681737E-1,9.798271E-2,1.4E1,1.09797254E-1,3.602E1,4.846E1,5.9620596E-2,6.1904764E-1,5.573E1,2.802198E-1,5.0758667E1,7.103001E-1,4.1576087E-1,-1.7806397E-4,4.427977E-4,7.7894283E-4,3.5091853E-4,-1.1904179E-3,-1.7421719E-4,-2.1199542E-3,-8.672947E-4,-4.7638092E-5,1.7092645E-4,-1.7657461E-4,1.0409427E-3,-8.251334E-7,1.3810572E-4,5.593961E-5,-9.114498E-5],"split_indices":[6,26,6,33,39,13,15,15,25,34,15,33,14,5,30,0,0,0,0,0,0,0,0,0,0,0,0,0,0,0,0],"split_type":[0,0,0,0,0,0,0,0,0,0,0,0,0,0,0,0,0,0,0,0,0,0,0,0,0,0,0,0,0,0,0],"sum_hessian":[7.35492E5,2.836E3,7.32656E5,2.676E3,1.6E2,8.659E3,7.23997E5,5.42E2,2.134E3,1.34E2,2.6E1,8.395E3,2.64E2,6.89289E5,3.4708E4,3.88E2,1.54E2,9.79E2,1.155E3,2.7E1,1.07E2,2E1,6E0,3.864E3,4.531E3,5.9E1,2.05E2,6.83313E5,5.976E3,7.783E3,2.6925E4],"tree_param":{"num_deleted":"0","num_feature":"44","num_nodes":"31","size_leaf_vector":"1"}},{"base_weights":[3.6046529E-6,6.1460707E-2,-4.445668E-4,5.310745E-2,1.7949301E-1,-3.276141E-4,-2.9730674E-2,5.7922073E-2,-1.321307E-1,1.3139844E-1,2.5867045E-1,-5.9419323E-4,1.2095312E-2,2.4153508E-2,-6.0780555E-2,5.1066274E-4,1.9858185E-4,-4.1326133E-5,-1.4372271E-3,1.0629339E-3,3.790248E-4,1.1181849E-3,1.909829E-3,3.6161005E-6,-1.5866624E-5,5.0437526E-4,4.7410398E-5,7.5849704E-4,9.152785E-5,-4.6245154E-4,-3.8346392E-5],"categories":[0,3,4,6,9,10,11,3,4,9,11,0,2,3,4,5,6,7,8,9,10,11],"categories_nodes":[7,11,13],"categories_segments":[0,7,11],"categories_sizes":[7,4,11],"default_left":[0,0,0,1,0,0,0,1,1,0,0,1,0,1,0,0,0,0,0,0,0,0,0,0,0,0,0,0,0,0,0],"id":5,"left_children":[1,3,5,7,9,11,13,15,17,19,21,23,25,27,29,-1,-1,-1,-1,-1,-1,-1,-1,-1,-1,-1,-1,-1,-1,-1,-1],"loss_changes":[2.0262903E1,5.2511044E0,2.5015073E0,4.4361553E0,1.3401146E0,2.409068E0,4.86038E0,3.7403278E0,2.0814476E0,8.6867833E-1,6.5200233E-1,2.0905612E0,4.1510906E0,8.949661E-1,2.4175272E0,0E0,0E0,0E0,0E0,0E0,0E0,0E0,0E0,0E0,0E0,0E0,0E0,0E0,0E0,0E0,0E0],"parents":[2147483647,0,0,1,1,2,2,3,3,4,4,5,5,6,6,7,7,8,8,9,9,10,10,11,11,12,12,13,13,14,14],"right_children":[2,4,6,8,10,12,14,16,18,20,22,24,26,28,30,-1,-1,-1,-1,-1,-1,-1,-1,-1,-1,-1,-1,-1,-1,-1,-1],"split_conditions":[-6.728866E-1,1.09797254E-1,1.3511412E-1,2.654127E0,2.16E2,9.594272E-1,4.566474E-1,1E-45,8E1,9.180791E-1,6.8E1,1E-45,1.54639175E-2,1E-45,6.2728733E1,5.1066274E-4,1.9858185E-4,-4.1326133E-5,-1.4372271E-3,1.0629339E-3,3.790248E-4,1.1181849E-3,1.909829E-3,3.6161005E-6,-1.5866624E-5,5.0437526E-4,4.7410398E-5,7.5849704E-4,9.152785E-5,-4.6245154E-4,-3.8346392E-5],"split_indices":[7,13,13,23,42,29,31,43,42,29,18,43,34,43,14,0,0,0,0,0,0,0,0,0,0,0,0,0,0,0,0],"split_type":[0,0,0,0,0,0,0,1,0,0,0,1,0,1,0,0,0,0,0,0,0,0,0,0,0,0,0,0,0,0,0],"sum_hessian":[7.35674E5,5.326E3,7.30348E5,4.974E3,3.52E2,7.27443E5,2.905E3,4.848E3,1.26E2,2.19E2,1.33E2,7.12161E5,1.5282E4,1.062E3,1.843E3,1.799E3,3.049E3,6.5E1,6.1E1,1.07E2,1.12E2,8.5E1,4.8E1,4.62089E5,2.50072E5,6.1E2,1.4672E4,6.3E1,9.99E2,1.267E3,5.76E2],"tree_param":{"num_deleted":"0","num_feature":"44","num_nodes":"31","size_leaf_vector":"1"}},{"base_weights":[3.6413608E-6,6.8776526E-2,-2.66355E-4,8.031437E-2,-1.0100768E-1,-6.6613994E-4,1.2709395E-2,2.8399485E-3,9.992622E-2,-1.9623369E-1,-3.0256359E-2,-5.730724E-4,-8.482776E-2,4.4732527E-3,3.0742496E-2,-4.0007307E-4,3.661162E-4,7.725103E-4,3.4690357E-4,-1.28604E-3,4.369275E-4,1.6213684E-4,-7.1643124E-4,5.2273494E-6,-1.6072509E-5,8.333632E-4,-5.100688E-4,3.3197753E-4,8.912052E-6,-1.7721064E-3,1.7423842E-4],"categories":[3,4,8,9,11,1,4,6,8,9],"categories_nodes":[11,12],"categories_segments":[0,5],"categories_sizes":[5,5],"default_left":[0,0,0,0,0,0,0,1,0,1,0,1,1,0,0,0,0,0,0,0,0,0,0,0,0,0,0,0,0,0,0],"id":6,"left_children":[1,3,5,7,9,11,13,15,17,19,21,23,25,27,29,-1,-1,-1,-1,-1,-1,-1,-1,-1,-1,-1,-1,-1,-1,-1,-1],"loss_changes":[1.3656096E1,5.6340218E0,3.8002195E0,4.0918007E0,1.2329459E0,5.5665145E0,3.2520635E0,2.6906786E0,3.2812977E0,8.7885356E-1,6.42406E-1,2.6041677E0,1.7114301E0,2.4125578E0,3.33182E0,0E0,0E0,0E0,0E0,0E0,0E0,0E0,0E0,0E0,0E0,0E0,0E0,0E0,0E0,0E0,0E0],"parents":[2147483647,0,0,1,1,2,2,3,3,4,4,5,5,6,6,7,7,8,8,9,9,10,10,11,11,12,12,13,13,14,14],"right_children":[2,4,6,8,10,12,14,16,18,20,22,24,26,28,30,-1,-1,-1,-1,-1,-1,-1,-1,-1,-1,-1,-1,-1,-1,-1,-1],"split_conditions":[-5.409684E-1,9.802817E-1,2.0093417E0,9.798271E-2,3.0819672E-1,1.431114E0,6.287049E-1,2.1E1,5.9620596E-2,6.574074E-1,-3.0776547E-2,1E-45,1E-45,3.301887E-2,1.270903E-1,-4.0007307E-4,3.661162E-4,7.725103E-4,3.4690357E-4,-1.28604E-3,4.369275E-4,1.6213684E-4,-7.1643124E-4,5.2273494E-6,-1.6072509E-5,8.333632E-4,-5.100688E-4,3.3197753E-4,8.912052E-6,-1.7721064E-3,1.7423842E-4],"split_indices":[6,26,10,33,33,5,5,18,25,34,16,43,43,34,37,0,0,0,0,0,0,0,0,0,0,0,0,0,0,0,0],"split_type":[0,0,0,0,0,0,0,0,0,0,0,1,1,0,0,0,0,0,0,0,0,0,0,0,0,0,0,0,0,0,0],"sum_hessian":[7.35447E5,2.876E3,7.32571E5,2.693E3,1.83E2,7.10675E5,2.1896E4,5.44E2,2.149E3,7.8E1,1.05E2,7.0989E5,7.85E2,1.5031E4,6.865E3,2.49E2,2.95E2,9.87E2,1.162E3,6.8E1,1E1,6.6E1,3.9E1,4.32002E5,2.77888E5,2.9E1,7.56E2,7.15E2,1.4316E4,2.6E1,6.839E3],"tree_param":{"num_deleted":"0","num_feature":"44","num_nodes":"31","size_leaf_vector":"1"}},{"base_weights":[-1.18272965E-5,6.3867815E-2,-4.7968014E-4,-1.2083184E-1,6.978469E-2,-3.9744275E-4,-4.790516E-2,-1.642708E-1,1.2413151E-1,3.7790433E-2,1.0150818E-1,1.6039796E-2,-6.817549E-4,-8.767775E-2,3.8003672E-2,-4.9309364E-7,-1.2086391E-3,9.996119E-4,-1.6436893E-4,4.9164105E-4,-2.1000385E-5,6.392638E-4,-1.2912393E-4,9.3898045E-5,-1.47507E-3,-2.897335E-6,-2.4000372E-4,-7.212189E-4,-3.0803605E-4,6.71787E-4,-1.5949519E-4],"categories":[],"categories_nodes":[],"categories_segments":[],"categories_sizes":[],"default_left":[0,0,0,0,0,0,0,0,0,0,0,1,0,0,0,0,0,0,0,0,0,0,0,0,0,0,0,0,0,0,0],"id":7,"left_children":[1,3,5,7,9,11,13,15,17,19,21,23,25,27,29,-1,-1,-1,-1,-1,-1,-1,-1,-1,-1,-1,-1,-1,-1,-1,-1],"loss_changes":[2.1982964E1,5.844639E0,2.847911E0,1.76671E0,5.2595425E0,3.40657E0,4.318924E0,1.3521249E0,2.3189932E-1,5.6737294E0,5.303644E0,4.49321E0,4.6156783E0,1.2076168E0,2.311896E0,0E0,0E0,0E0,0E0,0E0,0E0,0E0,0E0,0E0,0E0,0E0,0E0,0E0,0E0,0E0,0E0],"parents":[2147483647,0,0,1,1,2,2,3,3,4,4,5,5,6,6,7,7,8,8,9,9,10,10,11,11,12,12,13,13,14,14],"right_children":[2,4,6,8,10,12,14,16,18,20,22,24,26,28,30,-1,-1,-1,-1,-1,-1,-1,-1,-1,-1,-1,-1,-1,-1,-1,-1],"split_conditions":[-6.728866E-1,1.6491228E-1,1.431114E0,1.0234331E0,1.0801761E-2,-5.2258974E-1,2.8795075E0,2.5670977E0,-3.251215E-1,3.9986813E1,9.67655E-1,1.5413813E-1,1.3511412E-1,4.3583536E-1,3.6832586E-1,-4.9309364E-7,-1.2086391E-3,9.996119E-4,-1.6436893E-4,4.9164105E-4,-2.1000385E-5,6.392638E-4,-1.2912393E-4,9.3898045E-5,-1.47507E-3,-2.897335E-6,-2.4000372E-4,-7.212189E-4,-3.0803605E-4,6.71787E-4,-1.5949519E-4],"split_indices":[7,37,5,5,2,7,10,23,1,14,26,21,13,26,1,0,0,0,0,0,0,0,0,0,0,0,0,0,0,0,0],"split_type":[0,0,0,0,0,0,0,0,0,0,0,0,0,0,0,0,0,0,0,0,0,0,0,0,0,0,0,0,0,0,0],"sum_hessian":[7.35554E5,5.348E3,7.30206E5,1.66E2,5.182E3,7.28942E5,1.264E3,1.41E2,2.5E1,2.58E3,2.602E3,1.2394E4,7.16548E5,8.64E2,4E2,3.7E1,1.04E2,1.8E1,7E0,1.138E3,1.442E3,2.303E3,2.99E2,1.234E4,5.4E1,7.14121E5,2.427E3,3.51E2,5.13E2,1.76E2,2.24E2],"tree_param":{"num_deleted":"0","num_feature":"44","num_nodes":"31","size_leaf_vector":"1"}},{"base_weights":[1.390419E-5,5.0060503E-2,-1.8223845E-4,5.9721947E-2,-1.1807875E-1,-5.0374336E-4,1.3822187E-2,1.0527597E-1,2.5943132E-2,-2.815197E-1,-5.1799446E-2,7.9490873E-4,-2.9005972E-3,1.11408606E-1,1.1151024E-2,-8.952127E-5,8.178944E-4,1.9362507E-3,1.00772464E-4,-8.723326E-4,-1.925685E-3,-4.826649E-4,3.4570097E-4,1.1926345E-6,8.515499E-5,-1.3269666E-5,-1.7664886E-4,-6.816067E-5,7.013294E-4,3.8444228E-4,4.584037E-5],"categories":[0,3,5,6,7,8,9,10,11,3,4,9,11],"categories_nodes":[3,5],"categories_segments":[0,9],"categories_sizes":[9,4],"default_left":[0,0,0,1,0,1,0,0,0,0,0,0,0,0,0,0,0,0,0,0,0,0,0,0,0,0,0,0,0,0,0],"id":8,"left_children":[1,3,5,7,9,11,13,15,17,19,21,23,25,27,29,-1,-1,-1,-1,-1,-1,-1,-1,-1,-1,-1,-1,-1,-1,-1,-1],"loss_changes":[7.219093E0,4.6639338E0,3.2983003E0,4.177725E0,1.689872E0,2.2290206E0,4.285391E0,6.392215E0,3.804318E0,3.977809E-1,4.7602051E-1,3.9788408E0,3.4006135E0,9.666271E-1,2.5836833E0,0E0,0E0,0E0,0E0,0E0,0E0,0E0,0E0,0E0,0E0,0E0,0E0,0E0,0E0,0E0,0E0],"parents":[2147483647,0,0,1,1,2,2,3,3,4,4,5,5,6,6,7,7,8,8,9,9,10,10,11,11,12,12,13,13,14,14],"right_children":[2,4,6,8,10,12,14,16,18,20,22,24,26,28,30,-1,-1,-1,-1,-1,-1,-1,-1,-1,-1,-1,-1,-1,-1,-1,-1],"split_conditions":[-4.945362E-1,9.84326E-1,9.594272E-1,1E-45,2.201087E-1,1E-45,1.0928961E-2,1.4705883E-1,-2.1304096E-1,1.431114E0,5.1478934E4,5.736008E-1,1.0234331E0,-1.0617892E-1,-2.3731975E-1,-8.952127E-5,8.178944E-4,1.9362507E-3,1.00772464E-4,-8.723326E-4,-1.925685E-3,-4.826649E-4,3.4570097E-4,1.1926345E-6,8.515499E-5,-1.3269666E-5,-1.7664886E-4,-6.816067E-5,7.013294E-4,3.8444228E-4,4.584037E-5],"split_indices":[1,26,29,43,33,43,34,33,24,5,41,5,5,12,24,0,0,0,0,0,0,0,0,0,0,0,0,0,0,0,0],"split_type":[0,0,0,1,0,1,0,0,0,0,0,0,0,0,0,0,0,0,0,0,0,0,0,0,0,0,0,0,0,0,0],"sum_hessian":[7.35421E5,2.871E3,7.3255E5,2.715E3,1.56E2,7.1611E5,1.644E4,1.156E3,1.559E3,4.5E1,1.11E2,4.64459E5,2.51651E5,4.38E2,1.6002E4,3.14E2,8.42E2,3.4E1,1.525E3,1.7E1,2.8E1,8.4E1,2.7E1,4.47189E5,1.727E4,2.4784E5,3.811E3,5.5E1,3.83E2,6.94E2,1.5308E4],"tree_param":{"num_deleted":"0","num_feature":"44","num_nodes":"31","size_leaf_vector":"1"}},{"base_weights":[-2.3458564E-5,6.124054E-2,-4.7263008E-4,5.2760035E-2,1.8365286E-1,-2.7526778E-4,-1.8644195E-2,-1.2569438E-1,5.838292E-2,-3.5614606E-2,1.9994578E-1,-6.581904E-4,1.2180654E-2,-1.988396E-3,-4.514821E-2,-1.2704267E-3,1.1413569E-4,1.5834517E-4,4.484345E-4,-1.065958E-3,2.4340977E-4,1.3373423E-3,5.3112395E-4,-2.8908314E-6,-2.4330923E-4,1.3312155E-4,-5.7644643E-6,-5.8084817E-5,2.4665624E-4,-6.9653375E-5,-3.2718733E-4],"categories":[],"categories_nodes":[],"categories_segments":[],"categories_sizes":[],"default_left":[0,0,0,0,0,0,0,0,0,0,0,0,0,0,1,0,0,0,0,0,0,0,0,0,0,0,0,0,0,0,0],"id":9,"left_children":[1,3,5,7,9,11,13,15,17,19,21,23,25,27,29,-1,-1,-1,-1,-1,-1,-1,-1,-1,-1,-1,-1,-1,-1,-1,-1],"loss_changes":[2.0249975E1,5.560074E0,2.6199377E0,5.0262585E0,1.239768E0,3.4469101E0,3.4649093E0,2.4328306E0,3.4375725E0,3.1067684E-1,1.5312653E0,3.8893027E0,3.5237203E0,1.991959E0,1.4811354E0,0E0,0E0,0E0,0E0,0E0,0E0,0E0,0E0,0E0,0E0,0E0,0E0,0E0,0E0,0E0,0E0],"parents":[2147483647,0,0,1,1,2,2,3,3,4,4,5,5,6,6,7,7,8,8,9,9,10,10,11,11,12,12,13,13,14,14],"right_children":[2,4,6,8,10,12,14,16,18,20,22,24,26,28,30,-1,-1,-1,-1,-1,-1,-1,-1,-1,-1,-1,-1,-1,-1,-1,-1],"split_conditions":[-6.728866E-1,1.09797254E-1,9.2246014E-1,1.6491228E-1,5.0758667E1,6.082681E-1,-4.8459974E-1,9.401732E-1,-4.4816067E-3,1.8384402E-1,-1.7520837E-1,1.3511412E-1,3.6103153E-1,1.01876E5,2.8E1,-1.2704267E-3,1.1413569E-4,1.5834517E-4,4.484345E-4,-1.065958E-3,2.4340977E-4,1.3373423E-3,5.3112395E-4,-2.8908314E-6,-2.4330923E-4,1.3312155E-4,-5.7644643E-6,-5.8084817E-5,2.4665624E-4,-6.9653375E-5,-3.2718733E-4],"split_indices":[7,13,5,37,14,5,7,4,2,33,1,13,31,41,18,0,0,0,0,0,0,0,0,0,0,0,0,0,0,0,0],"split_type":[0,0,0,0,0,0,0,0,0,0,0,0,0,0,0,0,0,0,0,0,0,0,0,0,0,0,0,0,0,0,0],"sum_hessian":[7.3588E5,5.356E3,7.30524E5,5.009E3,3.47E2,7.22675E5,7.849E3,1.53E2,4.856E3,2.4E1,3.23E2,7.01121E5,2.1554E4,4.82E3,3.029E3,8.8E1,6.5E1,2.202E3,2.654E3,8E0,1.6E1,2.22E2,1.01E2,6.99133E5,1.988E3,1.1155E4,1.0399E4,4.072E3,7.48E2,9.66E2,2.063E3],"tree_param":{"num_deleted":"0","num_feature":"44","num_nodes":"31","size_leaf_vector":"1"}},{"base_weights":[-2.1379E-5,6.1474394E-2,-4.7396956E-4,5.2835986E-2,1.8359952E-1,-3.5608048E-4,-2.9715423E-2,-1.1960962E-1,5.833151E-2,1.4855751E-1,2.8523222E-1,-2.7758576E-4,-4.812817E-2,1.8484129E-2,-6.15844E-2,-1.2324507E-3,1.1688868E-4,-2.9098135E-4,3.5386655E-4,1.0447245E-3,2.1659788E-4,5.6128233E-4,1.7428696E-3,8.089242E-5,-2.8850732E-6,-5.49683E-4,-9.20664E-5,7.5469207E-4,6.0465085E-5,-4.831531E-4,-1.5832651E-4],"categories":[0,2,3,4,5,6,7,8,9,10,11],"categories_nodes":[13],"categories_segments":[0],"categories_sizes":[11],"default_left":[0,0,0,0,1,0,0,0,0,0,0,0,0,1,0,0,0,0,0,0,0,0,0,0,0,0,0,0,0,0,0],"id":10,"left_children":[1,3,5,7,9,11,13,15,17,19,21,23,25,27,29,-1,-1,-1,-1,-1,-1,-1,-1,-1,-1,-1,-1,-1,-1,-1,-1],"loss_changes":[2.0472628E1,5.669306E0,2.5171595E0,4.7564764E0,1.2639122E0,2.7271283E0,4.5037847E0,2.3509915E0,3.7371368E0,1.2597461E0,5.932002E-1,2.7991343E0,1.9759402E0,1.0332625E0,1.569315E0,0E0,0E0,0E0,0E0,0E0,0E0,0E0,0E0,0E0,0E0,0E0,0E0,0E0,0E0,0E0,0E0],"parents":[2147483647,0,0,1,1,2,2,3,3,4,4,5,5,6,6,7,7,8,8,9,9,10,10,11,11,12,12,13,13,14,14],"right_children":[2,4,6,8,10,12,14,16,18,20,22,24,26,28,30,-1,-1,-1,-1,-1,-1,-1,-1,-1,-1,-1,-1,-1,-1,-1,-1],"split_conditions":[-6.728866E-1,1.09797254E-1,1.3511412E-1,1.6491228E-1,2.23E2,1.431114E0,4.8265895E-1,9.401732E-1,5.0147492E-2,5.081522E-1,-9.855364E5,-5.2258974E-1,4.3583536E-1,1E-45,3.5E1,-1.2324507E-3,1.1688868E-4,-2.9098135E-4,3.5386655E-4,1.0447245E-3,2.1659788E-4,5.6128233E-4,1.7428696E-3,8.089242E-5,-2.8850732E-6,-5.49683E-4,-9.20664E-5,7.5469207E-4,6.0465085E-5,-4.831531E-4,-1.5832651E-4],"split_indices":[7,13,13,37,42,5,31,4,26,33,41,7,26,43,17,0,0,0,0,0,0,0,0,0,0,0,0,0,0,0,0],"split_type":[0,0,0,0,0,0,0,0,0,0,0,0,0,1,0,0,0,0,0,0,0,0,0,0,0,0,0,0,0,0,0],"sum_hessian":[7.35568E5,5.374E3,7.30194E5,5.019E3,3.55E2,7.27262E5,2.932E3,1.55E2,4.864E3,2.64E2,9.1E1,7.26069E5,1.193E3,1.167E3,1.765E3,8.8E1,6.7E1,2.81E2,4.583E3,1.88E2,7.6E1,1.5E1,7.6E1,1.1946E4,7.14123E5,4.41E2,7.52E2,6.7E1,1.1E3,9.56E2,8.09E2],"tree_param":{"num_deleted":"0","num_feature":"44","num_nodes":"31","size_leaf_vector":"1"}},{"base_weights":[-3.445556E-5,6.8283804E-2,-3.0079667E-4,4.7712503E-3,9.363269E-2,1.5087262E-3,-2.1231354E-3,2.0888722E-2,-2.2691548E-1,1.127238E-1,2.6091581E-2,8.767271E-4,1.607785E-2,-1.4460672E-3,-1.6938727E-2,-9.820655E-4,2.2246293E-4,-6.968285E-4,-2.1133234E-3,8.226148E-4,3.486684E-4,-1.2509918E-4,5.2366353E-4,1.2817818E-6,3.966419E-5,4.3024984E-4,6.5863576E-5,-9.611068E-6,1.395815E-4,-3.3092668E-4,-6.803471E-5],"categories":[2,3,4,8,9,11,0,3,5,6,7,9,10,11],"categories_nodes":[2,9],"categories_segments":[0,6],"categories_sizes":[6,8],"default_left":[0,0,1,0,0,0,0,0,0,1,0,1,0,0,0,0,0,0,0,0,0,0,0,0,0,0,0,0,0,0,0],"id":11,"left_children":[1,3,5,7,9,11,13,15,17,19,21,23,25,27,29,-1,-1,-1,-1,-1,-1,-1,-1,-1,-1,-1,-1,-1,-1,-1,-1],"loss_changes":[1.338675E1,4.599701E0,2.416593E0,3.0434616E0,2.6330109E0,3.3857903E0,3.6626587E0,3.0907922E0,8.479495E-1,2.9973621E0,1.5564907E0,1.4518038E0,3.8094802E0,3.0789673E0,3.094367E0,0E0,0E0,0E0,0E0,0E0,0E0,0E0,0E0,0E0,0E0,0E0,0E0,0E0,0E0,0E0,0E0],"parents":[2147483647,0,0,1,1,2,2,3,3,4,4,5,5,6,6,7,7,8,8,9,9,10,10,11,11,12,12,13,13,14,14],"right_children":[2,4,6,8,10,12,14,16,18,20,22,24,26,28,30,-1,-1,-1,-1,-1,-1,-1,-1,-1,-1,-1,-1,-1,-1,-1,-1],"split_conditions":[-5.409684E-1,1.5522388E-1,1E-45,1.3E1,2.6473337E-1,6.082681E-1,3.919E1,1.4916499E-1,-3.1493235E-1,1E-45,4.347826E-2,7.7952605E-1,3.125E-1,7.496859E-1,-1.2025479E-1,-9.820655E-4,2.2246293E-4,-6.968285E-4,-2.1133234E-3,8.226148E-4,3.486684E-4,-1.2509918E-4,5.2366353E-4,1.2817818E-6,3.966419E-5,4.3024984E-4,6.5863576E-5,-9.611068E-6,1.395815E-4,-3.3092668E-4,-6.803471E-5],"split_indices":[6,33,43,39,2,5,15,19,0,43,30,20,36,5,16,0,0,0,0,0,0,0,0,0,0,0,0,0,0,0,0],"split_type":[0,0,1,0,0,0,0,0,0,1,0,0,0,0,0,0,0,0,0,0,0,0,0,0,0,0,0,0,0,0,0],"sum_hessian":[7.35699E5,2.857E3,7.32842E5,8.15E2,2.042E3,3.67714E5,3.65128E5,7.62E2,5.3E1,1.592E3,4.5E2,3.52426E5,1.5288E4,3.49171E5,1.5957E4,6.9E1,6.93E2,3.3E1,2E1,8.84E2,7.08E2,2.65E2,1.85E2,3.20501E5,3.1925E4,8.98E2,1.439E4,3.45047E5,4.124E3,1.451E3,1.4506E4],"tree_param":{"num_deleted":"0","num_feature":"44","num_nodes":"31","size_leaf_vector":"1"}},{"base_weights":[2.5816302E-5,6.136978E-2,-4.2520912E-4,5.308112E-2,1.7952539E-1,5.0427236E-5,-8.679352E-3,-1.1378813E-1,5.8470868E-2,1.8966524E-1,-6.5240316E-2,-1.3918083E-4,2.1764385E-2,9.431182E-3,-1.6571509E-2,-1.1937236E-3,1.5631306E-4,5.2073726E-4,2.021492E-4,2.950969E-4,1.1197252E-3,-7.1934366E-4,3.0342914E-4,6.2625804E-6,-1.1423359E-5,3.3029568E-4,7.224646E-5,4.3326047E-5,6.5218663E-4,-5.1510597E-5,-2.668098E-4],"categories":[0,3,4,6,9,10,11,3,4,8,9,11,0,1,4,5,6,8,9,10],"categories_nodes":[8,11,12],"categories_segments":[0,7,12],"categories_sizes":[7,5,8],"default_left":[0,0,0,0,0,0,0,0,1,0,0,1,1,0,0,0,0,0,0,0,0,0,0,0,0,0,0,0,0,0,0],"id":12,"left_children":[1,3,5,7,9,11,13,15,17,19,21,23,25,27,29,-1,-1,-1,-1,-1,-1,-1,-1,-1,-1,-1,-1,-1,-1,-1,-1],"loss_changes":[2.0356361E1,5.2590313E0,2.8674307E0,4.51318E0,8.737745E-1,2.8432195E0,5.687807E0,2.3762605E0,3.86619E0,7.603607E-1,1.1427842E-1,1.7397398E0,1.97542E0,1.9377278E0,6.395293E0,0E0,0E0,0E0,0E0,0E0,0E0,0E0,0E0,0E0,0E0,0E0,0E0,0E0,0E0,0E0,0E0],"parents":[2147483647,0,0,1,1,2,2,3,3,4,4,5,5,6,6,7,7,8,8,9,9,10,10,11,11,12,12,13,13,14,14],"right_children":[2,4,6,8,10,12,14,16,18,20,22,24,26,28,30,-1,-1,-1,-1,-1,-1,-1,-1,-1,-1,-1,-1,-1,-1,-1,-1],"split_conditions":[-6.728866E-1,1.09797254E-1,3.602E1,1.6491228E-1,3.189636E-1,7.103001E-1,4.0419948E-1,9.401732E-1,1E-45,-1.2025479E-1,2.0980184E0,1E-45,1E-45,1.3E1,4.6815764E-2,-1.1937236E-3,1.5631306E-4,5.2073726E-4,2.021492E-4,2.950969E-4,1.1197252E-3,-7.1934366E-4,3.0342914E-4,6.2625804E-6,-1.1423359E-5,3.3029568E-4,7.224646E-5,4.3326047E-5,6.5218663E-4,-5.1510597E-5,-2.668098E-4],"split_indices":[7,13,15,37,1,5,30,4,43,16,9,43,43,39,13,0,0,0,0,0,0,0,0,0,0,0,0,0,0,0,0],"split_type":[0,0,0,0,0,0,0,0,1,0,0,1,1,0,0,0,0,0,0,0,0,0,0,0,0,0,0,0,0,0,0],"sum_hessian":[7.35745E5,5.37E3,7.30375E5,5.018E3,3.52E2,6.90581E5,3.9794E4,1.57E2,4.861E3,3.38E2,1.4E1,6.84603E5,5.978E3,1.2078E4,2.7716E4,9E1,6.7E1,1.758E3,3.103E3,3.7E1,3.01E2,9E0,5E0,4.12943E5,2.7166E5,1.063E3,4.915E3,1.1922E4,1.56E2,2.2768E4,4.948E3],"tree_param":{"num_deleted":"0","num_feature":"44","num_nodes":"31","size_leaf_vector":"1"}},{"base_weights":[-4.8826994E-5,5.905044E-2,-4.8576508E-4,5.069033E-2,1.821803E-1,5.13755E-6,-8.999888E-3,5.785845E-2,-8.035757E-2,1.3626629E-1,2.5739232E-1,-1.7839303E-4,2.120363E-2,5.791068E-3,-1.84562E-2,-3.1216766E-4,3.563323E-4,-6.269919E-4,7.61641E-4,9.146142E-4,-9.276475E-5,1.1307922E-3,1.9171637E-3,6.016763E-6,-1.1591232E-5,3.1755524E-4,7.0388385E-5,2.3165054E-5,6.2532345E-4,-5.9711096E-5,-2.8482257E-4],"categories":[3,4,8,9,11,0,1,4,5,6,8,9,10],"categories_nodes":[11,12],"categories_segments":[0,5],"categories_sizes":[5,8],"default_left":[0,0,0,0,0,0,0,0,1,0,0,1,1,0,0,0,0,0,0,0,0,0,0,0,0,0,0,0,0,0,0],"id":13,"left_children":[1,3,5,7,9,11,13,15,17,19,21,23,25,27,29,-1,-1,-1,-1,-1,-1,-1,-1,-1,-1,-1,-1,-1,-1,-1,-1],"loss_changes":[1.8982594E1,5.553417E0,3.0499287E0,4.745737E0,1.1841593E0,2.6842494E0,5.5639467E0,4.3055325E0,2.0329595E0,1.0531647E0,6.1041355E-1,1.7227848E0,1.8192244E0,2.5856407E0,6.1542435E0,0E0,0E0,0E0,0E0,0E0,0E0,0E0,0E0,0E0,0E0,0E0,0E0,0E0,0E0,0E0,0E0],"parents":[2147483647,0,0,1,1,2,2,3,3,4,4,5,5,6,6,7,7,8,8,9,9,10,10,11,11,12,12,13,13,14,14],"right_children":[2,4,6,8,10,12,14,16,18,20,22,24,26,28,30,-1,-1,-1,-1,-1,-1,-1,-1,-1,-1,-1,-1,-1,-1,-1,-1],"split_conditions":[-6.728866E-1,1.09797254E-1,3.602E1,9.802817E-1,2.23E2,7.103001E-1,4.827586E-1,4.610951E-2,3.65E2,1.2128881E0,6.8E1,1E-45,1E-45,2.5691173E0,4.6815764E-2,-3.1216766E-4,3.563323E-4,-6.269919E-4,7.61641E-4,9.146142E-4,-9.276475E-5,1.1307922E-3,1.9171637E-3,6.016763E-6,-1.1591232E-5,3.1755524E-4,7.0388385E-5,2.3165054E-5,6.2532345E-4,-5.9711096E-5,-2.8482257E-4],"split_indices":[7,13,15,26,42,5,30,26,42,9,18,43,43,10,13,0,0,0,0,0,0,0,0,0,0,0,0,0,0,0,0],"split_type":[0,0,0,0,0,0,0,0,0,0,0,1,1,0,0,0,0,0,0,0,0,0,0,0,0,0,0,0,0,0,0],"sum_hessian":[7.35112E5,5.395E3,7.29717E5,5.052E3,3.43E2,6.89937E5,3.978E4,4.79E3,2.62E2,2.13E2,1.3E2,6.84015E5,5.922E3,1.5514E4,2.4266E4,3.03E2,4.487E3,2.26E2,3.6E1,1.76E2,3.7E1,8.6E1,4.4E1,4.12668E5,2.71347E5,1.071E3,4.851E3,1.5301E4,2.13E2,1.9904E4,4.362E3],"tree_param":{"num_deleted":"0","num_feature":"44","num_nodes":"31","size_leaf_vector":"1"}},{"base_weights":[3.9040613E-5,6.1490737E-2,-4.1154283E-4,-1.12733595E-1,6.66142E-2,7.919184E-5,-8.944014E-3,-2.197333E-1,2.4621647E-2,3.489941E-2,9.809796E-2,1.4817871E-2,-1.0369361E-4,7.66694E-3,-1.7262356E-2,-1.0387835E-3,-1.5896108E-3,3.8941033E-4,-6.184053E-4,4.7327275E-4,-3.0651838E-5,6.279801E-4,-9.4950505E-5,2.7120444E-3,7.57544E-5,6.4452015E-6,-1.1202994E-5,1.462107E-4,3.6959548E-6,-5.254322E-5,-3.1441165E-4],"categories":[3,4,8,9,11,0,3,4,5,6,8,9,10,11],"categories_nodes":[12,13],"categories_segments":[0,5],"categories_sizes":[5,9],"default_left":[0,0,0,0,0,0,0,0,0,0,0,0,1,1,0,0,0,0,0,0,0,0,0,0,0,0,0,0,0,0,0],"id":14,"left_children":[1,3,5,7,9,11,13,15,17,19,21,23,25,27,29,-1,-1,-1,-1,-1,-1,-1,-1,-1,-1,-1,-1,-1,-1,-1,-1],"loss_changes":[2.037426E1,4.781025E0,3.058592E0,2.2488384E0,5.195177E0,1.8618802E0,5.4893045E0,1.7776823E-1,4.3758714E-1,5.496027E0,5.311529E0,3.5346634E0,1.7268456E0,1.7845666E0,8.161312E0,0E0,0E0,0E0,0E0,0E0,0E0,0E0,0E0,0E0,0E0,0E0,0E0,0E0,0E0,0E0,0E0],"parents":[2147483647,0,0,1,1,2,2,3,3,4,4,5,5,6,6,7,7,8,8,9,9,10,10,11,11,12,12,13,13,14,14],"right_children":[2,4,6,8,10,12,14,16,18,20,22,24,26,28,30,-1,-1,-1,-1,-1,-1,-1,-1,-1,-1,-1,-1,-1,-1,-1,-1],"split_conditions":[-6.728866E-1,1.8814147E-1,3.602E1,9.401732E-1,1.0801761E-2,-4.8459974E-1,4.3063584E-1,-5.409684E-1,5.945946E-1,3.9986813E1,9.636804E-1,4.138565E-2,1E-45,1E-45,5.4228004E1,-1.0387835E-3,-1.5896108E-3,3.8941033E-4,-6.184053E-4,4.7327275E-4,-3.0651838E-5,6.279801E-4,-9.4950505E-5,2.7120444E-3,7.57544E-5,6.4452015E-6,-1.1202994E-5,1.462107E-4,3.6959548E-6,-5.254322E-5,-3.1441165E-4],"split_indices":[7,22,15,4,2,7,30,6,32,14,26,22,43,43,14,0,0,0,0,0,0,0,0,0,0,0,0,0,0,0,0],"split_type":[0,0,0,0,0,0,0,0,0,0,0,0,1,1,0,0,0,0,0,0,0,0,0,0,0,0,0,0,0,0,0],"sum_hessian":[7.35822E5,5.356E3,7.30466E5,1.53E2,5.203E3,6.90739E5,3.9727E4,8.6E1,6.7E1,2.592E3,2.611E3,8.466E3,6.82273E5,1.3256E4,2.6471E4,6.2E1,2.4E1,5E1,1.7E1,1.132E3,1.46E3,2.266E3,3.45E2,1.5E1,8.451E3,4.11345E5,2.70928E5,3.527E3,9.729E3,2.2311E4,4.16E3],"tree_param":{"num_deleted":"0","num_feature":"44","num_nodes":"31","size_leaf_vector":"1"}},{"base_weights":[4.301634E-6,6.672974E-2,-2.5445E-4,7.8276806E-2,-1.00007534E-1,-5.9194764E-4,1.4640848E-2,5.678859E-3,9.67518E-2,-1.9153447E-1,-2.1412343E-2,-1.7197983E-2,-4.0002554E-4,4.0669225E-2,4.3757E-3,2.991424E-4,-2.6579422E-4,6.8964873E-4,2.9861342E-4,4.914301E-4,-1.2672357E-3,5.679196E-4,-4.137143E-4,-5.3869175E-5,-3.940011E-4,1.2811305E-4,-3.2631485E-6,2.1152436E-4,2.699992E-3,3.1756073E-5,-5.229353E-4],"categories":[4,6,8,0,3,6,7,9,10,11],"categories_nodes":[7,8],"categories_segments":[0,3],"categories_sizes":[3,7],"default_left":[0,0,0,0,0,0,0,1,1,0,0,0,0,1,0,0,0,0,0,0,0,0,0,0,0,0,0,0,0,0,0],"id":15,"left_children":[1,3,5,7,9,11,13,15,17,19,21,23,25,27,29,-1,-1,-1,-1,-1,-1,-1,-1,-1,-1,-1,-1,-1,-1,-1,-1],"loss_changes":[1.2698035E1,5.469949E0,3.6829948E0,3.5637016E0,1.3236494E0,2.2831876E0,4.3369503E0,1.4561436E0,2.6789742E0,1.0058115E0,6.840733E-1,3.2975624E0,3.4196436E0,3.5620995E0,1.7293197E0,0E0,0E0,0E0,0E0,0E0,0E0,0E0,0E0,0E0,0E0,0E0,0E0,0E0,0E0,0E0,0E0],"parents":[2147483647,0,0,1,1,2,2,3,3,4,4,5,5,6,6,7,7,8,8,9,9,10,10,11,11,12,12,13,13,14,14],"right_children":[2,4,6,8,10,12,14,16,18,20,22,24,26,28,30,-1,-1,-1,-1,-1,-1,-1,-1,-1,-1,-1,-1,-1,-1,-1,-1],"split_conditions":[-5.409684E-1,9.802817E-1,9.594272E-1,9.798271E-2,3.0819672E-1,-1.4777741E-1,3.0294595E-2,1E-45,1E-45,1.270903E-1,2.8E1,9.401732E-1,-3.681737E-1,4.1577563E0,4.846E1,2.991424E-4,-2.6579422E-4,6.8964873E-4,2.9861342E-4,4.914301E-4,-1.2672357E-3,5.679196E-4,-4.137143E-4,-5.3869175E-5,-3.940011E-4,1.2811305E-4,-3.2631485E-6,2.1152436E-4,2.699992E-3,3.1756073E-5,-5.229353E-4],"split_indices":[6,26,29,33,33,16,21,43,43,37,42,4,6,23,15,0,0,0,0,0,0,0,0,0,0,0,0,0,0,0,0],"split_type":[0,0,0,0,0,0,0,1,1,0,0,0,0,0,0,0,0,0,0,0,0,0,0,0,0,0,0,0,0,0,0],"sum_hessian":[7.35465E5,2.841E3,7.32624E5,2.657E3,1.84E2,7.16392E5,1.6232E4,5.39E2,2.118E3,8.5E1,9.9E1,8.185E3,7.08207E5,4.591E3,1.1641E4,2.83E2,2.56E2,1.227E3,8.91E2,1.1E1,7.4E1,3E1,6.9E1,7.235E3,9.5E2,5.886E3,7.02321E5,4.574E3,1.7E1,1.1473E4,1.68E2],"tree_param":{"num_deleted":"0","num_feature":"44","num_nodes":"31","size_leaf_vector":"1"}},{"base_weights":[2.261008E-5,6.1360657E-2,-4.2990045E-4,-1.1546094E-1,6.6670924E-2,-2.3256458E-4,-1.8482072E-2,-1.5410389E-1,1.21628374E-1,2.5751216E-2,9.3342915E-2,-6.250023E-4,1.2512922E-2,-1.4092678E-3,-4.5620345E-2,7.805695E-5,-1.1564982E-3,9.53273E-4,-1.217045E-4,4.6986982E-4,-1.5951291E-4,5.5030215E-4,-4.5818658E-4,-5.452235E-6,2.634743E-5,1.5589054E-4,-5.948257E-6,-1.0785174E-4,1.7941474E-4,-7.6985176E-5,-3.2630865E-4],"categories":[0,4,5,6,8,9,10],"categories_nodes":[12],"categories_segments":[0],"categories_sizes":[7],"default_left":[0,0,0,0,0,0,0,0,0,0,0,1,1,0,1,0,0,0,0,0,0,0,0,0,0,0,0,0,0,0,0],"id":16,"left_children":[1,3,5,7,9,11,13,15,17,19,21,23,25,27,29,-1,-1,-1,-1,-1,-1,-1,-1,-1,-1,-1,-1,-1,-1,-1,-1],"loss_changes":[2.040979E1,5.0564423E0,2.6002986E0,1.4386873E0,5.705879E0,3.6115468E0,3.6570396E0,1.341321E0,1.7124745E-1,6.918015E0,4.524992E0,1.4565287E0,4.7572284E0,3.0825865E0,1.3891497E0,0E0,0E0,0E0,0E0,0E0,0E0,0E0,0E0,0E0,0E0,0E0,0E0,0E0,0E0,0E0,0E0],"parents":[2147483647,0,0,1,1,2,2,3,3,4,4,5,5,6,6,7,7,8,8,9,9,10,10,11,11,12,12,13,13,14,14],"right_children":[2,4,6,8,10,12,14,16,18,20,22,24,26,28,30,-1,-1,-1,-1,-1,-1,-1,-1,-1,-1,-1,-1,-1,-1,-1,-1],"split_conditions":[-6.728866E-1,1.8814147E-1,9.2246014E-1,1.0234331E0,-1.5553414E-2,6.082681E-1,-4.8459974E-1,-6.9255106E-2,-1.3952832E-1,3.9986813E1,9.3891585E-1,1.4266492E0,1E-45,2.114183E0,2.8E1,7.805695E-5,-1.1564982E-3,9.53273E-4,-1.217045E-4,4.6986982E-4,-1.5951291E-4,5.5030215E-4,-4.5818658E-4,-5.452235E-6,2.634743E-5,1.5589054E-4,-5.948257E-6,-1.0785174E-4,1.7941474E-4,-7.6985176E-5,-3.2630865E-4],"split_indices":[7,22,5,5,2,5,7,21,0,14,2,20,43,10,18,0,0,0,0,0,0,0,0,0,0,0,0,0,0,0,0],"split_type":[0,0,0,0,0,0,0,0,0,0,0,0,1,0,0,0,0,0,0,0,0,0,0,0,0,0,0,0,0,0,0],"sum_hessian":[7.35326E5,5.385E3,7.29941E5,1.57E2,5.228E3,7.22048E5,7.893E3,1.35E2,2.2E1,2.063E3,3.165E3,7.0048E5,2.1568E4,4.845E3,3.048E3,3.5E1,1E2,1.6E1,6E0,9.81E2,1.082E3,3.028E3,1.37E2,6.55106E5,4.5374E4,9.844E3,1.1724E4,3.155E3,1.69E3,9.62E2,2.086E3],"tree_param":{"num_deleted":"0","num_feature":"44","num_nodes":"31","size_leaf_vector":"1"}},{"base_weights":[2.0752788E-5,5.958255E-2,-4.1884257E-4,-1.24019094E-1,6.531045E-2,-3.4072192E-4,-4.5855697E-2,-1.5727495E-1,1.13719895E-1,2.7005883E-2,9.034158E-2,1.650147E-2,-6.3160167E-4,-6.79665E-2,3.1333648E-2,2.7295397E-5,-1.1611345E-3,9.53052E-4,-1.665717E-4,4.6399038E-4,-1.3568808E-4,5.3595507E-4,-4.9323105E-4,1.0508216E-4,-5.161682E-4,-2.635789E-6,-2.3501256E-4,-6.26976E-4,-1.9803109E-4,2.5140468E-4,-7.7970984E-4],"categories":[],"categories_nodes":[],"categories_segments":[],"categories_sizes":[],"default_left":[0,0,0,0,0,0,0,0,0,0,0,1,0,0,0,0,0,0,0,0,0,0,0,0,0,0,0,0,0,0,0],"id":17,"left_children":[1,3,5,7,9,11,13,15,17,19,21,23,25,27,29,-1,-1,-1,-1,-1,-1,-1,-1,-1,-1,-1,-1,-1,-1,-1,-1],"loss_changes":[1.9255621E1,5.6663857E0,2.591297E0,1.2889717E0,5.009754E0,3.5703363E0,2.1385565E0,1.314879E0,1.7882612E-1,6.279976E0,4.810707E0,3.9470491E0,4.462499E0,1.4578757E0,7.316346E-1,0E0,0E0,0E0,0E0,0E0,0E0,0E0,0E0,0E0,0E0,0E0,0E0,0E0,0E0,0E0,0E0],"parents":[2147483647,0,0,1,1,2,2,3,3,4,4,5,5,6,6,7,7,8,8,9,9,10,10,11,11,12,12,13,13,14,14],"right_children":[2,4,6,8,10,12,14,16,18,20,22,24,26,28,30,-1,-1,-1,-1,-1,-1,-1,-1,-1,-1,-1,-1,-1,-1,-1,-1],"split_conditions":[-6.728866E-1,1.8814147E-1,1.431114E0,1.0234331E0,-1.5553414E-2,-5.2258974E-1,1.01876E5,-1.6831674E-1,-3.251215E-1,3.9986813E1,9.3891585E-1,6.08871E-1,1.3511412E-1,4.3583536E-1,8.4E1,2.7295397E-5,-1.1611345E-3,9.53052E-4,-1.665717E-4,4.6399038E-4,-1.3568808E-4,5.3595507E-4,-4.9323105E-4,1.0508216E-4,-5.161682E-4,-2.635789E-6,-2.3501256E-4,-6.26976E-4,-1.9803109E-4,2.5140468E-4,-7.7970984E-4],"split_indices":[7,22,5,5,2,7,41,19,1,14,2,36,13,26,18,0,0,0,0,0,0,0,0,0,0,0,0,0,0,0,0],"split_type":[0,0,0,0,0,0,0,0,0,0,0,0,0,0,0,0,0,0,0,0,0,0,0,0,0,0,0,0,0,0,0],"sum_hessian":[7.35422E5,5.388E3,7.30034E5,1.63E2,5.225E3,7.28781E5,1.253E3,1.43E2,2E1,2.065E3,3.16E3,1.2373E4,7.16408E5,9.74E2,2.79E2,3.7E1,1.06E2,1.4E1,6E0,9.72E2,1.093E3,3.02E3,1.4E2,1.2064E4,3.09E2,7.13965E5,2.443E3,3.88E2,5.86E2,2.57E2,2.2E1],"tree_param":{"num_deleted":"0","num_feature":"44","num_nodes":"31","size_leaf_vector":"1"}},{"base_weights":[-2.5303847E-5,5.8466345E-2,-4.5389033E-4,6.551538E-2,-7.413133E-2,1.9446872E-5,-8.6603025E-3,2.3608144E-2,9.5394425E-2,1.0698201E-1,-1.1836929E-1,-2.1303385E-4,1.8673267E-2,5.976634E-3,-1.7979966E-2,-3.3181344E-4,1.9894268E-4,3.3695443E-4,6.958236E-4,1.2285719E-3,4.6524842E-4,-1.4454754E-3,-4.7194728E-4,5.725961E-6,-1.1632142E-5,1.9738694E-4,6.0882207E-6,2.4093137E-5,6.309571E-4,-1.329935E-4,4.2628606E-5],"categories":[0,2,3,4,5,6,7,8,9,10,11,3,4,8,9,11],"categories_nodes":[9,11],"categories_segments":[0,11],"categories_sizes":[11,5],"default_left":[0,0,0,0,0,0,0,0,0,1,0,1,0,0,1,0,0,0,0,0,0,0,0,0,0,0,0,0,0,0,0],"id":18,"left_children":[1,3,5,7,9,11,13,15,17,19,21,23,25,27,29,-1,-1,-1,-1,-1,-1,-1,-1,-1,-1,-1,-1,-1,-1,-1,-1],"loss_changes":[1.8434517E1,4.999691E0,2.835651E0,6.3596516E0,2.1634703E0,2.9931588E0,5.430538E0,2.3368092E0,3.240055E0,1.3436949E-1,1.0084708E0,1.6682727E0,2.6382926E0,2.6261454E0,4.0982995E0,0E0,0E0,0E0,0E0,0E0,0E0,0E0,0E0,0E0,0E0,0E0,0E0,0E0,0E0,0E0,0E0],"parents":[2147483647,0,0,1,1,2,2,3,3,4,4,5,5,6,6,7,7,8,8,9,9,10,10,11,11,12,12,13,13,14,14],"right_children":[2,4,6,8,10,12,14,16,18,20,22,24,26,28,30,-1,-1,-1,-1,-1,-1,-1,-1,-1,-1,-1,-1,-1,-1,-1,-1],"split_conditions":[-6.728866E-1,9.802817E-1,3.602E1,-1.5553414E-2,9.2840093E-1,6.5092206E-1,4.827586E-1,4.232804E-2,1.6938912E0,1E-45,9.649123E-1,1E-45,2.684E1,2.5691173E0,7.2E1,-3.3181344E-4,1.9894268E-4,3.3695443E-4,6.958236E-4,1.2285719E-3,4.6524842E-4,-1.4454754E-3,-4.7194728E-4,5.725961E-6,-1.1632142E-5,1.9738694E-4,6.0882207E-6,2.4093137E-5,6.309571E-4,-1.329935E-4,4.2628606E-5],"split_indices":[7,26,15,2,29,5,30,26,10,43,29,43,15,10,18,0,0,0,0,0,0,0,0,0,0,0,0,0,0,0,0],"split_type":[0,0,0,0,0,0,0,0,0,1,0,1,0,0,0,0,0,0,0,0,0,0,0,0,0,0,0,0,0,0,0],"sum_hessian":[7.35359E5,5.349E3,7.3001E5,5.079E3,2.7E2,6.902E5,3.981E4,2.114E3,2.965E3,5.3E1,2.17E2,6.81704E5,8.496E3,1.5487E4,2.4323E4,2.82E2,1.832E3,1.471E3,1.494E3,8E0,4.5E1,3.8E1,1.79E2,4.11417E5,2.70287E5,4.231E3,4.265E3,1.5274E4,2.13E2,1.942E4,4.903E3],"tree_param":{"num_deleted":"0","num_feature":"44","num_nodes":"31","size_leaf_vector":"1"}},{"base_weights":[5.91998E-6,5.9096027E-2,-4.3033803E-4,-1.1412659E-1,6.453223E-2,2.0665602E-5,-8.268689E-3,-2.216911E-1,1.6707424E-2,2.7692357E-2,8.8637166E-2,-2.4341105E-4,1.5191634E-2,6.5379245E-3,-1.7281825E-2,-1.2990639E-3,-2.2128709E-4,-1.8291177E-4,8.82353E-4,4.6142956E-4,-1.362362E-4,5.2411534E-4,-4.97413E-4,-2.7005644E-6,3.946886E-5,6.242967E-4,7.040441E-5,2.678854E-5,6.1564345E-4,-5.1887935E-5,-3.1882327E-4],"categories":[],"categories_nodes":[],"categories_segments":[],"categories_sizes":[],"default_left":[0,0,0,0,0,0,0,0,0,0,0,1,0,0,0,0,0,0,0,0,0,0,0,0,0,0,0,0,0,0,0],"id":19,"left_children":[1,3,5,7,9,11,13,15,17,19,21,23,25,27,29,-1,-1,-1,-1,-1,-1,-1,-1,-1,-1,-1,-1,-1,-1,-1,-1],"loss_changes":[1.8958923E1,5.0757027E0,2.580867E0,2.3081665E0,4.640793E0,2.7657204E0,5.30093E0,2.8722763E-1,5.441757E-1,6.2548494E0,4.512806E0,1.2958604E0,2.618163E0,2.574407E0,7.904541E0,0E0,0E0,0E0,0E0,0E0,0E0,0E0,0E0,0E0,0E0,0E0,0E0,0E0,0E0,0E0,0E0],"parents":[2147483647,0,0,1,1,2,2,3,3,4,4,5,5,6,6,7,7,8,8,9,9,10,10,11,11,12,12,13,13,14,14],"right_children":[2,4,6,8,10,12,14,16,18,20,22,24,26,28,30,-1,-1,-1,-1,-1,-1,-1,-1,-1,-1,-1,-1,-1,-1,-1,-1],"split_conditions":[-6.728866E-1,1.8814147E-1,3.602E1,9.401732E-1,-1.5553414E-2,6.082681E-1,4.7164178E-1,5.601387E-2,7.035176E-1,3.9986813E1,9.3891585E-1,9.249012E-1,1.54639175E-2,2.5691173E0,5.4228004E1,-1.2990639E-3,-2.2128709E-4,-1.8291177E-4,8.82353E-4,4.6142956E-4,-1.362362E-4,5.2411534E-4,-4.97413E-4,-2.7005644E-6,3.946886E-5,6.242967E-4,7.040441E-5,2.678854E-5,6.1564345E-4,-5.1887935E-5,-3.1882327E-4],"split_indices":[7,22,15,4,2,5,30,13,34,14,2,35,34,10,14,0,0,0,0,0,0,0,0,0,0,0,0,0,0,0,0],"split_type":[0,0,0,0,0,0,0,0,0,0,0,0,0,0,0,0,0,0,0,0,0,0,0,0,0,0,0,0,0,0,0],"sum_hessian":[7.35454E5,5.39E3,7.30064E5,1.64E2,5.226E3,6.90343E5,3.9721E4,9E1,7.4E1,2.067E3,3.159E3,6.78532E5,1.1811E4,1.503E4,2.4691E4,8.2E1,8E0,5.5E1,1.9E1,9.91E2,1.076E3,3.026E3,1.33E2,6.56337E5,2.2195E4,2.57E2,1.1554E4,1.4808E4,2.22E2,2.0814E4,3.877E3],"tree_param":{"num_deleted":"0","num_feature":"44","num_nodes":"31","size_leaf_vector":"1"}},{"base_weights":[-3.6762885E-5,-3.9774875E-4,2.2749117E-2,-3.0316185E-4,-5.3329762E-2,6.6649534E-2,1.27197765E-2,-6.872911E-4,9.484288E-3,-1.10548995E-1,9.269047E-3,2.2400836E-2,1.327114E-1,7.9752125E-2,9.955008E-3,-3.072216E-6,-2.3401942E-4,1.3860584E-4,-5.6170757E-5,-2.0196981E-4,-8.770747E-4,5.7926803E-4,-1.8327919E-4,1.5975218E-4,-2.056351E-3,8.2164357E-4,-3.045982E-4,3.6988108E-4,2.69817E-3,3.612719E-5,3.2661148E-4],"categories":[],"categories_nodes":[],"categories_segments":[],"categories_sizes":[],"default_left":[0,0,0,0,0,0,0,0,0,0,0,0,0,1,0,0,0,0,0,0,0,0,0,0,0,0,0,0,0,0,0],"id":20,"left_children":[1,3,5,7,9,11,13,15,17,19,21,23,25,27,29,-1,-1,-1,-1,-1,-1,-1,-1,-1,-1,-1,-1,-1,-1,-1,-1],"loss_changes":[6.0521693E0,3.6264198E0,5.05235E0,2.7183182E0,4.627804E0,6.2380047E0,1.7311516E0,3.5798237E0,8.692777E0,2.5266504E0,2.5877595E0,3.6058402E0,3.0171394E0,1.7919848E0,1.4862666E0,0E0,0E0,0E0,0E0,0E0,0E0,0E0,0E0,0E0,0E0,0E0,0E0,0E0,0E0,0E0,0E0],"parents":[2147483647,0,0,1,1,2,2,3,3,4,4,5,5,6,6,7,7,8,8,9,9,10,10,11,11,12,12,13,13,14,14],"right_children":[2,4,6,8,10,12,14,16,18,20,22,24,26,28,30,-1,-1,-1,-1,-1,-1,-1,-1,-1,-1,-1,-1,-1,-1,-1,-1],"split_conditions":[2.2697778E0,1.431114E0,8.2051285E-2,6.082681E-1,1.85E2,1.0234331E0,-7.578499E-2,1.3511412E-1,3.8439307E-1,4.3E1,3.7175792E-1,2E1,9.8876405E-1,4.1577563E0,1.4352E5,-3.072216E-6,-2.3401942E-4,1.3860584E-4,-5.6170757E-5,-2.0196981E-4,-8.770747E-4,5.7926803E-4,-1.8327919E-4,1.5975218E-4,-2.056351E-3,8.2164357E-4,-3.045982E-4,3.6988108E-4,2.69817E-3,3.612719E-5,3.2661148E-4],"split_indices":[10,5,25,5,42,5,19,13,31,42,33,39,26,23,41,0,0,0,0,0,0,0,0,0,0,0,0,0,0,0,0],"split_type":[0,0,0,0,0,0,0,0,0,0,0,0,0,0,0,0,0,0,0,0,0,0,0,0,0,0,0,0,0,0,0],"sum_hessian":[7.35792E5,7.24317E5,1.1475E4,7.23025E5,1.292E3,2.134E3,9.341E3,6.9572E5,2.7305E4,6.75E2,6.17E2,1.278E3,8.56E2,3.7E2,8.971E3,6.93737E5,1.983E3,1.5091E4,1.2214E4,2.77E2,3.98E2,1.89E2,4.28E2,1.256E3,2.2E1,7.79E2,7.7E1,3.6E2,1E1,8.418E3,5.53E2],"tree_param":{"num_deleted":"0","num_feature":"44","num_nodes":"31","size_leaf_vector":"1"}},{"base_weights":[-3.485813E-7,5.7269778E-2,-4.2264521E-4,6.2107112E-2,-1.2931414E-1,6.835822E-5,-8.932005E-3,2.3922361E-2,8.72536E-2,-2.3622844E-1,-4.2337198E-2,-2.0680438E-4,1.2543718E-2,5.2125733E-3,-1.7925702E-2,-7.277388E-5,2.8703545E-4,5.4574147E-4,-1.04390194E-4,-1.0933179E-3,-1.978242E-3,4.207114E-4,-9.7314524E-4,1.8996562E-6,-2.6102422E-5,3.7930833E-4,4.4476452E-5,1.9776648E-5,6.134666E-4,-1.3162554E-4,3.897146E-5],"categories":[],"categories_nodes":[],"categories_segments":[],"categories_sizes":[],"default_left":[0,1,0,0,0,0,0,0,0,0,0,0,0,0,1,0,0,0,0,0,0,0,0,0,0,0,0,0,0,0,0],"id":21,"left_children":[1,3,5,7,9,11,13,15,17,19,21,23,25,27,29,-1,-1,-1,-1,-1,-1,-1,-1,-1,-1,-1,-1,-1,-1,-1,-1],"loss_changes":[1.7782442E1,4.8577175E0,3.0495546E0,5.037264E0,1.2646677E0,2.3688328E0,5.065332E0,2.2519002E0,4.4769344E0,2.7152276E-1,1.2313027E0,1.7301162E0,3.7140124E0,2.6179905E0,3.8648958E0,0E0,0E0,0E0,0E0,0E0,0E0,0E0,0E0,0E0,0E0,0E0,0E0,0E0,0E0,0E0,0E0],"parents":[2147483647,0,0,1,1,2,2,3,3,4,4,5,5,6,6,7,7,8,8,9,9,10,10,11,11,12,12,13,13,14,14],"right_children":[2,4,6,8,10,12,14,16,18,20,22,24,26,28,30,-1,-1,-1,-1,-1,-1,-1,-1,-1,-1,-1,-1,-1,-1,-1,-1],"split_conditions":[-6.728866E-1,2.654127E0,3.602E1,-1.5553414E-2,1.941E1,9.594272E-1,4.827586E-1,2.1613833E-1,9.636804E-1,-1.3593737E-2,1.8343195E-1,8.855586E-1,-1.7216803E-1,2.5691173E0,7.2E1,-7.277388E-5,2.8703545E-4,5.4574147E-4,-1.04390194E-4,-1.0933179E-3,-1.978242E-3,4.207114E-4,-9.7314524E-4,1.8996562E-6,-2.6102422E-5,3.7930833E-4,4.4476452E-5,1.9776648E-5,6.134666E-4,-1.3162554E-4,3.897146E-5],"split_indices":[7,23,15,2,15,29,30,33,26,9,32,26,24,10,18,0,0,0,0,0,0,0,0,0,0,0,0,0,0,0,0],"split_type":[0,0,0,0,0,0,0,0,0,0,0,0,0,0,0,0,0,0,0,0,0,0,0,0,0,0,0,0,0,0,0],"sum_hessian":[7.35268E5,5.382E3,7.29886E5,5.246E3,1.36E2,6.90068E5,3.9818E4,2.083E3,3.163E3,6.1E1,7.5E1,6.75176E5,1.4892E4,1.5477E4,2.4341E4,9.1E2,1.173E3,2.812E3,3.51E2,4.8E1,1.3E1,4E1,3.5E1,6.02307E5,7.2869E4,1.05E3,1.3842E4,1.5255E4,2.22E2,1.9443E4,4.898E3],"tree_param":{"num_deleted":"0","num_feature":"44","num_nodes":"31","size_leaf_vector":"1"}},{"base_weights":[-1.628683E-6,5.8589026E-2,-4.3151085E-4,5.0257877E-2,1.7740397E-1,4.2143627E-5,-8.646185E-3,5.7369243E-2,-8.114734E-2,1.3112862E-1,2.5232697E-1,-2.1327335E-4,1.470898E-2,8.428929E-3,-1.6055305E-2,-2.901727E-4,3.5572835E-4,-6.2130374E-4,7.0651236E-4,8.9301966E-4,1.06212865E-4,6.1086175E-4,1.5699223E-3,4.9522796E-6,-1.26514E-5,6.073097E-4,6.7829285E-5,3.5777488E-5,6.0238305E-4,-5.0035516E-5,-2.5734547E-4],"categories":[3,4,9,11],"categories_nodes":[11],"categories_segments":[0],"categories_sizes":[4],"default_left":[0,0,0,0,0,0,0,0,1,0,0,1,0,0,0,0,0,0,0,0,0,0,0,0,0,0,0,0,0,0,0],"id":22,"left_children":[1,3,5,7,9,11,13,15,17,19,21,23,25,27,29,-1,-1,-1,-1,-1,-1,-1,-1,-1,-1,-1,-1,-1,-1,-1,-1],"loss_changes":[1.8524818E1,5.3026295E0,2.840883E0,4.6780167E0,1.21665E0,2.5860786E0,5.0356693E0,4.2995634E0,1.8097106E0,8.085265E-1,6.9108677E-1,1.6173538E0,2.5403771E0,2.269638E0,5.9511557E0,0E0,0E0,0E0,0E0,0E0,0E0,0E0,0E0,0E0,0E0,0E0,0E0,0E0,0E0,0E0,0E0],"parents":[2147483647,0,0,1,1,2,2,3,3,4,4,5,5,6,6,7,7,8,8,9,9,10,10,11,11,12,12,13,13,14,14],"right_children":[2,4,6,8,10,12,14,16,18,20,22,24,26,28,30,-1,-1,-1,-1,-1,-1,-1,-1,-1,-1,-1,-1,-1,-1,-1,-1],"split_conditions":[-6.728866E-1,1.09797254E-1,3.602E1,9.802817E-1,2.23E2,6.082681E-1,4.0419948E-1,5.0147492E-2,3.63E2,1.1627907E-1,-3.0483E5,1E-45,1.54639175E-2,2.5691173E0,4.6815764E-2,-2.901727E-4,3.5572835E-4,-6.2130374E-4,7.0651236E-4,8.9301966E-4,1.06212865E-4,6.1086175E-4,1.5699223E-3,4.9522796E-6,-1.26514E-5,6.073097E-4,6.7829285E-5,3.5777488E-5,6.0238305E-4,-5.0035516E-5,-2.5734547E-4],"split_indices":[7,13,15,26,42,5,30,26,42,30,41,43,34,10,13,0,0,0,0,0,0,0,0,0,0,0,0,0,0,0,0],"split_type":[0,0,0,0,0,0,0,0,0,0,0,1,0,0,0,0,0,0,0,0,0,0,0,0,0,0,0,0,0,0,0],"sum_hessian":[7.35489E5,5.357E3,7.30132E5,5.006E3,3.51E2,6.90328E5,3.9804E4,4.749E3,2.57E2,2.17E2,1.34E2,6.78512E5,1.1816E4,1.2045E4,2.7759E4,3.26E2,4.423E3,2.22E2,3.5E1,1.67E2,5E1,2.8E1,1.06E2,4.43014E5,2.35498E5,2.63E2,1.1553E4,1.1833E4,2.12E2,2.279E4,4.969E3],"tree_param":{"num_deleted":"0","num_feature":"44","num_nodes":"31","size_leaf_vector":"1"}},{"base_weights":[-1.0089783E-5,5.7749767E-2,-4.3823314E-4,-9.84692E-2,6.2938355E-2,2.0648304E-5,-8.387785E-3,-1.9364247E-1,1.3369664E-2,4.724184E-2,1.0921103E-1,-1.643481E-4,2.1279916E-2,7.732013E-3,-1.6437374E-2,-1.1833698E-3,-5.2504853E-5,-1.9015817E-4,8.6044654E-4,4.7666417E-4,1.19894044E-4,8.695291E-4,6.237741E-5,2.7672775E-6,-2.1209547E-5,5.474957E-4,9.1217655E-5,3.1828615E-5,6.4631324E-4,-4.9041468E-5,-3.076789E-4],"categories":[],"categories_nodes":[],"categories_segments":[],"categories_sizes":[],"default_left":[0,0,0,0,0,0,0,0,0,0,0,0,0,0,0,0,0,0,0,0,0,0,0,0,0,0,0,0,0,0,0],"id":23,"left_children":[1,3,5,7,9,11,13,15,17,19,21,23,25,27,29,-1,-1,-1,-1,-1,-1,-1,-1,-1,-1,-1,-1,-1,-1,-1,-1],"loss_changes":[1.819275E1,4.3876133E0,2.6639056E0,1.8522011E0,3.8051453E0,2.7152815E0,5.171238E0,4.2158365E-1,5.622132E-1,3.992712E0,6.611781E0,1.7272806E0,2.1209426E0,2.7606483E0,7.918814E0,0E0,0E0,0E0,0E0,0E0,0E0,0E0,0E0,0E0,0E0,0E0,0E0,0E0,0E0,0E0,0E0],"parents":[2147483647,0,0,1,1,2,2,3,3,4,4,5,5,6,6,7,7,8,8,9,9,10,10,11,11,12,12,13,13,14,14],"right_children":[2,4,6,8,10,12,14,16,18,20,22,24,26,28,30,-1,-1,-1,-1,-1,-1,-1,-1,-1,-1,-1,-1,-1,-1,-1,-1],"split_conditions":[-6.728866E-1,2.3791821E-1,3.602E1,9.401732E-1,5.4228004E1,7.103001E-1,4.3063584E-1,1E0,1.0234331E0,3.9986813E1,3.6389685E-1,8.428571E-1,3.9986813E1,2.5691173E0,5.4228004E1,-1.1833698E-3,-5.2504853E-5,-1.9015817E-4,8.6044654E-4,4.7666417E-4,1.19894044E-4,8.695291E-4,6.237741E-5,2.7672775E-6,-2.1209547E-5,5.474957E-4,9.1217655E-5,3.1828615E-5,6.4631324E-4,-4.9041468E-5,-3.076789E-4],"split_indices":[7,37,15,4,14,5,30,40,5,14,25,26,14,10,14,0,0,0,0,0,0,0,0,0,0,0,0,0,0,0,0],"split_type":[0,0,0,0,0,0,0,0,0,0,0,0,0,0,0,0,0,0,0,0,0,0,0,0,0,0,0,0,0,0,0],"sum_hessian":[7.3567E5,5.413E3,7.30257E5,1.74E2,5.239E3,6.90404E5,3.9853E4,9.4E1,8E1,3.912E3,1.327E3,6.84448E5,5.956E3,1.3273E4,2.658E4,8.3E1,1.1E1,6E1,2E1,1.497E3,2.415E3,8.72E2,4.55E2,5.79988E5,1.0446E5,3.17E2,5.639E3,1.3054E4,2.19E2,2.2451E4,4.129E3],"tree_param":{"num_deleted":"0","num_feature":"44","num_nodes":"31","size_leaf_vector":"1"}},{"base_weights":[2.2484774E-5,4.3796312E-2,-3.2159046E-4,-4.10446E-3,6.369879E-2,-6.491156E-4,1.2265596E-2,-1.1652779E-1,1.341173E-2,5.3473365E-2,1.4536315E-1,-2.2056968E-4,-8.166646E-3,3.7091386E-2,2.7779408E-3,-1.158655E-3,-2.1066499E-4,-3.5597986E-5,7.7426765E-4,3.6283003E-4,-3.0932373E-5,5.8096208E-5,1.1460003E-3,1.7173916E-6,-2.5366793E-5,4.1864212E-5,-9.188136E-5,1.9315163E-4,2.3935258E-3,-4.7201556E-6,2.6094742E-4],"categories":[],"categories_nodes":[],"categories_segments":[],"categories_sizes":[],"default_left":[0,0,0,0,0,0,0,0,0,0,0,0,0,1,0,0,0,0,0,0,0,0,0,0,0,0,0,0,0,0,0],"id":24,"left_children":[1,3,5,7,9,11,13,15,17,19,21,23,25,27,29,-1,-1,-1,-1,-1,-1,-1,-1,-1,-1,-1,-1,-1,-1,-1,-1],"loss_changes":[1.1079368E1,5.469346E0,3.008985E0,3.316216E0,3.3844013E0,2.2917287E0,4.3598194E0,1.7101309E0,3.7603724E0,2.8503418E0,3.9944916E0,1.609209E0,5.3375225E0,3.1124964E0,2.2127314E0,0E0,0E0,0E0,0E0,0E0,0E0,0E0,0E0,0E0,0E0,0E0,0E0,0E0,0E0,0E0,0E0],"parents":[2147483647,0,0,1,1,2,2,3,3,4,4,5,5,6,6,7,7,8,8,9,9,10,10,11,11,12,12,13,13,14,14],"right_children":[2,4,6,8,10,12,14,16,18,20,22,24,26,28,30,-1,-1,-1,-1,-1,-1,-1,-1,-1,-1,-1,-1,-1,-1,-1,-1],"split_conditions":[-4.574007E-1,1.7179488E-1,9.538905E-1,3.4760618E0,5.4370014E1,3.602E1,3.125E-1,4.9E1,5.4228004E1,2.6473337E-1,9.478673E-3,8.855586E-1,4.7164178E-1,4.1577563E0,2.8795075E0,-1.158655E-3,-2.1066499E-4,-3.5597986E-5,7.7426765E-4,3.6283003E-4,-3.0932373E-5,5.8096208E-5,1.1460003E-3,1.7173916E-6,-2.5366793E-5,4.1864212E-5,-9.188136E-5,1.9315163E-4,2.3935258E-3,-4.7201556E-6,2.6094742E-4],"split_indices":[6,33,29,20,14,15,36,17,14,2,30,26,30,23,10,0,0,0,0,0,0,0,0,0,0,0,0,0,0,0,0],"split_type":[0,0,0,0,0,0,0,0,0,0,0,0,0,0,0,0,0,0,0,0,0,0,0,0,0,0,0,0,0,0,0],"sum_hessian":[7.35609E5,5.737E3,7.29872E5,1.684E3,4.053E3,7.11362E5,1.851E4,2.27E2,1.457E3,3.602E3,4.51E2,6.72997E5,3.8365E4,5.118E3,1.3392E4,1.01E2,1.26E2,1.262E3,1.95E2,2.938E3,6.64E2,1.48E2,3.03E2,6.00574E5,7.2423E4,1.3641E4,2.4724E4,5.099E3,1.9E1,1.2394E4,9.98E2],"tree_param":{"num_deleted":"0","num_feature":"44","num_nodes":"31","size_leaf_vector":"1"}},{"base_weights":[1.679269E-5,5.903263E-2,-4.1636894E-4,6.6199124E-2,-7.334962E-2,-3.345486E-4,-4.7486875E-2,3.3068243E-2,1.0126281E-1,8.2212605E-2,-1.113623E-1,1.546608E-2,-6.076587E-4,-8.76727E-2,3.551205E-2,4.6813066E-4,-3.3824694E-5,-2.939003E-4,5.9463916E-4,6.4306805E-4,-1.1620576E-4,-7.9841574E-4,7.323098E-4,2.6592053E-3,8.144512E-5,-2.3548837E-6,-1.821749E-4,-4.0277638E-4,-1.032471E-3,6.4888404E-4,-1.6312125E-4],"categories":[],"categories_nodes":[],"categories_segments":[],"categories_sizes":[],"default_left":[0,0,0,0,0,0,0,0,0,0,0,0,0,0,0,0,0,0,0,0,0,0,0,0,0,0,0,0,0,0,0],"id":25,"left_children":[1,3,5,7,9,11,13,15,17,19,21,23,25,27,29,-1,-1,-1,-1,-1,-1,-1,-1,-1,-1,-1,-1,-1,-1,-1,-1],"loss_changes":[1.878769E1,5.080435E0,2.8098888E0,5.901369E0,1.626319E0,3.1429455E0,4.2226562E0,5.4588795E0,3.1802444E0,2.029812E-1,1.9452691E0,2.7061894E0,4.100808E0,1.1778212E0,2.2756453E0,0E0,0E0,0E0,0E0,0E0,0E0,0E0,0E0,0E0,0E0,0E0,0E0,0E0,0E0,0E0,0E0],"parents":[2147483647,0,0,1,1,2,2,3,3,4,4,5,5,6,6,7,7,8,8,9,9,10,10,11,11,12,12,13,13,14,14],"right_children":[2,4,6,8,10,12,14,16,18,20,22,24,26,28,30,-1,-1,-1,-1,-1,-1,-1,-1,-1,-1,-1,-1,-1,-1,-1,-1],"split_conditions":[-6.728866E-1,9.802817E-1,1.431114E0,1.0801761E-2,9.2840093E-1,-5.2258974E-1,2.8795075E0,3.9986813E1,7.1665186E-1,6.8038744E-1,-2.273943E-1,4.138565E-2,9.2246014E-1,-1.6293651E-1,3.6832586E-1,4.6813066E-4,-3.3824694E-5,-2.939003E-4,5.9463916E-4,6.4306805E-4,-1.1620576E-4,-7.9841574E-4,7.323098E-4,2.6592053E-3,8.144512E-5,-2.3548837E-6,-1.821749E-4,-4.0277638E-4,-1.032471E-3,6.4888404E-4,-1.6312125E-4],"split_indices":[7,26,5,2,29,7,10,14,22,33,6,22,5,6,1,0,0,0,0,0,0,0,0,0,0,0,0,0,0,0,0],"split_type":[0,0,0,0,0,0,0,0,0,0,0,0,0,0,0,0,0,0,0,0,0,0,0,0,0,0,0,0,0,0,0],"sum_hessian":[7.34945E5,5.355E3,7.2959E5,5.08E3,2.75E2,7.28324E5,1.266E3,2.612E3,2.468E3,5.4E1,2.21E2,1.2375E4,7.15949E5,8.53E2,4.13E2,1.11E3,1.502E3,1.25E2,2.343E3,4E1,1.4E1,1.93E2,2.8E1,1.2E1,1.2363E4,7.12193E5,3.756E3,7.54E2,9.9E1,1.81E2,2.32E2],"tree_param":{"num_deleted":"0","num_feature":"44","num_nodes":"31","size_leaf_vector":"1"}},{"base_weights":[-4.243598E-6,6.194379E-2,-2.4376567E-4,7.330352E-2,-9.5125325E-2,-5.955405E-4,1.1224114E-2,3.723486E-2,1.0230088E-1,-5.7435215E-2,-2.8957334E-1,-5.079447E-4,-8.284794E-2,6.34496E-2,8.652528E-3,5.0795375E-4,-1.829997E-4,1.4380493E-3,4.7929326E-4,-1.014756E-3,-7.7345874E-5,-1.9138547E-3,-1.454915E-4,-2.0407717E-6,-1.06212705E-4,-8.4223197E-4,-3.0846533E-4,2.6534414E-3,3.0301008E-4,2.522791E-6,1.4596152E-4],"categories":[],"categories_nodes":[],"categories_segments":[],"categories_sizes":[],"default_left":[0,0,0,0,0,0,0,0,0,0,0,0,0,0,0,0,0,0,0,0,0,0,0,0,0,0,0,0,0,0,0],"id":26,"left_children":[1,3,5,7,9,11,13,15,17,19,21,23,25,27,29,-1,-1,-1,-1,-1,-1,-1,-1,-1,-1,-1,-1,-1,-1,-1,-1],"loss_changes":[1.0910027E1,5.0531187E0,2.9547772E0,2.7621841E0,1.3997012E0,5.1202006E0,2.9276528E0,4.7056546E0,3.3326921E0,8.9496535E-1,5.134895E-1,1.7855238E0,1.4224391E0,3.3177342E0,3.1025915E0,0E0,0E0,0E0,0E0,0E0,0E0,0E0,0E0,0E0,0E0,0E0,0E0,0E0,0E0,0E0,0E0],"parents":[2147483647,0,0,1,1,2,2,3,3,4,4,5,5,6,6,7,7,8,8,9,9,10,10,11,11,12,12,13,13,14,14],"right_children":[2,4,6,8,10,12,14,16,18,20,22,24,26,28,30,-1,-1,-1,-1,-1,-1,-1,-1,-1,-1,-1,-1,-1,-1,-1,-1],"split_conditions":[-5.409684E-1,9.802817E-1,2.0093417E0,-1.5553414E-2,1.4E1,1.431114E0,-1.7216803E-1,3.9986813E1,2.819149E-1,1.5370591E-1,4.1E1,9.2246014E-1,8.455285E-1,4.138565E-2,6.287049E-1,5.0795375E-4,-1.829997E-4,1.4380493E-3,4.7929326E-4,-1.014756E-3,-7.7345874E-5,-1.9138547E-3,-1.454915E-4,-2.0407717E-6,-1.06212705E-4,-8.4223197E-4,-3.0846533E-4,2.6534414E-3,3.0301008E-4,2.522791E-6,1.4596152E-4],"split_indices":[6,26,10,2,39,5,24,14,26,19,17,5,28,22,5,0,0,0,0,0,0,0,0,0,0,0,0,0,0,0,0],"split_type":[0,0,0,0,0,0,0,0,0,0,0,0,0,0,0,0,0,0,0,0,0,0,0,0,0,0,0,0,0,0,0],"sum_hessian":[7.3528E5,2.832E3,7.32448E5,2.641E3,1.91E2,7.10649E5,2.1799E4,1.177E3,1.464E3,1.6E2,3.1E1,7.09893E5,7.56E2,1.023E3,2.0776E4,6.56E2,5.21E2,1.16E2,1.348E3,4E1,1.2E2,2.5E1,6E0,7.05012E5,4.881E3,2E2,5.56E2,1.8E1,1.005E3,1.4339E4,6.437E3],"tree_param":{"num_deleted":"0","num_feature":"44","num_nodes":"31","size_leaf_vector":"1"}},{"base_weights":[-5.4638604E-6,5.809704E-2,-4.339316E-4,2.066522E-2,8.245856E-2,3.1990687E-5,-8.518299E-3,-6.470844E-2,3.576206E-2,9.9564865E-2,-3.4571145E-2,-1.4743663E-4,2.0617615E-2,1.0772658E-2,-1.3051855E-2,-5.195512E-4,6.476499E-4,6.0572993E-4,1.3154824E-4,-2.2990885E-4,5.838829E-4,-3.5968778E-4,8.1347814E-4,6.104395E-6,-1.1300729E-5,3.2555507E-4,6.847189E-5,3.7433987E-4,1.6078124E-5,-5.390038E-5,-2.4510457E-4],"categories":[0,3,4,6,7,8,9,10,11,3,4,8,9,11,0,1,2,4,5,6,8,9,10,0,3,4,5,6,7,8,9,10,11],"categories_nodes":[8,11,12,13],"categories_segments":[0,9,14,23],"categories_sizes":[9,5,9,10],"default_left":[0,0,0,0,0,0,0,1,1,0,1,1,1,1,0,0,0,0,0,0,0,0,0,0,0,0,0,0,0,0,0],"id":27,"left_children":[1,3,5,7,9,11,13,15,17,19,21,23,25,27,29,-1,-1,-1,-1,-1,-1,-1,-1,-1,-1,-1,-1,-1,-1,-1,-1],"loss_changes":[1.8313318E1,4.910555E0,2.7505705E0,2.736312E0,6.530403E0,2.5502403E0,3.4800768E0,1.8207299E0,1.576832E0,3.2344284E0,2.4321775E0,1.6844617E0,1.8792515E0,3.441674E0,3.2289224E0,0E0,0E0,0E0,0E0,0E0,0E0,0E0,0E0,0E0,0E0,0E0,0E0,0E0,0E0,0E0,0E0],"parents":[2147483647,0,0,1,1,2,2,3,3,4,4,5,5,6,6,7,7,8,8,9,9,10,10,11,11,12,12,13,13,14,14],"right_children":[2,4,6,8,10,12,14,16,18,20,22,24,26,28,30,-1,-1,-1,-1,-1,-1,-1,-1,-1,-1,-1,-1,-1,-1,-1,-1],"split_conditions":[-6.728866E-1,-1.5553414E-2,3.602E1,5.0147492E-2,9.636804E-1,7.103001E-1,-5.2258974E-1,3.29E2,1E-45,2.9491526E-1,2.95E2,1E-45,1E-45,1E-45,9.2246014E-1,-5.195512E-4,6.476499E-4,6.0572993E-4,1.3154824E-4,-2.2990885E-4,5.838829E-4,-3.5968778E-4,8.1347814E-4,6.104395E-6,-1.1300729E-5,3.2555507E-4,6.847189E-5,3.7433987E-4,1.6078124E-5,-5.390038E-5,-2.4510457E-4],"split_indices":[7,2,15,26,26,5,7,42,43,37,42,43,43,43,5,0,0,0,0,0,0,0,0,0,0,0,0,0,0,0,0],"split_type":[0,0,0,0,0,0,0,0,1,0,0,1,1,1,0,0,0,0,0,0,0,0,0,0,0,0,0,0,0,0,0],"sum_hessian":[7.35621E5,5.385E3,7.30236E5,2.123E3,3.262E3,6.90444E5,3.9792E4,3.19E2,1.804E3,2.846E3,4.16E2,6.84478E5,5.966E3,7.572E3,3.222E4,2.73E2,4.6E1,2.38E2,1.566E3,1.52E2,2.694E3,3.55E2,6.1E1,4.12944E5,2.71534E5,1.008E3,4.958E3,8.96E2,6.676E3,2.9365E4,2.855E3],"tree_param":{"num_deleted":"0","num_feature":"44","num_nodes":"31","size_leaf_vector":"1"}},{"base_weights":[-8.2575536E-7,4.3400016E-2,-3.4407165E-4,-9.132313E-2,5.040037E-2,9.50004E-5,-8.166818E-3,-1.16033696E-1,1.547819E-1,3.8363103E-2,1.4088346E-1,-1.6137621E-4,1.9482039E-2,1.1977125E-2,-1.5053197E-2,-9.277052E-4,2.2387592E-4,1.1901103E-3,-1.1017369E-4,4.0303823E-4,7.67126E-5,-7.40012E-4,8.6967816E-4,5.8299775E-6,-1.1082235E-5,2.118608E-4,2.5078239E-6,-8.268261E-5,1.2762491E-4,-4.2035226E-5,-2.9264315E-4],"categories":[3,4,8,9,11],"categories_nodes":[11],"categories_segments":[0],"categories_sizes":[5],"default_left":[0,0,0,0,0,0,0,0,0,0,0,1,0,0,0,0,0,0,0,0,0,0,0,0,0,0,0,0,0,0,0],"id":28,"left_children":[1,3,5,7,9,11,13,15,17,19,21,23,25,27,29,-1,-1,-1,-1,-1,-1,-1,-1,-1,-1,-1,-1,-1,-1,-1,-1],"loss_changes":[1.0954537E1,5.441799E0,2.5059037E0,1.7334385E0,5.9740496E0,3.4335458E0,5.378548E0,2.2358577E0,2.9367495E-1,4.2099195E0,3.4535685E0,1.5838873E0,3.3525972E0,3.1006966E0,8.207222E0,0E0,0E0,0E0,0E0,0E0,0E0,0E0,0E0,0E0,0E0,0E0,0E0,0E0,0E0,0E0,0E0],"parents":[2147483647,0,0,1,1,2,2,3,3,4,4,5,5,6,6,7,7,8,8,9,9,10,10,11,11,12,12,13,13,14,14],"right_children":[2,4,6,8,10,12,14,16,18,20,22,24,26,28,30,-1,-1,-1,-1,-1,-1,-1,-1,-1,-1,-1,-1,-1,-1,-1,-1],"split_conditions":[-4.574007E-1,2.3305082E0,3.602E1,1.0234331E0,5.4228004E1,6.5092206E-1,3.8819876E-1,1.8269656E0,7.7E1,3.9986813E1,-2.738266E-1,1E-45,2.684E1,-1.5668258E-1,5.4228004E1,-9.277052E-4,2.2387592E-4,1.1901103E-3,-1.1017369E-4,4.0303823E-4,7.67126E-5,-7.40012E-4,8.6967816E-4,5.8299775E-6,-1.1082235E-5,2.118608E-4,2.5078239E-6,-8.268261E-5,1.2762491E-4,-4.2035226E-5,-2.9264315E-4],"split_indices":[6,20,15,5,14,5,31,22,18,14,2,43,15,0,14,0,0,0,0,0,0,0,0,0,0,0,0,0,0,0,0],"split_type":[0,0,0,0,0,0,0,0,0,0,0,1,0,0,0,0,0,0,0,0,0,0,0,0,0,0,0,0,0,0,0],"sum_hessian":[7.35344E5,5.77E3,7.29574E5,2.85E2,5.485E3,6.90801E5,3.8773E4,2.59E2,2.6E1,4.841E3,6.44E2,6.81785E5,9.016E3,9.878E3,2.8895E4,1.92E2,6.7E1,1.9E1,7E0,1.951E3,2.89E3,4.2E1,6.02E2,4.11449E5,2.70336E5,4.446E3,4.57E3,2.941E3,6.937E3,2.4321E4,4.574E3],"tree_param":{"num_deleted":"0","num_feature":"44","num_nodes":"31","size_leaf_vector":"1"}},{"base_weights":[2.7363947E-5,6.27624E-2,-2.1449993E-4,7.369858E-2,-9.426226E-2,-5.840171E-4,1.1801055E-2,7.963511E-3,9.4669335E-2,-1.8548663E-1,-1.9284714E-2,-4.920045E-4,-8.3529375E-2,3.9181975E-3,2.9129935E-2,-3.1284048E-4,3.105182E-4,7.794822E-4,3.2819025E-4,-6.0178747E-4,-1.7604518E-3,8.621692E-4,-3.287764E-4,1.5816758E-4,-3.14307E-6,-8.67364E-4,-3.0100046E-4,3.3286685E-4,6.116326E-6,-1.6518538E-3,1.6448913E-4],"categories":[],"categories_nodes":[],"categories_segments":[],"categories_sizes":[],"default_left":[0,0,0,0,0,0,0,1,0,0,0,0,0,0,0,0,0,0,0,0,0,0,0,0,0,0,0,0,0,0,0],"id":29,"left_children":[1,3,5,7,9,11,13,15,17,19,21,23,25,27,29,-1,-1,-1,-1,-1,-1,-1,-1,-1,-1,-1,-1,-1,-1,-1,-1],"loss_changes":[1.1165165E1,4.853035E0,3.2545526E0,3.6420383E0,1.2585523E0,5.42747E0,2.9874659E0,2.0643513E0,3.352888E0,8.596692E-1,7.429761E-1,1.8326393E0,1.6872239E0,2.408814E0,2.6792326E0,0E0,0E0,0E0,0E0,0E0,0E0,0E0,0E0,0E0,0E0,0E0,0E0,0E0,0E0,0E0,0E0],"parents":[2147483647,0,0,1,1,2,2,3,3,4,4,5,5,6,6,7,7,8,8,9,9,10,10,11,11,12,12,13,13,14,14],"right_children":[2,4,6,8,10,12,14,16,18,20,22,24,26,28,30,-1,-1,-1,-1,-1,-1,-1,-1,-1,-1,-1,-1,-1,-1,-1,-1],"split_conditions":[-5.409684E-1,9.802817E-1,2.0093417E0,1.2680115E-1,3.0819672E-1,1.431114E0,6.287049E-1,2.1E1,5.029586E-2,1.431114E0,2.8250977E-1,-4.574007E-1,8.455285E-1,3.301887E-2,1.270903E-1,-3.1284048E-4,3.105182E-4,7.794822E-4,3.2819025E-4,-6.0178747E-4,-1.7604518E-3,8.621692E-4,-3.287764E-4,1.5816758E-4,-3.14307E-6,-8.67364E-4,-3.0100046E-4,3.3286685E-4,6.116326E-6,-1.6518538E-3,1.6448913E-4],"split_indices":[6,26,10,33,33,5,5,18,25,5,2,6,28,34,37,0,0,0,0,0,0,0,0,0,0,0,0,0,0,0,0],"split_type":[0,0,0,0,0,0,0,0,0,0,0,0,0,0,0,0,0,0,0,0,0,0,0,0,0,0,0,0,0,0,0],"sum_hessian":[7.35841E5,2.826E3,7.33015E5,2.642E3,1.84E2,7.11145E5,2.187E4,6.39E2,2.003E3,8.3E1,1.01E2,7.10357E5,7.88E2,1.5032E4,6.838E3,2.74E2,3.65E2,8.24E2,1.179E3,5.4E1,2.9E1,1.9E1,8.2E1,2.081E3,7.08276E5,2.12E2,5.76E2,6.97E2,1.4335E4,2.4E1,6.814E3],"tree_param":{"num_deleted":"0","num_feature":"44","num_nodes":"31","size_leaf_vector":"1"}}]},"name":"gbtree"},"learner_model_param":{"base_score":"[1.3351334E-3]","boost_from_average":"1","num_class":"0","num_feature":"44","num_target":"1"},"objective":{"name":"reg:squarederror","reg_loss_param":{"scale_pos_weight":"1"}}},"version":[3,2,0]}