{"learner":{"attributes":{"best_iteration":"19","best_score":"0.021304","scikit_learn":"{\"_estimator_type\": \"regressor\"}"},"feature_names":["ret_1d","ret_5d","ret_21d","ret_63d","rsi_14","mfi_14","macd_hist","atr_pct","vol_20d","vol_60d","vol_ratio","dist_sma50","dist_sma200","dist_52w_high","trend_regime","zscore_20d","zscore_60d","spy_ret_21d","spy_trend_regime","spy_rsi_14","vix_level","vix_zscore_20d","beta_60d","excess_ret_5d","excess_ret_21d","ret_1d_rank","ret_5d_rank","ret_21d_rank","ret_63d_rank","rsi_14_rank","mfi_14_rank","macd_hist_rank","atr_pct_rank","vol_20d_rank","vol_60d_rank","vol_ratio_rank","dist_sma50_rank","dist_sma200_rank","dist_52w_high_rank","zscore_20d_rank","zscore_60d_rank","gics_sector"],"feature_types":["float","float","float","float","float","float","float","float","float","float","float","float","float","float","float","float","float","float","float","float","float","float","float","float","float","float","float","float","float","float","float","float","float","float","float","float","float","float","float","float","float","c"],"gradient_booster":{"model":{"cats":{"enc":[],"feature_segments":[],"sorted_idx":[]},"gbtree_model_param":{"num_parallel_tree":"1","num_trees":"20"},"iteration_indptr":[0,1,2,3,4,5,6,7,8,9,10,11,12,13,14,15,16,17,18,19,20],"tree_info":[0,0,0,0,0,0,0,0,0,0,0,0,0,0,0,0,0,0,0,0],"trees":[{"base_weights":[1.3193203E-5,7.367502E-2,-8.009494E-4,6.187055E-2,2.8578445E-1,-9.55434E-2,-4.3770706E-4,4.52791E-2,2.227166E-1,-3.442458E-2,2.9745787E-1,-1.524367E-1,-4.7775485E-2,-7.8285295E-5,-5.6286942E-2,-1.7150566E-1,5.5027988E-2,2.899619E-1,1.3765869E-1,1.03883594E-1,3.2792196E-1,-9.031844E-2,-2.1463719E-1,-1.5621213E-2,-7.162326E-2,2.9005066E-2,-7.2610634E-4,-7.504223E-2,-7.0241657E-3,-2.886051E-1,-8.030623E-2,2.0341438E-1,4.2468566E-2,2.6825625E-1,4.2550924E-1,2.9053652E-1,1.0307679E-1,4.28762E-1,-4.1252278E-2,3.7044093E-1,2.050917E-1,-1.3214967E-1,-6.9644555E-2,-2.3882353E-1,-1.7409155E-1,-2.1209393E-3,-4.033787E-2,9.662562E-3,-8.469507E-2,1.4647212E-2,9.6886896E-2,-2.3096868E-4,-5.1472254E-2,-5.1409908E-2,-1.21297196E-1,-3.66936E-2,9.5272295E-2,-1.9520398E-2,-2.9825214E-2,-9.747695E-3,8.653548E-3,2.0819949E-2,-2.0307852E-3,2.3112155E-3,8.955192E-3,2.4504842E-2,1.6580557E-2,3.6744088E-2,2.8491572E-2,1.447439E-2,2.9027672E-2,8.99455E-3,-1.4774216E-2,2.2496833E-2,3.4952745E-2,3.3596451E-3,-9.647632E-3,5.851143E-4,2.8883807E-2,1.0055736E-2,2.1661762E-2,6.649325E-4,-1.1076317E-2,-3.1413257E-3,-6.4530335E-3,-3.018929E-2,-1.7581776E-2,-1.1022677E-2,-1.9988978E-2,-5.401996E-3,5.234005E-4,-3.597437E-3,7.0542293E-3,-2.5227653E-2,1.4880165E-3,-6.817726E-3,7.923383E-3,6.4471364E-4,1.0873852E-2,1.4975429E-2,3.534764E-3,6.842952E-4,-1.5761184E-4,-2.0580653E-3,-9.2532765E-3,1.6132711E-3,-4.9746E-3,-1.0415431E-2,3.5982302E-3,2.4646625E-2,-3.4888382E-3,1.6668074E-2,-1.7629603E-3],"categories":[],"categories_nodes":[],"categories_segments":[],"categories_sizes":[],"default_left":[0,0,0,0,0,0,0,0,0,0,0,0,0,0,0,0,0,0,0,0,0,0,0,0,0,0,0,0,0,0,0,0,0,0,0,0,0,0,0,0,0,0,0,0,0,0,0,0,0,0,0,0,0,0,0,0,0,0,0,0,0,0,0,0,0,0,0,0,0,0,0,0,0,0,0,0,0,0,0,0,0,0,0,0,0,0,0,0,0,0,0,0,0,0,0,0,0,0,0,0,0,0,0,0,0,0,0,0,0,0,0,0,0],"id":0,"left_children":[1,3,5,7,9,11,13,15,17,-1,19,21,23,25,27,29,31,33,35,37,39,41,43,45,47,49,51,53,55,57,59,61,63,65,67,69,71,73,75,77,79,81,83,85,87,89,91,93,95,97,99,101,103,105,107,109,111,-1,-1,-1,-1,-1,-1,-1,-1,-1,-1,-1,-1,-1,-1,-1,-1,-1,-1,-1,-1,-1,-1,-1,-1,-1,-1,-1,-1,-1,-1,-1,-1,-1,-1,-1,-1,-1,-1,-1,-1,-1,-1,-1,-1,-1,-1,-1,-1,-1,-1,-1,-1,-1,-1,-1,-1],"loss_changes":[4.0388714E1,1.8431831E1,2.2923681E1,1.8610594E1,3.3483524E0,6.913336E0,1.3319966E1,1.3362069E1,3.726036E0,0E0,2.2500114E0,4.4843864E0,1.0604618E0,1.2422106E1,3.9203053E0,2.903615E0,1.1274422E1,1.0604191E0,1.520266E0,2.4580135E0,1.7167702E0,5.016675E-1,5.649338E-1,1.9656198E-1,8.4384537E-1,1.40016E1,1.6205301E1,3.3586483E0,3.5516593E0,3.920822E-1,1.4017272E0,7.4978905E0,5.0942707E0,8.3777237E-1,1.2901497E-1,4.7282267E-1,1.0218127E0,4.921627E-2,2.6198995E-1,6.712189E-1,4.867189E-1,3.4651327E-1,1.6403985E-1,4.8706818E-1,5.632744E-1,2.3447114E-1,1.8648323E-1,3.6763448E-1,5.841942E-1,9.400352E0,1.258193E1,1.0746938E1,1.0647005E1,2.019795E0,2.626217E0,2.9223084E0,3.8257086E0,0E0,0E0,0E0,0E0,0E0,0E0,0E0,0E0,0E0,0E0,0E0,0E0,0E0,0E0,0E0,0E0,0E0,0E0,0E0,0E0,0E0,0E0,0E0,0E0,0E0,0E0,0E0,0E0,0E0,0E0,0E0,0E0,0E0,0E0,0E0,0E0,0E0,0E0,0E0,0E0,0E0,0E0,0E0,0E0,0E0,0E0,0E0,0E0,0E0,0E0,0E0,0E0,0E0,0E0,0E0,0E0],"parents":[2147483647,0,0,1,1,2,2,3,3,4,4,5,5,6,6,7,7,8,8,10,10,11,11,12,12,13,13,14,14,15,15,16,16,17,17,18,18,19,19,20,20,21,21,22,22,23,23,24,24,25,25,26,26,27,27,28,28,29,29,30,30,31,31,32,32,33,33,34,34,35,35,36,36,37,37,38,38,39,39,40,40,41,41,42,42,43,43,44,44,45,45,46,46,47,47,48,48,49,49,50,50,51,51,52,52,53,53,54,54,55,55,56,56],"right_children":[2,4,6,8,10,12,14,16,18,-1,20,22,24,26,28,30,32,34,36,38,40,42,44,46,48,50,52,54,56,58,60,62,64,66,68,70,72,74,76,78,80,82,84,86,88,90,92,94,96,98,100,102,104,106,108,110,112,-1,-1,-1,-1,-1,-1,-1,-1,-1,-1,-1,-1,-1,-1,-1,-1,-1,-1,-1,-1,-1,-1,-1,-1,-1,-1,-1,-1,-1,-1,-1,-1,-1,-1,-1,-1,-1,-1,-1,-1,-1,-1,-1,-1,-1,-1,-1,-1,-1,-1,-1,-1,-1,-1,-1,-1],"split_conditions":[-6.85909E-1,1.09797254E-1,-1.9463165E-1,1.3535912E-1,4.5220803E-2,1.5556399E0,1.2897434E0,-1.9463165E-1,-1.14257805E-1,-3.442458E-2,-1.8017188E0,4.477612E-1,3.972973E-1,-5.239741E-1,2.2204137E0,1.5556399E0,-1.395294E-1,9.1463417E-1,-1.0226182E0,-2.1224735E0,8.692656E-1,5.590778E-1,-8.0476695E-1,7.81938E-1,1.3089006E-1,2.9512894E-1,6.882521E-2,6.361005E-1,6.434397E-2,6.599424E-1,2.2204137E0,-5.962969E-1,5.8585517E-2,-1.787167E0,-7.330081E-1,1.7452384E0,2.5086815E0,8.8696754E-1,1.4606977E0,-1.3353506E0,4.269341E-1,9.142857E-2,1.10119045E-1,1.3114753E-1,4.406934E-2,3.5900638E-1,5.606936E-1,9.6059114E-2,2.7229648E0,1.09797254E-1,-1.14257805E-1,-2.2212079E-2,8.87537E-1,1.775148E-2,-6.2405E-2,3.4928654E1,-1.7466962E-1,-1.9520398E-2,-2.9825214E-2,-9.747695E-3,8.653548E-3,2.0819949E-2,-2.0307852E-3,2.3112155E-3,8.955192E-3,2.4504842E-2,1.6580557E-2,3.6744088E-2,2.8491572E-2,1.447439E-2,2.9027672E-2,8.99455E-3,-1.4774216E-2,2.2496833E-2,3.4952745E-2,3.3596451E-3,-9.647632E-3,5.851143E-4,2.8883807E-2,1.0055736E-2,2.1661762E-2,6.649325E-4,-1.1076317E-2,-3.1413257E-3,-6.4530335E-3,-3.018929E-2,-1.7581776E-2,-1.1022677E-2,-1.9988978E-2,-5.401996E-3,5.234005E-4,-3.597437E-3,7.0542293E-3,-2.5227653E-2,1.4880165E-3,-6.817726E-3,7.923383E-3,6.4471364E-4,1.0873852E-2,1.4975429E-2,3.534764E-3,6.842952E-4,-1.5761184E-4,-2.0580653E-3,-9.2532765E-3,1.6132711E-3,-4.9746E-3,-1.0415431E-2,3.5982302E-3,2.4646625E-2,-3.4888382E-3,1.6668074E-2,-1.7629603E-3],"split_indices":[13,17,17,38,7,21,9,17,17,0,21,32,32,13,22,21,17,32,21,21,16,36,15,22,28,38,7,15,17,29,22,12,17,16,13,22,21,8,22,16,28,31,32,38,24,8,33,38,22,17,17,17,21,36,13,4,12,0,0,0,0,0,0,0,0,0,0,0,0,0,0,0,0,0,0,0,0,0,0,0,0,0,0,0,0,0,0,0,0,0,0,0,0,0,0,0,0,0,0,0,0,0,0,0,0,0,0,0,0,0,0,0,0],"split_type":[0,0,0,0,0,0,0,0,0,0,0,0,0,0,0,0,0,0,0,0,0,0,0,0,0,0,0,0,0,0,0,0,0,0,0,0,0,0,0,0,0,0,0,0,0,0,0,0,0,0,0,0,0,0,0,0,0,0,0,0,0,0,0,0,0,0,0,0,0,0,0,0,0,0,0,0,0,0,0,0,0,0,0,0,0,0,0,0,0,0,0,0,0,0,0,0,0,0,0,0,0,0,0,0,0,0,0,0,0,0,0,0,0],"sum_hessian":[6.73468E5,7.362E3,6.66106E5,6.974E3,3.88E2,2.544E3,6.63562E5,6.322E3,6.52E2,6E0,3.82E2,1.161E3,1.383E3,6.59319E5,4.243E3,2.72E2,6.05E3,3.64E2,2.88E2,5.2E1,3.3E2,5.81E2,5.8E2,5.89E2,7.94E2,1.4366E4,6.44953E5,3.073E3,1.17E3,1.19E2,1.53E2,4.72E2,5.578E3,3.14E2,5E1,5.3E1,2.35E2,1.6E1,3.6E1,2.45E2,8.5E1,1.92E2,3.89E2,3.63E2,2.17E2,3.81E2,2.08E2,1.1E2,6.84E2,1.1858E4,2.508E3,6.38721E5,6.232E3,2.034E3,1.039E3,9.07E2,2.63E2,9E1,2.9E1,1.23E2,3E1,3.63E2,1.09E2,4.794E3,7.84E2,1.55E2,1.59E2,2.4E1,2.6E1,2.5E1,2.8E1,2.24E2,1.1E1,3E0,1.3E1,1.8E1,1.8E1,5E0,2.4E2,4.4E1,4.1E1,1.6E1,1.76E2,1.33E2,2.56E2,1.9E1,3.44E2,1.62E2,5.5E1,4.4E1,3.37E2,1.98E2,1E1,3E0,1.07E2,6.68E2,1.6E1,1.1308E4,5.5E2,8.48E2,1.66E3,1.06184E5,5.32537E5,4.608E3,1.624E3,3.23E2,1.711E3,9.54E2,8.5E1,2.2E1,8.85E2,1.29E2,1.34E2],"tree_param":{"num_deleted":"0","num_feature":"42","num_nodes":"113","size_leaf_vector":"1"}},{"base_weights":[7.2918185E-5,2.1805594E-2,-2.2868235E-3,1.1503175E-1,1.8253913E-2,-1.466631E-3,-3.4667507E-2,1.7700255E-1,5.4617636E-2,2.1344645E-2,-4.1020907E-2,-2.218828E-3,3.256459E-2,-5.724789E-2,1.2893427E-2,3.0092457E-1,1.2318582E-1,1.1988259E-1,-9.084815E-2,2.6950767E-2,-1.463652E-2,-1.2358518E-2,-8.658889E-2,-1.2525632E-3,-2.5052765E-2,-1.7649177E-3,7.551646E-2,-7.4700983E-3,-9.924058E-2,6.972291E-2,-1.0426337E-2,1.1552996E-1,3.5775575E-1,1.9163015E-1,8.01133E-2,1.8236955E-1,7.7951916E-2,-7.674648E-3,-1.7224497E-1,1.1690177E-2,4.4008136E-2,-1.9179139E-1,5.0522587E-3,-1.22110814E-1,-7.1234014E-3,-4.9925905E-2,-1.5366495E-1,-3.232721E-3,8.159191E-3,-6.9567244E-3,-1.0688172E-1,-1.50974095E-2,1.19497426E-1,1.9587447E-1,3.817103E-2,1.20545626E-1,-4.612729E-2,-1.3291001E-1,6.2270258E-3,-2.0274816E-1,7.977581E-2,-5.1963376E-3,-1.4855719E-1,2.0863486E-2,5.794395E-3,3.0203719E-2,2.0494234E-2,1.53614655E-2,-1.340062E-2,-1.6511125E-3,7.647289E-3,1.9786295E-2,1.0483444E-2,4.440655E-3,1.6427636E-2,-2.2934701E-2,6.8059034E-4,2.1996751E-2,-1.4306618E-2,2.2318307E-3,-4.6903448E-4,2.2804178E-3,4.9203294E-3,-1.1567917E-2,-1.7824046E-2,1.6344457E-3,-4.7808865E-4,-4.17128E-3,-1.4709547E-2,3.921245E-3,-1.5665675E-3,6.335566E-3,-5.0772773E-3,-1.3581859E-2,2.897287E-3,-7.085237E-5,-6.6808244E-4,1.055815E-3,-4.187896E-3,1.4869701E-3,-1.2464349E-3,-1.2930914E-2,1.7421613E-3,4.1233543E-5,-1.7316235E-2,1.4517058E-2,6.6259163E-3,1.0209623E-2,2.0922167E-2,3.6167318E-4,6.114804E-3,1.7767968E-2,5.922771E-3,1.409045E-2,-4.661751E-3,-1.7165722E-2,-8.503102E-3,-1.1545393E-2,1.2371781E-2,-2.315353E-3,-2.9703049E-2,2.4396556E-3,8.66441E-3,2.501184E-4,-3.5952677E-3,-8.62918E-3,-1.6334603E-2],"categories":[0,3,7,9,10,11,0,3,7,9,10,11,1,3,4,6,7,8,9,10,1,3,6,8,9,10,9,10,11],"categories_nodes":[16,17,38,41,47],"categories_segments":[0,6,12,20,26],"categories_sizes":[6,6,8,6,3],"default_left":[0,0,0,0,0,0,0,0,0,0,0,0,0,0,0,0,1,1,0,0,0,0,0,0,0,0,0,0,0,0,0,0,0,0,0,0,0,0,1,0,0,1,0,0,0,0,0,1,0,0,0,0,0,0,0,0,0,0,0,0,0,0,0,0,0,0,0,0,0,0,0,0,0,0,0,0,0,0,0,0,0,0,0,0,0,0,0,0,0,0,0,0,0,0,0,0,0,0,0,0,0,0,0,0,0,0,0,0,0,0,0,0,0,0,0,0,0,0,0,0,0,0,0,0,0,0,0],"id":1,"left_children":[1,3,5,7,9,11,13,15,17,19,21,23,25,27,29,31,33,35,37,39,41,43,45,47,49,51,53,55,57,59,61,63,65,67,69,71,73,75,77,79,81,83,85,87,89,91,93,95,97,99,101,103,105,107,109,111,113,115,117,119,121,123,125,-1,-1,-1,-1,-1,-1,-1,-1,-1,-1,-1,-1,-1,-1,-1,-1,-1,-1,-1,-1,-1,-1,-1,-1,-1,-1,-1,-1,-1,-1,-1,-1,-1,-1,-1,-1,-1,-1,-1,-1,-1,-1,-1,-1,-1,-1,-1,-1,-1,-1,-1,-1,-1,-1,-1,-1,-1,-1,-1,-1,-1,-1,-1,-1],"loss_changes":[3.457078E1,2.1861664E1,1.6149761E1,9.070942E0,1.1652334E1,1.5181349E1,1.6132957E1,7.973339E0,1.1650844E1,1.2193916E1,4.1168103E0,1.2802158E1,1.8910831E1,2.1291958E1,6.409104E0,3.8111877E0,2.4575148E0,2.2181435E0,2.5731378E0,1.3614479E1,2.8423832E1,1.1117575E0,2.992363E0,1.0374734E1,3.488281E1,1.152437E1,2.560672E1,2.3067017E1,1.961988E1,3.8557372E0,2.4771883E0,5.301367E-1,9.2079544E-1,1.1145363E0,1.0401573E0,1.1730309E0,1.377352E0,9.124067E-1,1.3291926E0,8.62106E0,7.1303825E0,1.3623257E0,1.3550227E0,4.1770148E-1,1.4441371E0,1.7276505E0,1.9844809E0,5.842747E0,3.447188E1,4.767297E0,3.4489265E1,2.1240812E1,1.630125E0,6.542469E0,6.084795E0,5.208209E0,1.2281121E1,8.308548E0,3.2749084E1,1.6053917E0,2.1822977E0,1.1712589E0,2.8835726E-1,0E0,0E0,0E0,0E0,0E0,0E0,0E0,0E0,0E0,0E0,0E0,0E0,0E0,0E0,0E0,0E0,0E0,0E0,0E0,0E0,0E0,0E0,0E0,0E0,0E0,0E0,0E0,0E0,0E0,0E0,0E0,0E0,0E0,0E0,0E0,0E0,0E0,0E0,0E0,0E0,0E0,0E0,0E0,0E0,0E0,0E0,0E0,0E0,0E0,0E0,0E0,0E0,0E0,0E0,0E0,0E0,0E0,0E0,0E0,0E0,0E0,0E0,0E0,0E0],"parents":[2147483647,0,0,1,1,2,2,3,3,4,4,5,5,6,6,7,7,8,8,9,9,10,10,11,11,12,12,13,13,14,14,15,15,16,16,17,17,18,18,19,19,20,20,21,21,22,22,23,23,24,24,25,25,26,26,27,27,28,28,29,29,30,30,31,31,32,32,33,33,34,34,35,35,36,36,37,37,38,38,39,39,40,40,41,41,42,42,43,43,44,44,45,45,46,46,47,47,48,48,49,49,50,50,51,51,52,52,53,53,54,54,55,55,56,56,57,57,58,58,59,59,60,60,61,61,62,62],"right_children":[2,4,6,8,10,12,14,16,18,20,22,24,26,28,30,32,34,36,38,40,42,44,46,48,50,52,54,56,58,60,62,64,66,68,70,72,74,76,78,80,82,84,86,88,90,92,94,96,98,100,102,104,106,108,110,112,114,116,118,120,122,124,126,-1,-1,-1,-1,-1,-1,-1,-1,-1,-1,-1,-1,-1,-1,-1,-1,-1,-1,-1,-1,-1,-1,-1,-1,-1,-1,-1,-1,-1,-1,-1,-1,-1,-1,-1,-1,-1,-1,-1,-1,-1,-1,-1,-1,-1,-1,-1,-1,-1,-1,-1,-1,-1,-1,-1,-1,-1,-1,-1,-1,-1,-1,-1,-1],"split_conditions":[3.9626823E1,-4.5369306E-1,4.305E1,3.3865818E1,5.265E1,3.62E1,5.578E1,1.1638571E0,1.3252535E0,2.5086815E0,4.8214287E-1,2.908E1,5.425454E1,-6.287213E-1,-4.144342E-1,4.642E1,1E-45,1E-45,4.866E1,2.51E1,1E0,3.1805158E-1,-5.1065207E-2,2.125E1,8.87537E-1,1.3252535E0,2.445055E-1,4.385E1,4.786183E1,6.50908E-1,9.03537E-1,1.7391304E-2,4.228395E-1,4.0895435E-1,-5.1924586E-1,3.1271746E1,1.1783844E0,-3.555235E-1,1E-45,2.012E1,1.1196314E0,1E-45,2.9780695E0,3.4591545E1,-3.1415173E-1,6.983856E-1,2.1162386E0,1E-45,1.7289327E0,-1.0676291E0,1E0,1.1783844E0,3.3333334E-1,3.97E1,3.97E1,-3.8333833E-1,4.017731E1,-9.194943E-2,4.385E1,9.739884E-1,-1.3129445E0,7.770572E-2,4.6002056E1,2.0863486E-2,5.794395E-3,3.0203719E-2,2.0494234E-2,1.53614655E-2,-1.340062E-2,-1.6511125E-3,7.647289E-3,1.9786295E-2,1.0483444E-2,4.440655E-3,1.6427636E-2,-2.2934701E-2,6.8059034E-4,2.1996751E-2,-1.4306618E-2,2.2318307E-3,-4.6903448E-4,2.2804178E-3,4.9203294E-3,-1.1567917E-2,-1.7824046E-2,1.6344457E-3,-4.7808865E-4,-4.17128E-3,-1.4709547E-2,3.921245E-3,-1.5665675E-3,6.335566E-3,-5.0772773E-3,-1.3581859E-2,2.897287E-3,-7.085237E-5,-6.6808244E-4,1.055815E-3,-4.187896E-3,1.4869701E-3,-1.2464349E-3,-1.2930914E-2,1.7421613E-3,4.1233543E-5,-1.7316235E-2,1.4517058E-2,6.6259163E-3,1.0209623E-2,2.0922167E-2,3.6167318E-4,6.114804E-3,1.7767968E-2,5.922771E-3,1.409045E-2,-4.661751E-3,-1.7165722E-2,-8.503102E-3,-1.1545393E-2,1.2371781E-2,-2.315353E-3,-2.9703049E-2,2.4396556E-3,8.66441E-3,2.501184E-4,-3.5952677E-3,-8.62918E-3,-1.6334603E-2],"split_indices":[19,12,20,19,20,20,20,21,21,21,32,20,19,21,12,20,41,41,20,20,18,37,1,20,21,21,38,20,19,22,34,37,26,6,6,4,21,22,41,20,22,41,21,19,12,21,21,41,21,21,18,21,36,20,20,12,19,24,20,34,16,1,19,0,0,0,0,0,0,0,0,0,0,0,0,0,0,0,0,0,0,0,0,0,0,0,0,0,0,0,0,0,0,0,0,0,0,0,0,0,0,0,0,0,0,0,0,0,0,0,0,0,0,0,0,0,0,0,0,0,0,0,0,0,0,0,0],"split_type":[0,0,0,0,0,0,0,0,0,0,0,0,0,0,0,0,1,1,0,0,0,0,0,0,0,0,0,0,0,0,0,0,0,0,0,0,0,0,1,0,0,1,0,0,0,0,0,1,0,0,0,0,0,0,0,0,0,0,0,0,0,0,0,0,0,0,0,0,0,0,0,0,0,0,0,0,0,0,0,0,0,0,0,0,0,0,0,0,0,0,0,0,0,0,0,0,0,0,0,0,0,0,0,0,0,0,0,0,0,0,0,0,0,0,0,0,0,0,0,0,0,0,0,0,0,0,0],"sum_hessian":[6.74111E5,6.6026E4,6.08085E5,2.423E3,6.3603E4,5.93063E5,1.5022E4,1.196E3,1.227E3,6.0451E4,3.152E3,5.80238E5,1.2825E4,1.0186E4,4.836E3,3.62E2,8.34E2,8.47E2,3.8E2,5.2302E4,8.149E3,1.935E3,1.217E3,5.56681E5,2.3557E4,7.128E3,5.697E3,4.661E3,5.525E3,1.407E3,3.429E3,8.5E1,2.77E2,3.22E2,5.12E2,3.4E2,5.07E2,1.88E2,1.92E2,2.7605E4,2.4697E4,8.15E2,7.334E3,8.8E1,1.847E3,7.87E2,4.3E2,4.59918E5,9.6763E4,1.9291E4,4.266E3,6.422E3,7.06E2,1.349E3,4.348E3,1.081E3,3.58E3,4.188E3,1.337E3,5E1,1.357E3,3.304E3,1.25E2,1.7E1,6.8E1,1.95E2,8.2E1,3.14E2,8E0,8.4E1,4.28E2,1.26E2,2.14E2,4.43E2,6.4E1,1E1,1.78E2,6E0,1.86E2,1.3924E4,1.3681E4,1.4571E4,1.0126E4,4.13E2,4.02E2,3E3,4.334E3,4.5E1,4.3E1,3.44E2,1.503E3,8.7E1,7E2,3.82E2,4.8E1,3.24251E5,1.35667E5,8.8785E4,7.978E3,5.045E3,1.4246E4,2.881E3,1.385E3,5.98E3,4.42E2,2.24E2,4.82E2,7.5E2,5.99E2,2.417E3,1.931E3,3E2,7.81E2,2.17E2,3.363E3,7.99E2,3.389E3,6.65E2,6.72E2,2.6E1,2.4E1,5.6E2,7.97E2,2.748E3,5.56E2,8.1E1,4.4E1],"tree_param":{"num_deleted":"0","num_feature":"42","num_nodes":"127","size_leaf_vector":"1"}},{"base_weights":[5.4167795E-6,2.0359077E-2,-2.2135063E-3,1.0158669E-1,1.6623665E-2,5.5018708E-2,-2.5616281E-3,1.8347062E-1,6.674411E-2,1.8826189E-2,-4.5630805E-2,-3.687821E-2,1.0672721E-1,-1.9414325E-3,-3.7716202E-2,3.3532538E-2,2.1776941E-1,1.282124E-1,3.751108E-2,6.2242765E-2,1.6746888E-2,1.5677966E-2,-6.45604E-2,-5.442535E-2,1.11457E-1,1.2569176E-1,-4.3328233E-2,6.0603376E-2,-2.1041106E-3,-7.307702E-2,-2.1006387E-2,-4.381055E-2,1.2544659E-1,2.7703658E-1,1.6264382E-1,1.9630042E-1,8.762068E-2,6.0746312E-2,-7.685606E-2,5.3199433E-2,1.8842012E-1,1.7640023E-2,-3.1493135E-2,-5.2369207E-2,1.5579727E-1,-1.9141886E-2,-9.0454385E-2,-1.14381745E-1,-1.4105785E-2,6.2066413E-2,3.270054E-1,1.9277616E-1,9.625084E-2,-1.18403256E-1,2.5252689E-2,-2.2514585E-2,1.0111772E-1,-1.6087554E-3,-2.5818687E-2,-6.190076E-3,-8.6182594E-2,5.2248724E-3,-6.333347E-2,9.155726E-3,-8.597067E-3,1.755216E-2,3.49043E-3,2.7548995E-2,1.7179077E-2,1.5181831E-2,3.2859123E-3,1.6372303E-2,-6.1032143E-3,9.480387E-3,-3.4424444E-3,-3.3488641E-3,6.744793E-3,-3.7488325E-3,-2.2087019E-2,2.3383196E-3,7.6734917E-3,-8.696137E-3,1.8989544E-2,2.0005284E-3,1.0898695E-3,2.888405E-3,-3.151763E-3,-2.3304834E-3,-1.0772314E-2,1.6458718E-2,8.2686255E-3,-3.0462143E-3,4.5047007E-3,-1.0496532E-2,-4.058923E-3,-1.4921712E-2,-3.2422165E-3,1.026908E-3,-1.4483659E-2,1.477019E-3,1.7604543E-2,3.6881838E-2,5.789661E-3,1.6209787E-2,-3.8314946E-3,1.1932434E-2,3.7960715E-3,1.7709743E-2,-1.2404418E-2,1.704425E-2,-1.4257513E-3,3.2216772E-3,-4.907843E-3,1.16947265E-2,5.2291463E-4,3.4807897E-6,-5.076503E-4,-4.541136E-3,6.359366E-4,2.0476028E-3,-5.93247E-3,-7.5909332E-3,-1.0460138E-3,2.095783E-3,-1.5264597E-3,-5.3945854E-3,1.5063328E-3],"categories":[0,3,5,7,9,10,11,0,2,3,5,9,10,11,2,6,7,10,11,0,3,4,9,10,11,0,1,3,6,8,9,10,11,0,2,3,4,5,7,10,11,1,2,3,4,5,6,7,8,9,10,0,3,5,6,7,10,11,0,4,8,10,10,11],"categories_nodes":[8,16,25,29,31,41,42,44,55,57],"categories_segments":[0,7,14,19,25,33,41,51,58,62],"categories_sizes":[7,7,5,6,8,8,10,7,4,2],"default_left":[0,0,0,0,0,0,0,0,1,0,0,0,0,0,0,0,1,0,0,0,0,0,0,0,0,1,0,0,0,1,0,1,0,0,0,0,0,0,0,0,0,1,1,0,1,0,0,0,0,0,0,0,0,0,0,1,0,1,0,0,0,0,0,0,0,0,0,0,0,0,0,0,0,0,0,0,0,0,0,0,0,0,0,0,0,0,0,0,0,0,0,0,0,0,0,0,0,0,0,0,0,0,0,0,0,0,0,0,0,0,0,0,0,0,0,0,0,0,0,0,0,0,0,0,0,0,0],"id":2,"left_children":[1,3,5,7,9,11,13,15,17,19,21,23,25,27,29,31,33,35,37,39,41,43,45,47,49,51,53,55,57,59,61,63,65,67,69,71,73,75,77,79,81,83,85,87,89,91,93,95,97,99,101,103,105,107,109,111,113,115,117,119,121,123,125,-1,-1,-1,-1,-1,-1,-1,-1,-1,-1,-1,-1,-1,-1,-1,-1,-1,-1,-1,-1,-1,-1,-1,-1,-1,-1,-1,-1,-1,-1,-1,-1,-1,-1,-1,-1,-1,-1,-1,-1,-1,-1,-1,-1,-1,-1,-1,-1,-1,-1,-1,-1,-1,-1,-1,-1,-1,-1,-1,-1,-1,-1,-1,-1],"loss_changes":[3.0462862E1,2.0118034E1,1.211768E1,8.315746E0,8.6919365E0,1.7473381E1,1.3180257E1,4.47394E0,3.674385E0,5.5269756E0,2.513957E0,3.4470057E0,6.6967945E0,6.044215E0,6.19226E0,1.1528372E0,2.3091736E0,1.8199835E0,3.683776E0,3.1918554E0,2.517332E0,4.8739176E0,1.9463377E0,2.862296E0,1.4895357E0,4.124264E0,1.3600307E0,5.1898055E0,6.960211E0,2.9480095E0,7.902089E0,9.915206E-1,6.151844E-1,1.4794102E0,1.5818863E0,1.2221584E0,1.9979765E0,3.3159533E0,1.3793687E0,2.786087E0,3.4004207E0,1.6544914E0,7.179209E-1,6.6640186E-1,4.7166204E-1,9.729884E-1,1.8455238E0,2.7703085E0,3.4219983E0,8.203128E-1,1.0170083E0,2.9965725E0,4.050539E0,1.9432096E0,1.1998277E0,1.3628995E0,5.0720243E0,4.83395E0,1.39109E1,1.2989902E0,2.6821423E0,2.4586124E0,1.6427689E0,0E0,0E0,0E0,0E0,0E0,0E0,0E0,0E0,0E0,0E0,0E0,0E0,0E0,0E0,0E0,0E0,0E0,0E0,0E0,0E0,0E0,0E0,0E0,0E0,0E0,0E0,0E0,0E0,0E0,0E0,0E0,0E0,0E0,0E0,0E0,0E0,0E0,0E0,0E0,0E0,0E0,0E0,0E0,0E0,0E0,0E0,0E0,0E0,0E0,0E0,0E0,0E0,0E0,0E0,0E0,0E0,0E0,0E0,0E0,0E0,0E0,0E0,0E0,0E0],"parents":[2147483647,0,0,1,1,2,2,3,3,4,4,5,5,6,6,7,7,8,8,9,9,10,10,11,11,12,12,13,13,14,14,15,15,16,16,17,17,18,18,19,19,20,20,21,21,22,22,23,23,24,24,25,25,26,26,27,27,28,28,29,29,30,30,31,31,32,32,33,33,34,34,35,35,36,36,37,37,38,38,39,39,40,40,41,41,42,42,43,43,44,44,45,45,46,46,47,47,48,48,49,49,50,50,51,51,52,52,53,53,54,54,55,55,56,56,57,57,58,58,59,59,60,60,61,61,62,62],"right_children":[2,4,6,8,10,12,14,16,18,20,22,24,26,28,30,32,34,36,38,40,42,44,46,48,50,52,54,56,58,60,62,64,66,68,70,72,74,76,78,80,82,84,86,88,90,92,94,96,98,100,102,104,106,108,110,112,114,116,118,120,122,124,126,-1,-1,-1,-1,-1,-1,-1,-1,-1,-1,-1,-1,-1,-1,-1,-1,-1,-1,-1,-1,-1,-1,-1,-1,-1,-1,-1,-1,-1,-1,-1,-1,-1,-1,-1,-1,-1,-1,-1,-1,-1,-1,-1,-1,-1,-1,-1,-1,-1,-1,-1,-1,-1,-1,-1,-1,-1,-1,-1,-1,-1,-1,-1,-1],"split_conditions":[3.9626823E1,-6.2589574E-1,-7.330081E-1,3.0276743E1,8.199525E-2,4.786183E1,9.455875E-1,2.5557587E1,1E-45,-4.6702194E-1,-4.144342E-1,1E0,3.2638866E-1,-6.536668E-1,4.786183E1,9.230769E-1,1E-45,-7.330081E-1,8.892308E-1,-1.1678947E-1,6.5711714E-2,2.945946E-1,3.33183E1,-2.6662597E-2,1.5469916E-1,1E-45,9.703504E-1,4.8215782E1,5.8417756E-2,1E-45,-4.8032755E-1,1E-45,6.213873E-1,-7.330081E-1,9.5421684E-1,3.29586E-1,1.5469916E-1,-2.1495354E0,2.0344783E-1,3.257143E-1,1E0,1E-45,1E-45,-3.6234733E-2,1E-45,3.1947641E1,-1.8545263E0,3.726708E-2,-2.1640241E-1,2.2372188E-1,3.7483044E1,8.844563E-1,9.583333E-1,4.8991356E-2,-4.5369306E-1,1E-45,9.546667E-1,1E-45,4.786183E1,8.02647E-2,1E0,1.2897434E0,-8.24899E-2,9.155726E-3,-8.597067E-3,1.755216E-2,3.49043E-3,2.7548995E-2,1.7179077E-2,1.5181831E-2,3.2859123E-3,1.6372303E-2,-6.1032143E-3,9.480387E-3,-3.4424444E-3,-3.3488641E-3,6.744793E-3,-3.7488325E-3,-2.2087019E-2,2.3383196E-3,7.6734917E-3,-8.696137E-3,1.8989544E-2,2.0005284E-3,1.0898695E-3,2.888405E-3,-3.151763E-3,-2.3304834E-3,-1.0772314E-2,1.6458718E-2,8.2686255E-3,-3.0462143E-3,4.5047007E-3,-1.0496532E-2,-4.058923E-3,-1.4921712E-2,-3.2422165E-3,1.026908E-3,-1.4483659E-2,1.477019E-3,1.7604543E-2,3.6881838E-2,5.789661E-3,1.6209787E-2,-3.8314946E-3,1.1932434E-2,3.7960715E-3,1.7709743E-2,-1.2404418E-2,1.704425E-2,-1.4257513E-3,3.2216772E-3,-4.907843E-3,1.16947265E-2,5.2291463E-4,3.4807897E-6,-5.076503E-4,-4.541136E-3,6.359366E-4,2.0476028E-3,-5.93247E-3,-7.5909332E-3,-1.0460138E-3,2.095783E-3,-1.5264597E-3,-5.3945854E-3,1.5063328E-3],"split_indices":[19,13,13,19,7,19,9,19,41,13,12,18,3,13,19,33,41,13,31,12,7,37,19,6,7,41,33,19,7,41,13,41,39,13,34,6,7,16,1,37,18,41,41,1,41,19,16,37,16,3,4,6,34,36,12,41,33,41,19,16,18,9,13,0,0,0,0,0,0,0,0,0,0,0,0,0,0,0,0,0,0,0,0,0,0,0,0,0,0,0,0,0,0,0,0,0,0,0,0,0,0,0,0,0,0,0,0,0,0,0,0,0,0,0,0,0,0,0,0,0,0,0,0,0,0,0,0],"split_type":[0,0,0,0,0,0,0,0,1,0,0,0,0,0,0,0,1,0,0,0,0,0,0,0,0,1,0,0,0,1,0,1,0,0,0,0,0,0,0,0,0,1,1,0,1,0,0,0,0,0,0,0,0,0,0,1,0,1,0,0,0,0,0,0,0,0,0,0,0,0,0,0,0,0,0,0,0,0,0,0,0,0,0,0,0,0,0,0,0,0,0,0,0,0,0,0,0,0,0,0,0,0,0,0,0,0,0,0,0,0,0,0,0,0,0,0,0,0,0,0,0,0,0,0,0,0,0],"sum_hessian":[6.74506E5,6.6305E4,6.08201E5,2.915E3,6.339E4,3.677E3,6.04524E5,8.7E2,2.045E3,6.1224E4,2.166E3,1.324E3,2.353E3,5.94044E5,1.048E4,1.62E2,7.08E2,6.59E2,1.386E3,2.798E3,5.8426E4,5.11E2,1.655E3,1.184E3,1.4E2,2.089E3,2.64E2,1.541E3,5.92503E5,3.363E3,7.117E3,8.8E1,7.4E1,3.41E2,3.67E2,2.46E2,4.13E2,1.152E3,2.34E2,2.611E3,1.87E2,5.7364E4,1.062E3,3.44E2,1.67E2,6.01E2,1.054E3,4.76E2,7.08E2,1.14E2,2.6E1,6.37E2,1.452E3,1.26E2,1.38E2,5.05E2,1.036E3,5.8038E5,1.2123E4,5.51E2,2.812E3,4.394E3,2.723E3,2.6E1,6.2E1,3.2E1,4.2E1,1.31E2,2.1E2,2.82E2,8.5E1,2.31E2,1.5E1,3.24E2,8.9E1,2.4E2,9.12E2,2.07E2,2.7E1,1.766E3,8.45E2,3.1E1,1.56E2,1.6256E4,4.1108E4,1.31E2,9.31E2,2.76E2,6.8E1,7.4E1,9.3E1,4.75E2,1.26E2,4.67E2,5.87E2,2.24E2,2.52E2,6.12E2,9.6E1,9.1E1,2.3E1,1.6E1,1E1,5.9E2,4.7E1,6.35E2,8.17E2,1.4E1,1.12E2,2.5E1,1.13E2,1.98E2,3.07E2,6.68E2,3.68E2,4.36842E5,1.43538E5,6.109E3,6.014E3,3.77E2,1.74E2,2.38E3,4.32E2,2.336E3,2.058E3,2.504E3,2.19E2],"tree_param":{"num_deleted":"0","num_feature":"42","num_nodes":"127","size_leaf_vector":"1"}},{"base_weights":[4.3939508E-5,1.806482E-2,-1.9937519E-3,-7.574264E-2,2.110256E-2,-2.3522843E-3,7.136831E-2,-4.3236062E-2,-1.5435086E-1,1.0705943E-1,1.6651778E-2,-2.5092265E-2,-1.5413878E-3,2.159822E-1,3.78397E-2,6.947305E-2,-5.6047846E-2,-7.546863E-2,-2.0932186E-1,1.7660142E-1,6.025219E-2,2.1570053E-2,-1.6001688E-2,-4.888507E-3,-1.5197656E-1,-1.104352E-3,-2.1522751E-2,-2.7039038E-2,2.494151E-1,8.035472E-2,4.6353745E-3,1.3032521E-1,4.370155E-2,-3.144067E-2,-9.335521E-2,-1.6102033E-2,-1.14884794E-1,-2.9645675E-1,-1.7561491E-1,2.6771027E-1,1.1626024E-1,-2.0535016E-1,7.751446E-2,5.0818253E-2,1.8986195E-2,-1.4303112E-3,-9.551118E-2,8.325835E-2,-1.9760473E-2,-9.278493E-2,-2.8288165E-1,4.8534755E-2,-1.2899265E-3,-7.71707E-2,-8.7166885E-3,2.0053666E-2,-1.2303838E-1,2.67033E-1,4.1099384E-2,-3.6829825E-2,9.2855185E-2,5.96135E-3,-1.20338544E-1,1.1124696E-2,3.6778033E-4,1.2934026E-4,7.726481E-3,-4.2302785E-3,-3.5748334E-4,-6.7532742E-3,-2.5279237E-2,-2.0757797E-3,1.2256366E-2,-2.186452E-3,-1.0842435E-2,-9.5858624E-5,-2.3099506E-2,-1.5569634E-2,-9.514644E-3,2.6596664E-2,1.7645558E-2,1.3010486E-2,5.3196265E-3,-9.905214E-3,-1.8088663E-2,7.399004E-3,-9.082863E-3,5.2440437E-3,5.160599E-4,1.5065438E-3,-5.336009E-3,-2.4271957E-3,4.3948548E-4,-7.140766E-4,-1.0352508E-2,1.45023065E-2,1.79707E-3,-1.0605683E-2,-9.625607E-4,-1.7761087E-2,-1.8991182E-3,-1.5274347E-2,-2.3833554E-2,-2.7107461E-3,5.963125E-3,-3.400071E-6,-5.371569E-4,-6.751521E-3,4.491905E-3,3.6000067E-3,-2.1454624E-3,2.0128753E-2,1.6180016E-4,-3.560148E-2,-6.6265366E-3,2.4219805E-2,1.704474E-2,-2.0303728E-2,1.0458733E-2,-2.4388501E-2,-2.1309773E-3,9.232909E-3,2.4614842E-3,6.2555895E-4,-3.628656E-3,-2.6345182E-2,5.070686E-4],"categories":[0,1,2,4,5,6,7,8,9,10,1,4,7,8,9,10,7,9,10,0,5,6,1,4,6,9,0,3,9,10,11,1,4,8,9,10,11,1,3,4,6,7,8,9,10,10],"categories_nodes":[7,8,16,17,27,40,41,50,52],"categories_segments":[0,10,16,19,22,26,31,37,45],"categories_sizes":[10,6,3,3,4,5,6,8,1],"default_left":[0,0,0,0,0,0,0,1,1,0,0,0,0,0,0,0,1,1,0,0,0,0,0,0,0,0,0,1,0,0,0,0,0,0,0,0,0,0,0,0,1,1,0,0,0,0,0,0,0,0,1,0,1,0,0,0,0,0,0,0,0,0,0,0,0,0,0,0,0,0,0,0,0,0,0,0,0,0,0,0,0,0,0,0,0,0,0,0,0,0,0,0,0,0,0,0,0,0,0,0,0,0,0,0,0,0,0,0,0,0,0,0,0,0,0,0,0,0,0,0,0,0,0,0,0,0,0],"id":3,"left_children":[1,3,5,7,9,11,13,15,17,19,21,23,25,27,29,31,33,35,37,39,41,43,45,47,49,51,53,55,57,59,61,63,65,67,69,71,73,75,77,79,81,83,85,87,89,91,93,95,97,99,101,103,105,107,109,111,113,115,117,119,121,123,125,-1,-1,-1,-1,-1,-1,-1,-1,-1,-1,-1,-1,-1,-1,-1,-1,-1,-1,-1,-1,-1,-1,-1,-1,-1,-1,-1,-1,-1,-1,-1,-1,-1,-1,-1,-1,-1,-1,-1,-1,-1,-1,-1,-1,-1,-1,-1,-1,-1,-1,-1,-1,-1,-1,-1,-1,-1,-1,-1,-1,-1,-1,-1,-1],"loss_changes":[2.4742865E1,1.9505896E1,1.5922527E1,5.4858055E0,2.536576E1,1.11083555E1,1.4274265E1,2.1939478E0,2.7220707E0,1.0623848E1,1.0124029E1,5.31731E1,5.0794816E0,4.5025997E0,3.3740199E0,2.4268842E-1,1.2520008E0,6.037674E-1,1.0820618E0,7.215946E0,8.947079E0,4.140341E0,9.560558E0,2.3456518E1,2.2073685E1,5.2435293E0,8.872261E0,3.0355942E-1,1.7866421E0,1.5356379E0,2.2246963E-1,8.82197E-2,2.6310164E-1,5.26236E-1,6.379585E-1,2.0171382E-1,3.6097026E-1,1.7766476E-1,3.8166523E-1,1.5386734E0,1.989089E0,2.800026E-1,6.949931E0,3.4897757E0,3.2615337E0,1.5193046E0,4.40158E0,1.6438627E1,1.3055071E1,1.8613022E1,2.1306076E0,5.254927E0,4.053844E0,3.5420017E0,1.0939621E1,1.9678743E-1,2.7131233E-1,9.79229E-1,1.1227816E0,2.543969E-1,1.6062326E0,1.5798691E-1,4.01873E-1,0E0,0E0,0E0,0E0,0E0,0E0,0E0,0E0,0E0,0E0,0E0,0E0,0E0,0E0,0E0,0E0,0E0,0E0,0E0,0E0,0E0,0E0,0E0,0E0,0E0,0E0,0E0,0E0,0E0,0E0,0E0,0E0,0E0,0E0,0E0,0E0,0E0,0E0,0E0,0E0,0E0,0E0,0E0,0E0,0E0,0E0,0E0,0E0,0E0,0E0,0E0,0E0,0E0,0E0,0E0,0E0,0E0,0E0,0E0,0E0,0E0,0E0,0E0,0E0],"parents":[2147483647,0,0,1,1,2,2,3,3,4,4,5,5,6,6,7,7,8,8,9,9,10,10,11,11,12,12,13,13,14,14,15,15,16,16,17,17,18,18,19,19,20,20,21,21,22,22,23,23,24,24,25,25,26,26,27,27,28,28,29,29,30,30,31,31,32,32,33,33,34,34,35,35,36,36,37,37,38,38,39,39,40,40,41,41,42,42,43,43,44,44,45,45,46,46,47,47,48,48,49,49,50,50,51,51,52,52,53,53,54,54,55,55,56,56,57,57,58,58,59,59,60,60,61,61,62,62],"right_children":[2,4,6,8,10,12,14,16,18,20,22,24,26,28,30,32,34,36,38,40,42,44,46,48,50,52,54,56,58,60,62,64,66,68,70,72,74,76,78,80,82,84,86,88,90,92,94,96,98,100,102,104,106,108,110,112,114,116,118,120,122,124,126,-1,-1,-1,-1,-1,-1,-1,-1,-1,-1,-1,-1,-1,-1,-1,-1,-1,-1,-1,-1,-1,-1,-1,-1,-1,-1,-1,-1,-1,-1,-1,-1,-1,-1,-1,-1,-1,-1,-1,-1,-1,-1,-1,-1,-1,-1,-1,-1,-1,-1,-1,-1,-1,-1,-1,-1,-1,-1,-1,-1,-1,-1,-1,-1],"split_conditions":[3.992596E1,-1.9463165E-1,1.3511412E-1,3.4591545E1,-3.8333833E-1,-5.3060737E-2,-5.78626E-1,1E-45,1E-45,3.254867E1,2.5086815E0,1.0622035E0,8.812653E-1,4.786183E1,-3.501684E-1,1.8430004E0,1E-45,1E-45,-6.0061646E-1,-1.6246586E-1,-1.6246586E-1,-4.1319764E-1,3.784343E-2,-9.563656E-1,-6.014203E-2,-6.2589574E-1,-2.4398325E-2,1E-45,-1.2873341E-1,4.786183E1,1.1330514E0,-1.7534444E0,2.1162386E0,6.1702126E-1,1.9944899E0,9.009901E-1,4.785064E-1,1.1882016E1,-4.0393E-1,-9.198584E-2,1E-45,1E-45,2.4448204E0,-5.7947453E-2,7.681577E-2,-5.7947453E-2,3.33183E1,-4.6702194E-1,-1.6246586E-1,-7.85359E-2,1E-45,-1.7761907E-1,1E-45,1E0,-6.85909E-1,7.523863E-1,-2.4038555E-1,-3.8333833E-1,4.6974063E-1,-1.5013378E0,6.2633377E1,2.676911E0,5.838368E1,1.1124696E-2,3.6778033E-4,1.2934026E-4,7.726481E-3,-4.2302785E-3,-3.5748334E-4,-6.7532742E-3,-2.5279237E-2,-2.0757797E-3,1.2256366E-2,-2.186452E-3,-1.0842435E-2,-9.5858624E-5,-2.3099506E-2,-1.5569634E-2,-9.514644E-3,2.6596664E-2,1.7645558E-2,1.3010486E-2,5.3196265E-3,-9.905214E-3,-1.8088663E-2,7.399004E-3,-9.082863E-3,5.2440437E-3,5.160599E-4,1.5065438E-3,-5.336009E-3,-2.4271957E-3,4.3948548E-4,-7.140766E-4,-1.0352508E-2,1.45023065E-2,1.79707E-3,-1.0605683E-2,-9.625607E-4,-1.7761087E-2,-1.8991182E-3,-1.5274347E-2,-2.3833554E-2,-2.7107461E-3,5.963125E-3,-3.400071E-6,-5.371569E-4,-6.751521E-3,4.491905E-3,3.6000067E-3,-2.1454624E-3,2.0128753E-2,1.6180016E-4,-3.560148E-2,-6.6265366E-3,2.4219805E-2,1.704474E-2,-2.0303728E-2,1.0458733E-2,-2.4388501E-2,-2.1309773E-3,9.232909E-3,2.4614842E-3,6.2555895E-4,-3.628656E-3,-2.6345182E-2,5.070686E-4],"split_indices":[19,17,17,19,12,17,13,41,41,19,21,21,9,19,13,21,41,41,13,17,17,13,7,21,17,13,17,41,12,19,9,16,21,36,9,31,9,5,13,23,41,41,21,17,7,17,19,13,17,17,41,24,41,14,13,22,11,12,29,16,19,16,5,0,0,0,0,0,0,0,0,0,0,0,0,0,0,0,0,0,0,0,0,0,0,0,0,0,0,0,0,0,0,0,0,0,0,0,0,0,0,0,0,0,0,0,0,0,0,0,0,0,0,0,0,0,0,0,0,0,0,0,0,0,0,0,0],"split_type":[0,0,0,0,0,0,0,1,1,0,0,0,0,0,0,0,1,1,0,0,0,0,0,0,0,0,0,1,0,0,0,0,0,0,0,0,0,0,0,0,1,1,0,0,0,0,0,0,0,0,1,0,1,0,0,0,0,0,0,0,0,0,0,0,0,0,0,0,0,0,0,0,0,0,0,0,0,0,0,0,0,0,0,0,0,0,0,0,0,0,0,0,0,0,0,0,0,0,0,0,0,0,0,0,0,0,0,0,0,0,0,0,0,0,0,0,0,0,0,0,0,0,0,0,0,0,0],"sum_hessian":[6.73807E5,6.845E4,6.05357E5,2.147E3,6.6303E4,6.02413E5,2.944E3,1.519E3,6.28E2,3.264E3,6.3039E4,2.0742E4,5.81671E5,5.54E2,2.39E3,1.55E2,1.364E3,2.58E2,3.7E2,1.313E3,1.951E3,5.4787E4,8.252E3,1.7893E4,2.849E3,5.69221E5,1.245E4,6.7E1,4.87E2,1.048E3,1.342E3,4.6E1,1.09E2,8.22E2,5.42E2,1.03E2,1.55E2,1.03E2,2.67E2,5.23E2,7.9E2,1.19E2,1.832E3,4.447E3,5.034E4,6.974E3,1.278E3,2.583E3,1.531E4,1.962E3,8.87E2,2.12E3,5.67101E5,2.329E3,1.0121E4,4.5E1,2.2E1,4.49E2,3.8E1,1.01E2,9.47E2,1.328E3,1.4E1,4.1E1,5E0,6.3E1,4.6E1,4.34E2,3.88E2,5.31E2,1.1E1,9.7E1,6E0,3.7E1,1.18E2,2E0,1.01E2,1.72E2,9.5E1,1.64E2,3.59E2,3.66E2,4.24E2,3.5E1,8.4E1,1.668E3,1.64E2,3.167E3,1.28E3,4.993E4,4.1E2,1.335E3,5.639E3,4.05E2,8.73E2,9.28E2,1.655E3,8.69E2,1.4441E4,6.42E2,1.32E3,2.3E2,6.57E2,5.51E2,1.569E3,4.65988E5,1.01113E5,2.152E3,1.77E2,2.606E3,7.515E3,3E0,4.2E1,2E0,2E1,2.1E2,2.39E2,9E0,2.9E1,3E0,9.8E1,6.48E2,2.99E2,1.275E3,5.3E1,5E0,9E0],"tree_param":{"num_deleted":"0","num_feature":"42","num_nodes":"127","size_leaf_vector":"1"}},{"base_weights":[2.9614917E-5,7.1850784E-2,-4.8729492E-4,6.0228765E-2,2.5453526E-1,1.4836714E-2,-2.204384E-3,1.9168986E-1,4.1525E-2,-3.231063E-2,2.6421338E-1,-7.102008E-2,1.7418902E-2,-2.5947986E-2,-1.3900714E-3,-3.5644222E-2,2.3599902E-1,1.9792505E-2,1.23101555E-1,3.648852E-1,2.335897E-1,-2.1543682E-2,-1.0970055E-1,2.218281E-2,-1.4868365E-2,-7.470503E-3,-1.4025538E-1,-1.6594167E-3,5.4596357E-2,9.414208E-2,-1.0827106E-1,3.157611E-1,1.7623544E-1,3.5963263E-2,-1.21243864E-1,1.6111593E-1,-3.5804544E-2,-6.525922E-3,3.7906203E-1,3.136777E-2,2.4744669E-1,3.3851035E-2,-4.0239472E-2,-7.682447E-2,-1.8269587E-1,7.6462864E-3,3.718365E-2,-1.4722598E-1,3.6880889E-3,5.9876796E-2,-1.8322125E-2,-1.9979745E-1,-2.005396E-3,-1.1576116E-3,-3.543077E-2,1.5188932E-1,2.2808574E-2,2.8664345E-2,1.3302091E-3,-2.2797631E-2,-5.9570707E-3,2.5039341E-2,4.537564E-3,-1.3532612E-2,1.4727074E-2,9.398715E-3,1.0172207E-3,9.949556E-3,-1.22283865E-2,9.408565E-3,2.116708E-2,-9.434747E-3,4.9475357E-3,3.129287E-2,2.3325546E-2,-3.0863488E-3,1.5859652E-2,1.39758E-2,2.3107706E-2,-3.3808441E-3,4.0118E-3,-1.4881575E-3,-7.243573E-3,-4.715024E-3,-1.0657758E-2,-1.8505963E-2,-1.1280927E-2,-2.4134486E-3,1.2573892E-3,7.4530947E-3,2.3060408E-3,-1.2995242E-2,-3.585043E-3,1.415139E-3,-4.882627E-4,5.8589913E-3,-9.7495485E-3,1.1748538E-3,-3.2613778E-3,-1.8823517E-2,9.464031E-3,2.9036072E-3,-9.982534E-4,-1.967287E-4,5.666785E-4,-1.2388645E-3,-4.994919E-3,-4.3164403E-3,1.3217E-2,4.5209765E-3,2.3106777E-4],"categories":[1,4,7,8,9,10,0,2,3,5,9,10,11,0,7,8,0,2,5,6,0,1,2,3,5,6,7,8,9,10,11,4,6,10,11],"categories_nodes":[11,16,18,21,29,33],"categories_segments":[0,6,13,16,20,31],"categories_sizes":[6,7,3,4,11,4],"default_left":[0,0,0,0,0,0,0,0,0,0,0,1,0,0,0,0,1,0,1,0,0,1,0,0,0,0,0,0,0,1,0,0,0,1,0,0,0,0,0,0,0,0,0,0,0,0,0,0,0,0,0,0,0,0,0,0,0,0,0,0,0,0,0,0,0,0,0,0,0,0,0,0,0,0,0,0,0,0,0,0,0,0,0,0,0,0,0,0,0,0,0,0,0,0,0,0,0,0,0,0,0,0,0,0,0,0,0,0,0,0,0],"id":4,"left_children":[1,3,5,7,9,11,13,15,17,-1,19,21,23,25,27,29,31,33,35,37,39,41,43,45,47,49,51,53,55,57,59,61,63,65,67,69,71,-1,73,75,77,79,81,83,85,87,89,91,93,95,97,99,101,103,105,107,109,-1,-1,-1,-1,-1,-1,-1,-1,-1,-1,-1,-1,-1,-1,-1,-1,-1,-1,-1,-1,-1,-1,-1,-1,-1,-1,-1,-1,-1,-1,-1,-1,-1,-1,-1,-1,-1,-1,-1,-1,-1,-1,-1,-1,-1,-1,-1,-1,-1,-1,-1,-1,-1,-1],"loss_changes":[2.5026756E1,1.0226023E1,1.7611168E1,1.1135464E1,1.8992386E0,1.4951485E1,1.1636849E1,5.682905E0,7.029335E0,0E0,8.677845E-1,3.7681713E0,1.0070372E1,4.2151535E1,8.77497E0,8.6904544E-1,2.2451477E0,7.14139E0,5.039075E0,4.249878E-1,6.104078E-1,8.9502704E-1,2.6506777E0,1.2440979E1,2.0675634E1,1.2555788E1,2.2860153E1,9.814136E0,8.616305E0,7.1292365E-1,3.3828372E-1,6.1579704E-1,1.5772038E0,5.5378113E0,3.1432023E0,2.9601288E0,1.4207768E0,0E0,1.3225651E-1,1.7898384E-1,7.1877766E-1,3.178699E-1,7.317214E-1,7.211189E-1,7.122879E-1,1.0012975E1,1.1870708E1,2.3705673E0,1.1035472E0,7.508522E0,1.2144819E1,2.9240807E1,3.6991897E-1,6.932131E0,4.878064E0,3.0142603E0,1.5105617E0,0E0,0E0,0E0,0E0,0E0,0E0,0E0,0E0,0E0,0E0,0E0,0E0,0E0,0E0,0E0,0E0,0E0,0E0,0E0,0E0,0E0,0E0,0E0,0E0,0E0,0E0,0E0,0E0,0E0,0E0,0E0,0E0,0E0,0E0,0E0,0E0,0E0,0E0,0E0,0E0,0E0,0E0,0E0,0E0,0E0,0E0,0E0,0E0,0E0,0E0,0E0,0E0,0E0,0E0],"parents":[2147483647,0,0,1,1,2,2,3,3,4,4,5,5,6,6,7,7,8,8,10,10,11,11,12,12,13,13,14,14,15,15,16,16,17,17,18,18,19,19,20,20,21,21,22,22,23,23,24,24,25,25,26,26,27,27,28,28,29,29,30,30,31,31,32,32,33,33,34,34,35,35,36,36,38,38,39,39,40,40,41,41,42,42,43,43,44,44,45,45,46,46,47,47,48,48,49,49,50,50,51,51,52,52,53,53,54,54,55,55,56,56],"right_children":[2,4,6,8,10,12,14,16,18,-1,20,22,24,26,28,30,32,34,36,38,40,42,44,46,48,50,52,54,56,58,60,62,64,66,68,70,72,-1,74,76,78,80,82,84,86,88,90,92,94,96,98,100,102,104,106,108,110,-1,-1,-1,-1,-1,-1,-1,-1,-1,-1,-1,-1,-1,-1,-1,-1,-1,-1,-1,-1,-1,-1,-1,-1,-1,-1,-1,-1,-1,-1,-1,-1,-1,-1,-1,-1,-1,-1,-1,-1,-1,-1,-1,-1,-1,-1,-1,-1,-1,-1,-1,-1,-1,-1],"split_conditions":[-7.330081E-1,1.09797254E-1,3.992596E1,3.254867E1,4.5220803E-2,-1.9463165E-1,-5.3060737E-2,-1.9463165E-1,1E0,-3.231063E-2,1.6585366E-1,1E-45,2.5086815E0,1.0622035E0,1.3511412E-1,5.5864197E-1,1E-45,1.2480886E0,1E-45,-1.4802517E0,4.786183E1,1E-45,3.4591545E1,2.51E1,1E0,-9.563656E-1,1E0,9.455875E-1,-4.9405646E-1,1E-45,1.8541034E-1,1E0,5.2197803E-2,1E-45,3.3865818E1,1.5469916E-1,2.631579E-1,-6.525922E-3,5.263158E-2,1.6223404E-1,3.852E1,6.09E1,3.4591545E1,2.6479466E-3,-5.239741E-1,1E0,-5.086364E-1,4.866E1,2.9780695E0,4.514E1,2.811E1,4.093E1,-6.601867E-2,2.325E1,3.852E1,4.786183E1,-3.501684E-1,2.8664345E-2,1.3302091E-3,-2.2797631E-2,-5.9570707E-3,2.5039341E-2,4.537564E-3,-1.3532612E-2,1.4727074E-2,9.398715E-3,1.0172207E-3,9.949556E-3,-1.22283865E-2,9.408565E-3,2.116708E-2,-9.434747E-3,4.9475357E-3,3.129287E-2,2.3325546E-2,-3.0863488E-3,1.5859652E-2,1.39758E-2,2.3107706E-2,-3.3808441E-3,4.0118E-3,-1.4881575E-3,-7.243573E-3,-4.715024E-3,-1.0657758E-2,-1.8505963E-2,-1.1280927E-2,-2.4134486E-3,1.2573892E-3,7.4530947E-3,2.3060408E-3,-1.2995242E-2,-3.585043E-3,1.415139E-3,-4.882627E-4,5.8589913E-3,-9.7495485E-3,1.1748538E-3,-3.2613778E-3,-1.8823517E-2,9.464031E-3,2.9036072E-3,-9.982534E-4,-1.967287E-4,5.666785E-4,-1.2388645E-3,-4.994919E-3,-4.3164403E-3,1.3217E-2,4.5209765E-3,2.3106777E-4],"split_indices":[13,17,19,19,7,17,17,17,18,0,29,41,21,21,17,39,41,21,41,15,19,41,19,20,18,21,18,9,13,41,29,18,40,41,19,7,40,0,37,28,20,20,19,0,13,18,13,20,21,20,20,20,17,20,20,19,13,0,0,0,0,0,0,0,0,0,0,0,0,0,0,0,0,0,0,0,0,0,0,0,0,0,0,0,0,0,0,0,0,0,0,0,0,0,0,0,0,0,0,0,0,0,0,0,0,0,0,0,0,0,0],"split_type":[0,0,0,0,0,0,0,0,0,0,0,1,0,0,0,0,1,0,1,0,0,1,0,0,0,0,0,0,0,1,0,0,0,1,0,0,0,0,0,0,0,0,0,0,0,0,0,0,0,0,0,0,0,0,0,0,0,0,0,0,0,0,0,0,0,0,0,0,0,0,0,0,0,0,0,0,0,0,0,0,0,0,0,0,0,0,0,0,0,0,0,0,0,0,0,0,0,0,0,0,0,0,0,0,0,0,0,0,0,0,0],"sum_hessian":[6.7412E5,4.817E3,6.69303E5,4.529E3,2.88E2,6.744E4,6.01863E5,5.64E2,3.965E3,4E0,2.84E2,1.969E3,6.5471E4,1.9957E4,5.81906E5,9.2E1,4.72E2,3.131E3,8.34E2,6.6E1,2.18E2,8.64E2,1.105E3,5.7053E4,8.418E3,1.718E4,2.777E3,5.7912E5,2.786E3,3.3E1,5.9E1,2.02E2,2.7E2,2.809E3,3.22E2,6.73E2,1.61E2,2E0,6.4E1,1.4E1,2.04E2,2.18E2,6.46E2,7.62E2,3.43E2,2.8975E4,2.8078E4,1.035E3,7.383E3,2.384E3,1.4796E4,1.941E3,8.36E2,5.70641E5,8.479E3,6.86E2,2.1E3,7E0,2.6E1,8E0,5.1E1,1.93E2,9E0,1.2E1,2.58E2,5.8E2,2.229E3,4.3E1,2.79E2,5.07E2,1.66E2,8.6E1,7.5E1,4.5E1,1.9E1,1E1,4E0,9.4E1,1.1E2,4.2E1,1.76E2,4.68E2,1.78E2,6.14E2,1.48E2,1.27E2,2.16E2,5.313E3,2.3662E4,2.92E3,2.5158E4,8.43E2,1.92E2,2.987E3,4.396E3,2.188E3,1.96E2,6.208E3,8.588E3,1.697E3,2.44E2,1.81E2,6.55E2,4.89709E5,8.0932E4,5.164E3,3.315E3,6.3E1,6.23E2,7.4E2,1.36E3],"tree_param":{"num_deleted":"0","num_feature":"42","num_nodes":"111","size_leaf_vector":"1"}},{"base_weights":[-5.5715147E-5,1.5343426E-2,-1.8010346E-3,9.622534E-2,1.333089E-2,-8.504833E-3,-2.1308256E-4,1.6154915E-1,4.4152644E-2,1.5035976E-2,-3.25168E-2,-2.8145907E-3,-3.5865225E-2,7.52199E-2,-6.2369124E-4,1.7753977E-1,4.025607E-2,1.00320205E-1,-2.2645121E-2,5.334178E-2,1.3528091E-2,-4.4518843E-2,3.498039E-2,-7.7188964E-4,-2.3410667E-2,-4.381535E-2,-6.3916473E-3,2.3732228E-2,1.2705347E-1,1.4014861E-3,-3.9670668E-3,2.4089928E-1,1.4925732E-1,-1.1473029E-2,1.901454E-1,3.6944468E-2,1.624115E-1,-7.1754605E-2,6.859316E-2,1.0494129E-1,3.532017E-2,1.4694049E-2,-1.5109638E-2,6.52075E-3,-6.559253E-2,5.4381873E-2,-7.5581476E-2,-8.213578E-3,3.1041428E-3,-6.089362E-2,-1.2035745E-2,-1.9470874E-2,-5.6023378E-2,1.6371008E-2,-2.0028716E-2,-9.270418E-2,4.9161796E-2,1.5728736E-1,2.9453527E-2,1.254414E-3,5.3588193E-2,-2.972295E-3,-1.2340149E-2,2.1750323E-2,1.4877528E-2,5.538836E-4,1.2788388E-2,-4.8923134E-3,1.4798398E-2,-5.2874153E-3,1.6526975E-2,9.2183583E-4,1.5229224E-2,1.89359E-2,9.820454E-3,-3.1819954E-3,-1.6337333E-2,8.093172E-3,-8.120524E-3,3.906597E-3,1.2315099E-2,1.2730652E-3,6.4859097E-3,1.7049267E-3,8.9316536E-4,-3.9095283E-3,9.3570823E-4,-6.8228124E-3,3.5495765E-3,-2.6934063E-3,-8.116748E-3,1.3179316E-2,3.2489882E-3,-3.652259E-3,-3.161769E-2,-2.2228298E-4,-1.559976E-3,-6.590096E-4,4.1022224E-4,-2.4767222E-3,-8.764535E-3,-2.0136463E-3,1.5306362E-4,2.1710764E-3,-2.1984943E-3,-5.823539E-3,-2.866902E-3,8.2053494E-4,1.2997467E-2,-1.0690357E-3,-4.550356E-3,-1.8742185E-3,-1.9318726E-2,2.7464042E-4,8.197236E-3,1.8129071E-2,9.901183E-3,7.7164187E-3,-3.5040108E-3,2.6978177E-3,8.2952356E-5,1.7195402E-2,2.2690175E-3,-3.141036E-3,-2.1303253E-4,-5.442785E-3,-8.6179795E-4],"categories":[3,8,9,10,11,0,1,3,5,7,8,9,10,11,0,3,5,6,7,10,11,0,3,4,6,9,10,0,3,5,6,7,8,9,10,11,0,2,3,4,5,7,10,11,2,5,8,9,10,4,6,8,9,0,2,3,6,7,8,9,10,11],"categories_nodes":[14,15,19,25,36,41,44,55,58],"categories_segments":[0,5,14,21,27,36,44,49,53],"categories_sizes":[5,9,7,6,9,8,5,4,9],"default_left":[0,0,0,0,0,0,0,0,0,0,0,0,0,0,1,1,0,0,0,1,0,0,0,0,0,1,0,0,0,0,0,0,0,0,0,0,1,0,0,0,0,1,0,0,1,0,0,0,0,0,0,0,0,0,0,1,0,0,1,0,0,0,0,0,0,0,0,0,0,0,0,0,0,0,0,0,0,0,0,0,0,0,0,0,0,0,0,0,0,0,0,0,0,0,0,0,0,0,0,0,0,0,0,0,0,0,0,0,0,0,0,0,0,0,0,0,0,0,0,0,0,0,0,0,0,0,0],"id":5,"left_children":[1,3,5,7,9,11,13,15,17,19,21,23,25,27,29,31,33,35,37,39,41,43,45,47,49,51,53,55,57,59,61,63,65,67,69,71,73,75,77,79,81,83,85,87,89,91,93,95,97,99,101,103,105,107,109,111,113,115,117,119,121,123,125,-1,-1,-1,-1,-1,-1,-1,-1,-1,-1,-1,-1,-1,-1,-1,-1,-1,-1,-1,-1,-1,-1,-1,-1,-1,-1,-1,-1,-1,-1,-1,-1,-1,-1,-1,-1,-1,-1,-1,-1,-1,-1,-1,-1,-1,-1,-1,-1,-1,-1,-1,-1,-1,-1,-1,-1,-1,-1,-1,-1,-1,-1,-1,-1],"loss_changes":[1.809606E1,1.1157175E1,6.437892E0,5.6598883E0,5.2282696E0,1.8031395E1,1.5144313E1,1.4308949E0,3.4747994E0,3.7244072E0,1.9428539E0,4.033746E0,4.672306E0,7.0642548E0,3.29269E0,1.1651268E0,6.6775316E-1,1.9791508E0,1.8962109E0,2.2705688E0,2.0715303E0,2.1900473E0,7.771051E-1,2.516E0,3.6884599E0,4.667124E0,1.3149822E0,3.9328232E0,3.891983E0,2.3244479E0,1.5279751E0,4.0114212E-1,1.1593685E0,6.9211674E-1,1.5118563E-1,1.0059943E0,7.324538E-1,1.1758571E0,9.67506E-1,1.9117584E0,1.6737809E0,1.3648005E0,2.393733E0,2.2770898E0,1.7763286E0,4.3093765E-1,5.0644326E-1,1.9334862E0,1.5231341E0,3.0861487E0,1.3339455E0,2.3358078E0,3.9069405E0,1.3741076E0,6.321199E-1,2.5984666E0,2.8866022E0,2.2288609E0,1.6816242E0,1.7362924E0,3.4858737E0,1.153016E0,1.2182798E0,0E0,0E0,0E0,0E0,0E0,0E0,0E0,0E0,0E0,0E0,0E0,0E0,0E0,0E0,0E0,0E0,0E0,0E0,0E0,0E0,0E0,0E0,0E0,0E0,0E0,0E0,0E0,0E0,0E0,0E0,0E0,0E0,0E0,0E0,0E0,0E0,0E0,0E0,0E0,0E0,0E0,0E0,0E0,0E0,0E0,0E0,0E0,0E0,0E0,0E0,0E0,0E0,0E0,0E0,0E0,0E0,0E0,0E0,0E0,0E0,0E0,0E0,0E0,0E0],"parents":[2147483647,0,0,1,1,2,2,3,3,4,4,5,5,6,6,7,7,8,8,9,9,10,10,11,11,12,12,13,13,14,14,15,15,16,16,17,17,18,18,19,19,20,20,21,21,22,22,23,23,24,24,25,25,26,26,27,27,28,28,29,29,30,30,31,31,32,32,33,33,34,34,35,35,36,36,37,37,38,38,39,39,40,40,41,41,42,42,43,43,44,44,45,45,46,46,47,47,48,48,49,49,50,50,51,51,52,52,53,53,54,54,55,55,56,56,57,57,58,58,59,59,60,60,61,61,62,62],"right_children":[2,4,6,8,10,12,14,16,18,20,22,24,26,28,30,32,34,36,38,40,42,44,46,48,50,52,54,56,58,60,62,64,66,68,70,72,74,76,78,80,82,84,86,88,90,92,94,96,98,100,102,104,106,108,110,112,114,116,118,120,122,124,126,-1,-1,-1,-1,-1,-1,-1,-1,-1,-1,-1,-1,-1,-1,-1,-1,-1,-1,-1,-1,-1,-1,-1,-1,-1,-1,-1,-1,-1,-1,-1,-1,-1,-1,-1,-1,-1,-1,-1,-1,-1,-1,-1,-1,-1,-1,-1,-1,-1,-1,-1,-1,-1,-1,-1,-1,-1,-1,-1,-1,-1,-1,-1,-1],"split_conditions":[3.992596E1,-5.0918E-1,4.8351727E1,3.254867E1,8.8696754E-1,4.9588877E-1,-4.5369306E-1,8.3513516E-1,-1.3969952E0,-3.3423492E-1,1E0,4.7718792E1,1E0,1.282431E0,1E-45,1E-45,1.0404624E-1,3.679323E1,-2.4895136E-1,1E-45,6.350506E-1,-4.144342E-1,2.311073E-1,1E0,1E0,1E-45,-9.1236496E-1,-3.4584988E-2,3.29586E-1,4.031296E-1,8.971428E-1,-5.962969E-1,-4.8512268E-1,-1.8874164E-1,6.1835337E-1,9.859155E-1,1E-45,7.6878613E-1,2.2453937E-1,2.2829582E-1,3.841962E-1,1E-45,6.969697E-1,-3.570348E-1,1E-45,-9.5205836E-2,9.076227E1,1.1306431E0,1E0,1.0029559E0,4.7991478E1,-4.144342E-1,1.8809307E-2,1.5003631E0,9.483226E-1,1E-45,6.48379E-2,-3.9119054E-2,1E-45,4.8495808E1,2.0900321E-1,-1.8226895E0,2.7231193E-1,2.1750323E-2,1.4877528E-2,5.538836E-4,1.2788388E-2,-4.8923134E-3,1.4798398E-2,-5.2874153E-3,1.6526975E-2,9.2183583E-4,1.5229224E-2,1.89359E-2,9.820454E-3,-3.1819954E-3,-1.6337333E-2,8.093172E-3,-8.120524E-3,3.906597E-3,1.2315099E-2,1.2730652E-3,6.4859097E-3,1.7049267E-3,8.9316536E-4,-3.9095283E-3,9.3570823E-4,-6.8228124E-3,3.5495765E-3,-2.6934063E-3,-8.116748E-3,1.3179316E-2,3.2489882E-3,-3.652259E-3,-3.161769E-2,-2.2228298E-4,-1.559976E-3,-6.590096E-4,4.1022224E-4,-2.4767222E-3,-8.764535E-3,-2.0136463E-3,1.5306362E-4,2.1710764E-3,-2.1984943E-3,-5.823539E-3,-2.866902E-3,8.2053494E-4,1.2997467E-2,-1.0690357E-3,-4.550356E-3,-1.8742185E-3,-1.9318726E-2,2.7464042E-4,8.197236E-3,1.8129071E-2,9.901183E-3,7.7164187E-3,-3.5040108E-3,2.6978177E-3,8.2952356E-5,1.7195402E-2,2.2690175E-3,-3.141036E-3,-2.1303253E-4,-5.442785E-3,-8.6179795E-4],"split_indices":[19,12,19,19,8,8,12,39,15,12,18,19,18,8,41,41,38,19,2,41,8,12,6,14,18,41,15,6,6,2,31,12,6,2,8,33,41,39,6,27,28,41,33,2,41,0,5,10,18,10,19,12,6,8,8,41,38,0,41,19,28,6,10,0,0,0,0,0,0,0,0,0,0,0,0,0,0,0,0,0,0,0,0,0,0,0,0,0,0,0,0,0,0,0,0,0,0,0,0,0,0,0,0,0,0,0,0,0,0,0,0,0,0,0,0,0,0,0,0,0,0,0,0,0,0,0,0],"split_type":[0,0,0,0,0,0,0,0,0,0,0,0,0,0,1,1,0,0,0,1,0,0,0,0,0,1,0,0,0,0,0,0,0,0,0,0,1,0,0,0,0,1,0,0,1,0,0,0,0,0,0,0,0,0,0,1,0,0,1,0,0,0,0,0,0,0,0,0,0,0,0,0,0,0,0,0,0,0,0,0,0,0,0,0,0,0,0,0,0,0,0,0,0,0,0,0,0,0,0,0,0,0,0,0,0,0,0,0,0,0,0,0,0,0,0,0,0,0,0,0,0,0,0,0,0,0,0],"sum_hessian":[6.73306E5,6.8543E4,6.04763E5,1.664E3,6.6879E4,1.15818E5,4.88945E5,7.38E2,9.26E2,6.4481E4,2.398E3,9.5878E4,1.994E4,2.647E3,4.86298E5,6.52E2,8.6E1,5.03E2,4.23E2,2.442E3,6.2039E4,2.036E3,3.62E2,8.7227E4,8.651E3,1.5704E4,4.236E3,1.328E3,1.319E3,3.02852E5,1.83446E5,2.01E2,4.51E2,6.4E1,2.2E1,2.49E2,2.54E2,2.75E2,1.48E2,6.32E2,1.81E3,5.9612E4,2.427E3,5.95E2,1.441E3,3.08E2,5.4E1,2.9873E4,5.7354E4,2.014E3,6.637E3,5.245E3,1.0459E4,1.587E3,2.649E3,2.38E2,1.09E3,1.007E3,3.12E2,3.02001E5,8.51E2,1.63966E5,1.948E4,1.03E2,9.8E1,5.1E1,4E2,5.1E1,1.3E1,2E0,2E1,2.16E2,3.3E1,7.2E1,1.82E2,2.27E2,4.8E1,1.22E2,2.6E1,3.23E2,3.09E2,1.315E3,4.95E2,1.6865E4,4.2747E4,1.047E3,1.38E3,1.75E2,4.2E2,8.25E2,6.16E2,2.8E1,2.8E2,5E1,4E0,2.0821E4,9.052E3,9.281E3,4.8073E4,1.317E3,6.97E2,3.286E3,3.351E3,8.53E2,4.392E3,5.002E3,5.457E3,1.531E3,5.6E1,2.298E3,3.51E2,1.67E2,7.1E1,6.11E2,4.79E2,2.59E2,7.48E2,1.6E2,1.52E2,1.49E3,3.00511E5,1.04E2,7.47E2,7.89E2,1.63177E5,3.45E2,1.9135E4],"tree_param":{"num_deleted":"0","num_feature":"42","num_nodes":"127","size_leaf_vector":"1"}},{"base_weights":[5.3695516E-5,-7.979374E-2,3.9053438E-4,-2.7590986E-2,-1.1581783E-1,1.7147958E-2,-1.4497304E-3,2.7163502E-2,-4.6523307E-2,-6.756418E-2,-1.6870745E-1,1.3416487E-2,6.271818E-2,-1.7626901E-3,6.2062457E-2,3.8877733E-2,-6.330596E-2,-1.7416216E-2,-7.8988306E-2,-5.879647E-2,-1.6526465E-1,-9.369651E-2,-1.9474609E-1,2.359643E-2,9.905435E-3,1.4036709E-1,3.2287944E-2,7.411841E-2,-1.9264845E-3,2.8524213E-2,1.364842E-1,7.0001855E-2,5.5206637E-3,5.906766E-2,-1.0741707E-1,-4.590956E-2,7.2159446E-3,-7.101374E-2,-3.178104E-1,-6.581274E-2,4.2604767E-2,-1.4102595E-1,-3.8545567E-1,2.0092081E-2,-1.07305005E-1,-2.1704318E-1,-8.9804925E-2,1.1795451E-1,1.8709471E-2,-3.7443236E-2,1.3821092E-2,2.2222586E-1,8.720703E-2,-1.7555167E-1,5.139833E-2,1.2014813E-1,-1.5220103E-1,-2.2847053E-2,-1.2471225E-3,8.586429E-3,5.768192E-2,-2.6603956E-2,1.6846576E-1,-6.725082E-4,6.7717377E-3,6.245979E-5,1.1216396E-2,-4.512878E-3,9.026794E-3,-1.1711237E-2,-2.8929403E-3,-3.1478775E-3,-2.7508266E-2,9.852705E-3,-2.866266E-4,-5.781263E-3,1.3956954E-2,-2.973902E-2,-1.1609933E-2,-4.6163835E-3,-1.5267212E-2,5.0851526E-3,-1.8309401E-2,2.5330384E-3,-1.16516175E-2,-3.43018E-2,-1.633266E-2,6.7709326E-3,-6.019023E-3,-1.021791E-2,-4.8262663E-3,-1.4258566E-2,-2.0499956E-2,-5.234494E-3,-2.6106702E-2,6.274769E-3,1.3299227E-2,8.363721E-4,3.018991E-3,-2.0390658E-3,-9.219697E-3,3.2839552E-3,9.412971E-4,1.0743476E-2,1.8993212E-2,1.057273E-2,3.3895415E-3,-1.161891E-3,-1.4608035E-2,5.143212E-4,7.065188E-3,1.2916494E-2,3.4038394E-3,-7.0976494E-3,-1.6111648E-2,-2.698801E-3,5.098661E-3,2.7396882E-5,-3.8216478E-4,-2.6287962E-2,7.2491704E-4,6.1384724E-3,1.7842691E-3,1.1421986E-3,-1.1793613E-2,1.963097E-2,1.0201294E-2],"categories":[1,4,7,8,9,10,0,2,5,6,1,7,8,3,5,9,10,11,1,4,5,6,7,8,9,10,11,4,7,9,10,9,10,11,4,9],"categories_nodes":[1,3,43,52,53,56,58,61],"categories_segments":[0,6,10,13,18,27,31,34],"categories_sizes":[6,4,3,5,9,4,3,2],"default_left":[0,1,0,1,0,0,0,0,0,0,0,0,0,0,0,0,0,0,0,0,0,0,0,0,0,0,0,0,0,0,0,0,0,0,0,0,0,0,0,0,0,0,0,1,0,0,0,0,0,0,0,0,1,1,0,0,1,0,1,0,0,1,0,0,0,0,0,0,0,0,0,0,0,0,0,0,0,0,0,0,0,0,0,0,0,0,0,0,0,0,0,0,0,0,0,0,0,0,0,0,0,0,0,0,0,0,0,0,0,0,0,0,0,0,0,0,0,0,0,0,0,0,0,0,0,0,0],"id":6,"left_children":[1,3,5,7,9,11,13,15,17,19,21,23,25,27,29,31,33,35,37,39,41,43,45,47,49,51,53,55,57,59,61,63,65,67,69,71,73,75,77,79,81,83,85,87,89,91,93,95,97,99,101,103,105,107,109,111,113,115,117,119,121,123,125,-1,-1,-1,-1,-1,-1,-1,-1,-1,-1,-1,-1,-1,-1,-1,-1,-1,-1,-1,-1,-1,-1,-1,-1,-1,-1,-1,-1,-1,-1,-1,-1,-1,-1,-1,-1,-1,-1,-1,-1,-1,-1,-1,-1,-1,-1,-1,-1,-1,-1,-1,-1,-1,-1,-1,-1,-1,-1,-1,-1,-1,-1,-1,-1],"loss_changes":[1.8126106E1,5.3237324E0,2.069573E1,1.1985613E0,4.273958E0,1.1292053E1,1.2019528E1,3.1508788E-1,8.1168103E-1,7.4955153E-1,1.5590534E0,2.1938791E0,1.1875603E1,7.4789457E0,7.4004335E0,2.7311078E-1,1.8464439E-1,3.18037E-1,7.712729E-1,5.723448E-1,3.796358E-1,3.1933987E-1,1.3859272E0,7.2583866E0,8.461777E0,6.1561184E0,1.4343742E1,1.3503692E1,8.53385E0,1.1882671E0,4.804682E0,1.9974136E-1,8.44311E-2,6.411235E-2,7.947335E-2,3.0968013E-1,3.2456005E-1,4.643544E-1,1.4943516E-1,5.4297304E-1,3.5351413E-1,1.3035285E-1,6.820834E-2,1.5032174E-1,2.1386027E-1,7.581711E-1,5.56254E-1,1.5566826E0,2.4167895E0,3.120614E0,1.8467026E0,1.1941509E0,1.8803148E0,7.613106E-1,6.0655384E0,3.9801455E0,7.603159E-1,2.1096226E1,3.5055416E0,3.8573727E-1,6.4532375E-1,8.021671E-1,2.3780632E0,0E0,0E0,0E0,0E0,0E0,0E0,0E0,0E0,0E0,0E0,0E0,0E0,0E0,0E0,0E0,0E0,0E0,0E0,0E0,0E0,0E0,0E0,0E0,0E0,0E0,0E0,0E0,0E0,0E0,0E0,0E0,0E0,0E0,0E0,0E0,0E0,0E0,0E0,0E0,0E0,0E0,0E0,0E0,0E0,0E0,0E0,0E0,0E0,0E0,0E0,0E0,0E0,0E0,0E0,0E0,0E0,0E0,0E0,0E0,0E0,0E0,0E0,0E0,0E0],"parents":[2147483647,0,0,1,1,2,2,3,3,4,4,5,5,6,6,7,7,8,8,9,9,10,10,11,11,12,12,13,13,14,14,15,15,16,16,17,17,18,18,19,19,20,20,21,21,22,22,23,23,24,24,25,25,26,26,27,27,28,28,29,29,30,30,31,31,32,32,33,33,34,34,35,35,36,36,37,37,38,38,39,39,40,40,41,41,42,42,43,43,44,44,45,45,46,46,47,47,48,48,49,49,50,50,51,51,52,52,53,53,54,54,55,55,56,56,57,57,58,58,59,59,60,60,61,61,62,62],"right_children":[2,4,6,8,10,12,14,16,18,20,22,24,26,28,30,32,34,36,38,40,42,44,46,48,50,52,54,56,58,60,62,64,66,68,70,72,74,76,78,80,82,84,86,88,90,92,94,96,98,100,102,104,106,108,110,112,114,116,118,120,122,124,126,-1,-1,-1,-1,-1,-1,-1,-1,-1,-1,-1,-1,-1,-1,-1,-1,-1,-1,-1,-1,-1,-1,-1,-1,-1,-1,-1,-1,-1,-1,-1,-1,-1,-1,-1,-1,-1,-1,-1,-1,-1,-1,-1,-1,-1,-1,-1,-1,-1,-1,-1,-1,-1,-1,-1,-1,-1,-1,-1,-1,-1,-1,-1,-1],"split_conditions":[-1.9463165E-1,1E-45,3.992596E1,1E-45,3.4591545E1,6.2589955E-1,1.3511412E-1,8.1769437E-1,3.4591545E1,1.0898697E-1,4.3213296E-1,3.254867E1,3.254867E1,-1.395294E-1,5.6601927E-2,-2.0367666E-1,3.6116295E1,6.1702126E-1,1.2427671E0,2.2204137E0,9.858491E-1,-2.2331244E-1,4.250195E1,-1.6246586E-1,-8.9930974E-2,-1.6246586E-1,-1.6246586E-1,4.6002056E1,-5.3060737E-2,3.9679352E-2,4.786183E1,1.8933333E-1,7.482972E-1,-4.5748976E-1,-3.6783567E-1,7.688679E-1,-2.9105815E-1,1.2070212E0,4.435973E1,9.308642E-1,9.9436617E-1,4.1666668E-2,-3.121462E-1,1E-45,-1.9321072E-1,8.0597013E-1,9.703504E-1,4.4899994E-1,-5.4738652E-2,-9.5459215E-2,-2.2547856E-1,5.751445E-1,1E-45,1E-45,3.679323E1,4.2240746E1,1E-45,4.786183E1,1E-45,-8.283581E-2,2.2428421E-2,1E-45,-2.7425227E-1,-6.725082E-4,6.7717377E-3,6.245979E-5,1.1216396E-2,-4.512878E-3,9.026794E-3,-1.1711237E-2,-2.8929403E-3,-3.1478775E-3,-2.7508266E-2,9.852705E-3,-2.866266E-4,-5.781263E-3,1.3956954E-2,-2.973902E-2,-1.1609933E-2,-4.6163835E-3,-1.5267212E-2,5.0851526E-3,-1.8309401E-2,2.5330384E-3,-1.16516175E-2,-3.43018E-2,-1.633266E-2,6.7709326E-3,-6.019023E-3,-1.021791E-2,-4.8262663E-3,-1.4258566E-2,-2.0499956E-2,-5.234494E-3,-2.6106702E-2,6.274769E-3,1.3299227E-2,8.363721E-4,3.018991E-3,-2.0390658E-3,-9.219697E-3,3.2839552E-3,9.412971E-4,1.0743476E-2,1.8993212E-2,1.057273E-2,3.3895415E-3,-1.161891E-3,-1.4608035E-2,5.143212E-4,7.065188E-3,1.2916494E-2,3.4038394E-3,-7.0976494E-3,-1.6111648E-2,-2.698801E-3,5.098661E-3,2.7396882E-5,-3.8216478E-4,-2.6287962E-2,7.2491704E-4,6.1384724E-3,1.7842691E-3,1.1421986E-3,-1.1793613E-2,1.963097E-2,1.0201294E-2],"split_indices":[17,41,19,41,19,9,17,33,19,23,32,19,19,17,7,2,19,36,22,22,34,6,19,17,17,17,17,19,17,7,19,36,9,3,3,29,3,22,5,34,33,35,3,41,3,34,33,9,17,17,3,32,41,41,19,19,41,19,41,22,3,41,3,0,0,0,0,0,0,0,0,0,0,0,0,0,0,0,0,0,0,0,0,0,0,0,0,0,0,0,0,0,0,0,0,0,0,0,0,0,0,0,0,0,0,0,0,0,0,0,0,0,0,0,0,0,0,0,0,0,0,0,0,0,0,0,0],"split_type":[0,1,0,1,0,0,0,0,0,0,0,0,0,0,0,0,0,0,0,0,0,0,0,0,0,0,0,0,0,0,0,0,0,0,0,0,0,0,0,0,0,0,0,1,0,0,0,0,0,0,0,0,1,1,0,0,1,0,1,0,0,1,0,0,0,0,0,0,0,0,0,0,0,0,0,0,0,0,0,0,0,0,0,0,0,0,0,0,0,0,0,0,0,0,0,0,0,0,0,0,0,0,0,0,0,0,0,0,0,0,0,0,0,0,0,0,0,0,0,0,0,0,0,0,0,0,0],"sum_hessian":[6.7394E5,2.831E3,6.71109E5,1.156E3,1.675E3,6.6407E4,6.04702E5,2.97E2,8.59E2,8.76E2,7.99E2,6.1381E4,5.026E3,6.01737E5,2.965E3,2.63E2,3.4E1,4.53E2,4.06E2,8.04E2,7.2E1,2.06E2,5.93E2,1.5741E4,4.564E4,1.415E3,3.611E3,1.296E3,6.00441E5,2.044E3,9.21E2,1.36E2,1.27E2,9E0,2.5E1,2.1E2,2.43E2,3.93E2,1.3E1,7.52E2,5.2E1,6.5E1,7E0,2.2E1,1.84E2,4.89E2,1.04E2,7.75E2,1.4966E4,3.486E3,4.2154E4,5.57E2,8.58E2,3.04E2,3.307E3,1.077E3,2.19E2,1.8885E4,5.81556E5,1.214E3,8.3E2,1.51E2,7.7E2,2.6E1,1.1E2,1.23E2,4E0,3E0,6E0,1.5E1,1E1,2.07E2,3E0,2E1,2.23E2,3.86E2,7E0,9E0,4E0,7.23E2,2.9E1,4.8E1,4E0,4E0,6.1E1,5E0,2E0,1.3E1,9E0,1.15E2,6.9E1,3.07E2,1.82E2,9.6E1,8E0,4.73E2,3.02E2,1.0898E4,4.068E3,3.087E3,3.99E2,2.066E3,4.0088E4,1.36E2,4.21E2,3.91E2,4.67E2,2.7E1,2.77E2,1.584E3,1.723E3,6.54E2,4.23E2,1.09E2,1.1E2,1.6577E4,2.308E3,4.07337E5,1.74219E5,3E0,1.211E3,5E2,3.3E2,1.14E2,3.7E1,2.18E2,5.52E2],"tree_param":{"num_deleted":"0","num_feature":"42","num_nodes":"127","size_leaf_vector":"1"}},{"base_weights":[1.0097215E-6,4.0993806E-2,-6.1186566E-4,-1.373708E-1,4.743775E-2,5.3115105E-5,-2.7348807E-2,-2.2330575E-1,-6.2508225E-2,1.4656875E-1,3.1787142E-2,6.2734797E-3,-1.2324153E-3,-1.5082156E-2,-7.0512794E-2,-1.8439837E-1,-3.1711674E-1,-1.01270236E-1,1.8278278E-2,1.6009115E-1,-2.3859741E-2,1.1896648E-2,1.1340511E-1,-4.7259834E-3,1.4808147E-2,-1.1936037E-2,-5.255299E-4,-4.9266904E-3,-5.160914E-2,-1.2629257E-2,-9.190378E-2,-2.2327136E-1,-1.0629095E-1,-3.526722E-1,-7.24512E-2,-2.9548082E-1,-8.230112E-2,-2.590782E-2,1.7706087E-1,2.060318E-1,1.1915085E-1,1.337017E-1,-1.1845827E-1,-4.7401264E-3,5.4501973E-2,5.5477247E-2,1.8922175E-1,-1.0121999E-3,-1.4097649E-1,1.3435111E-2,1.5242457E-1,-6.401263E-3,-3.1715035E-2,1.3914681E-3,-3.755363E-3,2.3823356E-2,-1.9170454E-2,-2.418818E-1,-4.7104396E-2,-3.715374E-2,4.174567E-2,-1.193002E-1,-1.683315E-2,-6.737964E-3,-1.9378154E-2,-1.4177475E-2,-1.3548996E-3,-2.9878207E-2,-1.969157E-2,1.1572338E-2,-1.4160299E-2,-3.3166785E-2,-1.3377459E-2,3.7659235E-2,-7.104841E-3,8.344107E-3,-5.9392545E-3,1.9555634E-2,-1.8998148E-2,1.6807033E-2,8.513145E-4,-1.0721474E-2,1.3041492E-2,2.1217935E-2,1.3571178E-3,-2.1269822E-2,-2.4373461E-3,-3.0676662E-3,2.470598E-3,1.145184E-2,2.5542441E-3,-7.760078E-5,1.2356239E-2,1.7240822E-2,6.848976E-3,2.1947445E-3,-5.886101E-4,-1.4676072E-2,-8.060664E-3,9.248092E-5,1.411577E-3,1.9714255E-2,2.123205E-3,6.989096E-4,-6.472629E-4,-9.214219E-4,-5.9657176E-3,1.3419494E-3,5.6320667E-5,-8.026628E-4,-1.6753969E-4,-4.8710688E-4,5.1933113E-3,-7.3327855E-3,-1.0850052E-3,9.983664E-3,-2.5187202E-2,2.4976092E-3,-4.166948E-3,-1.6532666E-3,-1.4734824E-2,6.5122214E-3,-4.1682385E-3,-6.3384227E-3,-1.3797722E-2,7.434415E-3,-2.4842047E-3],"categories":[3,8,9,10,11,1,4,7,9,10,1,4,8,10,3,4,5,6,7,8,10,11],"categories_nodes":[26,31,37,62],"categories_segments":[0,5,10,14],"categories_sizes":[5,5,4,8],"default_left":[0,0,0,0,0,0,0,0,0,0,0,0,0,0,0,0,0,0,0,0,0,0,0,0,0,0,1,0,0,0,0,1,0,0,0,0,0,1,0,0,0,0,0,0,0,0,0,0,0,0,0,0,0,0,0,0,0,0,0,0,0,0,1,0,0,0,0,0,0,0,0,0,0,0,0,0,0,0,0,0,0,0,0,0,0,0,0,0,0,0,0,0,0,0,0,0,0,0,0,0,0,0,0,0,0,0,0,0,0,0,0,0,0,0,0,0,0,0,0,0,0,0,0,0,0,0,0],"id":7,"left_children":[1,3,5,7,9,11,13,15,17,19,21,23,25,27,29,31,33,35,37,39,41,43,45,47,49,51,53,55,57,59,61,63,65,67,69,71,73,75,77,79,81,83,85,87,89,91,93,95,97,99,101,103,105,107,109,111,113,115,117,119,121,123,125,-1,-1,-1,-1,-1,-1,-1,-1,-1,-1,-1,-1,-1,-1,-1,-1,-1,-1,-1,-1,-1,-1,-1,-1,-1,-1,-1,-1,-1,-1,-1,-1,-1,-1,-1,-1,-1,-1,-1,-1,-1,-1,-1,-1,-1,-1,-1,-1,-1,-1,-1,-1,-1,-1,-1,-1,-1,-1,-1,-1,-1,-1,-1,-1],"loss_changes":[1.6927574E1,1.1408237E1,1.1802957E1,2.225214E0,1.4861141E1,5.1796336E0,8.529831E0,5.824528E-1,5.7978916E-1,3.0103912E0,1.3430594E1,1.0414516E1,4.0615697E0,4.6535597E0,4.4141407E0,3.441763E-1,4.0726757E-1,4.585482E-1,4.220569E-1,2.2736511E0,1.4337965E0,4.7151303E0,7.1186867E0,2.4526089E1,1.1803292E1,3.6404915E0,3.1177542E0,4.0198207E0,2.3381076E0,1.2831163E0,5.35351E0,3.0961418E-1,2.6703396E-1,1.4008284E-1,1.5665892E-1,1.7792225E-1,7.049992E-1,3.305003E-1,4.45584E-1,1.5459595E0,8.558446E0,6.020306E-1,8.309041E-1,6.27949E0,3.7541099E0,5.5154424E0,2.543497E0,9.386984E0,2.329708E0,3.8091307E0,8.119084E0,8.359693E-1,6.6254206E0,3.343878E0,1.9781535E0,4.334864E0,2.505754E0,2.0662775E0,1.5801125E0,1.6014948E0,1.2526406E0,4.24588E0,1.2456932E0,0E0,0E0,0E0,0E0,0E0,0E0,0E0,0E0,0E0,0E0,0E0,0E0,0E0,0E0,0E0,0E0,0E0,0E0,0E0,0E0,0E0,0E0,0E0,0E0,0E0,0E0,0E0,0E0,0E0,0E0,0E0,0E0,0E0,0E0,0E0,0E0,0E0,0E0,0E0,0E0,0E0,0E0,0E0,0E0,0E0,0E0,0E0,0E0,0E0,0E0,0E0,0E0,0E0,0E0,0E0,0E0,0E0,0E0,0E0,0E0,0E0,0E0,0E0,0E0],"parents":[2147483647,0,0,1,1,2,2,3,3,4,4,5,5,6,6,7,7,8,8,9,9,10,10,11,11,12,12,13,13,14,14,15,15,16,16,17,17,18,18,19,19,20,20,21,21,22,22,23,23,24,24,25,25,26,26,27,27,28,28,29,29,30,30,31,31,32,32,33,33,34,34,35,35,36,36,37,37,38,38,39,39,40,40,41,41,42,42,43,43,44,44,45,45,46,46,47,47,48,48,49,49,50,50,51,51,52,52,53,53,54,54,55,55,56,56,57,57,58,58,59,59,60,60,61,61,62,62],"right_children":[2,4,6,8,10,12,14,16,18,20,22,24,26,28,30,32,34,36,38,40,42,44,46,48,50,52,54,56,58,60,62,64,66,68,70,72,74,76,78,80,82,84,86,88,90,92,94,96,98,100,102,104,106,108,110,112,114,116,118,120,122,124,126,-1,-1,-1,-1,-1,-1,-1,-1,-1,-1,-1,-1,-1,-1,-1,-1,-1,-1,-1,-1,-1,-1,-1,-1,-1,-1,-1,-1,-1,-1,-1,-1,-1,-1,-1,-1,-1,-1,-1,-1,-1,-1,-1,-1,-1,-1,-1,-1,-1,-1,-1,-1,-1,-1,-1,-1,-1,-1,-1,-1,-1,-1,-1,-1],"split_conditions":[-6.536668E-1,-1.9463165E-1,7.9391545E-1,1.5556399E0,-1.14257805E-1,-2.2212079E-2,8.87537E-1,9.426934E-1,2.1162386E0,1.5368675E-1,5.8585517E-2,1E0,-1.2780155E-2,1.2897434E0,-1.2921351E-1,1.2181171E-4,6.059939E-1,-1.1430221E0,9.5086706E-1,-5.962969E-1,-3.05158E-2,1E0,-9.972686E-1,2.5086815E0,6.2589955E-1,2.8065845E-2,1E-45,-5.239741E-1,4.0709272E-2,-1.9275707E0,1E0,1E-45,1.5469916E-1,4.90887E1,-9.5205836E-2,2.5641026E-2,9.646302E-3,1E-45,1.9944899E0,9.9022007E-1,1.11455105E-1,5.16129E-1,-1.203808E0,1.0743267E-2,-3.5578515E-2,1.09797254E-1,-2.8120804E-1,-1.9321072E-1,2.7961698E0,-3.6366656E-2,9.701897E-1,-5.901339E-1,1.3670154E0,-3.501684E-1,-5.9189357E-2,2.4793388E-1,-1.6246586E-1,-1.5188442E-1,1.3623978E-2,4.5448177E1,1.7980798E0,-9.5459215E-2,1E-45,-6.737964E-3,-1.9378154E-2,-1.4177475E-2,-1.3548996E-3,-2.9878207E-2,-1.969157E-2,1.1572338E-2,-1.4160299E-2,-3.3166785E-2,-1.3377459E-2,3.7659235E-2,-7.104841E-3,8.344107E-3,-5.9392545E-3,1.9555634E-2,-1.8998148E-2,1.6807033E-2,8.513145E-4,-1.0721474E-2,1.3041492E-2,2.1217935E-2,1.3571178E-3,-2.1269822E-2,-2.4373461E-3,-3.0676662E-3,2.470598E-3,1.145184E-2,2.5542441E-3,-7.760078E-5,1.2356239E-2,1.7240822E-2,6.848976E-3,2.1947445E-3,-5.886101E-4,-1.4676072E-2,-8.060664E-3,9.248092E-5,1.411577E-3,1.9714255E-2,2.123205E-3,6.989096E-4,-6.472629E-4,-9.214219E-4,-5.9657176E-3,1.3419494E-3,5.6320667E-5,-8.026628E-4,-1.6753969E-4,-4.8710688E-4,5.1933113E-3,-7.3327855E-3,-1.0850052E-3,9.983664E-3,-2.5187202E-2,2.4976092E-3,-4.166948E-3,-1.6532666E-3,-1.4734824E-2,6.5122214E-3,-4.1682385E-3,-6.3384227E-3,-1.3797722E-2,7.434415E-3,-2.4842047E-3],"split_indices":[13,17,8,21,17,17,21,34,21,1,17,18,17,9,1,0,6,6,33,12,0,18,21,21,9,7,41,13,7,16,18,41,7,5,0,27,29,41,9,34,37,29,16,6,17,17,12,3,21,12,34,21,21,13,3,37,17,12,27,5,21,17,41,0,0,0,0,0,0,0,0,0,0,0,0,0,0,0,0,0,0,0,0,0,0,0,0,0,0,0,0,0,0,0,0,0,0,0,0,0,0,0,0,0,0,0,0,0,0,0,0,0,0,0,0,0,0,0,0,0,0,0,0,0,0,0,0],"split_type":[0,0,0,0,0,0,0,0,0,0,0,0,0,0,0,0,0,0,0,0,0,0,0,0,0,0,1,0,0,0,0,1,0,0,0,0,0,1,0,0,0,0,0,0,0,0,0,0,0,0,0,0,0,0,0,0,0,0,0,0,0,0,1,0,0,0,0,0,0,0,0,0,0,0,0,0,0,0,0,0,0,0,0,0,0,0,0,0,0,0,0,0,0,0,0,0,0,0,0,0,0,0,0,0,0,0,0,0,0,0,0,0,0,0,0,0,0,0,0,0,0,0,0,0,0,0,0],"sum_hessian":[6.73775E5,9.925E3,6.6385E5,3.46E2,9.579E3,6.4774E5,1.611E4,1.61E2,1.85E2,1.306E3,8.273E3,1.10938E5,5.36802E5,1.2545E4,3.565E3,1.14E2,4.7E1,1.25E2,6E1,1.21E3,9.6E1,6.652E3,1.621E3,4.847E4,6.2468E4,3.3255E4,5.03547E5,9.816E3,2.729E3,9.62E2,2.603E3,7.6E1,3.8E1,4.1E1,6E0,1.1E1,1.14E2,4.7E1,1.3E1,5.7E2,6.4E2,3.6E1,6E1,4.784E3,1.868E3,9.19E2,7.02E2,4.7184E4,1.286E3,6.1851E4,6.17E2,2.5984E4,7.271E3,3.15995E5,1.87552E5,3.252E3,6.564E3,6.3E1,2.666E3,6.63E2,2.99E2,1.907E3,6.96E2,1.4E1,6.2E1,2E1,1.8E1,2.9E1,1.2E1,2E0,4E0,5E0,6E0,2E0,1.12E2,1.3E1,3.4E1,1.1E1,2E0,5.32E2,3.8E1,1.06E2,5.34E2,1.6E1,2E1,2.1E1,3.9E1,2.447E3,2.337E3,3.38E2,1.53E3,6E2,3.19E2,5.14E2,1.88E2,8.667E3,3.8517E4,5.27E2,7.59E2,1.805E4,4.3801E4,3.34E2,2.83E2,3.052E3,2.2932E4,5.106E3,2.165E3,1.2291E4,3.03704E5,3.5265E4,1.52287E5,1.931E3,1.321E3,3.99E2,6.165E3,1.2E1,5.1E1,2.27E2,2.439E3,6.03E2,6E1,2.06E2,9.3E1,1.197E3,7.1E2,8.4E1,6.12E2],"tree_param":{"num_deleted":"0","num_feature":"42","num_nodes":"127","size_leaf_vector":"1"}},{"base_weights":[-1.001849E-4,1.9320177E-2,-1.1422172E-3,7.992596E-2,1.52987875E-2,-1.0274069E-1,-9.3307433E-4,-5.2245226E-2,1.0171558E-1,2.551557E-2,-5.7440775E-4,-1.5691712E-1,-5.2905735E-2,-1.1859485E-3,5.3752344E-2,-2.0791034E-1,-3.9346483E-2,2.1349685E-1,6.290875E-2,5.6437746E-2,2.1439185E-2,-2.8183065E-2,9.556543E-3,-1.7547461E-1,-6.0963042E-2,-6.780156E-2,1.5033636E-2,2.8689902E-2,-1.4617092E-3,1.7555E-1,2.6792938E-2,-6.097888E-2,-2.7145645E-1,-1.734718E-2,-1.5051337E-1,2.3396434E-1,1.3421902E-1,7.735293E-2,-7.371236E-2,1.4018168E-1,3.204379E-2,2.5789548E-2,1.7825293E-3,-2.9367649E-3,-1.1643293E-1,2.0650754E-2,-2.2829017E-2,-1.528276E-1,-2.537861E-1,-4.8724085E-2,-2.2419806E-1,-5.1518742E-2,-1.3599402E-1,2.3460355E-2,-1.049587E-1,-6.1037233E-3,5.4936964E-2,-7.446824E-4,-2.1151248E-2,2.343927E-3,1.9633013E-1,5.913623E-2,-1.292603E-4,-1.4936647E-2,3.2152073E-3,-2.5553273E-2,-1.245354E-2,-8.455203E-3,8.286117E-4,-1.8909583E-2,-6.6911383E-3,2.034824E-2,1.4162303E-2,9.343163E-3,2.0185316E-2,9.484174E-3,2.8937093E-3,-8.564959E-3,1.2136496E-3,5.0028064E-3,1.373393E-2,-4.495046E-4,3.549761E-3,1.5517513E-3,3.3182022E-3,-1.5842528E-3,1.3325466E-3,-3.3798912E-3,1.0118325E-3,-1.0723207E-2,-2.546566E-3,-2.4032602E-3,2.2357118E-3,-1.3336441E-3,-4.6973852E-3,-1.224733E-2,-1.1533367E-3,1.1842883E-2,-1.994047E-2,1.3325803E-2,-4.2922487E-3,-2.352302E-2,-8.151455E-3,-1.2201245E-3,-5.089305E-3,-2.6392678E-2,-9.591542E-3,7.075155E-4,6.6251787E-3,-1.4613281E-2,-5.6298464E-3,5.0011287E-3,-3.812683E-3,1.9338226E-2,3.0190821E-3,6.6801446E-4,-1.01224694E-4,-7.930691E-4,-8.378052E-3,-1.0056741E-3,3.133422E-2,1.8659033E-2,1.164936E-2,-4.205849E-3,5.408324E-3,4.080021E-5,-2.144728E-2],"categories":[],"categories_nodes":[],"categories_segments":[],"categories_sizes":[],"default_left":[0,0,0,0,0,0,0,0,0,0,0,0,0,0,0,0,0,0,0,0,0,0,0,0,0,0,0,0,0,0,0,0,0,0,0,0,0,0,0,0,0,0,0,0,0,0,0,0,0,0,0,0,0,0,0,0,0,0,0,0,0,0,0,0,0,0,0,0,0,0,0,0,0,0,0,0,0,0,0,0,0,0,0,0,0,0,0,0,0,0,0,0,0,0,0,0,0,0,0,0,0,0,0,0,0,0,0,0,0,0,0,0,0,0,0,0,0,0,0,0,0,0,0,0,0,0,0],"id":8,"left_children":[1,3,5,7,9,11,13,15,17,19,21,23,25,27,29,31,33,35,37,39,41,43,45,47,49,51,53,55,57,59,61,63,65,67,69,71,73,75,77,79,81,83,85,87,89,91,93,95,97,99,101,103,105,107,109,111,113,115,117,119,121,123,125,-1,-1,-1,-1,-1,-1,-1,-1,-1,-1,-1,-1,-1,-1,-1,-1,-1,-1,-1,-1,-1,-1,-1,-1,-1,-1,-1,-1,-1,-1,-1,-1,-1,-1,-1,-1,-1,-1,-1,-1,-1,-1,-1,-1,-1,-1,-1,-1,-1,-1,-1,-1,-1,-1,-1,-1,-1,-1,-1,-1,-1,-1,-1,-1],"loss_changes":[1.3629222E1,8.358751E0,1.3581993E1,6.1466103E0,5.2159867E0,3.5444145E0,8.820977E0,6.057972E-1,7.946129E0,2.4664574E0,3.522898E0,1.1191959E0,6.924088E-1,5.2310596E0,9.640496E0,2.1406639E-1,6.82305E-1,7.630577E-1,2.684525E0,4.655413E0,1.4784474E0,7.5329876E0,3.3105965E0,9.311409E-1,2.0293373E-1,6.223569E-1,1.2469909E-1,5.303247E0,8.882138E0,1.9150925E0,2.0933726E0,9.9110544E-2,1.047529E-1,6.132242E-1,2.7925968E-1,5.849552E-1,1.4768624E-1,2.2708015E0,4.4745463E-1,1.5179462E0,9.6473396E-1,1.3685045E0,1.1044452E0,1.7564969E0,1.4932947E0,3.0778518E0,4.883449E-1,4.1950607E-1,3.4986734E-1,1.5893352E-1,6.6630006E-2,2.4286354E-1,2.3294437E-1,1.0329157E-1,2.0514928E-2,7.824633E0,1.0116985E1,3.3401647E0,2.1072834E1,3.614395E-1,9.940796E-1,1.4518728E0,2.4413829E-1,0E0,0E0,0E0,0E0,0E0,0E0,0E0,0E0,0E0,0E0,0E0,0E0,0E0,0E0,0E0,0E0,0E0,0E0,0E0,0E0,0E0,0E0,0E0,0E0,0E0,0E0,0E0,0E0,0E0,0E0,0E0,0E0,0E0,0E0,0E0,0E0,0E0,0E0,0E0,0E0,0E0,0E0,0E0,0E0,0E0,0E0,0E0,0E0,0E0,0E0,0E0,0E0,0E0,0E0,0E0,0E0,0E0,0E0,0E0,0E0,0E0,0E0,0E0,0E0],"parents":[2147483647,0,0,1,1,2,2,3,3,4,4,5,5,6,6,7,7,8,8,9,9,10,10,11,11,12,12,13,13,14,14,15,15,16,16,17,17,18,18,19,19,20,20,21,21,22,22,23,23,24,24,25,25,26,26,27,27,28,28,29,29,30,30,31,31,32,32,33,33,34,34,35,35,36,36,37,37,38,38,39,39,40,40,41,41,42,42,43,43,44,44,45,45,46,46,47,47,48,48,49,49,50,50,51,51,52,52,53,53,54,54,55,55,56,56,57,57,58,58,59,59,60,60,61,61,62,62],"right_children":[2,4,6,8,10,12,14,16,18,20,22,24,26,28,30,32,34,36,38,40,42,44,46,48,50,52,54,56,58,60,62,64,66,68,70,72,74,76,78,80,82,84,86,88,90,92,94,96,98,100,102,104,106,108,110,112,114,116,118,120,122,124,126,-1,-1,-1,-1,-1,-1,-1,-1,-1,-1,-1,-1,-1,-1,-1,-1,-1,-1,-1,-1,-1,-1,-1,-1,-1,-1,-1,-1,-1,-1,-1,-1,-1,-1,-1,-1,-1,-1,-1,-1,-1,-1,-1,-1,-1,-1,-1,-1,-1,-1,-1,-1,-1,-1,-1,-1,-1,-1,-1,-1,-1,-1,-1,-1],"split_conditions":[3.5662098E1,-6.0061646E-1,-1.9463165E-1,-1.9463165E-1,1.9658704E0,4.8997134E-1,1.3511412E-1,3.6923077E-2,-1.6246586E-1,-1.14257805E-1,-8.9930974E-2,4.250195E1,4.250195E1,-6.85909E-1,-5.78626E-1,1.1395271E0,-1.1291478E0,1.7661067E0,2.5086815E0,2.921737E1,8.2477343E-1,3.0276743E1,2.9780695E0,8.878282E-1,9.5086706E-1,5.5581945E-1,9.5157385E-1,4.786183E1,5.8417756E-2,4.786183E1,-3.4379157E-1,7.2660846E-1,5.706806E-1,9.483226E-1,1.5820895E-1,4.033019E-1,9.6997E-1,-8.9930974E-2,9.8176295E-1,4.6004046E-2,-1.9463165E-1,1.6100456E0,1E0,-1.9463165E-1,3.420503E1,2.1430266E0,3.784343E-2,8.677751E-2,-1.9225394E0,2.1428572E-2,5.198777E-1,1.179941E-1,1.7355372E-1,7.413333E-1,-3.8682207E-1,4.1326813E1,-5.4738652E-2,4.043897E1,1.2480886E0,9.9436617E-1,1.22994654E-1,4.786183E1,9.942693E-1,-1.4936647E-2,3.2152073E-3,-2.5553273E-2,-1.245354E-2,-8.455203E-3,8.286117E-4,-1.8909583E-2,-6.6911383E-3,2.034824E-2,1.4162303E-2,9.343163E-3,2.0185316E-2,9.484174E-3,2.8937093E-3,-8.564959E-3,1.2136496E-3,5.0028064E-3,1.373393E-2,-4.495046E-4,3.549761E-3,1.5517513E-3,3.3182022E-3,-1.5842528E-3,1.3325466E-3,-3.3798912E-3,1.0118325E-3,-1.0723207E-2,-2.546566E-3,-2.4032602E-3,2.2357118E-3,-1.3336441E-3,-4.6973852E-3,-1.224733E-2,-1.1533367E-3,1.1842883E-2,-1.994047E-2,1.3325803E-2,-4.2922487E-3,-2.352302E-2,-8.151455E-3,-1.2201245E-3,-5.089305E-3,-2.6392678E-2,-9.591542E-3,7.075155E-4,6.6251787E-3,-1.4613281E-2,-5.6298464E-3,5.0011287E-3,-3.812683E-3,1.9338226E-2,3.0190821E-3,6.6801446E-4,-1.01224694E-4,-7.930691E-4,-8.378052E-3,-1.0056741E-3,3.133422E-2,1.8659033E-2,1.164936E-2,-4.205849E-3,5.408324E-3,4.080021E-5,-2.144728E-2],"split_indices":[19,13,17,17,21,38,17,31,17,17,17,19,19,13,13,8,15,21,21,19,38,19,21,34,33,32,28,19,7,19,13,8,30,8,28,26,32,17,32,7,17,21,18,17,19,21,7,23,15,30,30,34,29,35,13,19,17,19,21,33,37,19,34,0,0,0,0,0,0,0,0,0,0,0,0,0,0,0,0,0,0,0,0,0,0,0,0,0,0,0,0,0,0,0,0,0,0,0,0,0,0,0,0,0,0,0,0,0,0,0,0,0,0,0,0,0,0,0,0,0,0,0,0,0,0,0,0],"split_type":[0,0,0,0,0,0,0,0,0,0,0,0,0,0,0,0,0,0,0,0,0,0,0,0,0,0,0,0,0,0,0,0,0,0,0,0,0,0,0,0,0,0,0,0,0,0,0,0,0,0,0,0,0,0,0,0,0,0,0,0,0,0,0,0,0,0,0,0,0,0,0,0,0,0,0,0,0,0,0,0,0,0,0,0,0,0,0,0,0,0,0,0,0,0,0,0,0,0,0,0,0,0,0,0,0,0,0,0,0,0,0,0,0,0,0,0,0,0,0,0,0,0,0,0,0,0,0],"sum_hessian":[6.73492E5,3.4297E4,6.39195E5,2.134E3,3.2163E4,1.313E3,6.37882E5,3.02E2,1.832E3,1.9568E4,1.2595E4,6.29E2,6.84E2,6.34946E5,2.936E3,2.3E1,2.79E2,4.72E2,1.36E3,2.279E3,1.7289E4,3.381E3,9.214E3,5.27E2,1.02E2,5.61E2,1.23E2,5.807E3,6.29139E5,5.32E2,2.404E3,7E0,1.6E1,2.33E2,4.6E1,3.75E2,9.7E1,1.23E3,1.3E2,5.14E2,1.765E3,1.4156E4,3.133E3,2.629E3,7.52E2,6.863E3,2.351E3,4.09E2,1.18E2,9.5E1,7E0,4.53E2,1.08E2,1.15E2,8E0,2.497E3,3.31E3,6.07033E5,2.2106E4,5.7E1,4.75E2,1.092E3,1.312E3,3E0,4E0,1E1,6E0,5.4E1,1.79E2,1.8E1,2.8E1,2.25E2,1.5E2,8.9E1,8E0,5.63E2,6.67E2,9.1E1,3.9E1,1.78E2,3.36E2,4.86E2,1.279E3,1.0799E4,3.357E3,1.285E3,1.848E3,7.4E2,1.889E3,5.84E2,1.68E2,9.73E2,5.89E3,2.064E3,2.87E2,3.88E2,2.1E1,2E0,1.16E2,3E0,9.2E1,4E0,3E0,1.35E2,3.18E2,5E0,1.03E2,9.4E1,2.1E1,2E0,6E0,9.48E2,1.549E3,2.39E2,3.071E3,3.4975E4,5.72058E5,1.9707E4,2.399E3,5.5E1,2E0,2.27E2,2.48E2,1.01E2,9.91E2,1.309E3,3E0],"tree_param":{"num_deleted":"0","num_feature":"42","num_nodes":"127","size_leaf_vector":"1"}},{"base_weights":[1.5493097E-5,5.5467114E-2,-3.9615398E-4,3.9074298E-2,1.5332301E-1,1.3141227E-2,-1.4689422E-3,1.0606286E-2,1.0178868E-1,1.652077E-1,-4.2823497E-3,1.7059995E-2,-1.3441233E-2,-1.1342369E-3,-3.83571E-2,7.047286E-2,-1.545534E-2,4.3959565E-2,1.7203304E-1,1.3397285E-1,1.9966418E-1,2.5918835E-1,-7.9042055E-2,4.3377798E-2,1.48542635E-2,2.881411E-3,-6.410319E-2,1.8973908E-3,-3.4978865E-3,-1.2077631E-1,-2.8513648E-2,1.3353013E-1,1.0987755E-2,5.025309E-2,-5.4388806E-2,2.463533E-1,2.8476042E-3,3.569704E-1,1.576978E-1,2.8492449E-2,1.6698815E-1,2.3789346E-1,1.3655932E-1,7.252109E-3,2.943283E-1,2.678132E-2,-1.2894271E-1,3.212416E-2,9.055018E-2,-2.0151433E-2,1.6989904E-2,2.088441E-2,-7.792246E-3,-8.4895976E-2,2.4318228E-2,3.2214243E-2,8.089752E-4,-2.5275582E-3,-2.2409411E-2,-5.524045E-3,-1.4077589E-1,-1.3070068E-2,-7.149836E-2,1.6485346E-2,6.3783876E-3,5.0180205E-3,-5.9553334E-3,9.616452E-3,-1.8020057E-3,-5.7254857E-3,5.1400033E-3,-3.596207E-2,1.9757705E-2,-1.047426E-3,1.1301825E-2,3.192466E-2,3.270165E-3,1.6177215E-2,8.734071E-3,1.2933834E-2,-4.5834957E-3,1.76868E-2,9.56923E-3,1.9688284E-2,7.814714E-3,1.9246219E-2,8.41976E-3,2.9195182E-2,2.0211289E-2,5.0731227E-3,-1.8656902E-2,3.6782715E-3,8.5655774E-4,5.597175E-3,1.17920535E-2,1.8997816E-2,-1.6222771E-3,1.1970313E-2,1.2490231E-3,-3.0170227E-4,2.6269301E-3,2.050275E-3,-8.765593E-4,-2.8336162E-3,-7.891366E-3,-4.9864687E-3,2.8185183E-3,4.0651762E-4,4.1153356E-3,3.5597538E-3,3.5272664E-5,-8.559334E-4,-9.857239E-5,-5.967792E-4,-6.475953E-3,3.845867E-3,-1.3187687E-2,-7.375504E-3,-1.4666778E-2,-2.0065035E-3,3.4583802E-3,-9.67905E-4,-6.8296962E-3],"categories":[0,2,5,7,10,11,0,2,3,5,7,8,10,11,0,2,3,4,5,6,9,10,11],"categories_nodes":[31,38,42],"categories_segments":[0,6,14],"categories_sizes":[6,8,9],"default_left":[0,0,0,0,0,0,0,0,0,0,0,0,0,0,0,0,0,0,0,0,0,0,0,0,0,0,0,0,0,0,0,1,0,0,0,0,0,0,1,0,0,0,1,0,0,0,0,0,0,0,0,0,0,0,0,0,0,0,0,0,0,0,0,0,0,0,0,0,0,0,0,0,0,0,0,0,0,0,0,0,0,0,0,0,0,0,0,0,0,0,0,0,0,0,0,0,0,0,0,0,0,0,0,0,0,0,0,0,0,0,0,0,0,0,0,0,0,0,0,0,0,0,0],"id":9,"left_children":[1,3,5,7,9,11,13,15,17,19,21,23,25,27,29,31,33,35,37,39,41,43,45,47,49,51,53,55,57,59,61,63,65,67,69,71,73,75,77,79,81,83,85,-1,87,-1,89,91,93,95,97,99,101,103,105,107,109,111,113,115,117,119,121,-1,-1,-1,-1,-1,-1,-1,-1,-1,-1,-1,-1,-1,-1,-1,-1,-1,-1,-1,-1,-1,-1,-1,-1,-1,-1,-1,-1,-1,-1,-1,-1,-1,-1,-1,-1,-1,-1,-1,-1,-1,-1,-1,-1,-1,-1,-1,-1,-1,-1,-1,-1,-1,-1,-1,-1,-1,-1,-1,-1],"loss_changes":[1.53959055E1,7.97213E0,9.723052E0,7.600318E0,1.3357582E0,5.1210537E0,7.659186E0,4.5685754E0,5.3982916E0,7.111206E-1,9.886519E-1,2.4870405E0,5.223031E0,4.405241E0,4.5251255E0,3.3310752E0,5.2193446E0,6.066587E0,1.5855942E0,1.2117777E0,7.570772E-1,6.1404765E-2,8.4220475E-1,1.7585173E0,2.9553585E0,9.179716E-1,2.8298635E0,8.8870735E0,6.3389544E0,1.3716164E0,3.3078785E0,1.7723365E0,2.223085E0,4.23719E0,3.201457E0,1.0890622E0,1.4556589E0,8.217273E-1,1.3034496E0,1.0358632E0,7.1097803E-1,5.2304935E-1,3.5954356E-1,0E0,1.4240682E-2,0E0,7.9134214E-1,8.9580965E-1,7.029462E-1,6.595657E-1,3.3526363E0,5.958107E-1,3.820535E-1,1.0944643E0,3.3015412E-1,5.4327974E0,4.134275E0,3.5271263E0,1.534383E1,8.228195E-1,1.1464329E0,2.8203003E0,1.3853312E0,0E0,0E0,0E0,0E0,0E0,0E0,0E0,0E0,0E0,0E0,0E0,0E0,0E0,0E0,0E0,0E0,0E0,0E0,0E0,0E0,0E0,0E0,0E0,0E0,0E0,0E0,0E0,0E0,0E0,0E0,0E0,0E0,0E0,0E0,0E0,0E0,0E0,0E0,0E0,0E0,0E0,0E0,0E0,0E0,0E0,0E0,0E0,0E0,0E0,0E0,0E0,0E0,0E0,0E0,0E0,0E0,0E0,0E0,0E0,0E0],"parents":[2147483647,0,0,1,1,2,2,3,3,4,4,5,5,6,6,7,7,8,8,9,9,10,10,11,11,12,12,13,13,14,14,15,15,16,16,17,17,18,18,19,19,20,20,21,21,22,22,23,23,24,24,25,25,26,26,27,27,28,28,29,29,30,30,31,31,32,32,33,33,34,34,35,35,36,36,37,37,38,38,39,39,40,40,41,41,42,42,44,44,46,46,47,47,48,48,49,49,50,50,51,51,52,52,53,53,54,54,55,55,56,56,57,57,58,58,59,59,60,60,61,61,62,62],"right_children":[2,4,6,8,10,12,14,16,18,20,22,24,26,28,30,32,34,36,38,40,42,44,46,48,50,52,54,56,58,60,62,64,66,68,70,72,74,76,78,80,82,84,86,-1,88,-1,90,92,94,96,98,100,102,104,106,108,110,112,114,116,118,120,122,-1,-1,-1,-1,-1,-1,-1,-1,-1,-1,-1,-1,-1,-1,-1,-1,-1,-1,-1,-1,-1,-1,-1,-1,-1,-1,-1,-1,-1,-1,-1,-1,-1,-1,-1,-1,-1,-1,-1,-1,-1,-1,-1,-1,-1,-1,-1,-1,-1,-1,-1,-1,-1,-1,-1,-1,-1,-1,-1,-1],"split_conditions":[-7.330081E-1,8.056872E-2,3.7602848E1,5.425454E1,9.583333E-1,2.5086815E0,9.621246E-2,3.9626823E1,1.0751415E-1,1.0773481E-1,3.254867E1,4.679146E-1,3.428817E-2,-5.9657055E-1,-1.8545263E0,1.269139E0,-6.169895E-1,8.9971346E-1,-2.1495354E0,-1.7534444E0,1.7380953E-1,-1.7534444E0,6.469002E-2,5.0878268E-2,7.1456003E-1,2.9780695E0,3.4589365E0,-4.8032755E-1,4.973274E-2,2.9411765E-2,-4.8032755E-1,1E-45,3.3865818E1,-1.4218009E-1,9.942693E-1,6.387283E-1,1.9427036E0,6.410257E-2,1E-45,-8.000421E-1,8.3850935E-2,6.7164177E-1,1E-45,7.252109E-3,1.1882016E1,2.678132E-2,9.622642E-1,3.3865818E1,3.3346313E-1,-3.560305E-1,7.3524034E-1,2.6138606E0,2.5557587E1,3.1947641E1,1.0557657E0,7.2463766E-2,4.4576675E1,-4.180125E-1,1.1354696E0,3.94203E1,7.550432E-1,5.44036E1,-7.305741E-2,1.6485346E-2,6.3783876E-3,5.0180205E-3,-5.9553334E-3,9.616452E-3,-1.8020057E-3,-5.7254857E-3,5.1400033E-3,-3.596207E-2,1.9757705E-2,-1.047426E-3,1.1301825E-2,3.192466E-2,3.270165E-3,1.6177215E-2,8.734071E-3,1.2933834E-2,-4.5834957E-3,1.76868E-2,9.56923E-3,1.9688284E-2,7.814714E-3,1.9246219E-2,8.41976E-3,2.9195182E-2,2.0211289E-2,5.0731227E-3,-1.8656902E-2,3.6782715E-3,8.5655774E-4,5.597175E-3,1.17920535E-2,1.8997816E-2,-1.6222771E-3,1.1970313E-2,1.2490231E-3,-3.0170227E-4,2.6269301E-3,2.050275E-3,-8.765593E-4,-2.8336162E-3,-7.891366E-3,-4.9864687E-3,2.8185183E-3,4.0651762E-4,4.1153356E-3,3.5597538E-3,3.5272664E-5,-8.559334E-4,-9.857239E-5,-5.967792E-4,-6.475953E-3,3.845867E-3,-1.3187687E-2,-7.375504E-3,-1.4666778E-2,-2.0065035E-3,3.4583802E-3,-9.67905E-4,-6.8296962E-3],"split_indices":[13,38,19,19,34,21,7,19,7,38,19,21,7,21,16,21,21,34,16,16,28,16,28,7,21,21,21,13,7,38,13,41,19,2,34,34,8,31,41,13,37,40,41,0,5,0,34,19,21,11,21,21,19,19,10,38,19,21,21,5,34,19,1,0,0,0,0,0,0,0,0,0,0,0,0,0,0,0,0,0,0,0,0,0,0,0,0,0,0,0,0,0,0,0,0,0,0,0,0,0,0,0,0,0,0,0,0,0,0,0,0,0,0,0,0,0,0,0,0,0,0,0,0],"split_type":[0,0,0,0,0,0,0,0,0,0,0,0,0,0,0,0,0,0,0,0,0,0,0,0,0,0,0,0,0,0,0,1,0,0,0,0,0,0,1,0,0,0,1,0,0,0,0,0,0,0,0,0,0,0,0,0,0,0,0,0,0,0,0,0,0,0,0,0,0,0,0,0,0,0,0,0,0,0,0,0,0,0,0,0,0,0,0,0,0,0,0,0,0,0,0,0,0,0,0,0,0,0,0,0,0,0,0,0,0,0,0,0,0,0,0,0,0,0,0,0,0,0,0],"sum_hessian":[6.74475E5,4.97E3,6.69505E5,4.257E3,7.13E2,4.916E4,6.20345E5,2.928E3,1.329E3,6.63E2,5E1,4.2844E4,6.316E3,6.14767E5,5.578E3,8.88E2,2.04E3,7.29E2,6E2,3.48E2,3.15E2,1.1E1,3.9E1,3.313E3,3.9531E4,4.777E3,1.539E3,2.69327E5,3.4544E5,5.95E2,4.983E3,4.31E2,4.57E2,7.59E2,1.281E3,1.23E2,6.06E2,4.3E1,5.57E2,8.3E1,2.65E2,1.96E2,1.19E2,2E0,9E0,4E0,3.5E1,2.675E3,6.38E2,2.273E3,3.7258E4,1.778E3,2.999E3,1.246E3,2.93E2,9.334E3,2.59993E5,3.28581E5,1.6859E4,8.8E1,5.07E2,3.666E3,1.317E3,1.63E2,2.68E2,2.83E2,1.74E2,3.75E2,3.84E2,1.096E3,1.85E2,2E0,1.21E2,5.44E2,6.2E1,3.6E1,7E0,2.48E2,3.09E2,3.2E1,5.1E1,1.04E2,1.61E2,1.71E2,2.5E1,2.2E1,9.7E1,2E0,7E0,1.3E1,2.2E1,1.515E3,1.16E3,5.02E2,1.36E2,9E0,2.264E3,1.71E2,3.7087E4,6.26E2,1.152E3,2.88E2,2.711E3,3.46E2,9E2,3.6E1,2.57E2,4.162E3,5.172E3,1.958E3,2.58035E5,4.1028E4,2.87553E5,1.366E4,3.199E3,6.6E1,2.2E1,2.72E2,2.35E2,2.99E3,6.76E2,3.07E2,1.01E3],"tree_param":{"num_deleted":"0","num_feature":"42","num_nodes":"123","size_leaf_vector":"1"}},{"base_weights":[-7.1022885E-5,-6.503183E-2,2.0196619E-4,-5.2307625E-3,-8.925479E-2,-8.198435E-6,1.07892044E-1,4.0086593E-2,-3.0767996E-2,-4.962866E-2,-1.3307126E-1,1.431052E-2,-1.1084148E-3,1.599813E-1,5.6499638E-2,-1.5199743E-2,6.619656E-2,-2.5712645E-2,-1.7937668E-1,-5.662262E-2,7.976159E-2,-1.5187053E-1,-3.772364E-2,9.5808476E-2,1.1975552E-2,-5.116635E-4,-2.5959864E-2,-3.735459E-2,1.6306558E-1,1.5946393E-1,4.480321E-2,-9.869032E-3,-1.0814079E-1,1.2231646E-1,4.247939E-2,-2.9248329E-2,3.1012254E-2,-2.1296062E-1,5.4058544E-3,-7.3296145E-2,-1.4986633E-2,1.2848409E-1,-1.3381223E-1,-1.8195406E-1,-8.4566526E-2,-2.3003306E-2,-2.1402283E-1,1.2870377E-1,-8.485094E-2,1.6633306E-2,-2.463012E-3,-1.11468E-3,2.6534125E-2,-4.443593E-2,1.6558545E-2,1.970295E-1,1.08860016E-1,3.2690185E-1,1.1473128E-1,-5.2745644E-2,5.3434E-2,-2.3765364E-3,8.338842E-4,-5.2831513E-3,-1.2293242E-2,1.27794165E-2,7.422554E-3,-6.61009E-3,4.4328403E-3,2.3868814E-2,-2.397379E-3,-1.4986482E-2,-2.3581259E-2,-1.9403877E-3,-6.927491E-3,8.234083E-4,-3.7157186E-3,3.6051031E-3,1.5988717E-2,-2.2036133E-2,1.7758905E-3,-1.8001528E-2,-1.2391259E-2,-5.3376528E-3,-1.1899042E-2,-2.6984573E-3,4.8587387E-3,-2.9695643E-2,-9.414417E-3,6.484547E-3,1.2975742E-2,1.3478003E-3,-8.562089E-3,6.186392E-4,3.0722034E-3,1.2265878E-3,-1.0035556E-3,-4.2143096E-5,-1.7608824E-3,1.7218101E-4,4.4947397E-3,-5.9796134E-3,2.6243913E-4,-1.0902719E-2,1.9062568E-3,-2.5445027E-2,1.5473984E-2,9.10801E-3,-8.698133E-3,2.740985E-2,1.8411495E-2,5.4422696E-3,1.5738612E-2,-2.174339E-3,-1.196748E-2,5.1219813E-3,3.401928E-4],"categories":[0,1,4,5,7,8,9,10,2,6,0,2,3,5,6,7,11,0,1,3,4,6,7,8,9,10,11,7,8,9,10,0,1,2,4,6,7,8,9,10,1,3,4,8,9,10,11],"categories_nodes":[1,3,6,29,40,48,60],"categories_segments":[0,8,10,17,27,31,40],"categories_sizes":[8,2,7,10,4,9,7],"default_left":[0,1,0,1,0,0,1,0,0,0,0,0,0,0,0,0,0,0,0,0,0,0,0,0,0,0,0,0,0,1,0,0,0,0,0,0,0,0,0,0,1,0,0,0,0,0,0,0,1,0,0,0,0,0,0,0,0,0,0,0,1,0,0,0,0,0,0,0,0,0,0,0,0,0,0,0,0,0,0,0,0,0,0,0,0,0,0,0,0,0,0,0,0,0,0,0,0,0,0,0,0,0,0,0,0,0,0,0,0,0,0,0,0,0,0,0,0],"id":10,"left_children":[1,3,5,7,9,11,13,15,17,19,21,23,25,27,29,31,33,35,37,39,41,43,45,47,49,51,53,-1,55,57,59,61,63,65,67,69,-1,71,-1,73,75,77,79,81,83,85,87,89,91,93,95,97,99,101,103,105,107,109,111,113,115,-1,-1,-1,-1,-1,-1,-1,-1,-1,-1,-1,-1,-1,-1,-1,-1,-1,-1,-1,-1,-1,-1,-1,-1,-1,-1,-1,-1,-1,-1,-1,-1,-1,-1,-1,-1,-1,-1,-1,-1,-1,-1,-1,-1,-1,-1,-1,-1,-1,-1,-1,-1,-1,-1,-1,-1],"loss_changes":[1.1950545E1,4.0850296E0,1.5188159E1,9.410948E-1,3.4842472E0,1.0551289E1,3.4982271E0,4.2318445E-1,3.902946E-1,9.543302E-1,1.7078476E0,9.094306E0,9.223974E0,1.3064938E0,7.918768E-1,4.651744E-2,2.6450425E-1,7.687751E-1,1.4502132E-1,6.941805E-1,5.6452715E-1,1.6104298E0,4.0722343E-1,7.911522E0,3.1245055E0,9.905962E0,1.14577265E1,0E0,1.1874504E0,4.989859E-1,4.9792325E-1,3.9344013E-2,9.426337E-3,6.530911E-2,2.811317E-1,3.6329794E-1,0E0,1.8580437E-2,0E0,5.936763E-1,2.4799004E-1,2.8858298E-1,2.4568354E-1,5.80286E-1,2.5662315E-1,1.5487517E-1,1.8724865E-1,2.0280552E0,5.718949E-1,7.0691357E0,2.2387688E0,7.33762E0,1.0385142E1,1.6459005E1,5.901576E0,1.1583719E0,5.7449245E-1,3.0350804E-2,2.0937812E-1,1.2092371E-1,3.6164236E-1,0E0,0E0,0E0,0E0,0E0,0E0,0E0,0E0,0E0,0E0,0E0,0E0,0E0,0E0,0E0,0E0,0E0,0E0,0E0,0E0,0E0,0E0,0E0,0E0,0E0,0E0,0E0,0E0,0E0,0E0,0E0,0E0,0E0,0E0,0E0,0E0,0E0,0E0,0E0,0E0,0E0,0E0,0E0,0E0,0E0,0E0,0E0,0E0,0E0,0E0,0E0,0E0,0E0,0E0,0E0,0E0],"parents":[2147483647,0,0,1,1,2,2,3,3,4,4,5,5,6,6,7,7,8,8,9,9,10,10,11,11,12,12,13,13,14,14,15,15,16,16,17,17,18,18,19,19,20,20,21,21,22,22,23,23,24,24,25,25,26,26,28,28,29,29,30,30,31,31,32,32,33,33,34,34,35,35,37,37,39,39,40,40,41,41,42,42,43,43,44,44,45,45,46,46,47,47,48,48,49,49,50,50,51,51,52,52,53,53,54,54,55,55,56,56,57,57,58,58,59,59,60,60],"right_children":[2,4,6,8,10,12,14,16,18,20,22,24,26,28,30,32,34,36,38,40,42,44,46,48,50,52,54,-1,56,58,60,62,64,66,68,70,-1,72,-1,74,76,78,80,82,84,86,88,90,92,94,96,98,100,102,104,106,108,110,112,114,116,-1,-1,-1,-1,-1,-1,-1,-1,-1,-1,-1,-1,-1,-1,-1,-1,-1,-1,-1,-1,-1,-1,-1,-1,-1,-1,-1,-1,-1,-1,-1,-1,-1,-1,-1,-1,-1,-1,-1,-1,-1,-1,-1,-1,-1,-1,-1,-1,-1,-1,-1,-1,-1,-1,-1,-1],"split_conditions":[-1.9463165E-1,1E-45,6.764E1,1E-45,3.4591545E1,3.7602848E1,1E-45,6.09E1,7.617801E-1,2.2973754E0,4.250195E1,-1.6246586E-1,4.305E1,-3.555235E-1,2.211838E-1,9.6307695E-1,4.8509485E-1,6.5384614E-1,8.7931037E-1,6.6570604E-1,-1.019793E0,6.3037246E-1,9.4666666E-1,2.921737E1,3.016E1,3.62E1,5.578E1,-3.735459E-2,4.9275362E-1,1E-45,4.0462427E-2,7.9391545E-1,-1.9858316E-2,1.9701493E-1,2.16763E-1,1.1956522E-1,3.1012254E-2,1.8550725E-1,5.4058544E-3,2.3159426E1,1E-45,2.597015E-1,8.818444E-1,1.548913E-1,6.5384614E-1,8.595642E-1,4.5238096E-2,5.1230997E-1,1E-45,2.6E1,3.254867E1,3.154E1,1.164262E0,-2.835624E-2,-1.6246586E-1,2.1798365E-2,9.583333E-1,-1.14257805E-1,1.661891E-1,9.9104476E-1,1E-45,-2.3765364E-3,8.338842E-4,-5.2831513E-3,-1.2293242E-2,1.27794165E-2,7.422554E-3,-6.61009E-3,4.4328403E-3,2.3868814E-2,-2.397379E-3,-1.4986482E-2,-2.3581259E-2,-1.9403877E-3,-6.927491E-3,8.234083E-4,-3.7157186E-3,3.6051031E-3,1.5988717E-2,-2.2036133E-2,1.7758905E-3,-1.8001528E-2,-1.2391259E-2,-5.3376528E-3,-1.1899042E-2,-2.6984573E-3,4.8587387E-3,-2.9695643E-2,-9.414417E-3,6.484547E-3,1.2975742E-2,1.3478003E-3,-8.562089E-3,6.186392E-4,3.0722034E-3,1.2265878E-3,-1.0035556E-3,-4.2143096E-5,-1.7608824E-3,1.7218101E-4,4.4947397E-3,-5.9796134E-3,2.6243913E-4,-1.0902719E-2,1.9062568E-3,-2.5445027E-2,1.5473984E-2,9.10801E-3,-8.698133E-3,2.740985E-2,1.8411495E-2,5.4422696E-3,1.5738612E-2,-2.174339E-3,-1.196748E-2,5.1219813E-3,3.401928E-4],"split_indices":[17,41,20,41,19,19,41,20,32,22,19,17,20,22,38,26,26,34,32,38,15,38,34,19,20,20,20,0,28,41,32,8,1,26,28,38,0,37,0,5,41,35,40,38,34,32,28,8,41,20,19,20,22,17,17,35,34,17,28,37,41,0,0,0,0,0,0,0,0,0,0,0,0,0,0,0,0,0,0,0,0,0,0,0,0,0,0,0,0,0,0,0,0,0,0,0,0,0,0,0,0,0,0,0,0,0,0,0,0,0,0,0,0,0,0,0,0],"split_type":[0,1,0,1,0,0,1,0,0,0,0,0,0,0,0,0,0,0,0,0,0,0,0,0,0,0,0,0,0,1,0,0,0,0,0,0,0,0,0,0,1,0,0,0,0,0,0,0,1,0,0,0,0,0,0,0,0,0,0,0,1,0,0,0,0,0,0,0,0,0,0,0,0,0,0,0,0,0,0,0,0,0,0,0,0,0,0,0,0,0,0,0,0,0,0,0,0,0,0,0,0,0,0,0,0,0,0,0,0,0,0,0,0,0,0,0,0],"sum_hessian":[6.73893E5,2.82E3,6.71073E5,8.13E2,2.007E3,6.69766E5,1.307E3,2.93E2,5.2E2,1.054E3,9.53E2,4.7791E4,6.21975E5,6.49E2,6.58E2,9.4E1,1.99E2,5.03E2,1.7E1,1E3,5.4E1,7.96E2,1.57E2,1.331E3,4.646E4,6.0739E5,1.4585E4,3E0,6.46E2,6.7E1,5.91E2,8.9E1,5E0,5.9E1,1.4E2,4.99E2,4E0,1.5E1,2E0,7.14E2,2.86E2,4.4E1,1E1,5.5E2,2.46E2,1.45E2,1.2E1,1.126E3,2.05E2,3.5128E4,1.1332E4,5.94143E5,1.3247E4,1.0167E4,4.418E3,3.97E2,2.49E2,1.4E1,5.3E1,4.8E1,5.43E2,4.4E1,4.5E1,3E0,2E0,2.1E1,3.8E1,1.5E1,1.25E2,3E0,4.96E2,1.3E1,2E0,1.9E2,5.24E2,1.62E2,1.24E2,2.2E1,2.2E1,5E0,5E0,1.48E2,4.02E2,2.04E2,4.2E1,1.27E2,1.8E1,4E0,8E0,5.45E2,5.81E2,4.3E1,1.62E2,2.5788E4,9.34E3,4.143E3,7.189E3,5.79267E5,1.4876E4,7.561E3,5.686E3,5.958E3,4.209E3,2.21E2,4.197E3,4E0,3.93E2,2.38E2,1.1E1,1E1,4E0,3.6E1,1.7E1,3.9E1,9E0,4.25E2,1.18E2],"tree_param":{"num_deleted":"0","num_feature":"42","num_nodes":"117","size_leaf_vector":"1"}},{"base_weights":[2.409319E-5,3.130433E-2,-4.4017113E-4,1.6311351E-2,6.9766715E-2,1.03911196E-4,-2.2911085E-2,6.1676074E-2,-6.8550073E-3,1.9775253E-2,1.5711747E-1,1.068144E-2,-1.0145641E-3,-2.2240093E-3,-4.0716555E-2,-5.429481E-2,7.670704E-2,3.7896227E-2,-3.2359112E-2,4.5040175E-2,-7.5314835E-2,-2.0808274E-2,1.650635E-1,2.3286962E-3,2.0595789E-2,1.8253688E-3,-3.345516E-3,-1.6204193E-2,2.899113E-2,-5.4465868E-2,7.413771E-4,-2.3401251E-2,-1.6478558E-1,1.2554274E-1,2.868602E-2,2.4791238E-1,2.3951387E-2,-5.6029275E-2,8.438351E-2,8.791153E-3,1.0828339E-1,-2.0404859E-2,-1.2589999E-1,1.1260806E-1,-2.4528675E-1,2.0307662E-1,1.3237633E-1,-3.4034993E-2,8.921334E-3,2.746129E-2,-3.216518E-2,1.8543202E-2,5.252263E-4,-2.015405E-2,-3.6961585E-4,-1.95312E-2,1.6776517E-1,1.2238302E-1,1.26142E-2,-3.789238E-2,-1.0194666E-1,-3.2284085E-2,2.2698065E-2,-4.992622E-4,-2.3417782E-2,-2.3007974E-2,-6.5033726E-4,8.584765E-3,1.9851405E-2,4.8354915E-3,-4.086896E-3,2.749502E-2,1.504771E-2,4.551784E-3,-1.4636948E-3,-7.1794414E-3,1.2372519E-3,8.025657E-3,-1.9334154E-2,7.7331723E-3,-1.7725048E-3,5.046853E-4,1.2309516E-2,1.231093E-2,-3.1358013E-3,-1.7542614E-2,-7.042841E-3,-2.1722134E-2,1.3946426E-2,-7.967195E-3,-2.2244832E-2,1.7712057E-2,8.90587E-3,9.393317E-4,1.3188815E-2,-1.9460282E-3,-7.704544E-3,9.686455E-4,-6.878185E-4,5.141884E-3,1.6415272E-3,-6.833251E-3,-1.1319319E-3,3.699461E-3,1.0110954E-3,-1.7092E-4,4.689806E-4,-1.0817493E-3,-8.223563E-3,-1.3688377E-4,1.1424752E-3,3.4769184E-3,-2.160892E-3,2.425682E-2,3.454235E-3,2.502736E-3,1.2652575E-2,-5.8792257E-3,1.5512898E-3,-1.1752129E-3,-4.5023034E-3,-1.1460466E-2,-3.1734745E-3,4.8992835E-4,-7.165681E-3,2.6613628E-3,-8.064322E-3],"categories":[0,1,2,4,6,7,0,3,4,5,6,7,9,10,11],"categories_nodes":[21,55],"categories_segments":[0,6],"categories_sizes":[6,9],"default_left":[0,0,0,0,0,0,0,0,0,0,0,0,0,0,0,0,0,0,0,0,0,1,0,0,0,0,0,0,0,0,0,0,0,0,0,0,0,0,0,0,0,0,0,0,0,0,0,0,0,0,0,0,0,0,0,1,0,0,0,0,0,0,0,0,0,0,0,0,0,0,0,0,0,0,0,0,0,0,0,0,0,0,0,0,0,0,0,0,0,0,0,0,0,0,0,0,0,0,0,0,0,0,0,0,0,0,0,0,0,0,0,0,0,0,0,0,0,0,0,0,0,0,0,0,0,0,0],"id":11,"left_children":[1,3,5,7,9,11,13,15,17,19,21,23,25,27,29,31,33,35,37,39,41,43,45,47,49,51,53,55,57,59,61,63,65,67,69,71,73,75,77,79,81,83,85,87,89,91,93,95,97,99,101,103,105,107,109,111,113,115,117,119,121,123,125,-1,-1,-1,-1,-1,-1,-1,-1,-1,-1,-1,-1,-1,-1,-1,-1,-1,-1,-1,-1,-1,-1,-1,-1,-1,-1,-1,-1,-1,-1,-1,-1,-1,-1,-1,-1,-1,-1,-1,-1,-1,-1,-1,-1,-1,-1,-1,-1,-1,-1,-1,-1,-1,-1,-1,-1,-1,-1,-1,-1,-1,-1,-1,-1],"loss_changes":[9.785869E0,5.682988E0,8.118034E0,7.452322E0,1.2069932E1,7.6698365E0,5.781908E0,4.1789007E0,5.357675E0,4.2240443E0,1.4227448E0,5.1340175E0,3.881179E0,3.168738E0,4.808728E0,9.3865764E-1,4.9762697E0,4.99012E0,8.263026E0,3.1844156E0,1.0249648E0,1.2932585E0,1.1941414E0,8.066575E0,1.0268625E1,5.7446246E0,1.6106962E1,3.0698848E0,3.4351938E0,4.9848633E0,1.5236356E0,1.0267857E0,1.2799035E0,1.8611374E0,3.042197E0,5.986557E-1,2.4536426E0,6.809621E0,3.5139914E0,2.610616E0,2.717309E0,6.6385543E-1,6.6979337E-1,7.5660884E-1,1.01135254E-1,1.103365E0,2.502159E0,2.9550128E0,1.9169776E0,5.9734707E0,3.2429547E0,3.025601E0,3.8011904E0,2.5407738E1,5.9589972E0,2.8024979E0,1.633028E0,1.2968988E0,1.3157481E0,2.2230148E0,4.7560043E0,1.9966203E0,1.9635483E0,0E0,0E0,0E0,0E0,0E0,0E0,0E0,0E0,0E0,0E0,0E0,0E0,0E0,0E0,0E0,0E0,0E0,0E0,0E0,0E0,0E0,0E0,0E0,0E0,0E0,0E0,0E0,0E0,0E0,0E0,0E0,0E0,0E0,0E0,0E0,0E0,0E0,0E0,0E0,0E0,0E0,0E0,0E0,0E0,0E0,0E0,0E0,0E0,0E0,0E0,0E0,0E0,0E0,0E0,0E0,0E0,0E0,0E0,0E0,0E0,0E0,0E0,0E0,0E0],"parents":[2147483647,0,0,1,1,2,2,3,3,4,4,5,5,6,6,7,7,8,8,9,9,10,10,11,11,12,12,13,13,14,14,15,15,16,16,17,17,18,18,19,19,20,20,21,21,22,22,23,23,24,24,25,25,26,26,27,27,28,28,29,29,30,30,31,31,32,32,33,33,34,34,35,35,36,36,37,37,38,38,39,39,40,40,41,41,42,42,43,43,44,44,45,45,46,46,47,47,48,48,49,49,50,50,51,51,52,52,53,53,54,54,55,55,56,56,57,57,58,58,59,59,60,60,61,61,62,62],"right_children":[2,4,6,8,10,12,14,16,18,20,22,24,26,28,30,32,34,36,38,40,42,44,46,48,50,52,54,56,58,60,62,64,66,68,70,72,74,76,78,80,82,84,86,88,90,92,94,96,98,100,102,104,106,108,110,112,114,116,118,120,122,124,126,-1,-1,-1,-1,-1,-1,-1,-1,-1,-1,-1,-1,-1,-1,-1,-1,-1,-1,-1,-1,-1,-1,-1,-1,-1,-1,-1,-1,-1,-1,-1,-1,-1,-1,-1,-1,-1,-1,-1,-1,-1,-1,-1,-1,-1,-1,-1,-1,-1,-1,-1,-1,-1,-1,-1,-1,-1,-1,-1,-1,-1,-1,-1,-1],"split_conditions":[-6.536668E-1,5.4548393E1,6.882521E-2,3.9626823E1,3.365E1,3.992596E1,-5.086364E-1,2.456E1,-6.0863876E-1,2.668E1,5.671642E-2,2.51E1,-5.9657055E-1,1.8208153E0,6.09E1,2.392283E0,1.3022201E0,4.1326813E1,6.09E1,2.041E1,-1.4804883E0,1E-45,5.827413E1,1E0,2.4448204E0,5.0051548E1,1E0,6.875E-1,8.4876543E-1,8.87537E-1,3.6407104E1,1.7696431E-1,-1.6337186E0,1E0,3.3865818E1,9.198813E-2,4.385E1,4.786183E1,4.6002056E1,-3.555235E-1,1.3709556E0,-2.1636961E-1,-8.000421E-1,1.7595308E-2,9.2702705E-1,-2.9384991E-2,5.971926E1,1.4009778E0,2.286E1,-3.8682207E-1,1E0,-3.501684E-1,1.767E1,1.7661067E0,2.393E1,1E-45,-9.310263E-1,3.852E1,-2.2496428E-1,3.852E1,9.03537E-1,3.4591545E1,4.6002056E1,-4.992622E-4,-2.3417782E-2,-2.3007974E-2,-6.5033726E-4,8.584765E-3,1.9851405E-2,4.8354915E-3,-4.086896E-3,2.749502E-2,1.504771E-2,4.551784E-3,-1.4636948E-3,-7.1794414E-3,1.2372519E-3,8.025657E-3,-1.9334154E-2,7.7331723E-3,-1.7725048E-3,5.046853E-4,1.2309516E-2,1.231093E-2,-3.1358013E-3,-1.7542614E-2,-7.042841E-3,-2.1722134E-2,1.3946426E-2,-7.967195E-3,-2.2244832E-2,1.7712057E-2,8.90587E-3,9.393317E-4,1.3188815E-2,-1.9460282E-3,-7.704544E-3,9.686455E-4,-6.878185E-4,5.141884E-3,1.6415272E-3,-6.833251E-3,-1.1319319E-3,3.699461E-3,1.0110954E-3,-1.7092E-4,4.689806E-4,-1.0817493E-3,-8.223563E-3,-1.3688377E-4,1.1424752E-3,3.4769184E-3,-2.160892E-3,2.425682E-2,3.454235E-3,2.502736E-3,1.2652575E-2,-5.8792257E-3,1.5512898E-3,-1.1752129E-3,-4.5023034E-3,-1.1460466E-2,-3.1734745E-3,4.8992835E-4,-7.165681E-3,2.6613628E-3,-8.064322E-3],"split_indices":[13,19,7,19,20,19,13,20,21,20,30,20,21,22,20,22,21,19,20,20,21,41,19,18,21,19,18,3,34,21,19,23,16,18,19,36,20,19,19,22,22,3,13,29,34,3,19,21,20,13,18,13,20,21,20,41,21,20,24,20,34,19,19,0,0,0,0,0,0,0,0,0,0,0,0,0,0,0,0,0,0,0,0,0,0,0,0,0,0,0,0,0,0,0,0,0,0,0,0,0,0,0,0,0,0,0,0,0,0,0,0,0,0,0,0,0,0,0,0,0,0,0,0,0,0,0,0],"split_type":[0,0,0,0,0,0,0,0,0,0,0,0,0,0,0,0,0,0,0,0,0,1,0,0,0,0,0,0,0,0,0,0,0,0,0,0,0,0,0,0,0,0,0,0,0,0,0,0,0,0,0,0,0,0,0,1,0,0,0,0,0,0,0,0,0,0,0,0,0,0,0,0,0,0,0,0,0,0,0,0,0,0,0,0,0,0,0,0,0,0,0,0,0,0,0,0,0,0,0,0,0,0,0,0,0,0,0,0,0,0,0,0,0,0,0,0,0,0,0,0,0,0,0,0,0,0,0],"sum_hessian":[6.73851E5,9.855E3,6.63996E5,7.091E3,2.764E3,6.48299E5,1.5697E4,2.397E3,4.694E3,1.758E3,1.006E3,6.1996E4,5.86303E5,7.261E3,8.436E3,2.75E2,2.122E3,1.704E3,2.99E3,1.389E3,3.69E2,4.3E1,9.63E2,3.3648E4,2.8348E4,2.64296E5,3.22007E5,5.015E3,2.246E3,6.335E3,2.101E3,2.15E2,6E1,1.052E3,1.07E3,1.06E2,1.598E3,2.486E3,5.04E2,8.83E2,5.06E2,1.77E2,1.92E2,2.7E1,1.6E1,4.45E2,5.18E2,5.164E3,2.8484E4,2.5084E4,3.264E3,1.9071E4,2.45225E5,4.8435E4,2.73572E5,4.926E3,8.9E1,3.35E2,1.911E3,4.696E3,1.639E3,8.39E2,1.262E3,2.03E2,1.2E1,3.2E1,2.8E1,9.58E2,9.4E1,7.53E2,3.17E2,3.3E1,7.3E1,8.75E2,7.23E2,1.63E3,8.56E2,4.75E2,2.9E1,2.27E2,6.56E2,1.73E2,3.33E2,1.8E1,1.59E2,4.7E1,1.45E2,4E0,2.3E1,4E0,1.2E1,3.34E2,1.11E2,1.3E2,3.88E2,4.577E3,5.87E2,2.355E4,4.934E3,3.274E3,2.181E4,7.59E2,2.505E3,2.879E3,1.6192E4,1.64344E5,8.0881E4,4.5327E4,3.108E3,2.50341E5,2.3231E4,5.84E2,4.342E3,4E1,4.9E1,1.09E2,2.26E2,1.51E2,1.76E3,2.268E3,2.428E3,9.13E2,7.26E2,5.15E2,3.24E2,1.153E3,1.09E2],"tree_param":{"num_deleted":"0","num_feature":"42","num_nodes":"127","size_leaf_vector":"1"}},{"base_weights":[-1.10726614E-4,3.014667E-2,-5.603819E-4,2.3139939E-2,1.24428906E-1,-1.2734881E-5,-2.238503E-2,5.2926075E-3,6.361054E-2,1.4279164E-1,-1.3848499E-3,9.467902E-3,-1.0388006E-3,-3.447888E-2,7.4654724E-3,4.1617468E-2,-1.1189885E-2,1.506992E-2,1.464804E-1,-2.06914E-2,1.4492679E-1,8.731525E-2,-1.9954382E-2,1.2895728E-2,-1.3609413E-2,-7.619778E-4,-2.3644768E-2,-5.3139713E-2,1.5625918E-3,-5.4776534E-3,1.0925608E-1,7.7051245E-2,-1.5656397E-2,-3.80787E-2,2.4448248E-2,3.7311625E-2,-7.444998E-2,1.9189422E-1,1.1825858E-1,1.4748424E-1,-6.828045E-2,1.692377E-2,6.522392E-2,4.797982E-2,-5.394905E-2,2.099287E-3,2.4538932E-2,-4.8259273E-4,-5.7372533E-2,-2.2794348E-3,4.8868726E-3,2.0973055E-2,-4.830835E-2,-9.403714E-3,-7.465636E-2,3.660319E-2,-1.8725425E-2,7.6345373E-3,-3.704815E-2,1.2875341E-1,5.938026E-3,1.15078E-2,3.4688415E-3,6.7924336E-3,-2.5470261E-3,-4.556144E-3,4.996898E-3,3.4091135E-3,-6.6855275E-3,4.435626E-4,9.214049E-3,-1.0596549E-2,-8.061075E-4,1.6723702E-2,6.0640154E-3,4.009272E-3,1.1484642E-2,9.015258E-3,1.2545179E-2,-2.1538954E-2,1.5897895E-3,1.0955549E-2,3.8140824E-3,6.915594E-3,-6.037563E-3,-1.2602561E-2,-2.4006795E-3,1.33991E-3,-8.452578E-4,4.8511857E-3,1.4623321E-3,1.9414259E-4,-7.3410203E-3,-6.5997615E-3,1.9073979E-3,-8.8463275E-4,-9.763079E-5,8.1629585E-4,-2.2955236E-3,9.742095E-3,6.291396E-4,-9.546901E-3,-1.9337246E-3,4.1095293E-3,-1.4326869E-3,-8.194955E-4,-6.472129E-3,-1.4542762E-4,4.5674657E-3,-4.6749488E-3,-2.629018E-4,-1.9431881E-4,4.07085E-3,-9.276463E-4,-6.9470685E-3,6.429837E-3,1.171233E-2,2.5686976E-2,-1.905959E-4],"categories":[0,2,3,11,2,4,5,7,9,10,0,3,5,7,9,10,11,3,4,5,7,8,10,11],"categories_nodes":[4,28,31,53],"categories_segments":[0,4,10,17],"categories_sizes":[4,6,7,7],"default_left":[0,0,0,0,1,0,0,0,0,0,0,0,0,0,0,0,0,0,0,0,0,0,0,0,0,0,0,0,1,0,0,1,0,0,0,0,0,0,0,0,0,0,0,0,0,0,0,0,0,0,0,0,0,1,0,0,0,0,0,0,0,0,0,0,0,0,0,0,0,0,0,0,0,0,0,0,0,0,0,0,0,0,0,0,0,0,0,0,0,0,0,0,0,0,0,0,0,0,0,0,0,0,0,0,0,0,0,0,0,0,0,0,0,0,0,0,0,0,0],"id":12,"left_children":[1,3,5,7,9,11,13,15,17,19,21,23,25,27,29,31,33,35,37,-1,39,41,43,45,47,49,51,53,55,57,59,61,63,65,67,69,71,73,75,77,79,-1,81,83,85,87,89,91,93,95,97,99,101,103,105,107,109,111,113,115,117,-1,-1,-1,-1,-1,-1,-1,-1,-1,-1,-1,-1,-1,-1,-1,-1,-1,-1,-1,-1,-1,-1,-1,-1,-1,-1,-1,-1,-1,-1,-1,-1,-1,-1,-1,-1,-1,-1,-1,-1,-1,-1,-1,-1,-1,-1,-1,-1,-1,-1,-1,-1,-1,-1,-1,-1,-1,-1],"loss_changes":[9.175102E0,6.5233183E0,7.9422045E0,6.639345E0,1.5781612E0,6.305835E0,5.8722076E0,3.8193626E0,1.13156185E1,5.300875E-1,1.4362009E-1,5.007768E0,3.6603758E0,7.7856674E0,6.1792035E0,4.0408998E0,4.205055E0,3.532619E0,1.3296185E0,0E0,3.2434845E-1,4.3370374E-2,1.6674031E-1,6.928625E0,4.7032423E0,4.9532676E0,7.7868795E0,7.177429E0,2.807493E0,1.7225468E0,1.0657482E0,2.8632545E0,1.4067357E0,5.576317E0,4.2601843E0,3.7282677E0,1.4489385E0,1.2063198E0,1.3505154E0,2.8678417E-1,1.3555154E-1,0E0,1.49901025E-2,1.3078678E-1,1.1977224E-1,5.8098493E0,5.579138E0,1.8200808E0,4.510208E0,4.242418E0,2.4769299E1,3.4183502E0,8.032223E0,1.485201E0,3.2819862E0,1.2919753E0,1.622959E0,1.3656738E0,1.6382499E0,4.8566198E-1,2.3424111E-1,0E0,0E0,0E0,0E0,0E0,0E0,0E0,0E0,0E0,0E0,0E0,0E0,0E0,0E0,0E0,0E0,0E0,0E0,0E0,0E0,0E0,0E0,0E0,0E0,0E0,0E0,0E0,0E0,0E0,0E0,0E0,0E0,0E0,0E0,0E0,0E0,0E0,0E0,0E0,0E0,0E0,0E0,0E0,0E0,0E0,0E0,0E0,0E0,0E0,0E0,0E0,0E0,0E0,0E0,0E0,0E0,0E0,0E0],"parents":[2147483647,0,0,1,1,2,2,3,3,4,4,5,5,6,6,7,7,8,8,9,9,10,10,11,11,12,12,13,13,14,14,15,15,16,16,17,17,18,18,20,20,21,21,22,22,23,23,24,24,25,25,26,26,27,27,28,28,29,29,30,30,31,31,32,32,33,33,34,34,35,35,36,36,37,37,38,38,39,39,40,40,42,42,43,43,44,44,45,45,46,46,47,47,48,48,49,49,50,50,51,51,52,52,53,53,54,54,55,55,56,56,57,57,58,58,59,59,60,60],"right_children":[2,4,6,8,10,12,14,16,18,20,22,24,26,28,30,32,34,36,38,-1,40,42,44,46,48,50,52,54,56,58,60,62,64,66,68,70,72,74,76,78,80,-1,82,84,86,88,90,92,94,96,98,100,102,104,106,108,110,112,114,116,118,-1,-1,-1,-1,-1,-1,-1,-1,-1,-1,-1,-1,-1,-1,-1,-1,-1,-1,-1,-1,-1,-1,-1,-1,-1,-1,-1,-1,-1,-1,-1,-1,-1,-1,-1,-1,-1,-1,-1,-1,-1,-1,-1,-1,-1,-1,-1,-1,-1,-1,-1,-1,-1,-1,-1,-1,-1,-1],"split_conditions":[-6.536668E-1,1.8208092E-1,7.9391545E-1,5.425454E1,1E-45,3.992596E1,5.425454E1,3.9626823E1,3.365E1,1.734104E-2,7.7926546E-1,2.5086815E0,4.305E1,5.578E1,3.97E1,-7.330081E-1,4.786183E1,2.668E1,5.7851795E1,-2.06914E-2,2.5086815E0,3.9723022E1,3.7567568E-1,2.51E1,3.113E1,2.125E1,-6.287213E-1,3.016E1,1E-45,1.2897434E0,6.420765E-1,1E-45,3.868001E-1,6.09E1,5.343568E1,2.221E1,2.5714286E-2,1.7002882E-1,5.971926E1,2.0547946E-1,3.459979E1,1.692377E-2,5.27027E-1,6.293333E-1,-1.4394718E-1,1.982E1,-4.224337E-1,3.9264294E1,3.4589365E0,-2.2752927E-1,1.0885736E0,4.1326813E1,-4.3288505E-1,1E-45,3.7086304E1,7.156306E-1,3.6407104E1,1.1395271E0,-3.501684E-1,8.812653E-1,-1.5379304E-1,1.15078E-2,3.4688415E-3,6.7924336E-3,-2.5470261E-3,-4.556144E-3,4.996898E-3,3.4091135E-3,-6.6855275E-3,4.435626E-4,9.214049E-3,-1.0596549E-2,-8.061075E-4,1.6723702E-2,6.0640154E-3,4.009272E-3,1.1484642E-2,9.015258E-3,1.2545179E-2,-2.1538954E-2,1.5897895E-3,1.0955549E-2,3.8140824E-3,6.915594E-3,-6.037563E-3,-1.2602561E-2,-2.4006795E-3,1.33991E-3,-8.452578E-4,4.8511857E-3,1.4623321E-3,1.9414259E-4,-7.3410203E-3,-6.5997615E-3,1.9073979E-3,-8.8463275E-4,-9.763079E-5,8.1629585E-4,-2.2955236E-3,9.742095E-3,6.291396E-4,-9.546901E-3,-1.9337246E-3,4.1095293E-3,-1.4326869E-3,-8.194955E-4,-6.472129E-3,-1.4542762E-4,4.5674657E-3,-4.6749488E-3,-2.629018E-4,-1.9431881E-4,4.07085E-3,-9.276463E-4,-6.9470685E-3,6.429837E-3,1.171233E-2,2.5686976E-2,-1.905959E-4],"split_indices":[13,38,8,19,41,19,19,19,20,27,10,21,20,20,20,13,19,20,19,0,21,4,31,20,20,20,21,20,41,9,38,41,21,20,19,20,38,37,19,38,4,0,31,40,24,20,13,19,21,13,21,19,21,41,19,9,19,8,13,9,11,0,0,0,0,0,0,0,0,0,0,0,0,0,0,0,0,0,0,0,0,0,0,0,0,0,0,0,0,0,0,0,0,0,0,0,0,0,0,0,0,0,0,0,0,0,0,0,0,0,0,0,0,0,0,0,0,0,0],"split_type":[0,0,0,0,1,0,0,0,0,0,0,0,0,0,0,0,0,0,0,0,0,0,0,0,0,0,0,0,1,0,0,1,0,0,0,0,0,0,0,0,0,0,0,0,0,0,0,0,0,0,0,0,0,1,0,0,0,0,0,0,0,0,0,0,0,0,0,0,0,0,0,0,0,0,0,0,0,0,0,0,0,0,0,0,0,0,0,0,0,0,0,0,0,0,0,0,0,0,0,0,0,0,0,0,0,0,0,0,0,0,0,0,0,0,0,0,0,0,0],"sum_hessian":[6.74372E5,9.875E3,6.64497E5,9.192E3,6.83E2,6.48231E5,1.6266E4,6.379E3,2.813E3,5.96E2,8.7E1,6.3305E4,5.84926E5,1.1576E4,4.69E3,1.991E3,4.388E3,1.774E3,1.039E3,3E0,5.93E2,1.5E1,7.2E1,5.5118E4,8.187E3,5.7785E5,7.076E3,7.627E3,3.949E3,4.161E3,5.29E2,1.23E3,7.61E2,2.501E3,1.887E3,1.421E3,3.53E2,3.98E2,6.41E2,5.86E2,7E0,2E0,1.3E1,2.4E1,4.8E1,2.8599E4,2.6519E4,6.298E3,1.889E3,4.55491E5,1.22359E5,2.519E3,4.557E3,2.515E3,5.112E3,1.448E3,2.501E3,2.94E3,1.221E3,4.45E2,8.4E1,3.7E2,8.6E2,1.1E2,6.51E2,2.07E3,4.31E2,1.599E3,2.88E2,1.031E3,3.9E2,1.76E2,1.77E2,3.21E2,7.7E1,2.1E2,4.31E2,2.12E2,3.74E2,2E0,5E0,2E0,1.1E1,1.8E1,6E0,8E0,4E1,1.3162E4,1.5437E4,3.23E3,2.3289E4,6.105E3,1.93E2,1.397E3,4.92E2,4.4304E4,4.11187E5,1.04945E5,1.7414E4,2.69E2,2.25E3,1.052E3,3.505E3,3.24E2,2.191E3,6.94E2,4.418E3,5.44E2,9.04E2,6.62E2,1.839E3,2.404E3,5.36E2,8.35E2,3.86E2,1.58E2,2.87E2,2E0,8.2E1],"tree_param":{"num_deleted":"0","num_feature":"42","num_nodes":"119","size_leaf_vector":"1"}},{"base_weights":[3.7480044E-5,4.2122945E-2,-2.7314594E-4,2.910659E-2,1.489739E-1,-1.713064E-5,-3.3588443E-2,7.687676E-3,7.855928E-2,1.9808307E-1,1.05346695E-1,1.2312527E-2,-6.6558225E-4,2.5584063E-2,-4.0725406E-2,5.285518E-2,-1.9053515E-2,1.00246765E-1,-7.141783E-2,3.2875317E-1,1.761703E-1,1.4545226E-1,2.2915231E-2,2.085488E-2,-1.1629087E-3,-4.2759202E-2,-4.3423247E-4,5.689164E-2,-9.515984E-2,-1.2287915E-2,-5.56095E-2,9.356907E-2,-1.9562963E-2,-5.4109365E-2,1.9958721E-2,1.934414E-1,7.622474E-2,-1.6870965E-1,-9.921584E-3,3.6268917E-1,1.8519896E-1,1.8722636E-1,-1.1776968E-2,2.3300794E-1,1.1168918E-1,-1.8407324E-1,5.0862134E-2,1.7655136E-2,6.612205E-2,-3.679199E-2,3.7920617E-3,-2.941087E-2,-9.475745E-2,2.1860942E-2,-8.932804E-4,-4.6425923E-3,1.0806548E-1,4.5665417E-2,-1.5078288E-1,-1.1529942E-1,4.8491866E-3,-8.188907E-2,-3.429568E-2,8.566234E-3,-1.0950766E-2,5.4604686E-3,-4.1654943E-3,-2.5596868E-3,-1.0556464E-2,3.5888397E-3,-8.563179E-3,1.9908518E-2,1.1763087E-2,2.2931378E-3,1.1039432E-2,6.92513E-3,-1.52907865E-2,4.473324E-3,-8.051661E-3,2.418606E-2,2.8351594E-2,1.8248877E-2,1.0728159E-2,5.3715706E-3,1.5494538E-2,1.28627485E-2,-5.573573E-3,1.9237861E-2,-5.934379E-3,1.0756713E-2,-1.5121823E-3,-1.7093793E-2,-2.8265786E-4,1.0580493E-2,-1.6279931E-3,2.8664013E-3,1.0701541E-3,1.0899567E-2,3.4722828E-3,-7.179735E-3,-2.166398E-3,1.0836051E-3,-1.7057958E-3,6.777649E-3,-2.7147902E-3,-9.540825E-3,-1.2526967E-4,2.1441942E-3,-3.395278E-3,-2.04938E-5,-1.2164899E-3,4.115629E-3,-5.828281E-3,1.7185273E-2,4.061831E-3,-4.0099346E-3,1.5922036E-2,2.5834338E-4,-1.4646745E-2,5.825286E-4,-1.0678287E-2,-3.8667761E-3,2.4610793E-3,-5.802189E-3,-2.746543E-2,-3.136592E-3,4.598929E-3],"categories":[0,3,5,9,10,11,4,6,9,6,9,10,0,6,7,10,4,6,9,10],"categories_nodes":[4,13,14,32,33,46],"categories_segments":[0,6,9,12,16,19],"categories_sizes":[6,3,3,4,3,1],"default_left":[0,0,0,0,1,0,0,0,0,0,0,0,0,1,1,0,0,0,0,0,0,0,0,0,0,0,0,0,0,0,0,0,1,1,0,0,0,0,0,0,0,0,0,0,0,0,1,0,0,0,0,0,0,0,0,0,0,0,0,0,0,0,0,0,0,0,0,0,0,0,0,0,0,0,0,0,0,0,0,0,0,0,0,0,0,0,0,0,0,0,0,0,0,0,0,0,0,0,0,0,0,0,0,0,0,0,0,0,0,0,0,0,0,0,0,0,0,0,0,0,0,0,0,0,0,0,0],"id":13,"left_children":[1,3,5,7,9,11,13,15,17,19,21,23,25,27,29,31,33,35,37,39,41,43,45,47,49,51,53,55,57,59,61,63,65,67,69,71,73,75,77,79,81,83,85,87,89,91,93,95,97,99,101,103,105,107,109,111,113,115,117,119,121,123,125,-1,-1,-1,-1,-1,-1,-1,-1,-1,-1,-1,-1,-1,-1,-1,-1,-1,-1,-1,-1,-1,-1,-1,-1,-1,-1,-1,-1,-1,-1,-1,-1,-1,-1,-1,-1,-1,-1,-1,-1,-1,-1,-1,-1,-1,-1,-1,-1,-1,-1,-1,-1,-1,-1,-1,-1,-1,-1,-1,-1,-1,-1,-1,-1],"loss_changes":[8.809056E0,6.866151E0,5.70526E0,4.6616836E0,1.1466045E0,5.3072543E0,2.1543522E0,3.709464E0,4.3269787E0,7.1635246E-1,9.3889046E-1,3.8179312E0,6.141382E0,2.0761993E0,1.9266825E0,3.3675537E0,2.6383457E0,2.600215E0,1.0055654E0,1.6948533E-1,4.4924355E-1,5.624418E-1,5.3940916E-1,2.9400787E0,2.2717602E0,2.3923292E0,6.419033E0,1.3732848E0,8.865365E-1,2.7611785E0,1.6734209E0,3.21132E0,1.3081365E0,1.7596307E0,3.2561898E0,6.272421E-1,2.9141297E0,5.317224E-1,6.742658E-1,9.059906E-5,1.3870493E-2,3.6964512E-1,1.3439418E-1,3.111558E-1,5.282618E-1,7.922387E-2,5.192761E-1,1.3741779E0,2.12006E0,7.578769E-1,3.0649786E0,1.9819918E0,1.9734693E0,