{"learner":{"attributes":{"best_iteration":"3","best_score":"0.018874","scikit_learn":"{\"_estimator_type\": \"regressor\"}"},"feature_names":["ret_21d","ret_63d","macd_hist","atr_pct","vol_20d","vol_60d","dist_sma200","dist_52w_high","zscore_20d","zscore_60d","beta_60d","excess_ret_5d","excess_ret_21d","spy_ret_21d","spy_rsi_14","vix_level","excess_ret_21d_vs_sector","days_to_earnings","days_since_earnings","earnings_yield","book_to_market","roa","debt_to_equity","current_ratio","sales_growth_yoy","ret_63d_rank","macd_hist_rank","atr_pct_rank","vol_20d_rank","vol_60d_rank","dist_sma200_rank","dist_52w_high_rank","zscore_20d_rank","zscore_60d_rank","earnings_yield_rank","book_to_market_rank","roa_rank","debt_to_equity_rank","current_ratio_rank","gics_sector"],"feature_types":["float","float","float","float","float","float","float","float","float","float","float","float","float","float","float","float","float","float","float","float","float","float","float","float","float","float","float","float","float","float","float","float","float","float","float","float","float","float","float","c"],"gradient_booster":{"model":{"cats":{"enc":[],"feature_segments":[],"sorted_idx":[]},"gbtree_model_param":{"num_parallel_tree":"1","num_trees":"4"},"iteration_indptr":[0,1,2,3,4],"tree_info":[0,0,0,0],"trees":[{"base_weights":[-2.872692E-5,5.1379167E-2,-2.2987429E-4,2.7063781E-2,1.6495033E-1,-5.7085365E-4,1.45338625E-2,8.469977E-3,6.5982004E-4,9.470701E-3,-4.751937E-3,5.039335E-5,-1.2226978E-4,4.556157E-3,5.336357E-4],"categories":[0,3,4,5,6,7,8,9,10,11,2,3,4,9,11],"categories_nodes":[3,5],"categories_segments":[0,10],"categories_sizes":[10,5],"default_left":[0,0,0,1,0,1,0,0,0,0,0,0,0,0,0],"id":0,"left_children":[1,3,5,7,9,11,13,-1,-1,-1,-1,-1,-1,-1,-1],"loss_changes":[5.665677E0,5.895036E0,2.747493E0,3.4883628E0,2.8419333E0,1.6480533E0,3.5084577E0,0E0,0E0,0E0,0E0,0E0,0E0,0E0,0E0],"parents":[2147483647,0,0,1,1,2,2,3,3,4,4,5,5,6,6],"right_children":[2,4,6,8,10,12,14,-1,-1,-1,-1,-1,-1,-1,-1],"split_conditions":[-4.945362E-1,2.388742E0,9.594272E-1,1E-45,9.8876405E-1,1E-45,1.54639175E-2,8.469977E-3,6.5982004E-4,9.470701E-3,-4.751937E-3,5.039335E-5,-1.2226978E-4,4.556157E-3,5.336357E-4],"split_indices":[1,10,29,39,26,39,34,0,0,0,0,0,0,0,0],"split_type":[0,0,0,1,0,1,0,0,0,0,0,0,0,0,0],"sum_hessian":[5.47907E5,2.135E3,5.45772E5,1.759E3,3.76E2,5.33452E5,1.232E4,1.49E2,1.61E3,3.39E2,3.7E1,2.91507E5,2.41945E5,5.42E2,1.1778E4],"tree_param":{"num_deleted":"0","num_feature":"40","num_nodes":"15","size_leaf_vector":"1"}},{"base_weights":[1.6227408E-5,6.368651E-2,-4.534852E-4,-1.3704173E-1,7.0104584E-2,1.7904344E-5,-8.62969E-3,-1.2017734E-2,7.012363E-4,2.9825543E-3,9.459057E-3,-8.6197515E-6,1.0935162E-3,3.8648202E-4,-8.274136E-4],"categories":[],"categories_nodes":[],"categories_segments":[],"categories_sizes":[],"default_left":[0,0,0,0,0,0,0,0,0,0,0,0,0,0,0],"id":1,"left_children":[1,3,5,7,9,11,13,-1,-1,-1,-1,-1,-1,-1,-1],"loss_changes":[1.6386227E1,5.1738834E0,2.096281E0,2.0500278E0,4.3661118E0,2.230821E0,4.0631437E0,0E0,0E0,0E0,0E0,0E0,0E0,0E0,0E0],"parents":[2147483647,0,0,1,1,2,2,3,3,4,4,5,5,6,6],"right_children":[2,4,6,8,10,12,14,-1,-1,-1,-1,-1,-1,-1,-1],"split_conditions":[-6.728866E-1,1.8814147E-1,3.602E1,9.401732E-1,1.09797254E-1,7.103001E-1,4.3063584E-1,-1.2017734E-2,7.012363E-4,2.9825543E-3,9.459057E-3,-8.6197515E-6,1.0935162E-3,3.8648202E-4,-8.274136E-4],"split_indices":[7,22,15,4,13,5,30,0,0,0,0,0,0,0,0],"split_type":[0,0,0,0,0,0,0,0,0,0,0,0,0,0,0],"sum_hessian":[5.4791E5,4.012E3,5.43898E5,1.24E2,3.888E3,5.1425E5,2.9648E4,7.2E1,5.2E1,3.621E3,2.67E2,5.0982E5,4.43E3,9.901E3,1.9747E4],"tree_param":{"num_deleted":"0","num_feature":"40","num_nodes":"15","size_leaf_vector":"1"}},{"base_weights":[3.6687194E-5,5.994019E-2,-4.117104E-4,4.5513846E-2,1.3431945E-1,4.5168E-5,-8.313171E-3,-6.0593984E-3,2.5026896E-3,8.690154E-3,8.4866164E-4,6.743478E-4,-6.2105632E-6,4.904199E-4,-7.2452537E-4],"categories":[],"categories_nodes":[],"categories_segments":[],"categories_sizes":[],"default_left":[0,0,0,0,0,0,0,0,0,0,0,0,0,0,0],"id":2,"left_children":[1,3,5,7,9,11,13,-1,-1,-1,-1,-1,-1,-1,-1],"loss_changes":[1.4726825E1,4.367975E0,1.9645493E0,3.2759242E0,3.3546104E0,1.2172745E0,3.547438E0,0E0,0E0,0E0,0E0,0E0,0E0,0E0,0E0],"parents":[2147483647,0,0,1,1,2,2,3,3,4,4,5,5,6,6],"right_children":[2,4,6,8,10,12,14,-1,-1,-1,-1,-1,-1,-1,-1],"split_conditions":[-6.728866E-1,6.428352E-2,3.602E1,1.8814147E-1,5E1,-4.8459974E-1,3.8069704E-1,-6.0593984E-3,2.5026896E-3,8.690154E-3,8.4866164E-4,6.743478E-4,-6.2105632E-6,4.904199E-4,-7.2452537E-4],"split_indices":[7,13,15,22,17,7,31,0,0,0,0,0,0,0,0],"split_type":[0,0,0,0,0,0,0,0,0,0,0,0,0,0,0],"sum_hessian":[5.48268E5,4.073E3,5.44195E5,3.412E3,6.61E2,5.14449E5,2.9746E4,1.1E2,3.302E3,4.82E2,1.79E2,6.364E3,5.08085E5,7.785E3,2.1961E4],"tree_param":{"num_deleted":"0","num_feature":"40","num_nodes":"15","size_leaf_vector":"1"}},{"base_weights":[-2.2496157E-5,5.5254113E-2,-4.334883E-4,1.741478E-2,8.064906E-2,-7.264079E-4,1.1088847E-2,2.60231E-3,-1.4078697E-3,-4.0953094E-3,4.567956E-3,7.7975274E-4,-4.53627E-5,1.8021952E-3,6.496772E-5],"categories":[],"categories_nodes":[],"categories_segments":[],"categories_sizes":[],"default_left":[0,0,0,0,0,0,0,0,0,0,0,0,0,0,0],"id":3,"left_children":[1,3,5,7,9,11,13,-1,-1,-1,-1,-1,-1,-1,-1],"loss_changes":[1.2446739E1,3.884818E0,1.8354961E0,2.6875293E0,5.0775023E0,1.7785965E0,3.390162E0,0E0,0E0,0E0,0E0,0E0,0E0,0E0,0E0],"parents":[2147483647,0,0,1,1,2,2,3,3,4,4,5,5,6,6],"right_children":[2,4,6,8,10,12,14,-1,-1,-1,-1,-1,-1,-1,-1],"split_conditions":[-6.728866E-1,-1.2126357E-2,9.538905E-1,-4.632498E-2,3.0562317E-1,-5.440513E-1,3.0294595E-2,2.60231E-3,-1.4078697E-3,-4.0953094E-3,4.567956E-3,7.7975274E-4,-4.53627E-5,1.8021952E-3,6.496772E-5],"split_indices":[7,2,29,13,22,7,21,0,0,0,0,0,0,0,0],"split_type":[0,0,0,0,0,0,0,0,0,0,0,0,0,0,0],"sum_hessian":[5.47873E5,4.043E3,5.4383E5,1.624E3,2.419E3,5.30348E5,1.3482E4,9.15E2,7.09E2,1.74E2,2.245E3,6.323E3,5.24025E5,3.704E3,9.778E3],"tree_param":{"num_deleted":"0","num_feature":"40","num_nodes":"15","size_leaf_vector":"1"}}]},"name":"gbtree"},"learner_model_param":{"base_score":"[1.3351334E-3]","boost_from_average":"1","num_class":"0","num_feature":"40","num_target":"1"},"objective":{"name":"reg:squarederror","reg_loss_param":{"scale_pos_weight":"1"}}},"version":[3,2,0]}