{"learner":{"attributes":{"best_iteration":"9","best_score":"0.01598","scikit_learn":"{\"_estimator_type\": \"regressor\"}"},"feature_names":["ret_21d","ret_63d","macd_hist","atr_pct","vol_20d","vol_60d","dist_sma200","dist_52w_high","zscore_20d","zscore_60d","beta_60d","excess_ret_5d","excess_ret_21d","spy_ret_21d","spy_rsi_14","vix_level","term_spread_10y3m","ig_credit_spread","inflation_5y5y","excess_ret_21d_vs_sector","days_to_earnings","days_since_earnings","earnings_yield","book_to_market","roa","debt_to_equity","current_ratio","sales_growth_yoy","ret_63d_rank","macd_hist_rank","atr_pct_rank","vol_20d_rank","vol_60d_rank","dist_sma200_rank","dist_52w_high_rank","zscore_20d_rank","zscore_60d_rank","earnings_yield_rank","book_to_market_rank","roa_rank","debt_to_equity_rank","current_ratio_rank","insider_buy_count_60d","insider_sell_count_60d","insider_net_dollar_60d","days_since_last_insider_buy","gics_sector"],"feature_types":["float","float","float","float","float","float","float","float","float","float","float","float","float","float","float","float","float","float","float","float","float","float","float","float","float","float","float","float","float","float","float","float","float","float","float","float","float","float","float","float","float","float","float","float","float","float","c"],"gradient_booster":{"model":{"cats":{"enc":[],"feature_segments":[],"sorted_idx":[]},"gbtree_model_param":{"num_parallel_tree":"1","num_trees":"10"},"iteration_indptr":[0,1,2,3,4,5,6,7,8,9,10],"tree_info":[0,0,0,0,0,0,0,0,0,0],"trees":[{"base_weights":[-2.0390862E-5,6.0445793E-2,-4.646143E-4,6.7459375E-2,-8.559605E-2,4.3759494E-5,-1.4248869E-2,2.3356866E-2,1.0343026E-1,-3.5446502E-2,-1.4902793E-3,-2.6495504E-4,1.3985315E-2,1.168568E-2,-2.5002483E-2,8.6367526E-4,6.475546E-5,2.1892357E-4,5.3207757E-4,3.0594118E-5,-8.4720954E-4,1.1778765E-6,-2.0007583E-5,2.9854232E-4,4.011501E-5,1.7753469E-4,3.6190756E-6,-1.3593075E-4,4.2533666E-5],"categories":[0,3,4,5,6,8,9,10,11],"categories_nodes":[13],"categories_segments":[0],"categories_sizes":[9],"default_left":[0,0,0,0,0,0,0,0,0,1,0,0,0,1,1,0,0,0,0,0,0,0,0,0,0,0,0,0,0],"id":0,"left_children":[1,3,5,7,9,11,13,15,17,19,-1,21,23,25,27,-1,-1,-1,-1,-1,-1,-1,-1,-1,-1,-1,-1,-1,-1],"loss_changes":[1.5431865E1,4.2917404E0,3.9966114E0,6.342451E0,2.607202E0,2.3673637E0,5.6575685E0,2.5896974E0,2.677494E0,1.1579363E0,0E0,1.3293984E0,3.0047274E0,1.9795325E0,3.784194E0,0E0,0E0,0E0,0E0,0E0,0E0,0E0,0E0,0E0,0E0,0E0,0E0,0E0,0E0],"parents":[2147483647,0,0,1,1,2,2,3,3,4,4,5,5,6,6,7,7,8,8,9,9,11,11,12,12,13,13,14,14],"right_children":[2,4,6,8,10,12,14,16,18,20,-1,22,24,26,28,-1,-1,-1,-1,-1,-1,-1,-1,-1,-1,-1,-1,-1,-1],"split_conditions":[-6.728866E-1,9.84326E-1,5.23E0,-4.4816067E-3,1.4E1,9.594272E-1,4.1576087E-1,1.54E0,2.43E0,2.654127E0,-1.4902793E-3,8.855586E-1,-1.7216803E-1,1E-45,7.7E1,8.6367526E-4,6.475546E-5,2.1892357E-4,5.3207757E-4,3.0594118E-5,-8.4720954E-4,1.1778765E-6,-2.0007583E-5,2.9854232E-4,4.011501E-5,1.7753469E-4,3.6190756E-6,-1.3593075E-4,4.2533666E-5],"split_indices":[7,29,17,2,42,32,33,16,16,26,0,29,27,46,21,0,0,0,0,0,0,0,0,0,0,0,0,0,0],"split_type":[0,0,0,0,0,0,0,0,0,0,0,0,0,1,0,0,0,0,0,0,0,0,0,0,0,0,0,0,0],"sum_hessian":[5.74519E5,4.19E3,5.70329E5,3.998E3,1.92E2,5.50043E5,2.0286E4,1.796E3,2.202E3,1.62E2,3E1,5.38127E5,1.1916E4,5.946E3,1.434E4,7.4E1,1.722E3,7E2,1.502E3,1.29E2,3.3E1,4.80064E5,5.8063E4,8.47E2,1.1069E4,1.547E3,4.399E3,1.1819E4,2.521E3],"tree_param":{"num_deleted":"0","num_feature":"47","num_nodes":"29","size_leaf_vector":"1"}},{"base_weights":[2.9981284E-5,6.568073E-2,-4.5304376E-4,5.6158528E-2,1.984471E-1,6.66894E-5,-1.4539967E-2,-1.3342005E-1,6.2406287E-2,9.829641E-6,2.1428542E-1,-1.2496665E-4,1.8246366E-2,-8.1965975E-2,-6.8908473E-3,-1.0313004E-3,8.5137544E-5,-2.3997646E-4,2.8959493E-4,1.0604754E-3,5.802702E-4,4.8061625E-6,-8.649357E-6,1.5321482E-4,-2.7779362E-5,3.5170207E-4,-3.6708763E-4,6.564596E-6,-1.29398E-4],"categories":[3,4,8,9,11,4,8,9],"categories_nodes":[11,14],"categories_segments":[0,5],"categories_sizes":[5,3],"default_left":[0,0,0,0,0,0,0,0,0,0,0,1,0,0,1,0,0,0,0,0,0,0,0,0,0,0,0,0,0],"id":1,"left_children":[1,3,5,7,9,11,13,15,17,-1,19,21,23,25,27,-1,-1,-1,-1,-1,-1,-1,-1,-1,-1,-1,-1,-1,-1],"loss_changes":[1.8230946E1,5.3084583E0,4.178427E0,4.6406727E0,8.727503E-1,1.9177423E0,1.0473327E1,2.1759326E0,3.1098747E0,0E0,7.71719E-1,1.348764E0,2.6284442E0,1.9981813E0,3.7113461E0,0E0,0E0,0E0,0E0,0E0,0E0,0E0,0E0,0E0,0E0,0E0,0E0,0E0,0E0],"parents":[2147483647,0,0,1,1,2,2,3,3,4,4,5,5,6,6,7,7,8,8,10,10,11,11,12,12,13,13,14,14],"right_children":[2,4,6,8,10,12,14,16,18,-1,20,22,24,26,28,-1,-1,-1,-1,-1,-1,-1,-1,-1,-1,-1,-1,-1,-1],"split_conditions":[-6.728866E-1,1.09797254E-1,5.23E0,1.8814147E-1,2.41E0,7.103001E-1,3.934471E-1,9.401732E-1,5.0147492E-2,9.829641E-6,-4.066635E-1,1E-45,3.78E0,-1.9463165E-1,1E-45,-1.0313004E-3,8.5137544E-5,-2.3997646E-4,2.8959493E-4,1.0604754E-3,5.802702E-4,4.8061625E-6,-8.649357E-6,1.5321482E-4,-2.7779362E-5,3.5170207E-4,-3.6708763E-4,6.564596E-6,-1.29398E-4],"split_indices":[7,13,17,25,16,5,5,4,29,0,6,46,17,13,46,0,0,0,0,0,0,0,0,0,0,0,0,0,0],"split_type":[0,0,0,0,0,0,0,0,0,0,0,1,0,0,1,0,0,0,0,0,0,0,0,0,0,0,0,0,0],"sum_hessian":[5.7491E5,4.199E3,5.70711E5,3.918E3,2.81E2,5.50404E5,2.0307E4,1.25E2,3.793E3,2.1E1,2.6E2,5.44662E5,5.742E3,2.069E3,1.8238E4,7.2E1,5.3E1,2.05E2,3.588E3,1.71E2,8.9E1,3.28961E5,2.15701E5,3.302E3,2.44E3,7E1,1.999E3,1.3492E4,4.746E3],"tree_param":{"num_deleted":"0","num_feature":"47","num_nodes":"29","size_leaf_vector":"1"}},{"base_weights":[5.369425E-5,5.2039243E-2,-1.5802837E-4,2.8684111E-2,1.7125915E-1,-4.3917756E-4,1.8343162E-2,1.5665084E-1,1.7942887E-2,1.9643202E-1,-2.9555516E-4,-3.469314E-4,-9.1305636E-2,7.551122E-2,1.375326E-2,1.4975251E-3,5.3379376E-4,1.581245E-3,5.895378E-5,-1.357792E-4,8.8329933E-4,6.6081534E-6,-9.6348895E-6,-6.2640896E-4,-1.21343975E-4,4.273197E-4,3.25753E-5,3.673078E-4,4.167109E-5],"categories":[0,2,3,4,5,6,7,8,9,10,11,2,3,4,8,9,11],"categories_nodes":[3,11],"categories_segments":[0,11],"categories_sizes":[11,6],"default_left":[0,0,0,1,0,0,0,0,0,0,0,1,0,0,0,0,0,0,0,0,0,0,0,0,0,0,0,0,0],"id":2,"left_children":[1,3,5,7,9,11,13,15,17,19,-1,21,23,25,27,-1,-1,-1,-1,-1,-1,-1,-1,-1,-1,-1,-1,-1,-1],"loss_changes":[6.3278995E0,6.4932055E0,2.9783864E0,2.6803079E0,2.3265238E0,4.727662E0,2.2489913E0,8.821771E-1,2.4916036E0,1.1714525E0,0E0,2.1250458E0,2.0838428E0,1.1506574E0,2.226705E0,0E0,0E0,0E0,0E0,0E0,0E0,0E0,0E0,0E0,0E0,0E0,0E0,0E0,0E0],"parents":[2147483647,0,0,1,1,2,2,3,3,4,4,5,5,6,6,7,7,8,8,9,9,11,11,12,12,13,13,14,14],"right_children":[2,4,6,8,10,12,14,16,18,20,-1,22,24,26,28,-1,-1,-1,-1,-1,-1,-1,-1,-1,-1,-1,-1,-1,-1],"split_conditions":[-4.945362E-1,2.388742E0,2.2697778E0,1E-45,9.8876405E-1,1.431114E0,3.967144E1,1.5E1,-2.1304096E-1,1.21951215E-2,-2.9555516E-4,1E-45,2.02E2,6.2E1,3.301887E-2,1.4975251E-3,5.3379376E-4,1.581245E-3,5.895378E-5,-1.357792E-4,8.8329933E-4,6.6081534E-6,-9.6348895E-6,-6.2640896E-4,-1.21343975E-4,4.273197E-4,3.25753E-5,3.673078E-4,4.167109E-5],"split_indices":[1,10,10,46,29,5,14,20,27,29,0,46,45,20,37,0,0,0,0,0,0,0,0,0,0,0,0,0,0],"split_type":[0,0,0,1,0,0,0,0,0,0,0,1,0,0,0,0,0,0,0,0,0,0,0,0,0,0,0,0,0],"sum_hessian":[5.74923E5,2.332E3,5.72591E5,1.95E3,3.82E2,5.6402E5,8.571E3,1.51E2,1.799E3,3.46E2,3.6E1,5.63448E5,5.72E2,6.37E2,7.934E3,1.9E1,1.32E2,1.9E1,1.78E3,2.1E1,3.25E2,2.83894E5,2.79554E5,2.95E2,2.77E2,4.57E2,1.8E2,3.86E2,7.548E3],"tree_param":{"num_deleted":"0","num_feature":"47","num_nodes":"29","size_leaf_vector":"1"}},{"base_weights":[-1.6662041E-5,7.3517054E-2,-3.0975908E-4,8.208873E-2,-9.728467E-2,-6.5793016E-4,1.5109087E-2,8.565822E-2,-6.54898E-4,-1.4707364E-1,4.1651336E-4,6.6390424E-4,-3.093459E-3,4.165441E-2,4.928621E-3,3.055755E-4,7.848647E-4,-8.059332E-4,6.8186295E-5,1.1958324E-4,2.0496009E-6,-1.643775E-4,-1.1014614E-5,2.2572803E-4,-8.423394E-6,1.3328067E-6,2.4454205E-4],"categories":[3,4,9,11,2,4,8,9,10],"categories_nodes":[5,13],"categories_segments":[0,4],"categories_sizes":[4,5],"default_left":[0,1,0,0,0,1,0,0,0,0,0,0,0,1,0,0,0,0,0,0,0,0,0,0,0,0,0],"id":3,"left_children":[1,3,5,7,9,11,13,15,-1,17,-1,19,21,23,25,-1,-1,-1,-1,-1,-1,-1,-1,-1,-1,-1,-1],"loss_changes":[1.2383018E1,3.3395472E0,3.0721722E0,1.8506298E0,1.0685774E0,1.8016634E0,3.4150705E0,2.7479668E0,0E0,6.48883E-1,0E0,1.7608649E0,3.2764182E0,1.8851862E0,2.2547636E0,0E0,0E0,0E0,0E0,0E0,0E0,0E0,0E0,0E0,0E0,0E0,0E0],"parents":[2147483647,0,0,1,1,2,2,3,3,4,4,5,5,6,6,7,7,9,9,11,11,12,12,13,13,14,14],"right_children":[2,4,6,8,10,12,14,16,-1,18,-1,20,22,24,26,-1,-1,-1,-1,-1,-1,-1,-1,-1,-1,-1,-1],"split_conditions":[-5.409684E-1,8.015267E-1,9.594272E-1,4.0880847E-1,1.5370591E-1,1E-45,3.0294595E-2,5.4228004E1,-6.54898E-4,2.3305082E0,4.1651336E-4,-4.066635E-1,1.35E0,1E-45,2.8795075E0,3.055755E-4,7.848647E-4,-8.059332E-4,6.8186295E-5,1.1958324E-4,2.0496009E-6,-1.643775E-4,-1.1014614E-5,2.2572803E-4,-8.423394E-6,1.3328067E-6,2.4454205E-4],"split_indices":[6,41,32,1,22,46,24,14,0,23,0,6,18,46,10,0,0,0,0,0,0,0,0,0,0,0,0],"split_type":[0,0,0,0,0,1,0,0,0,0,0,0,0,1,0,0,0,0,0,0,0,0,0,0,0,0,0],"sum_hessian":[5.74551E5,2.281E3,5.7227E5,2.172E3,1.09E2,5.59633E5,1.2637E4,2.14E3,3.2E1,8.7E1,2.2E1,3.62755E5,1.96878E5,3.503E3,9.134E3,1.905E3,2.35E2,6.8E1,1.9E1,2.243E3,3.60512E5,2.467E3,1.94411E5,2.732E3,7.71E2,8.41E3,7.24E2],"tree_param":{"num_deleted":"0","num_feature":"47","num_nodes":"27","size_leaf_vector":"1"}},{"base_weights":[-1.403119E-5,6.2403776E-2,-4.6986993E-4,4.8035264E-2,1.373982E-1,2.5226518E-5,-1.3927903E-2,-1.3523103E-1,5.4099154E-2,-1.4029985E-2,1.5229277E-1,6.985025E-4,-3.7013683E-3,7.130462E-3,-2.6514396E-2,-1.0535523E-3,1.8874898E-4,3.955184E-4,1.3786148E-4,-4.909585E-4,4.696755E-4,4.988455E-4,9.970011E-4,4.13199E-5,1.1403266E-6,-2.814918E-5,-5.69355E-6,5.6920435E-5,-7.83929E-5,2.2044303E-4,-1.3323505E-4],"categories":[],"categories_nodes":[],"categories_segments":[],"categories_sizes":[],"default_left":[0,0,0,0,0,0,0,0,0,0,0,0,1,0,0,0,0,0,0,0,0,0,0,0,0,0,0,0,0,0,0],"id":4,"left_children":[1,3,5,7,9,11,13,15,17,19,21,23,25,27,29,-1,-1,-1,-1,-1,-1,-1,-1,-1,-1,-1,-1,-1,-1,-1,-1],"loss_changes":[1.6353132E1,4.4901695E0,3.8018284E0,3.8862648E0,1.5111713E0,1.380818E0,5.3662233E0,2.357654E0,2.8957233E0,7.8371286E-1,1.7337189E0,1.8225422E0,5.9704685E-1,1.2701801E0,5.367326E0,0E0,0E0,0E0,0E0,0E0,0E0,0E0,0E0,0E0,0E0,0E0,0E0,0E0,0E0,0E0,0E0],"parents":[2147483647,0,0,1,1,2,2,3,3,4,4,5,5,6,6,7,7,8,8,9,9,10,10,11,11,12,12,13,13,14,14],"right_children":[2,4,6,8,10,12,14,16,18,20,22,24,26,28,30,-1,-1,-1,-1,-1,-1,-1,-1,-1,-1,-1,-1,-1,-1,-1,-1],"split_conditions":[-6.728866E-1,6.428352E-2,5.23E0,1.8814147E-1,5.0758667E1,8.428571E-1,4.827586E-1,9.401732E-1,3.9986813E1,1.1232877E-1,1.3511412E-1,-3.5340002E-1,1.3100437E-2,7.8236914E-1,-1.9463165E-1,-1.0535523E-3,1.8874898E-4,3.955184E-4,1.3786148E-4,-4.909585E-4,4.696755E-4,4.988455E-4,9.970011E-4,4.13199E-5,1.1403266E-6,-2.814918E-5,-5.69355E-6,5.6920435E-5,-7.83929E-5,2.2044303E-4,-1.3323505E-4],"split_indices":[7,13,17,25,14,29,33,4,14,28,13,7,41,30,13,0,0,0,0,0,0,0,0,0,0,0,0,0,0,0,0],"split_type":[0,0,0,0,0,0,0,0,0,0,0,0,0,0,0,0,0,0,0,0,0,0,0,0,0,0,0,0,0,0,0],"sum_hessian":[5.74753E5,4.167E3,5.70586E5,3.497E3,6.7E2,5.5034E5,2.0246E4,1.12E2,3.385E3,6E1,6.1E2,4.66126E5,8.4214E4,7.574E3,1.2672E4,6.8E1,4.4E1,1.161E3,2.224E3,3.3E1,2.7E1,4.41E2,1.69E2,2.0658E4,4.45468E5,3.6696E4,4.7518E4,6.057E3,1.517E3,8.01E2,1.1871E4],"tree_param":{"num_deleted":"0","num_feature":"47","num_nodes":"31","size_leaf_vector":"1"}},{"base_weights":[-6.0390816E-5,-6.991486E-4,1.2953717E-2,-2.3591463E-4,-2.7061032E-2,3.9841976E-2,3.8682125E-3,-4.4404605E-4,1.8931761E-2,-7.372671E-2,-1.1776685E-2,1.9408809E-2,8.693868E-2,2.0186964E-2,-1.1875711E-2,-7.2291886E-7,-7.50277E-5,2.0351766E-4,5.8605197E-6,3.5523737E-4,-3.2884796E-4,2.669266E-4,-7.734092E-5,1.22743495E-5,2.6556695E-4,2.4083242E-4,7.368263E-4,1.5268139E-4,3.6993664E-5,1.0367755E-4,-9.0442794E-5],"categories":[4,6,8,9,10],"categories_nodes":[6],"categories_segments":[0],"categories_sizes":[5],"default_left":[0,0,0,0,0,0,1,0,0,0,0,1,0,0,0,0,0,0,0,0,0,0,0,0,0,0,0,0,0,0,0],"id":5,"left_children":[1,3,5,7,9,11,13,15,17,19,21,23,25,27,29,-1,-1,-1,-1,-1,-1,-1,-1,-1,-1,-1,-1,-1,-1,-1,-1],"loss_changes":[4.7733703E0,6.6840854E0,6.562943E0,2.1458879E0,6.741679E0,6.529438E0,5.1589794E0,2.524815E0,3.011896E0,1.8170385E0,3.6163235E0,3.4374335E0,5.3780107E0,1.825295E0,3.6544685E0,0E0,0E0,0E0,0E0,0E0,0E0,0E0,0E0,0E0,0E0,0E0,0E0,0E0,0E0,0E0,0E0],"parents":[2147483647,0,0,1,1,2,2,3,3,4,4,5,5,6,6,7,7,8,8,9,9,10,10,11,11,12,12,13,13,14,14],"right_children":[2,4,6,8,10,12,14,16,18,20,22,24,26,28,30,-1,-1,-1,-1,-1,-1,-1,-1,-1,-1,-1,-1,-1,-1,-1,-1],"split_conditions":[6.082681E-1,5.08E0,1.2887828E-1,3.78E0,3.934471E-1,5.23E0,1E-45,3.53E0,3.609832E-1,-1.9463165E-1,-1.9463165E-1,6.5E1,5.4228004E1,2.53E0,3.78E0,-7.2291886E-7,-7.50277E-5,2.0351766E-4,5.8605197E-6,3.5523737E-4,-3.2884796E-4,2.669266E-4,-7.734092E-5,1.22743495E-5,2.6556695E-4,2.4083242E-4,7.368263E-4,1.5268139E-4,3.6993664E-5,1.0367755E-4,-9.0442794E-5],"split_indices":[5,17,33,17,5,17,46,17,5,13,13,21,14,16,17,0,0,0,0,0,0,0,0,0,0,0,0,0,0,0,0],"split_type":[0,0,0,0,0,0,1,0,0,0,0,0,0,0,0,0,0,0,0,0,0,0,0,0,0,0,0,0,0,0,0],"sum_hessian":[5.74215E5,5.4735E5,2.6865E4,5.37898E5,9.452E3,6.785E3,2.008E4,5.3212E5,5.778E3,2.332E3,7.12E3,4.732E3,2.053E3,9.86E3,1.022E4,5.23999E5,8.121E3,2.143E3,3.635E3,7E1,2.262E3,5.81E2,6.539E3,3.445E3,1.287E3,1.545E3,5.08E2,4.042E3,5.818E3,2.147E3,8.073E3],"tree_param":{"num_deleted":"0","num_feature":"47","num_nodes":"31","size_leaf_vector":"1"}},{"base_weights":[4.7608373E-5,6.1952394E-2,-4.088227E-4,-1.21490195E-1,6.743107E-2,1.1471361E-4,-1.4524981E-2,-2.4188402E-1,2.5177179E-2,3.2891E-2,9.182834E-2,4.382856E-2,5.344847E-5,1.4281051E-2,-2.4186691E-2,-8.572448E-4,-1.4010478E-3,-1.8608054E-4,5.422999E-4,-2.6828106E-5,2.508486E-4,4.186067E-4,-4.0139517E-4,8.892846E-4,1.3109311E-4,-9.211095E-7,3.389036E-5,8.3691644E-5,-1.6299276E-4,-1.3485854E-4,9.763982E-6],"categories":[],"categories_nodes":[],"categories_segments":[],"categories_sizes":[],"default_left":[0,0,0,0,0,0,0,0,0,0,0,0,1,0,0,0,0,0,0,0,0,0,0,0,0,0,0,0,0,0,0],"id":6,"left_children":[1,3,5,7,9,11,13,15,17,19,21,23,25,27,29,-1,-1,-1,-1,-1,-1,-1,-1,-1,-1,-1,-1,-1,-1,-1,-1],"loss_changes":[1.624096E1,4.228157E0,4.216821E0,2.154337E0,3.4423542E0,1.4734616E0,5.6790314E0,2.3001814E-1,4.0050775E-1,1.8008806E0,3.7196922E0,1.6223761E0,1.210677E0,1.5645387E0,3.2670937E0,0E0,0E0,0E0,0E0,0E0,0E0,0E0,0E0,0E0,0E0,0E0,0E0,0E0,0E0,0E0,0E0],"parents":[2147483647,0,0,1,1,2,2,3,3,4,4,5,5,6,6,7,7,8,8,9,9,10,10,11,11,12,12,13,13,14,14],"right_children":[2,4,6,8,10,12,14,16,18,20,22,24,26,28,30,-1,-1,-1,-1,-1,-1,-1,-1,-1,-1,-1,-1,-1,-1,-1,-1],"split_conditions":[-6.728866E-1,1.8814147E-1,5.23E0,9.401732E-1,-9.882807E-3,-2.856701E-1,3.8819876E-1,-1.7520837E-1,4.8E1,2E-1,9.3891585E-1,1.0928961E-2,9.249012E-1,1.3218893E-1,2.22E0,-8.572448E-4,-1.4010478E-3,-1.8608054E-4,5.422999E-4,-2.6828106E-5,2.508486E-4,4.186067E-4,-4.0139517E-4,8.892846E-4,1.3109311E-4,-9.211095E-7,3.389036E-5,8.3691644E-5,-1.6299276E-4,-1.3485854E-4,9.763982E-6],"split_indices":[7,25,17,4,2,22,34,1,21,36,2,34,38,3,18,0,0,0,0,0,0,0,0,0,0,0,0,0,0,0,0],"split_type":[0,0,0,0,0,0,0,0,0,0,0,0,0,0,0,0,0,0,0,0,0,0,0,0,0,0,0,0,0,0,0],"sum_hessian":[5.74794E5,4.207E3,5.70587E5,1.22E2,4.085E3,5.50182E5,2.0405E4,6.7E1,5.5E1,1.691E3,2.394E3,7.7E2,5.49412E5,5.125E3,1.528E4,4.8E1,1.9E1,3.3E1,2.2E1,6.9E2,1.001E3,2.293E3,1.01E2,5.3E1,7.17E2,5.31347E5,1.8065E4,4.627E3,4.98E2,1.1718E4,3.562E3],"tree_param":{"num_deleted":"0","num_feature":"47","num_nodes":"31","size_leaf_vector":"1"}},{"base_weights":[1.4248709E-5,6.194789E-2,-4.370707E-4,5.3564567E-2,1.8824568E-1,4.174041E-5,-8.738092E-3,6.106161E-2,-8.743179E-2,-1.9017822E-4,2.1211556E-1,1.4836153E-2,-1.4200967E-4,2.1571617E-3,-2.1157721E-2,-2.8249825E-4,2.8979577E-4,-5.4581685E-4,7.218923E-4,7.3963596E-4,1.2724751E-3,3.931977E-4,4.3565495E-5,1.5303531E-6,-1.7771712E-5,5.194608E-6,5.1704014E-4,-6.592822E-5,-4.0703587E-4],"categories":[],"categories_nodes":[],"categories_segments":[],"categories_sizes":[],"default_left":[0,0,0,0,0,0,0,0,1,0,1,0,0,0,0,0,0,0,0,0,0,0,0,0,0,0,0,0,0],"id":7,"left_children":[1,3,5,7,9,11,13,15,17,-1,19,21,23,25,27,-1,-1,-1,-1,-1,-1,-1,-1,-1,-1,-1,-1,-1,-1],"loss_changes":[1.6076984E1,4.4056168E0,2.2695324E0,4.124653E0,1.4449949E0,1.4676119E0,4.213711E0,3.9251318E0,2.2076178E0,0E0,7.632828E-1,2.3172917E0,1.1126481E0,1.8438175E0,5.9775267E0,0E0,0E0,0E0,0E0,0E0,0E0,0E0,0E0,0E0,0E0,0E0,0E0,0E0,0E0],"parents":[2147483647,0,0,1,1,2,2,3,3,4,4,5,5,6,6,7,7,8,8,10,10,11,11,12,12,13,13,14,14],"right_children":[2,4,6,8,10,12,14,16,18,-1,20,22,24,26,28,-1,-1,-1,-1,-1,-1,-1,-1,-1,-1,-1,-1,-1,-1],"split_conditions":[-6.728866E-1,1.09797254E-1,3.602E1,9.802817E-1,2.41E0,-4.8459974E-1,6.1942255E-1,4.232804E-2,3.63E2,-1.9017822E-4,2.17E2,-1.7216803E-1,8.855586E-1,2.8795075E0,1.09797254E-1,-2.8249825E-4,2.8979577E-4,-5.4581685E-4,7.218923E-4,7.3963596E-4,1.2724751E-3,3.931977E-4,4.3565495E-5,1.5303531E-6,-1.7771712E-5,5.194608E-6,5.1704014E-4,-6.592822E-5,-4.0703587E-4],"split_indices":[7,13,15,29,16,7,34,29,45,0,45,27,29,10,13,0,0,0,0,0,0,0,0,0,0,0,0,0,0],"split_type":[0,0,0,0,0,0,0,0,0,0,0,0,0,0,0,0,0,0,0,0,0,0,0,0,0,0,0,0,0],"sum_hessian":[5.75167E5,4.161E3,5.71006E5,3.902E3,2.59E2,5.39866E5,3.114E4,3.705E3,1.97E2,2.4E1,2.35E2,6.623E3,5.33243E5,1.6588E4,1.4552E4,2.23E2,3.482E3,1.69E2,2.8E1,1.7E2,6.5E1,3.5E2,6.273E3,4.74559E5,5.8684E4,1.6464E4,1.24E2,1.359E4,9.62E2],"tree_param":{"num_deleted":"0","num_feature":"47","num_nodes":"29","size_leaf_vector":"1"}},{"base_weights":[1.3341774E-5,6.0090285E-2,-4.2704036E-4,-1.2724032E-1,6.6243745E-2,1.0508684E-4,-1.4832832E-2,-9.126225E-2,-1.3343333E-3,-1.0148373E-1,7.229541E-2,1.4050719E-2,-9.595959E-5,9.439845E-4,-3.2299373E-2,9.8638666E-5,-7.689531E-4,-5.79209E-4,5.1221525E-4,2.687345E-4,7.6041964E-4,7.007229E-5,-4.2692933E-4,4.9086957E-6,-8.461962E-6,1.9720233E-4,-2.3500843E-5,2.8727503E-4,-1.6388524E-4],"categories":[3,4,8,9,11,0,3,4,5,6,7,8,9,10,11],"categories_nodes":[12,13],"categories_segments":[0,5],"categories_sizes":[5,10],"default_left":[0,0,0,0,0,0,0,0,0,1,0,1,1,1,0,0,0,0,0,0,0,0,0,0,0,0,0,0,0],"id":8,"left_children":[1,3,5,7,9,11,13,15,-1,17,19,21,23,25,27,-1,-1,-1,-1,-1,-1,-1,-1,-1,-1,-1,-1,-1,-1],"loss_changes":[1.5204493E1,4.820758E0,4.3733582E0,9.1788554E-1,4.1098843E0,1.5425673E0,5.6003366E0,1.1913967E0,0E0,1.1692313E0,3.4389038E0,2.4570155E0,1.3274657E0,3.2389433E0,6.7119284E0,0E0,0E0,0E0,0E0,0E0,0E0,0E0,0E0,0E0,0E0,0E0,0E0,0E0,0E0],"parents":[2147483647,0,0,1,1,2,2,3,3,4,4,5,5,6,6,7,7,9,9,10,10,11,11,12,12,13,13,14,14],"right_children":[2,4,6,8,10,12,14,16,-1,18,20,22,24,26,28,-1,-1,-1,-1,-1,-1,-1,-1,-1,-1,-1,-1,-1,-1],"split_conditions":[-6.728866E-1,1.6491228E-1,5.23E0,8.6E1,2.972973E-2,-4.8459974E-1,6.26943E-1,1.3173653E-1,-1.3343333E-3,3.29E2,1.09797254E-1,8.263889E-1,1E-45,1E-45,-1.9463165E-1,9.8638666E-5,-7.689531E-4,-5.79209E-4,5.1221525E-4,2.687345E-4,7.6041964E-4,7.007229E-5,-4.2692933E-4,4.9086957E-6,-8.461962E-6,1.9720233E-4,-2.3500843E-5,2.8727503E-4,-1.6388524E-4],"split_indices":[7,40,17,21,29,7,34,40,0,45,13,39,46,46,13,0,0,0,0,0,0,0,0,0,0,0,0,0,0],"split_type":[0,0,0,0,0,0,0,0,0,0,0,0,1,1,0,0,0,0,0,0,0,0,0,0,0,0,0,0,0],"sum_hessian":[5.74691E5,4.182E3,5.70509E5,1.33E2,4.049E3,5.50186E5,2.0323E4,1.12E2,2.1E1,1.41E2,3.908E3,7.819E3,5.42367E5,1.0678E4,9.645E3,5E1,6.2E1,1.21E2,2E1,3.641E3,2.67E2,7.641E3,1.78E2,3.26973E5,2.15394E5,1.328E3,9.35E3,6.16E2,9.029E3],"tree_param":{"num_deleted":"0","num_feature":"47","num_nodes":"29","size_leaf_vector":"1"}},{"base_weights":[7.020273E-6,4.903457E-2,-3.7718337E-4,-9.617882E-2,5.7023946E-2,4.7845323E-2,-4.4587415E-4,8.8032484E-2,-1.414936E-1,5.172444E-2,2.0439614E-1,-2.421217E-2,9.2899166E-2,1.0718909E-3,-2.3081547E-3,6.685444E-4,9.270996E-5,-7.1306917E-4,4.8136216E-4,1.9989873E-4,9.2096004E-4,-1.04156206E-4,1.0512467E-3,2.8800627E-4,-2.8486515E-4,2.7084045E-4,7.5600285E-4,2.8125837E-6,4.6093013E-5,-8.704788E-6,-1.2264849E-4],"categories":[2,3,4,9,11,1,6,11],"categories_nodes":[6,11],"categories_segments":[0,5],"categories_sizes":[5,3],"default_left":[0,0,0,0,0,0,1,0,0,1,0,1,0,0,0,0,0,0,0,0,0,0,0,0,0,0,0,0,0,0,0],"id":9,"left_children":[1,3,5,7,9,11,13,15,17,19,21,23,25,27,29,-1,-1,-1,-1,-1,-1,-1,-1,-1,-1,-1,-1,-1,-1,-1,-1],"loss_changes":[1.0823903E1,5.1836376E0,1.8886018E0,1.9450359E0,3.3075008E0,2.6329038E0,1.6092505E0,2.1764487E-1,1.3927009E0,2.7021685E0,1.5838966E0,1.275183E0,1.2337184E0,1.2463888E0,1.5652486E0,0E0,0E0,0E0,0E0,0E0,0E0,0E0,0E0,0E0,0E0,0E0,0E0,0E0,0E0,0E0,0E0],"parents":[2147483647,0,0,1,1,2,2,3,3,4,4,5,5,6,6,7,7,8,8,9,9,10,10,11,11,12,12,13,13,14,14],"right_children":[2,4,6,8,10,12,14,16,18,20,22,24,26,28,30,-1,-1,-1,-1,-1,-1,-1,-1,-1,-1,-1,-1,-1,-1,-1,-1],"split_conditions":[-4.574007E-1,2.3305082E0,-2.856701E-1,1.76E0,1.09797254E-1,4.864159E-1,1E-45,7.407407E-1,1.0234331E0,4.9847096E-1,2.41E0,1E-45,2.88E2,6.082681E-1,1.1654495E0,6.685444E-4,9.270996E-5,-7.1306917E-4,4.8136216E-4,1.9989873E-4,9.2096004E-4,-1.04156206E-4,1.0512467E-3,2.8800627E-4,-2.8486515E-4,2.7084045E-4,7.5600285E-4,2.8125837E-6,4.6093013E-5,-8.704788E-6,-1.2264849E-4],"split_indices":[6,23,22,16,13,5,46,41,5,41,16,46,45,5,5,0,0,0,0,0,0,0,0,0,0,0,0,0,0,0,0],"split_type":[0,0,0,0,0,0,1,0,0,0,0,1,0,0,0,0,0,0,0,0,0,0,0,0,0,0,0,0,0,0,0],"sum_hessian":[5.74622E5,4.468E3,5.70154E5,2.33E2,4.235E3,8.11E2,5.69343E5,4.6E1,1.87E2,4.088E3,1.47E2,3.12E2,4.99E2,3.13687E5,2.55656E5,2.2E1,2.4E1,1.68E2,1.9E1,3.995E3,9.3E1,2.5E1,1.22E2,1E2,2.12E2,3.78E2,1.21E2,3.01584E5,1.2103E4,2.5353E5,2.126E3],"tree_param":{"num_deleted":"0","num_feature":"47","num_nodes":"31","size_leaf_vector":"1"}}]},"name":"gbtree"},"learner_model_param":{"base_score":"[1.3351334E-3]","boost_from_average":"1","num_class":"0","num_feature":"47","num_target":"1"},"objective":{"name":"reg:squarederror","reg_loss_param":{"scale_pos_weight":"1"}}},"version":[3,2,0]}