{"learner":{"attributes":{"best_iteration":"43","best_score":"0.019258","scikit_learn":"{\"_estimator_type\": \"regressor\"}"},"feature_names":["ret_21d","ret_63d","macd_hist","atr_pct","vol_20d","vol_60d","dist_sma200","dist_52w_high","zscore_20d","zscore_60d","beta_60d","excess_ret_5d","excess_ret_21d","spy_ret_21d","spy_rsi_14","vix_level","excess_ret_21d_vs_sector","days_to_earnings","days_since_earnings","earnings_yield","book_to_market","roa","debt_to_equity","current_ratio","sales_growth_yoy","ret_63d_rank","macd_hist_rank","atr_pct_rank","vol_20d_rank","vol_60d_rank","dist_sma200_rank","dist_52w_high_rank","zscore_20d_rank","zscore_60d_rank","earnings_yield_rank","book_to_market_rank","roa_rank","debt_to_equity_rank","current_ratio_rank","gics_sector"],"feature_types":["float","float","float","float","float","float","float","float","float","float","float","float","float","float","float","float","float","float","float","float","float","float","float","float","float","float","float","float","float","float","float","float","float","float","float","float","float","float","float","c"],"gradient_booster":{"model":{"cats":{"enc":[],"feature_segments":[],"sorted_idx":[]},"gbtree_model_param":{"num_parallel_tree":"1","num_trees":"44"},"iteration_indptr":[0,1,2,3,4,5,6,7,8,9,10,11,12,13,14,15,16,17,18,19,20,21,22,23,24,25,26,27,28,29,30,31,32,33,34,35,36,37,38,39,40,41,42,43,44],"tree_info":[0,0,0,0,0,0,0,0,0,0,0,0,0,0,0,0,0,0,0,0,0,0,0,0,0,0,0,0,0,0,0,0,0,0,0,0,0,0,0,0,0,0,0,0],"trees":[{"base_weights":[-6.6378605E-5,6.583266E-2,-5.5464223E-4,-1.08871594E-1,7.174731E-2,-4.7334007E-4,-4.8410833E-2,-1.2072512E-3,5.7052453E-5,2.1762434E-4,6.0478074E-4,9.4071496E-5,-4.398854E-6,-4.998799E-4,1.9411117E-4],"categories":[],"categories_nodes":[],"categories_segments":[],"categories_sizes":[],"default_left":[0,0,0,0,0,0,0,0,0,0,0,0,0,0,0],"id":0,"left_children":[1,3,5,7,9,11,13,-1,-1,-1,-1,-1,-1,-1,-1],"loss_changes":[2.0311216E1,4.810772E0,2.4379773E0,1.8305938E0,5.066023E0,3.052545E0,3.3537133E0,0E0,0E0,0E0,0E0,0E0,0E0,0E0,0E0],"parents":[2147483647,0,0,1,1,2,2,3,3,4,4,5,5,6,6],"right_children":[2,4,6,8,10,12,14,-1,-1,-1,-1,-1,-1,-1,-1],"split_conditions":[-6.728866E-1,2.3791821E-1,1.431114E0,9.401732E-1,1.0801761E-2,-5.2258974E-1,2.8795075E0,-1.2072512E-3,5.7052453E-5,2.1762434E-4,6.0478074E-4,9.4071496E-5,-4.398854E-6,-4.998799E-4,1.9411117E-4],"split_indices":[7,37,5,4,2,7,10,0,0,0,0,0,0,0,0],"split_type":[0,0,0,0,0,0,0,0,0,0,0,0,0,0,0],"sum_hessian":[6.31248E5,4.641E3,6.26607E5,1.51E2,4.49E3,6.25546E5,1.061E3,8.1E1,7E1,2.223E3,2.267E3,1.0623E4,6.14923E5,7.23E2,3.38E2],"tree_param":{"num_deleted":"0","num_feature":"40","num_nodes":"15","size_leaf_vector":"1"}},{"base_weights":[5.0949253E-5,7.200528E-2,-2.2659157E-4,8.4053464E-2,-1.01221286E-1,-5.5997504E-4,1.4559859E-2,6.742445E-4,1.2452216E-4,-1.1013865E-3,-1.3084813E-4,1.3209564E-4,-4.124334E-6,2.3074348E-4,2.5913132E-5],"categories":[],"categories_nodes":[],"categories_segments":[],"categories_sizes":[],"default_left":[0,0,0,1,0,0,0,0,0,0,0,0,0,0,0],"id":1,"left_children":[1,3,5,7,9,11,13,-1,-1,-1,-1,-1,-1,-1,-1],"loss_changes":[1.2622987E1,5.0834665E0,3.1039634E0,4.6769276E0,1.1138735E0,2.257889E0,3.561706E0,0E0,0E0,0E0,0E0,0E0,0E0,0E0,0E0],"parents":[2147483647,0,0,1,1,2,2,3,3,4,4,5,5,6,6],"right_children":[2,4,6,8,10,12,14,-1,-1,-1,-1,-1,-1,-1,-1],"split_conditions":[-5.409684E-1,9.802817E-1,9.594272E-1,6.5E1,3.0819672E-1,-4.066635E-1,3.125E-1,6.742445E-4,1.2452216E-4,-1.1013865E-3,-1.3084813E-4,1.3209564E-4,-4.124334E-6,2.3074348E-4,2.5913132E-5],"split_indices":[6,26,29,18,33,6,36,0,0,0,0,0,0,0,0],"split_type":[0,0,0,0,0,0,0,0,0,0,0,0,0,0,0],"sum_hessian":[6.32086E5,2.427E3,6.29659E5,2.27E3,1.57E2,6.15777E5,1.3882E4,1.484E3,7.86E2,7.2E1,8.5E1,4.062E3,6.11715E5,3.926E3,9.956E3],"tree_param":{"num_deleted":"0","num_feature":"40","num_nodes":"15","size_leaf_vector":"1"}},{"base_weights":[2.560552E-5,6.1295044E-2,-4.2644612E-4,5.2638926E-2,1.8174249E-1,5.2468156E-5,-8.745178E-3,-6.7343016E-4,3.3544243E-4,1.2563848E-3,5.004711E-4,-1.5605096E-6,7.1277595E-5,6.536606E-5,-9.2853545E-5],"categories":[],"categories_nodes":[],"categories_segments":[],"categories_sizes":[],"default_left":[0,0,0,0,0,0,0,0,0,0,0,0,0,0,0],"id":2,"left_children":[1,3,5,7,9,11,13,-1,-1,-1,-1,-1,-1,-1,-1],"loss_changes":[1.7507917E1,4.8105793E0,2.4999142E0,4.114362E0,1.0364017E0,2.364459E0,5.0627213E0,0E0,0E0,0E0,0E0,0E0,0E0,0E0,0E0],"parents":[2147483647,0,0,1,1,2,2,3,3,4,4,5,5,6,6],"right_children":[2,4,6,8,10,12,14,-1,-1,-1,-1,-1,-1,-1,-1],"split_conditions":[-6.728866E-1,1.09797254E-1,3.602E1,1.8814147E-1,5.2380955E-1,9.538905E-1,3.8439307E-1,-6.7343016E-4,3.3544243E-4,1.2563848E-3,5.004711E-4,-1.5605096E-6,7.1277595E-5,6.536606E-5,-9.2853545E-5],"split_indices":[7,13,15,22,33,29,31,0,0,0,0,0,0,0,0],"split_type":[0,0,0,0,0,0,0,0,0,0,0,0,0,0,0],"sum_hessian":[6.32121E5,4.628E3,6.27493E5,4.32E3,3.08E2,5.93336E5,3.4157E4,1.37E2,4.183E3,2.21E2,8.7E1,5.78164E5,1.5172E4,9.171E3,2.4986E4],"tree_param":{"num_deleted":"0","num_feature":"40","num_nodes":"15","size_leaf_vector":"1"}},{"base_weights":[-3.4885707E-5,6.2168766E-2,-4.8371244E-4,-1.2047078E-1,6.7744344E-2,7.73701E-6,-8.992748E-3,-1.3348414E-3,7.8430894E-5,3.4315887E-4,1.0377453E-3,-1.1264077E-6,1.3366042E-4,3.6464142E-5,-1.0559355E-4],"categories":[],"categories_nodes":[],"categories_segments":[],"categories_sizes":[],"default_left":[0,0,0,0,0,0,0,0,0,0,0,0,0,0,0],"id":3,"left_children":[1,3,5,7,9,11,13,-1,-1,-1,-1,-1,-1,-1,-1],"loss_changes":[1.7641567E1,4.6236362E0,2.6234894E0,2.0154605E0,4.0156937E0,2.797145E0,4.902841E0,0E0,0E0,0E0,0E0,0E0,0E0,0E0,0E0],"parents":[2147483647,0,0,1,1,2,2,3,3,4,4,5,5,6,6],"right_children":[2,4,6,8,10,12,14,-1,-1,-1,-1,-1,-1,-1,-1],"split_conditions":[-6.728866E-1,1.6491228E-1,3.602E1,9.401732E-1,1.09797254E-1,7.103001E-1,4.7164178E-1,-1.3348414E-3,7.8430894E-5,3.4315887E-4,1.0377453E-3,-1.1264077E-6,1.3366042E-4,3.6464142E-5,-1.0559355E-4],"split_indices":[7,37,15,4,13,5,30,0,0,0,0,0,0,0,0],"split_type":[0,0,0,0,0,0,0,0,0,0,0,0,0,0,0],"sum_hessian":[6.31888E5,4.525E3,6.27363E5,1.33E2,4.392E3,5.93109E5,3.4254E4,7.2E1,6.1E1,4.097E3,2.95E2,5.87958E5,5.151E3,1.2972E4,2.1282E4],"tree_param":{"num_deleted":"0","num_feature":"40","num_nodes":"15","size_leaf_vector":"1"}},{"base_weights":[-4.4786997E-5,6.2858075E-2,-5.0849933E-4,-1.2412874E-1,6.835887E-2,-2.4839446E-5,-8.8690035E-3,-1.2763859E-3,5.250858E-5,3.5129391E-4,9.918025E-4,-1.2151751E-6,1.2155116E-4,5.8547143E-5,-9.124788E-5],"categories":[],"categories_nodes":[],"categories_segments":[],"categories_sizes":[],"default_left":[0,0,0,0,0,0,0,0,0,0,0,0,0,0,0],"id":4,"left_children":[1,3,5,7,9,11,13,-1,-1,-1,-1,-1,-1,-1,-1],"loss_changes":[1.8425854E1,4.769354E0,2.5356603E0,1.7270799E0,3.4188251E0,2.3311865E0,4.551649E0,0E0,0E0,0E0,0E0,0E0,0E0,0E0,0E0],"parents":[2147483647,0,0,1,1,2,2,3,3,4,4,5,5,6,6],"right_children":[2,4,6,8,10,12,14,-1,-1,-1,-1,-1,-1,-1,-1],"split_conditions":[-6.728866E-1,1.8814147E-1,3.602E1,9.401732E-1,1.09797254E-1,7.103001E-1,3.8439307E-1,-1.2763859E-3,5.250858E-5,3.5129391E-4,9.918025E-4,-1.2151751E-6,1.2155116E-4,5.8547143E-5,-9.124788E-5],"split_indices":[7,22,15,4,13,5,31,0,0,0,0,0,0,0,0],"split_type":[0,0,0,0,0,0,0,0,0,0,0,0,0,0,0],"sum_hessian":[6.31693E5,4.621E3,6.27072E5,1.31E2,4.49E3,5.92781E5,3.4291E4,7.5E1,5.6E1,4.195E3,2.95E2,5.87606E5,5.175E3,9.194E3,2.5097E4],"tree_param":{"num_deleted":"0","num_feature":"40","num_nodes":"15","size_leaf_vector":"1"}},{"base_weights":[-4.4703917E-5,6.1851244E-2,-4.952826E-4,5.5356853E-2,2.0038232E-1,9.964373E-4,-2.7575847E-3,3.596261E-4,-4.2072005E-4,-5.453895E-4,1.2375346E-3,1.0041417E-4,3.503928E-6,-1.3393103E-4,-1.3352421E-5],"categories":[3,4,8,9,11],"categories_nodes":[2],"categories_segments":[0],"categories_sizes":[5],"default_left":[0,0,1,0,0,0,0,0,0,0,0,0,0,0,0],"id":5,"left_children":[1,3,5,7,9,11,13,-1,-1,-1,-1,-1,-1,-1,-1],"loss_changes":[1.7611357E1,4.086851E0,2.1156735E0,3.9726877E0,9.047737E-1,2.4100752E0,2.2433343E0,0E0,0E0,0E0,0E0,0E0,0E0,0E0,0E0],"parents":[2147483647,0,0,1,1,2,2,3,3,4,4,5,5,6,6],"right_children":[2,4,6,8,10,12,14,-1,-1,-1,-1,-1,-1,-1,-1],"split_conditions":[-6.728866E-1,1.3511412E-1,1E-45,9.802817E-1,-9.3847376E-1,-4.8459974E-1,-1.2025479E-1,3.596261E-4,-4.2072005E-4,-5.453895E-4,1.2375346E-3,1.0041417E-4,3.503928E-6,-1.3393103E-4,-1.3352421E-5],"split_indices":[7,13,39,26,9,7,16,0,0,0,0,0,0,0,0],"split_type":[0,0,1,0,0,0,0,0,0,0,0,0,0,0,0],"sum_hessian":[6.31477E5,4.562E3,6.26915E5,4.36E3,2.02E2,3.77801E5,2.49114E5,4.133E3,2.27E2,9E0,1.93E2,8.713E3,3.69088E5,5.227E3,2.43887E5],"tree_param":{"num_deleted":"0","num_feature":"40","num_nodes":"15","size_leaf_vector":"1"}},{"base_weights":[8.68961E-6,7.059093E-2,-2.7043783E-4,8.2241744E-2,-9.682421E-2,-6.824338E-4,1.3150273E-2,6.68317E-4,9.685019E-5,-1.1978103E-3,-1.7375908E-4,-3.5355226E-6,-2.940083E-4,3.7223182E-4,6.150277E-5],"categories":[],"categories_nodes":[],"categories_segments":[],"categories_sizes":[],"default_left":[0,0,0,1,0,0,0,0,0,0,0,0,0,0,0],"id":6,"left_children":[1,3,5,7,9,11,13,-1,-1,-1,-1,-1,-1,-1,-1],"loss_changes":[1.2447436E1,4.86794E0,3.4796722E0,5.142419E0,1.1946037E0,2.1098151E0,2.3843324E0,0E0,0E0,0E0,0E0,0E0,0E0,0E0,0E0],"parents":[2147483647,0,0,1,1,2,2,3,3,4,4,5,5,6,6],"right_children":[2,4,6,8,10,12,14,-1,-1,-1,-1,-1,-1,-1,-1],"split_conditions":[-5.409684E-1,9.802817E-1,2.0093417E0,6.4E1,2.201087E-1,1.459977E0,-1.7216803E-1,6.68317E-4,9.685019E-5,-1.1978103E-3,-1.7375908E-4,-3.5355226E-6,-2.940083E-4,3.7223182E-4,6.150277E-5],"split_indices":[6,26,10,18,33,4,24,0,0,0,0,0,0,0,0],"split_type":[0,0,0,0,0,0,0,0,0,0,0,0,0,0,0],"sum_hessian":[6.318E5,2.487E3,6.29313E5,2.326E3,1.61E2,6.10571E5,1.8742E4,1.533E3,7.93E2,5.9E1,1.02E2,6.09742E5,8.29E2,8.57E2,1.7885E4],"tree_param":{"num_deleted":"0","num_feature":"40","num_nodes":"15","size_leaf_vector":"1"}},{"base_weights":[-2.2435146E-5,6.406805E-2,-4.9270916E-4,5.518662E-2,1.8718134E-1,-2.749181E-4,-2.029853E-2,-6.711333E-4,3.5149534E-4,3.3416934E-5,1.1699976E-3,-3.7905263E-6,7.024599E-5,-2.2788487E-5,-2.6621716E-4],"categories":[],"categories_nodes":[],"categories_segments":[],"categories_sizes":[],"default_left":[0,0,0,0,0,0,0,0,0,0,0,0,0,0,0],"id":7,"left_children":[1,3,5,7,9,11,13,-1,-1,-1,-1,-1,-1,-1,-1],"loss_changes":[1.9028236E1,5.0106335E0,2.7033994E0,4.314393E0,8.909559E-1,2.962221E0,2.8872411E0,0E0,0E0,0E0,0E0,0E0,0E0,0E0,0E0],"parents":[2147483647,0,0,1,1,2,2,3,3,4,4,5,5,6,6],"right_children":[2,4,6,8,10,12,14,-1,-1,-1,-1,-1,-1,-1,-1],"split_conditions":[-6.728866E-1,1.09797254E-1,9.2246014E-1,1.8814147E-1,5.0758667E1,6.082681E-1,-4.8459974E-1,-6.711333E-4,3.5149534E-4,3.3416934E-5,1.1699976E-3,-3.7905263E-6,7.024599E-5,-2.2788487E-5,-2.6621716E-4],"split_indices":[7,13,5,22,14,5,7,0,0,0,0,0,0,0,0],"split_type":[0,0,0,0,0,0,0,0,0,0,0,0,0,0,0],"sum_hessian":[6.31323E5,4.597E3,6.26726E5,4.29E3,3.07E2,6.19911E5,6.815E3,1.4E2,4.15E3,2.5E1,2.82E2,6.01433E5,1.8478E4,4.181E3,2.634E3],"tree_param":{"num_deleted":"0","num_feature":"40","num_nodes":"15","size_leaf_vector":"1"}},{"base_weights":[-3.425364E-5,4.654725E-2,-4.007456E-4,-1.6306616E-1,5.174362E-2,-6.4360787E-4,1.6782949E-2,-1.1813072E-3,9.257789E-4,4.2421086E-4,6.6449225E-5,-2.7573092E-6,-1.8622822E-4,4.7493397E-4,7.583305E-5],"categories":[],"categories_nodes":[],"categories_segments":[],"categories_sizes":[],"default_left":[0,0,0,0,1,0,0,0,0,0,0,0,0,0,0],"id":8,"left_children":[1,3,5,7,9,11,13,-1,-1,-1,-1,-1,-1,-1,-1],"loss_changes":[1.0785205E1,5.386223E0,2.6159317E0,1.6855428E0,4.238283E0,3.2297204E0,2.0733216E0,0E0,0E0,0E0,0E0,0E0,0E0,0E0,0E0],"parents":[2147483647,0,0,1,1,2,2,3,3,4,4,5,5,6,6],"right_children":[2,4,6,8,10,12,14,-1,-1,-1,-1,-1,-1,-1,-1],"split_conditions":[-4.574007E-1,1.8814147E-1,2.2697778E0,1.6983923E-1,6.5E1,9.272972E-2,-1.7216803E-1,-1.1813072E-3,9.257789E-4,4.2421086E-4,6.6449225E-5,-2.7573092E-6,-1.8622822E-4,4.7493397E-4,7.583305E-5],"split_indices":[6,22,10,19,18,3,24,0,0,0,0,0,0,0,0],"split_type":[0,0,0,0,0,0,0,0,0,0,0,0,0,0,0],"sum_hessian":[6.31754E5,4.93E3,6.26824E5,1.18E2,4.812E3,6.1809E5,8.734E3,1.05E2,1.3E1,3.114E3,1.698E3,6.14892E5,3.198E3,4.54E2,8.28E3],"tree_param":{"num_deleted":"0","num_feature":"40","num_nodes":"15","size_leaf_vector":"1"}},{"base_weights":[1.0375717E-5,6.320491E-2,-4.4978305E-4,-1.2996475E-1,6.9181785E-2,3.8538794E-5,-8.928384E-3,-1.3593824E-3,1.12936694E-4,3.5704716E-4,1.2511831E-3,-1.2889166E-6,8.668701E-5,4.8498787E-5,-1.013494E-4],"categories":[],"categories_nodes":[],"categories_segments":[],"categories_sizes":[],"default_left":[0,0,0,0,0,0,0,0,0,0,0,0,0,0,0],"id":9,"left_children":[1,3,5,7,9,11,13,-1,-1,-1,-1,-1,-1,-1,-1],"loss_changes":[1.8378237E1,5.290224E0,2.5977433E0,2.1922436E0,4.6972485E0,2.3361316E0,5.1380625E0,0E0,0E0,0E0,0E0,0E0,0E0,0E0,0E0],"parents":[2147483647,0,0,1,1,2,2,3,3,4,4,5,5,6,6],"right_children":[2,4,6,8,10,12,14,-1,-1,-1,-1,-1,-1,-1,-1],"split_conditions":[-6.728866E-1,1.8814147E-1,3.602E1,9.401732E-1,1.3511412E-1,6.082681E-1,4.3063584E-1,-1.3593824E-3,1.12936694E-4,3.5704716E-4,1.2511831E-3,-1.2889166E-6,8.668701E-5,4.8498787E-5,-1.013494E-4],"split_indices":[7,22,15,4,13,5,30,0,0,0,0,0,0,0,0],"split_type":[0,0,0,0,0,0,0,0,0,0,0,0,0,0,0],"sum_hessian":[6.31996E5,4.567E3,6.27429E5,1.36E2,4.431E3,5.93262E5,3.4167E4,7.9E1,5.7E1,4.228E3,2.03E2,5.83075E5,1.0187E4,1.1383E4,2.2784E4],"tree_param":{"num_deleted":"0","num_feature":"40","num_nodes":"15","size_leaf_vector":"1"}},{"base_weights":[-4.1212992E-5,5.9988808E-2,-4.8383846E-4,2.0732475E-2,8.55697E-2,-3.6198366E-4,-3.0734835E-2,4.656157E-4,-1.8166842E-4,-4.6079286E-4,5.662029E-4,-1.6538028E-6,-2.6850868E-4,1.0941968E-4,-3.5884394E-4],"categories":[],"categories_nodes":[],"categories_segments":[],"categories_sizes":[],"default_left":[0,0,0,0,0,0,0,0,0,0,0,0,0,0,0],"id":10,"left_children":[1,3,5,7,9,11,13,-1,-1,-1,-1,-1,-1,-1,-1],"loss_changes":[1.6777626E1,4.6381397E0,2.3105416E0,5.74053E0,5.910944E0,2.1616702E0,3.9496775E0,0E0,0E0,0E0,0E0,0E0,0E0,0E0,0E0],"parents":[2147483647,0,0,1,1,2,2,3,3,4,4,5,5,6,6],"right_children":[2,4,6,8,10,12,14,-1,-1,-1,-1,-1,-1,-1,-1],"split_conditions":[-6.728866E-1,-1.5553414E-2,1.3511412E-1,3.9986813E1,2.9491526E-1,1.431114E0,4.7928995E-1,4.656157E-4,-1.8166842E-4,-4.6079286E-4,5.662029E-4,-1.6538028E-6,-2.6850868E-4,1.0941968E-4,-3.5884394E-4],"split_indices":[7,2,13,14,37,5,31,0,0,0,0,0,0,0,0],"split_type":[0,0,0,0,0,0,0,0,0,0,0,0,0,0,0],"sum_hessian":[6.31427E5,4.62E3,6.26807E5,1.824E3,2.796E3,6.24294E5,2.513E3,8.48E2,9.76E2,1.99E2,2.597E3,6.23287E5,1.007E3,9.76E2,1.537E3],"tree_param":{"num_deleted":"0","num_feature":"40","num_nodes":"15","size_leaf_vector":"1"}},{"base_weights":[-4.1482468E-5,6.620719E-2,-2.9737854E-4,1.7702294E-3,9.1284744E-2,-6.381963E-4,1.2418127E-2,-1.0524405E-3,1.0988067E-4,-3.2432246E-4,5.8984774E-4,-3.3102094E-6,-3.14295E-4,2.0568525E-4,2.1450353E-5],"categories":[],"categories_nodes":[],"categories_segments":[],"categories_sizes":[],"default_left":[0,0,0,0,0,0,0,0,0,0,0,0,0,0,0],"id":11,"left_children":[1,3,5,7,9,11,13,-1,-1,-1,-1,-1,-1,-1,-1],"loss_changes":[1.0709335E1,3.9275637E0,2.7271256E0,2.1858108E0,2.8819532E0,2.0984733E0,3.3261855E0,0E0,0E0,0E0,0E0,0E0,0E0,0E0,0E0],"parents":[2147483647,0,0,1,1,2,2,3,3,4,4,5,5,6,6],"right_children":[2,4,6,8,10,12,14,-1,-1,-1,-1,-1,-1,-1,-1],"split_conditions":[-5.409684E-1,1.5522388E-1,9.538905E-1,1.4916499E-1,-1.9463165E-1,1.431114E0,3.125E-1,-1.0524405E-3,1.0988067E-4,-3.2432246E-4,5.8984774E-4,-3.3102094E-6,-3.14295E-4,2.0568525E-4,2.1450353E-5],"split_indices":[6,33,29,19,13,5,36,0,0,0,0,0,0,0,0],"split_type":[0,0,0,0,0,0,0,0,0,0,0,0,0,0,0],"sum_hessian":[6.31712E5,2.429E3,6.29283E5,6.81E2,1.748E3,6.12858E5,1.6425E4,5.7E1,6.24E2,1.22E2,1.626E3,6.12139E5,7.19E2,4.463E3,1.1962E4],"tree_param":{"num_deleted":"0","num_feature":"40","num_nodes":"15","size_leaf_vector":"1"}},{"base_weights":[2.413764E-5,4.7090836E-2,-3.500523E-4,-1.9620259E-3,6.718887E-2,-6.008428E-4,1.7372115E-2,2.549619E-4,-3.1229708E-4,5.9315434E-4,1.761091E-4,-3.0208755E-6,-5.607632E-4,5.095607E-4,7.749592E-5],"categories":[4,6,8,0,3,5,6,7,9,10,11],"categories_nodes":[3,4],"categories_segments":[0,3],"categories_sizes":[3,8],"default_left":[0,0,0,1,1,0,0,0,0,0,0,0,0,0,0],"id":12,"left_children":[1,3,5,7,9,11,13,-1,-1,-1,-1,-1,-1,-1,-1],"loss_changes":[1.1132531E1,4.91547E0,2.7872746E0,3.5086186E0,4.6293287E0,4.569441E0,2.4352765E0,0E0,0E0,0E0,0E0,0E0,0E0,0E0,0E0],"parents":[2147483647,0,0,1,1,2,2,3,3,4,4,5,5,6,6],"right_children":[2,4,6,8,10,12,14,-1,-1,-1,-1,-1,-1,-1,-1],"split_conditions":[-4.574007E-1,1.7179488E-1,2.2697778E0,1E-45,1E-45,1.431114E0,-1.7216803E-1,2.549619E-4,-3.1229708E-4,5.9315434E-4,1.761091E-4,-3.0208755E-6,-5.607632E-4,5.095607E-4,7.749592E-5],"split_indices":[6,33,10,39,39,5,24,0,0,0,0,0,0,0,0],"split_type":[0,0,0,1,1,0,0,0,0,0,0,0,0,0,0],"sum_hessian":[6.321E5,4.984E3,6.27116E5,1.449E3,3.535E3,6.18367E5,8.749E3,7.69E2,6.8E2,1.786E3,1.749E3,6.17881E5,4.86E2,4.55E2,8.294E3],"tree_param":{"num_deleted":"0","num_feature":"40","num_nodes":"15","size_leaf_vector":"1"}},{"base_weights":[-6.7425506E-5,4.5739196E-2,-4.2853446E-4,-1.5770113E-1,5.0428644E-2,-7.301729E-4,1.3361564E-2,-1.1375885E-3,8.7206473E-4,4.1970646E-4,5.7158388E-5,-1.5160192E-6,-5.1640713E-5,5.1690213E-4,5.6792793E-5],"categories":[],"categories_nodes":[],"categories_segments":[],"categories_sizes":[],"default_left":[0,0,0,0,1,0,0,0,0,0,0,0,0,0,0],"id":13,"left_children":[1,3,5,7,9,11,13,-1,-1,-1,-1,-1,-1,-1,-1],"loss_changes":[1.0446445E1,4.7262278E0,2.6064441E0,1.4256241E0,4.388386E0,2.3581374E0,3.5856485E0,0E0,0E0,0E0,0E0,0E0,0E0,0E0,0E0],"parents":[2147483647,0,0,1,1,2,2,3,3,4,4,5,5,6,6],"right_children":[2,4,6,8,10,12,14,-1,-1,-1,-1,-1,-1,-1,-1],"split_conditions":[-4.574007E-1,1.8814147E-1,9.594272E-1,1.725984E-1,6.5E1,3.602E1,1.54639175E-2,-1.1375885E-3,8.7206473E-4,4.1970646E-4,5.7158388E-5,-1.5160192E-6,-5.1640713E-5,5.1690213E-4,5.6792793E-5],"split_indices":[6,22,29,19,18,15,34,0,0,0,0,0,0,0,0],"split_type":[0,0,0,0,0,0,0,0,0,0,0,0,0,0,0],"sum_hessian":[6.31538E5,4.938E3,6.266E5,1.1E2,4.828E3,6.13189E5,1.3411E4,9.8E1,1.2E1,3.106E3,1.722E3,5.80287E5,3.2902E4,5.86E2,1.2825E4],"tree_param":{"num_deleted":"0","num_feature":"40","num_nodes":"15","size_leaf_vector":"1"}},{"base_weights":[3.236811E-5,5.125127E-2,-1.6964517E-4,2.5398739E-2,1.5494622E-1,-5.4366817E-4,1.3643927E-2,3.5982E-4,-1.3673269E-4,1.079552E-3,-3.5985198E-4,4.4310054E-6,-1.7041459E-5,2.0848424E-4,3.0469397E-5],"categories":[3,4,9,11],"categories_nodes":[5],"categories_segments":[0],"categories_sizes":[4],"default_left":[0,0,0,1,0,1,0,0,0,0,0,0,0,0,0],"id":14,"left_children":[1,3,5,7,9,11,13,-1,-1,-1,-1,-1,-1,-1,-1],"loss_changes":[6.546681E0,6.656899E0,3.2561746E0,3.6306376E0,3.520729E0,1.9456513E0,3.1298733E0,0E0,0E0,0E0,0E0,0E0,0E0,0E0,0E0],"parents":[2147483647,0,0,1,1,2,2,3,3,4,4,5,5,6,6],"right_children":[2,4,6,8,10,12,14,-1,-1,-1,-1,-1,-1,-1,-1],"split_conditions":[-4.945362E-1,2.2697778E0,9.538905E-1,4.7E1,9.84326E-1,1E-45,3.0294595E-2,3.5982E-4,-1.3673269E-4,1.079552E-3,-3.5985198E-4,4.4310054E-6,-1.7041459E-5,2.0848424E-4,3.0469397E-5],"split_indices":[1,10,29,18,26,39,21,0,0,0,0,0,0,0,0],"split_type":[0,0,0,0,0,1,0,0,0,0,0,0,0,0,0],"sum_hessian":[6.32716E5,2.484E3,6.30232E5,1.99E3,4.94E2,6.13619E5,1.6613E4,1.134E3,8.56E2,4.3E2,6.4E1,3.97507E5,2.16112E5,4.489E3,1.2124E4],"tree_param":{"num_deleted":"0","num_feature":"40","num_nodes":"15","size_leaf_vector":"1"}},{"base_weights":[-2.487024E-5,5.8843233E-2,-4.568166E-4,-1.2442911E-1,6.456089E-2,1.3038679E-2,-7.084395E-4,-1.3154135E-3,7.6549964E-5,1.4115458E-4,5.1807374E-4,8.155181E-5,-1.3520988E-3,-3.216829E-6,-2.5581737E-4],"categories":[],"categories_nodes":[],"categories_segments":[],"categories_sizes":[],"default_left":[0,0,0,0,0,1,0,0,0,0,0,0,0,0,0],"id":15,"left_children":[1,3,5,7,9,11,13,-1,-1,-1,-1,-1,-1,-1,-1],"loss_changes":[1.6053564E1,4.8327026E0,2.1282794E0,2.0052586E0,4.5316772E0,3.189072E0,4.032192E0,0E0,0E0,0E0,0E0,0E0,0E0,0E0,0E0],"parents":[2147483647,0,0,1,1,2,2,3,3,4,4,5,5,6,6],"right_children":[2,4,6,8,10,12,14,-1,-1,-1,-1,-1,-1,-1,-1],"split_conditions":[-6.728866E-1,1.8814147E-1,-5.2258974E-1,9.401732E-1,-1.9079985E-2,1.5413813E-1,1.3511412E-1,-1.3154135E-3,7.6549964E-5,1.4115458E-4,5.1807374E-4,8.155181E-5,-1.3520988E-3,-3.216829E-6,-2.5581737E-4],"split_indices":[7,22,7,4,2,21,13,0,0,0,0,0,0,0,0],"split_type":[0,0,0,0,0,0,0,0,0,0,0,0,0,0,0],"sum_hessian":[6.31334E5,4.597E3,6.26737E5,1.38E2,4.459E3,1.147E4,6.15267E5,7.8E1,6E1,1.731E3,2.728E3,1.142E4,5E1,6.13165E5,2.102E3],"tree_param":{"num_deleted":"0","num_feature":"40","num_nodes":"15","size_leaf_vector":"1"}},{"base_weights":[4.4875535E-5,6.635435E-2,-2.1599309E-4,7.779998E-2,-1.07261926E-1,-5.484516E-4,1.4372019E-2,6.270609E-4,8.0230835E-5,-1.2735697E-3,-1.8628319E-4,9.769416E-5,-4.2001443E-6,2.382704E-4,2.2036722E-5],"categories":[],"categories_nodes":[],"categories_segments":[],"categories_sizes":[],"default_left":[0,0,0,1,0,0,0,0,0,0,0,0,0,0,0],"id":16,"left_children":[1,3,5,7,9,11,13,-1,-1,-1,-1,-1,-1,-1,-1],"loss_changes":[1.0919576E1,4.9299383E0,3.0495718E0,4.6043224E0,1.29886E0,1.9457679E0,3.988511E0,0E0,0E0,0E0,0E0,0E0,0E0,0E0,0E0],"parents":[2147483647,0,0,1,1,2,2,3,3,4,4,5,5,6,6],"right_children":[2,4,6,8,10,12,14,-1,-1,-1,-1,-1,-1,-1,-1],"split_conditions":[-5.409684E-1,9.84326E-1,9.594272E-1,6.7E1,2.3631124E-1,-3.681737E-1,3.0294595E-2,6.270609E-4,8.0230835E-5,-1.2735697E-3,-1.8628319E-4,9.769416E-5,-4.2001443E-6,2.382704E-4,2.2036722E-5],"split_indices":[6,26,29,18,33,6,21,0,0,0,0,0,0,0,0],"split_type":[0,0,0,0,0,0,0,0,0,0,0,0,0,0,0],"sum_hessian":[6.31257E5,2.472E3,6.28785E5,2.32E3,1.52E2,6.14776E5,1.4009E4,1.56E3,7.6E2,5.9E1,9.3E1,6.28E3,6.08496E5,3.934E3,1.0075E4],"tree_param":{"num_deleted":"0","num_feature":"40","num_nodes":"15","size_leaf_vector":"1"}},{"base_weights":[-1.8526362E-5,6.674127E-2,-2.8056276E-4,-1.1750593E-1,7.5177625E-2,-6.6493574E-4,1.2225805E-2,-1.0271209E-3,5.850502E-4,6.101565E-4,8.4618776E-5,-3.2901578E-6,-4.8982666E-4,2.4124169E-5,1.8117848E-4],"categories":[],"categories_nodes":[],"categories_segments":[],"categories_sizes":[],"default_left":[0,0,0,0,1,0,0,0,0,0,0,0,0,0,0],"id":17,"left_children":[1,3,5,7,9,11,13,-1,-1,-1,-1,-1,-1,-1,-1],"loss_changes":[1.10414505E1,3.850891E0,3.0222764E0,1.4795253E0,4.3888235E0,4.823111E0,2.897203E0,0E0,0E0,0E0,0E0,0E0,0E0,0E0,0E0],"parents":[2147483647,0,0,1,1,2,2,3,3,4,4,5,5,6,6],"right_children":[2,4,6,8,10,12,14,-1,-1,-1,-1,-1,-1,-1,-1],"split_conditions":[-5.409684E-1,2.3791821E-1,2.0093417E0,1.5370591E-1,6.5E1,1.431114E0,6.5092206E-1,-1.0271209E-3,5.850502E-4,6.101565E-4,8.4618776E-5,-3.2901578E-6,-4.8982666E-4,2.4124169E-5,1.8117848E-4],"split_indices":[6,37,10,19,18,5,5,0,0,0,0,0,0,0,0],"split_type":[0,0,0,0,0,0,0,0,0,0,0,0,0,0,0],"sum_hessian":[6.31171E5,2.466E3,6.28705E5,1.07E2,2.359E3,6.0996E5,1.8745E4,8.4E1,2.3E1,1.563E3,7.96E2,6.09285E5,6.75E2,1.3221E4,5.524E3],"tree_param":{"num_deleted":"0","num_feature":"40","num_nodes":"15","size_leaf_vector":"1"}},{"base_weights":[-5.6290795E-5,4.42579E-2,-4.0318992E-4,-9.45565E-2,5.121293E-2,-6.5206666E-4,1.7158484E-2,-9.640084E-4,-1.7253402E-5,2.1485647E-4,8.8444276E-4,-3.3410754E-6,-5.421682E-4,2.7109406E-4,4.709085E-5],"categories":[],"categories_nodes":[],"categories_segments":[],"categories_sizes":[],"default_left":[0,0,0,0,0,0,0,0,0,0,0,0,0,0,0],"id":18,"left_children":[1,3,5,7,9,11,13,-1,-1,-1,-1,-1,-1,-1,-1],"loss_changes":[9.710976E0,4.7455235E0,2.739577E0,1.5638659E0,6.6437283E0,4.159907E0,2.3523962E0,0E0,0E0,0E0,0E0,0E0,0E0,0E0,0E0],"parents":[2147483647,0,0,1,1,2,2,3,3,4,4,5,5,6,6],"right_children":[2,4,6,8,10,12,14,-1,-1,-1,-1,-1,-1,-1,-1],"split_conditions":[-4.574007E-1,2.3305082E0,2.2697778E0,1.0490438E0,5.4370014E1,1.431114E0,-6.112291E-2,-9.640084E-4,-1.7253402E-5,2.1485647E-4,8.8444276E-4,-3.3410754E-6,-5.421682E-4,2.7109406E-4,4.709085E-5],"split_indices":[6,20,10,22,14,5,1,0,0,0,0,0,0,0,0],"split_type":[0,0,0,0,0,0,0,0,0,0,0,0,0,0,0],"sum_hessian":[6.31705E5,4.905E3,6.268E5,2.33E2,4.672E3,6.18043E5,8.757E3,1.29E2,1.04E2,4.115E3,5.57E2,6.17569E5,4.74E2,2.021E3,6.736E3],"tree_param":{"num_deleted":"0","num_feature":"40","num_nodes":"15","size_leaf_vector":"1"}},{"base_weights":[2.9134813E-5,5.9620526E-2,-4.1014407E-4,5.104439E-2,1.7912549E-1,-2.8776372E-4,-3.0792879E-2,3.3726616E-4,-5.069536E-4,1.2063187E-3,4.3669954E-4,6.5941076E-6,-1.4181801E-5,7.7451936E-5,-3.8775345E-4],"categories":[3,4,8,9,11],"categories_nodes":[5],"categories_segments":[0],"categories_sizes":[5],"default_left":[0,0,0,0,0,1,0,0,0,0,0,0,0,0,0],"id":19,"left_children":[1,3,5,7,9,11,13,-1,-1,-1,-1,-1,-1,-1,-1],"loss_changes":[1.652973E1,4.7200565E0,2.3307087E0,4.513792E0,9.3943024E-1,1.9447964E0,4.0651693E0,0E0,0E0,0E0,0E0,0E0,0E0,0E0,0E0],"parents":[2147483647,0,0,1,1,2,2,3,3,4,4,5,5,6,6],"right_children":[2,4,6,8,10,12,14,-1,-1,-1,-1,-1,-1,-1,-1],"split_conditions":[-6.728866E-1,1.09797254E-1,1.3511412E-1,9.802817E-1,1.1760486E0,1E-45,5.4285717E-1,3.3726616E-4,-5.069536E-4,1.2063187E-3,4.3669954E-4,6.5941076E-6,-1.4181801E-5,7.7451936E-5,-3.8775345E-4],"split_indices":[7,13,13,26,9,39,31,0,0,0,0,0,0,0,0],"split_type":[0,0,0,0,0,1,0,0,0,0,0,0,0,0,0],"sum_hessian":[6.31451E5,4.619E3,6.26832E5,4.312E3,3.07E2,6.24319E5,2.513E3,4.092E3,2.2E2,2.36E2,7.1E1,3.76358E5,2.47961E5,1.137E3,1.376E3],"tree_param":{"num_deleted":"0","num_feature":"40","num_nodes":"15","size_leaf_vector":"1"}},{"base_weights":[-4.669821E-5,6.0445502E-2,-4.923536E-4,-6.730947E-2,6.802184E-2,-1.1317806E-5,-8.844408E-3,-1.5705654E-4,-1.064487E-3,4.3691212E-4,-4.0541802E-4,-1.6628843E-6,9.155876E-5,7.011889E-5,-7.95553E-5],"categories":[],"categories_nodes":[],"categories_segments":[],"categories_sizes":[],"default_left":[0,0,0,1,0,0,0,0,0,0,0,0,0,0,0],"id":20,"left_children":[1,3,5,7,9,11,13,-1,-1,-1,-1,-1,-1,-1,-1],"loss_changes":[1.7044233E1,4.4832077E0,2.521516E0,1.2133174E0,4.741995E0,2.6184886E0,3.5688472E0,0E0,0E0,0E0,0E0,0E0,0E0,0E0,0E0],"parents":[2147483647,0,0,1,1,2,2,3,3,4,4,5,5,6,6],"right_children":[2,4,6,8,10,12,14,-1,-1,-1,-1,-1,-1,-1,-1],"split_conditions":[-6.728866E-1,4.232804E-2,3.602E1,8E1,9.802817E-1,6.082681E-1,-5.2258974E-1,-1.5705654E-4,-1.064487E-3,4.3691212E-4,-4.0541802E-4,-1.6628843E-6,9.155876E-5,7.011889E-5,-7.95553E-5],"split_indices":[7,26,15,18,26,5,7,0,0,0,0,0,0,0,0],"split_type":[0,0,0,0,0,0,0,0,0,0,0,0,0,0,0],"sum_hessian":[6.32232E5,4.622E3,6.2761E5,2.58E2,4.364E3,5.93433E5,3.4177E4,1.94E2,6.4E1,4.131E3,2.33E2,5.83264E5,1.0169E4,6.533E3,2.7644E4],"tree_param":{"num_deleted":"0","num_feature":"40","num_nodes":"15","size_leaf_vector":"1"}},{"base_weights":[-2.978785E-5,5.705975E-2,-4.4960622E-4,4.8596613E-2,1.7383225E-1,4.461944E-5,-8.985456E-3,-6.525224E-4,3.1249726E-4,1.1570683E-3,3.6607703E-4,-8.1168184E-7,1.2321102E-4,4.8748523E-5,-9.563082E-5],"categories":[],"categories_nodes":[],"categories_segments":[],"categories_sizes":[],"default_left":[0,0,0,0,0,0,0,0,0,0,0,0,0,0,0],"id":21,"left_children":[1,3,5,7,9,11,13,-1,-1,-1,-1,-1,-1,-1,-1],"loss_changes":[1.5127966E1,4.5391493E0,2.6433377E0,3.9475803E0,9.0503407E-1,2.3458695E0,4.558447E0,0E0,0E0,0E0,0E0,0E0,0E0,0E0,0E0],"parents":[2147483647,0,0,1,1,2,2,3,3,4,4,5,5,6,6],"right_children":[2,4,6,8,10,12,14,-1,-1,-1,-1,-1,-1,-1,-1],"split_conditions":[-6.728866E-1,1.09797254E-1,3.602E1,1.8814147E-1,4E1,7.103001E-1,4.0419948E-1,-6.525224E-4,3.1249726E-4,1.1570683E-3,3.6607703E-4,-8.1168184E-7,1.2321102E-4,4.8748523E-5,-9.563082E-5],"split_indices":[7,13,15,22,17,5,30,0,0,0,0,0,0,0,0],"split_type":[0,0,0,0,0,0,0,0,0,0,0,0,0,0,0],"sum_hessian":[6.3119E5,4.606E3,6.26584E5,4.297E3,3.09E2,5.92292E5,3.4292E4,1.44E2,4.153E3,2.47E2,6.2E1,5.8719E5,5.102E3,1.0421E4,2.3871E4],"tree_param":{"num_deleted":"0","num_feature":"40","num_nodes":"15","size_leaf_vector":"1"}},{"base_weights":[2.0669371E-5,5.8883872E-2,-4.0947853E-4,2.0466207E-2,8.426733E-2,-3.2204538E-4,-4.8921585E-2,4.7597353E-4,-1.8572324E-4,5.8711215E-4,-2.6432896E-4,9.406634E-5,-3.510703E-6,-5.0381955E-4,1.8699255E-4],"categories":[],"categories_nodes":[],"categories_segments":[],"categories_sizes":[],"default_left":[0,0,0,0,0,0,0,0,0,0,0,0,0,0,0],"id":22,"left_children":[1,3,5,7,9,11,13,-1,-1,-1,-1,-1,-1,-1,-1],"loss_changes":[1.598759E1,4.464035E0,2.658772E0,5.9841623E0,6.3483562E0,2.9954846E0,3.5429053E0,0E0,0E0,0E0,0E0,0E0,0E0,0E0,0E0],"parents":[2147483647,0,0,1,1,2,2,3,3,4,4,5,5,6,6],"right_children":[2,4,6,8,10,12,14,-1,-1,-1,-1,-1,-1,-1,-1],"split_conditions":[-6.728866E-1,-1.5553414E-2,1.431114E0,3.9986813E1,9.67655E-1,-5.2258974E-1,2.8795075E0,4.7597353E-4,-1.8572324E-4,5.8711215E-4,-2.6432896E-4,9.406634E-5,-3.510703E-6,-5.0381955E-4,1.8699255E-4],"split_indices":[7,2,5,14,26,7,10,0,0,0,0,0,0,0,0],"split_type":[0,0,0,0,0,0,0,0,0,0,0,0,0,0,0],"sum_hessian":[6.31421E5,4.579E3,6.26842E5,1.823E3,2.756E3,6.25716E5,1.126E3,8.36E2,9.87E2,2.427E3,3.29E2,1.0616E4,6.151E5,7.64E2,3.62E2],"tree_param":{"num_deleted":"0","num_feature":"40","num_nodes":"15","size_leaf_vector":"1"}},{"base_weights":[-3.1496975E-6,5.838199E-2,-4.3275484E-4,4.9490865E-2,1.8392184E-1,2.3016659E-5,-8.317632E-3,3.2530542E-4,-4.3285158E-4,1.3129774E-3,4.906682E-4,-9.467234E-7,1.2373069E-4,3.970645E-5,-1.0096556E-4],"categories":[],"categories_nodes":[],"categories_segments":[],"categories_sizes":[],"default_left":[0,0,0,0,0,0,0,0,0,0,0,0,0,0,0],"id":23,"left_children":[1,3,5,7,9,11,13,-1,-1,-1,-1,-1,-1,-1,-1],"loss_changes":[1.5853365E1,5.137533E0,2.2547996E0,3.7639093E0,1.2914133E0,2.3850057E0,4.804262E0,0E0,0E0,0E0,0E0,0E0,0E0,0E0,0E0],"parents":[2147483647,0,0,1,1,2,2,3,3,4,4,5,5,6,6],"right_children":[2,4,6,8,10,12,14,-1,-1,-1,-1,-1,-1,-1,-1],"split_conditions":[-6.728866E-1,1.09797254E-1,3.602E1,9.802817E-1,5.1594204E-1,7.103001E-1,4.7164178E-1,3.2530542E-4,-4.3285158E-4,1.3129774E-3,4.906682E-4,-9.467234E-7,1.2373069E-4,3.970645E-5,-1.0096556E-4],"split_indices":[7,13,15,26,33,5,30,0,0,0,0,0,0,0,0],"split_type":[0,0,0,0,0,0,0,0,0,0,0,0,0,0,0],"sum_hessian":[6.32044E5,4.615E3,6.27429E5,4.312E3,3.03E2,5.93145E5,3.4284E4,4.084E3,2.28E2,2.08E2,9.5E1,5.88012E5,5.133E3,1.2931E4,2.1353E4],"tree_param":{"num_deleted":"0","num_feature":"40","num_nodes":"15","size_leaf_vector":"1"}},{"base_weights":[-1.06016205E-5,5.7936396E-2,-4.3010648E-4,6.432494E-3,7.4961804E-2,5.911218E-5,-8.903811E-3,3.260128E-4,-3.1862702E-4,8.135115E-4,3.425392E-4,-1.1625008E-6,8.7491484E-5,-1.1574924E-5,-1.2493083E-4],"categories":[4,8,0,3,4,6,7,9,10,11],"categories_nodes":[3,4],"categories_segments":[0,2],"categories_sizes":[2,8],"default_left":[0,0,0,1,1,0,0,0,0,0,0,0,0,0,0],"id":24,"left_children":[1,3,5,7,9,11,13,-1,-1,-1,-1,-1,-1,-1,-1],"loss_changes":[1.5367582E1,3.9834423E0,2.6018443E0,3.5082347E0,3.4916306E0,2.3427708E0,3.0197382E0,0E0,0E0,0E0,0E0,0E0,0E0,0E0,0E0],"parents":[2147483647,0,0,1,1,2,2,3,3,4,4,5,5,6,6],"right_children":[2,4,6,8,10,12,14,-1,-1,-1,-1,-1,-1,-1,-1],"split_conditions":[-6.728866E-1,1.5522388E-1,3.602E1,1E-45,1E-45,6.082681E-1,4.779256E1,3.260128E-4,-3.1862702E-4,8.135115E-4,3.425392E-4,-1.1625008E-6,8.7491484E-5,-1.1574924E-5,-1.2493083E-4],"split_indices":[7,33,15,39,39,5,14,0,0,0,0,0,0,0,0],"split_type":[0,0,0,1,1,0,0,0,0,0,0,0,0,0,0],"sum_hessian":[6.32172E5,4.542E3,6.2763E5,1.129E3,3.413E3,5.93374E5,3.4256E4,6.23E2,5.06E2,6.44E2,2.769E3,5.83316E5,1.0058E4,2.2257E4,1.1999E4],"tree_param":{"num_deleted":"0","num_feature":"40","num_nodes":"15","size_leaf_vector":"1"}},{"base_weights":[6.450097E-5,5.9146795E-2,-3.7190787E-4,-1.1369953E-1,6.4499386E-2,8.0718964E-5,-8.223978E-3,-1.2213743E-3,1.3908304E-4,2.008898E-4,5.363946E-4,-1.0112813E-6,8.64943E-5,3.616433E-5,-9.804342E-5],"categories":[],"categories_nodes":[],"categories_segments":[],"categories_sizes":[],"default_left":[0,0,0,0,0,0,0,0,0,0,0,0,0,0,0],"id":25,"left_children":[1,3,5,7,9,11,13,-1,-1,-1,-1,-1,-1,-1,-1],"loss_changes":[1.628391E1,4.2967873E0,2.22811E0,1.9028838E0,3.8041534E0,2.2690475E0,4.3598204E0,0E0,0E0,0E0,0E0,0E0,0E0,0E0,0E0],"parents":[2147483647,0,0,1,1,2,2,3,3,4,4,5,5,6,6],"right_children":[2,4,6,8,10,12,14,-1,-1,-1,-1,-1,-1,-1,-1],"split_conditions":[-6.728866E-1,1.6491228E-1,3.602E1,9.401732E-1,1.0801761E-2,6.082681E-1,4.7164178E-1,-1.2213743E-3,1.3908304E-4,2.008898E-4,5.363946E-4,-1.0112813E-6,8.64943E-5,3.616433E-5,-9.804342E-5],"split_indices":[7,37,15,4,2,5,30,0,0,0,0,0,0,0,0],"split_type":[0,0,0,0,0,0,0,0,0,0,0,0,0,0,0],"sum_hessian":[6.31547E5,4.629E3,6.26918E5,1.38E2,4.491E3,5.92751E5,3.4167E4,8E1,5.8E1,2.209E3,2.282E3,5.82753E5,9.998E3,1.2901E4,2.1266E4],"tree_param":{"num_deleted":"0","num_feature":"40","num_nodes":"15","size_leaf_vector":"1"}},{"base_weights":[2.7685299E-5,5.5581804E-2,-3.7441144E-4,6.452849E-2,-4.680731E-2,-2.5868719E-4,-2.8990045E-2,1.3364191E-4,5.4990296E-4,-1.0999766E-3,-1.0046776E-4,-1.049577E-6,-2.7000875E-4,1.9198512E-4,-2.675394E-4],"categories":[],"categories_nodes":[],"categories_segments":[],"categories_sizes":[],"default_left":[0,0,0,0,0,0,0,0,0,0,0,0,0,0,0],"id":26,"left_children":[1,3,5,7,9,11,13,-1,-1,-1,-1,-1,-1,-1,-1],"loss_changes":[1.4109037E1,4.162834E0,2.076556E0,5.3346233E0,1.5424848E0,2.2263253E0,2.7507715E0,0E0,0E0,0E0,0E0,0E0,0E0,0E0,0E0],"parents":[2147483647,0,0,1,1,2,2,3,3,4,4,5,5,6,6],"right_children":[2,4,6,8,10,12,14,-1,-1,-1,-1,-1,-1,-1,-1],"split_conditions":[-6.728866E-1,9.636804E-1,1.3511412E-1,-1.5553414E-2,6.6494846E-1,1.431114E0,-4.8459974E-1,1.3364191E-4,5.4990296E-4,-1.0999766E-3,-1.0046776E-4,-1.049577E-6,-2.7000875E-4,1.9198512E-4,-2.675394E-4],"split_indices":[7,26,13,2,34,5,7,0,0,0,0,0,0,0,0],"split_type":[0,0,0,0,0,0,0,0,0,0,0,0,0,0,0],"sum_hessian":[6.31609E5,4.537E3,6.27072E5,4.173E3,3.64E2,6.24548E5,2.524E3,1.788E3,2.385E3,6E1,3.04E2,6.23527E5,1.021E3,5.52E2,1.972E3],"tree_param":{"num_deleted":"0","num_feature":"40","num_nodes":"15","size_leaf_vector":"1"}},{"base_weights":[-2.6129237E-5,5.7177912E-2,-4.4652686E-4,-7.306295E-2,6.435492E-2,2.5967314E-5,-8.631411E-3,-5.072537E-4,1.2041437E-3,4.1590206E-4,-3.0920363E-4,-9.1738923E-7,1.2200505E-4,4.284642E-5,-9.556644E-5],"categories":[],"categories_nodes":[],"categories_segments":[],"categories_sizes":[],"default_left":[0,0,0,0,0,0,0,0,0,0,0,0,0,0,0],"id":27,"left_children":[1,3,5,7,9,11,13,-1,-1,-1,-1,-1,-1,-1,-1],"loss_changes":[1.5205121E1,4.319747E0,2.4273472E0,1.0546955E0,4.059313E0,2.3255045E0,4.382344E0,0E0,0E0,0E0,0E0,0E0,0E0,0E0,0E0],"parents":[2147483647,0,0,1,1,2,2,3,3,4,4,5,5,6,6],"right_children":[2,4,6,8,10,12,14,-1,-1,-1,-1,-1,-1,-1,-1],"split_conditions":[-6.728866E-1,4.232804E-2,3.602E1,-1.4636676E-1,9.7590363E-1,7.103001E-1,4.3063584E-1,-5.072537E-4,1.2041437E-3,4.1590206E-4,-3.0920363E-4,-9.1738923E-7,1.2200505E-4,4.284642E-5,-9.556644E-5],"split_indices":[7,26,15,2,26,5,30,0,0,0,0,0,0,0,0],"split_type":[0,0,0,0,0,0,0,0,0,0,0,0,0,0,0],"sum_hessian":[6.32267E5,4.611E3,6.27656E5,2.4E2,4.371E3,5.93402E5,3.4254E4,2.29E2,1.1E1,4.099E3,2.72E2,5.88253E5,5.149E3,1.1347E4,2.2907E4],"tree_param":{"num_deleted":"0","num_feature":"40","num_nodes":"15","size_leaf_vector":"1"}},{"base_weights":[-3.1495936E-5,5.331369E-2,-4.1979097E-4,4.5471527E-2,1.744988E-1,-2.0715068E-4,-1.9680724E-2,-6.835923E-4,2.9175536E-4,1.2036158E-3,5.227594E-4,-3.4544576E-6,7.251949E-5,-1.36918525E-5,-2.7026952E-4],"categories":[],"categories_nodes":[],"categories_segments":[],"categories_sizes":[],"default_left":[0,0,0,0,0,0,0,0,0,0,0,0,0,0,0],"id":28,"left_children":[1,3,5,7,9,11,13,-1,-1,-1,-1,-1,-1,-1,-1],"loss_changes":[1.3078665E1,4.3225927E0,2.5673094E0,3.65728E0,7.661629E-1,3.1150434E0,3.2263134E0,0E0,0E0,0E0,0E0,0E0,0E0,0E0,0E0],"parents":[2147483647,0,0,1,1,2,2,3,3,4,4,5,5,6,6],"right_children":[2,4,6,8,10,12,14,-1,-1,-1,-1,-1,-1,-1,-1],"split_conditions":[-6.728866E-1,1.09797254E-1,9.2246014E-1,1.8814147E-1,5.2380955E-1,6.082681E-1,-4.8459974E-1,-6.835923E-4,2.9175536E-4,1.2036158E-3,5.227594E-4,-3.4544576E-6,7.251949E-5,-1.36918525E-5,-2.7026952E-4],"split_indices":[7,13,5,22,33,5,7,0,0,0,0,0,0,0,0],"split_type":[0,0,0,0,0,0,0,0,0,0,0,0,0,0,0],"sum_hessian":[6.31399E5,4.561E3,6.26838E5,4.286E3,2.75E2,6.19995E5,6.843E3,1.3E2,4.156E3,1.93E2,8.2E1,6.01543E5,1.8452E4,4.186E3,2.657E3],"tree_param":{"num_deleted":"0","num_feature":"40","num_nodes":"15","size_leaf_vector":"1"}},{"base_weights":[5.4684724E-6,-3.5206898E-4,2.2686891E-2,1.9165644E-4,-4.7673318E-3,1.4105955E-1,1.6569572E-2,1.686286E-5,-5.031722E-6,-7.713421E-6,-4.4358378E-5,9.750558E-4,-4.867942E-4,4.982096E-4,7.492658E-5],"categories":[],"categories_nodes":[],"categories_segments":[],"categories_sizes":[],"default_left":[0,0,0,0,0,0,0,0,0,0,0,0,0,0,0],"id":29,"left_children":[1,3,5,7,9,11,13,-1,-1,-1,-1,-1,-1,-1,-1],"loss_changes":[5.1250834E0,1.4936651E0,7.0979905E0,1.6145182E0,6.861286E-1,3.091464E0,2.3209014E0,0E0,0E0,0E0,0E0,0E0,0E0,0E0,0E0],"parents":[2147483647,0,0,1,1,2,2,3,3,4,4,5,5,6,6],"right_children":[2,4,6,8,10,12,14,-1,-1,-1,-1,-1,-1,-1,-1],"split_conditions":[2.2697778E0,8.855586E-1,-4.945362E-1,3.3766234E-1,2.781788E0,9.8876405E-1,3.301887E-2,1.686286E-5,-5.031722E-6,-7.713421E-6,-4.4358378E-5,9.750558E-4,-4.867942E-4,4.982096E-4,7.492658E-5],"split_indices":[10,26,1,31,23,26,34,0,0,0,0,0,0,0,0],"split_type":[0,0,0,0,0,0,0,0,0,0,0,0,0,0,0],"sum_hessian":[6.31985E5,6.22179E5,9.806E3,5.53962E5,6.8217E4,4.8E2,9.326E3,1.55239E5,3.98723E5,3.146E4,3.6757E4,4.27E2,5.3E1,4.5E2,8.876E3],"tree_param":{"num_deleted":"0","num_feature":"40","num_nodes":"15","size_leaf_vector":"1"}},{"base_weights":[3.4240882E-5,5.5384748E-2,-3.703995E-4,-1.2806335E-1,6.0705137E-2,-2.5514993E-4,-2.9214658E-2,-8.8836823E-4,7.693169E-4,1.2145985E-4,5.0016347E-4,6.9043163E-6,-1.4171002E-5,8.1562204E-5,-3.752418E-4],"categories":[3,4,8,9,11],"categories_nodes":[5],"categories_segments":[0],"categories_sizes":[5],"default_left":[0,0,0,0,0,1,0,0,0,0,0,0,0,0,0],"id":30,"left_children":[1,3,5,7,9,11,13,-1,-1,-1,-1,-1,-1,-1,-1],"loss_changes":[1.41426E1,4.486124E0,2.083873E0,9.2344594E-1,4.608568E0,2.001705E0,3.8898184E0,0E0,0E0,0E0,0E0,0E0,0E0,0E0,0E0],"parents":[2147483647,0,0,1,1,2,2,3,3,4,4,5,5,6,6],"right_children":[2,4,6,8,10,12,14,-1,-1,-1,-1,-1,-1,-1,-1],"split_conditions":[-6.728866E-1,1.6491228E-1,1.3511412E-1,1.725984E-1,-1.5553414E-2,1E-45,5.4285717E-1,-8.8836823E-4,7.693169E-4,1.2145985E-4,5.0016347E-4,6.9043163E-6,-1.4171002E-5,8.1562204E-5,-3.752418E-4],"split_indices":[7,37,13,19,2,39,31,0,0,0,0,0,0,0,0],"split_type":[0,0,0,0,0,1,0,0,0,0,0,0,0,0,0],"sum_hessian":[6.31446E5,4.581E3,6.26865E5,1.28E2,4.453E3,6.24372E5,2.493E3,1.17E2,1.1E1,1.771E3,2.682E3,3.76288E5,2.48084E5,1.13E3,1.363E3],"tree_param":{"num_deleted":"0","num_feature":"40","num_nodes":"15","size_leaf_vector":"1"}},{"base_weights":[5.4362496E-5,5.730039E-2,-3.6004808E-4,-1.22741625E-1,6.24913E-2,1.3030122E-2,-6.101244E-4,-1.2318463E-3,1.8755023E-4,1.2644437E-4,5.104061E-4,8.179851E-5,-1.4494788E-3,-2.303021E-6,-2.2284465E-4],"categories":[],"categories_nodes":[],"categories_segments":[],"categories_sizes":[],"default_left":[0,0,0,0,0,1,0,0,0,0,0,0,0,0,0],"id":31,"left_children":[1,3,5,7,9,11,13,-1,-1,-1,-1,-1,-1,-1,-1],"loss_changes":[1.4974923E1,4.2530813E0,2.098541E0,1.819341E0,4.667534E0,3.5682096E0,4.9262266E0,0E0,0E0,0E0,0E0,0E0,0E0,0E0,0E0],"parents":[2147483647,0,0,1,1,2,2,3,3,4,4,5,5,6,6],"right_children":[2,4,6,8,10,12,14,-1,-1,-1,-1,-1,-1,-1,-1],"split_conditions":[-6.728866E-1,1.8814147E-1,-5.2258974E-1,9.401732E-1,-1.5553414E-2,1.5413813E-1,9.2246014E-1,-1.2318463E-3,1.8755023E-4,1.2644437E-4,5.104061E-4,8.179851E-5,-1.4494788E-3,-2.303021E-6,-2.2284465E-4],"split_indices":[7,22,7,4,2,21,5,0,0,0,0,0,0,0,0],"split_type":[0,0,0,0,0,0,0,0,0,0,0,0,0,0,0],"sum_hessian":[6.31228E5,4.535E3,6.26693E5,1.26E2,4.409E3,1.1488E4,6.15205E5,7.9E1,4.7E1,1.729E3,2.68E3,1.1439E4,4.9E1,6.11828E5,3.377E3],"tree_param":{"num_deleted":"0","num_feature":"40","num_nodes":"15","size_leaf_vector":"1"}},{"base_weights":[-1.4933614E-5,5.943216E-2,-2.4716023E-4,7.04827E-2,-9.301767E-2,-5.468978E-4,1.580563E-2,5.8778725E-4,4.7490597E-5,-1.0411661E-3,-9.2680246E-5,-2.583321E-6,-5.038476E-4,4.931588E-4,7.161222E-5],"categories":[],"categories_nodes":[],"categories_segments":[],"categories_sizes":[],"default_left":[0,0,0,1,0,0,0,0,0,0,0,0,0,0,0],"id":32,"left_children":[1,3,5,7,9,11,13,-1,-1,-1,-1,-1,-1,-1,-1],"loss_changes":[8.712287E0,4.148261E0,3.0247548E0,4.4988594E0,1.1203161E0,5.2782874E0,2.7113254E0,0E0,0E0,0E0,0E0,0E0,0E0,0E0,0E0],"parents":[2147483647,0,0,1,1,2,2,3,3,4,4,5,5,6,6],"right_children":[2,4,6,8,10,12,14,-1,-1,-1,-1,-1,-1,-1,-1],"split_conditions":[-5.409684E-1,9.802817E-1,2.1844466E0,6.5E1,3.0819672E-1,1.431114E0,3.301887E-2,5.8778725E-4,4.7490597E-5,-1.0411661E-3,-9.2680246E-5,-2.583321E-6,-5.038476E-4,4.931588E-4,7.161222E-5],"split_indices":[6,26,10,18,33,5,34,0,0,0,0,0,0,0,0],"split_type":[0,0,0,0,0,0,0,0,0,0,0,0,0,0,0],"sum_hessian":[6.31084E5,2.454E3,6.2863E5,2.289E3,1.65E2,6.17109E5,1.1521E4,1.518E3,7.71E2,7.6E1,8.9E1,6.16413E5,6.96E2,5.29E2,1.0992E4],"tree_param":{"num_deleted":"0","num_feature":"40","num_nodes":"15","size_leaf_vector":"1"}},{"base_weights":[-3.7190457E-5,-3.9141823E-4,2.230562E-2,-2.9376382E-4,-5.5725012E-2,8.638737E-2,1.6089784E-2,-3.847044E-6,5.341943E-5,-1.0085626E-3,-1.6721683E-4,5.6664995E-4,-4.2357857E-4,2.8702908E-4,3.782978E-5],"categories":[],"categories_nodes":[],"categories_segments":[],"categories_sizes":[],"default_left":[0,0,0,0,0,0,0,0,0,0,0,0,0,0,0],"id":33,"left_children":[1,3,5,7,9,11,13,-1,-1,-1,-1,-1,-1,-1,-1],"loss_changes":[4.9959583E0,3.3577168E0,3.9217696E0,2.2205846E0,3.4797006E0,1.6822147E0,2.8855605E0,0E0,0E0,0E0,0E0,0E0,0E0,0E0,0E0],"parents":[2147483647,0,0,1,1,2,2,3,3,4,4,5,5,6,6],"right_children":[2,4,6,8,10,12,14,-1,-1,-1,-1,-1,-1,-1,-1],"split_conditions":[2.2697778E0,1.431114E0,3.9986813E1,6.082681E-1,8.3630955E-1,2.4906263E-1,1.2887828E-1,-3.847044E-6,5.341943E-5,-1.0085626E-3,-1.6721683E-4,5.6664995E-4,-4.2357857E-4,2.8702908E-4,3.782978E-5],"split_indices":[10,5,14,5,28,2,25,0,0,0,0,0,0,0,0],"split_type":[0,0,0,0,0,0,0,0,0,0,0,0,0,0,0],"sum_hessian":[6.31242E5,6.21392E5,9.85E3,6.20299E5,1.093E3,8.69E2,8.981E3,5.96958E5,2.3341E4,1.98E2,8.95E2,8.09E2,6E1,1.975E3,7.006E3],"tree_param":{"num_deleted":"0","num_feature":"40","num_nodes":"15","size_leaf_vector":"1"}},{"base_weights":[3.244964E-5,5.5386607E-2,-3.717217E-4,9.563827E-3,7.487896E-2,-2.5687442E-4,-2.9247984E-2,-9.677032E-5,5.1375484E-4,-3.646042E-4,4.6884487E-4,-1.0444592E-6,-2.6223736E-4,2.2115995E-5,-3.894343E-4],"categories":[],"categories_nodes":[],"categories_segments":[],"categories_sizes":[],"default_left":[0,0,0,0,0,0,0,0,0,0,0,0,0,0,0],"id":34,"left_children":[1,3,5,7,9,11,13,-1,-1,-1,-1,-1,-1,-1,-1],"loss_changes":[1.413508E1,4.089346E0,2.0800903E0,2.8761208E0,2.9030247E0,2.1365027E0,3.1544428E0,0E0,0E0,0E0,0E0,0E0,0E0,0E0,0E0],"parents":[2147483647,0,0,1,1,2,2,3,3,4,4,5,5,6,6],"right_children":[2,4,6,8,10,12,14,-1,-1,-1,-1,-1,-1,-1,-1],"split_conditions":[-6.728866E-1,1.9612591E-1,1.3511412E-1,-5.46322E-1,-1.9463165E-1,1.431114E0,5.675676E-1,-9.677032E-5,5.1375484E-4,-3.646042E-4,4.6884487E-4,-1.0444592E-6,-2.6223736E-4,2.2115995E-5,-3.894343E-4],"split_indices":[7,33,13,8,13,5,30,0,0,0,0,0,0,0,0],"split_type":[0,0,0,0,0,0,0,0,0,0,0,0,0,0,0],"sum_hessian":[6.31801E5,4.578E3,6.27223E5,1.367E3,3.211E3,6.2474E5,2.483E3,1.028E3,3.39E2,1.44E2,3.067E3,6.23701E5,1.039E3,1.334E3,1.149E3],"tree_param":{"num_deleted":"0","num_feature":"40","num_nodes":"15","size_leaf_vector":"1"}},{"base_weights":[1.2183274E-5,5.7376344E-2,-2.1053333E-4,6.791257E-2,-1.11762404E-1,-5.391254E-4,1.1971471E-2,5.630871E-4,3.7707552E-5,-1.2617075E-3,-1.618544E-4,-1.0494904E-4,-1.9715294E-6,2.0357601E-4,1.884649E-5],"categories":[],"categories_nodes":[],"categories_segments":[],"categories_sizes":[],"default_left":[0,0,0,1,0,0,0,0,0,0,0,0,0,0,0],"id":35,"left_children":[1,3,5,7,9,11,13,-1,-1,-1,-1,-1,-1,-1,-1],"loss_changes":[8.059406E0,4.3607817E0,2.5153868E0,4.207473E0,1.2794254E0,2.129601E0,3.3556442E0,0E0,0E0,0E0,0E0,0E0,0E0,0E0,0E0],"parents":[2147483647,0,0,1,1,2,2,3,3,4,4,5,5,6,6],"right_children":[2,4,6,8,10,12,14,-1,-1,-1,-1,-1,-1,-1,-1],"split_conditions":[-5.409684E-1,9.84326E-1,9.538905E-1,6.7E1,2.3631124E-1,-1.4777741E-1,3.125E-1,5.630871E-4,3.7707552E-5,-1.2617075E-3,-1.618544E-4,-1.0494904E-4,-1.9715294E-6,2.0357601E-4,1.884649E-5],"split_indices":[6,26,29,18,33,16,36,0,0,0,0,0,0,0,0],"split_type":[0,0,0,0,0,0,0,0,0,0,0,0,0,0,0],"sum_hessian":[6.30823E5,2.438E3,6.28385E5,2.296E3,1.42E2,6.11882E5,1.6503E4,1.544E3,7.52E2,6.1E1,8.1E1,6.735E3,6.05147E5,4.475E3,1.2028E4],"tree_param":{"num_deleted":"0","num_feature":"40","num_nodes":"15","size_leaf_vector":"1"}},{"base_weights":[1.239059E-6,4.2930964E-2,-4.7573005E-4,-1.1596002E-1,4.6611443E-2,-2.7244593E-4,-2.2375556E-2,-1.180353E-3,8.028526E-5,1.3636654E-4,4.018185E-4,-3.3276494E-6,5.876376E-5,1.8826702E-5,-2.2739796E-4],"categories":[],"categories_nodes":[],"categories_segments":[],"categories_sizes":[],"default_left":[0,0,0,0,0,0,0,0,0,0,0,0,0,0,0],"id":36,"left_children":[1,3,5,7,9,11,13,-1,-1,-1,-1,-1,-1,-1,-1],"loss_changes":[1.2941039E1,4.0704966E0,2.782689E0,1.8275402E0,3.6018238E0,1.980422E0,2.5217228E0,0E0,0E0,0E0,0E0,0E0,0E0,0E0,0E0],"parents":[2147483647,0,0,1,1,2,2,3,3,4,4,5,5,6,6],"right_children":[2,4,6,8,10,12,14,-1,-1,-1,-1,-1,-1,-1,-1],"split_conditions":[-6.314579E-1,1.6491228E-1,9.2246014E-1,9.401732E-1,1.0801761E-2,6.082681E-1,-5.2258974E-1,-1.180353E-3,8.028526E-5,1.3636654E-4,4.018185E-4,-3.3276494E-6,5.876376E-5,1.8826702E-5,-2.2739796E-4],"split_indices":[7,37,5,4,2,5,7,0,0,0,0,0,0,0,0],"split_type":[0,0,0,0,0,0,0,0,0,0,0,0,0,0,0],"sum_hessian":[6.32002E5,6.943E3,6.25059E5,1.56E2,6.787E3,6.19312E5,5.747E3,9.2E1,6.4E1,3.411E3,3.376E3,6.01775E5,1.7537E4,2.3E3,3.447E3],"tree_param":{"num_deleted":"0","num_feature":"40","num_nodes":"15","size_leaf_vector":"1"}},{"base_weights":[-1.485823E-6,5.201667E-2,-3.804865E-4,3.9296072E-2,1.21552415E-1,8.3616986E-5,-8.427575E-3,5.003993E-4,9.1081405E-5,9.889628E-4,-4.0161438E-5,-5.799748E-7,1.20883604E-4,3.7306767E-5,-1.01016616E-4],"categories":[],"categories_nodes":[],"categories_segments":[],"categories_sizes":[],"default_left":[0,0,0,0,0,0,0,0,0,0,0,0,0,0,0],"id":37,"left_children":[1,3,5,7,9,11,13,-1,-1,-1,-1,-1,-1,-1,-1],"loss_changes":[1.2452502E1,4.0330095E0,2.3418696E0,4.31583E0,4.5504036E0,2.2841609E0,4.6431136E0,0E0,0E0,0E0,0E0,0E0,0E0,0E0,0E0],"parents":[2147483647,0,0,1,1,2,2,3,3,4,4,5,5,6,6],"right_children":[2,4,6,8,10,12,14,-1,-1,-1,-1,-1,-1,-1,-1],"split_conditions":[-6.728866E-1,6.428352E-2,3.602E1,3.9986813E1,5E1,7.103001E-1,4.7164178E-1,5.003993E-4,9.1081405E-5,9.889628E-4,-4.0161438E-5,-5.799748E-7,1.20883604E-4,3.7306767E-5,-1.01016616E-4],"split_indices":[7,13,15,14,17,5,30,0,0,0,0,0,0,0,0],"split_type":[0,0,0,0,0,0,0,0,0,0,0,0,0,0,0],"sum_hessian":[6.31625E5,4.567E3,6.27058E5,3.863E3,7.04E2,5.92867E5,3.4191E4,1.275E3,2.588E3,5.06E2,1.98E2,5.87687E5,5.18E3,1.2971E4,2.122E4],"tree_param":{"num_deleted":"0","num_feature":"40","num_nodes":"15","size_leaf_vector":"1"}},{"base_weights":[1.46960765E-5,5.3985972E-2,-3.8039158E-4,6.114499E-2,-8.111086E-2,9.244601E-5,-8.598685E-3,1.6038629E-4,5.6002225E-4,4.2304522E-4,-6.400764E-4,-4.8585053E-7,1.1753089E-4,6.0562325E-5,-8.9767316E-5],"categories":[],"categories_nodes":[],"categories_segments":[],"categories_sizes":[],"default_left":[0,0,0,0,0,0,0,0,0,0,0,0,0,0,0],"id":38,"left_children":[1,3,5,7,9,11,13,-1,-1,-1,-1,-1,-1,-1,-1],"loss_changes":[1.3467238E1,4.447489E0,2.4364007E0,5.2337914E0,1.0889508E0,2.1291356E0,4.5550723E0,0E0,0E0,0E0,0E0,0E0,0E0,0E0,0E0],"parents":[2147483647,0,0,1,1,2,2,3,3,4,4,5,5,6,6],"right_children":[2,4,6,8,10,12,14,-1,-1,-1,-1,-1,-1,-1,-1],"split_conditions":[-6.728866E-1,9.802817E-1,3.602E1,1.0801761E-2,9.250721E-1,7.103001E-1,3.8439307E-1,1.6038629E-4,5.6002225E-4,4.2304522E-4,-6.400764E-4,-4.8585053E-7,1.1753089E-4,6.0562325E-5,-8.9767316E-5],"split_indices":[7,26,15,2,27,5,31,0,0,0,0,0,0,0,0],"split_type":[0,0,0,0,0,0,0,0,0,0,0,0,0,0,0],"sum_hessian":[6.31568E5,4.588E3,6.2698E5,4.358E3,2.3E2,5.92871E5,3.4109E4,2.268E3,2.09E3,3.7E1,1.93E2,5.87757E5,5.114E3,9.13E3,2.4979E4],"tree_param":{"num_deleted":"0","num_feature":"40","num_nodes":"15","size_leaf_vector":"1"}},{"base_weights":[5.686348E-5,4.4731755E-2,-1.1653796E-4,8.595722E-2,-8.673557E-3,-4.8335563E-4,1.3315626E-2,7.587157E-4,1.1623232E-4,-2.4581276E-4,4.7114253E-4,4.495692E-6,-1.6186434E-5,2.1483863E-4,2.5603858E-5],"categories":[0,3,5,7,8,10,11,3,4,9,11],"categories_nodes":[3,5],"categories_segments":[0,7],"categories_sizes":[7,4],"default_left":[0,1,0,1,0,1,0,0,0,0,0,0,0,0,0],"id":39,"left_children":[1,3,5,7,9,11,13,-1,-1,-1,-1,-1,-1,-1,-1],"loss_changes":[4.8942037E0,5.3793E0,3.1008556E0,4.1459885E0,3.284435E0,1.8015938E0,3.5588613E0,0E0,0E0,0E0,0E0,0E0,0E0,0E0,0E0],"parents":[2147483647,0,0,1,1,2,2,3,3,4,4,5,5,6,6],"right_children":[2,4,6,8,10,12,14,-1,-1,-1,-1,-1,-1,-1,-1],"split_conditions":[-4.945362E-1,4.6E1,9.538905E-1,1E-45,8.9E1,1E-45,3.0294595E-2,7.587157E-4,1.1623232E-4,-2.4581276E-4,4.7114253E-4,4.495692E-6,-1.6186434E-5,2.1483863E-4,2.5603858E-5],"split_indices":[1,18,29,39,18,39,21,0,0,0,0,0,0,0,0],"split_type":[0,0,0,1,0,1,0,0,0,0,0,0,0,0,0],"sum_hessian":[6.31777E5,2.441E3,6.29336E5,1.377E3,1.064E3,6.12608E5,1.6728E4,8.11E2,5.66E2,7.74E2,2.9E2,3.96981E5,2.15627E5,4.515E3,1.2213E4],"tree_param":{"num_deleted":"0","num_feature":"40","num_nodes":"15","size_leaf_vector":"1"}},{"base_weights":[6.476669E-5,5.3504582E-2,-3.3291217E-4,-1.0674585E-1,5.8868185E-2,1.2504062E-4,-8.27567E-3,-8.3259586E-4,6.846786E-4,1.4069733E-4,4.8691613E-4,-3.7384552E-7,1.2697681E-4,4.9935916E-5,-8.989401E-5],"categories":[],"categories_nodes":[],"categories_segments":[],"categories_sizes":[],"default_left":[0,0,0,0,0,0,0,0,0,0,0,0,0,0,0],"id":40,"left_children":[1,3,5,7,9,11,13,-1,-1,-1,-1,-1,-1,-1,-1],"loss_changes":[1.3423564E1,4.021042E0,2.2805684E0,1.3234808E0,3.988451E0,2.468187E0,4.2462645E0,0E0,0E0,0E0,0E0,0E0,0E0,0E0,0E0],"parents":[2147483647,0,0,1,1,2,2,3,3,4,4,5,5,6,6],"right_children":[2,4,6,8,10,12,14,-1,-1,-1,-1,-1,-1,-1,-1],"split_conditions":[-6.728866E-1,2.3791821E-1,3.602E1,1.0234331E0,-4.4816067E-3,7.103001E-1,4.0419948E-1,-8.3259586E-4,6.846786E-4,1.4069733E-4,4.8691613E-4,-3.7384552E-7,1.2697681E-4,4.9935916E-5,-8.989401E-5],"split_indices":[7,37,15,5,2,5,30,0,0,0,0,0,0,0,0],"split_type":[0,0,0,0,0,0,0,0,0,0,0,0,0,0,0],"sum_hessian":[6.31638E5,4.664E3,6.26974E5,1.5E2,4.514E3,5.92797E5,3.4177E4,1.29E2,2.1E1,1.929E3,2.585E3,5.87706E5,5.091E3,1.0321E4,2.3856E4],"tree_param":{"num_deleted":"0","num_feature":"40","num_nodes":"15","size_leaf_vector":"1"}},{"base_weights":[3.6952322E-5,3.934848E-2,-2.722796E-4,-9.02648E-2,4.6130866E-2,-4.967796E-4,1.5581254E-2,-7.026622E-4,9.610585E-4,1.9657366E-4,7.852573E-4,-2.1517824E-6,-3.090687E-4,4.6137066E-4,6.893695E-5],"categories":[],"categories_nodes":[],"categories_segments":[],"categories_sizes":[],"default_left":[0,0,0,0,0,0,0,0,0,0,0,0,0,0,0],"id":41,"left_children":[1,3,5,7,9,11,13,-1,-1,-1,-1,-1,-1,-1,-1],"loss_changes":[7.6782885E0,4.3407845E0,2.2305012E0,2.039368E0,5.065095E0,4.0472045E0,2.038103E0,0E0,0E0,0E0,0E0,0E0,0E0,0E0,0E0],"parents":[2147483647,0,0,1,1,2,2,3,3,4,4,5,5,6,6],"right_children":[2,4,6,8,10,12,14,-1,-1,-1,-1,-1,-1,-1,-1],"split_conditions":[-4.574007E-1,2.3305082E0,2.2697778E0,1.0234331E0,5.4228004E1,1.1654495E0,3.301887E-2,-7.026622E-4,9.610585E-4,1.9657366E-4,7.852573E-4,-2.1517824E-6,-3.090687E-4,4.6137066E-4,6.893695E-5],"split_indices":[6,20,10,5,14,5,34,0,0,0,0,0,0,0,0],"split_type":[0,0,0,0,0,0,0,0,0,0,0,0,0,0,0],"sum_hessian":[6.31623E5,4.928E3,6.26695E5,2.44E2,4.684E3,6.17946E5,8.749E3,2.18E2,2.6E1,4.136E3,5.48E2,6.16519E5,1.427E3,4.62E2,8.287E3],"tree_param":{"num_deleted":"0","num_feature":"40","num_nodes":"15","size_leaf_vector":"1"}},{"base_weights":[1.4455568E-5,5.4564085E-2,-3.8338444E-4,4.082591E-2,1.2880513E-1,7.05584E-5,-8.232787E-3,-2.7520404E-5,3.4940013E-4,9.855144E-4,1.9387031E-5,-1.1526505E-6,7.136701E-5,3.832862E-5,-9.9505996E-5],"categories":[],"categories_nodes":[],"categories_segments":[],"categories_sizes":[],"default_left":[0,0,0,0,0,0,0,0,0,0,0,0,0,0,0],"id":42,"left_children":[1,3,5,7,9,11,13,-1,-1,-1,-1,-1,-1,-1,-1],"loss_changes":[1.3715079E1,4.6579266E0,2.2355285E0,3.4954515E0,3.7855682E0,1.9777944E0,4.6177588E0,0E0,0E0,0E0,0E0,0E0,0E0,0E0,0E0],"parents":[2147483647,0,0,1,1,2,2,3,3,4,4,5,5,6,6],"right_children":[2,4,6,8,10,12,14,-1,-1,-1,-1,-1,-1,-1,-1],"split_conditions":[-6.728866E-1,6.428352E-2,3.602E1,1.9612591E-1,5E1,9.594272E-1,4.7164178E-1,-2.7520404E-5,3.4940013E-4,9.855144E-4,1.9387031E-5,-1.1526505E-6,7.136701E-5,3.832862E-5,-9.9505996E-5],"split_indices":[7,13,15,33,17,29,30,0,0,0,0,0,0,0,0],"split_type":[0,0,0,0,0,0,0,0,0,0,0,0,0,0,0],"sum_hessian":[6.31969E5,4.574E3,6.27395E5,3.862E3,7.12E2,5.93097E5,3.4298E4,1.171E3,2.691E3,5.32E2,1.8E2,5.80348E5,1.2749E4,1.2961E4,2.1337E4],"tree_param":{"num_deleted":"0","num_feature":"40","num_nodes":"15","size_leaf_vector":"1"}},{"base_weights":[-3.3249094E-6,4.748632E-2,-1.902895E-4,8.493599E-2,-3.3454888E-3,4.964133E-2,-2.6305928E-4,1.6102509E-4,8.0144766E-4,-2.0322952E-4,5.0556E-4,9.272679E-4,1.8559974E-4,7.4782524E-6,-1.2539323E-5],"categories":[2,3,4,9,11],"categories_nodes":[6],"categories_segments":[0],"categories_sizes":[5],"default_left":[0,1,0,0,0,0,1,0,0,0,0,0,0,0,0],"id":43,"left_children":[1,3,5,7,9,11,13,-1,-1,-1,-1,-1,-1,-1,-1],"loss_changes":[5.609904E0,4.7171483E0,2.2821853E0,4.400036E0,3.06886E0,1.7709961E0,1.8780327E0,0E0,0E0,0E0,0E0,0E0,0E0,0E0,0E0],"parents":[2147483647,0,0,1,1,2,2,3,3,4,4,5,5,6,6],"right_children":[2,4,6,8,10,12,14,-1,-1,-1,-1,-1,-1,-1,-1],"split_conditions":[-4.945362E-1,4.7E1,-2.856701E-1,9.044586E-1,9E1,1.0928961E-2,1E-45,1.6102509E-4,8.0144766E-4,-2.0322952E-4,5.0556E-4,9.272679E-4,1.8559974E-4,7.4782524E-6,-1.2539323E-5],"split_indices":[1,18,19,27,18,31,39,0,0,0,0,0,0,0,0],"split_type":[0,0,0,0,0,0,1,0,0,0,0,0,0,0,0],"sum_hessian":[6.31822E5,2.476E3,6.29346E5,1.425E3,1.051E3,9.16E2,6.2843E5,6.96E2,7.29E2,7.79E2,2.72E2,1.22E2,7.94E2,3.46091E5,2.82339E5],"tree_param":{"num_deleted":"0","num_feature":"40","num_nodes":"15","size_leaf_vector":"1"}}]},"name":"gbtree"},"learner_model_param":{"base_score":"[1.3351334E-3]","boost_from_average":"1","num_class":"0","num_feature":"40","num_target":"1"},"objective":{"name":"reg:squarederror","reg_loss_param":{"scale_pos_weight":"1"}}},"version":[3,2,0]}