{"learner":{"attributes":{"best_iteration":"13","best_score":"0.018149","scikit_learn":"{\"_estimator_type\": \"regressor\"}"},"feature_names":["ret_21d","ret_63d","macd_hist","atr_pct","vol_20d","vol_60d","dist_sma200","dist_52w_high","zscore_20d","zscore_60d","beta_60d","excess_ret_5d","excess_ret_21d","spy_ret_21d","spy_rsi_14","vix_level","excess_ret_21d_vs_sector","days_to_earnings","days_since_earnings","earnings_yield","book_to_market","roa","debt_to_equity","current_ratio","sales_growth_yoy","ret_63d_rank","macd_hist_rank","atr_pct_rank","vol_20d_rank","vol_60d_rank","dist_sma200_rank","dist_52w_high_rank","zscore_20d_rank","zscore_60d_rank","earnings_yield_rank","book_to_market_rank","roa_rank","debt_to_equity_rank","current_ratio_rank","insider_buy_count_60d","insider_sell_count_60d","insider_net_dollar_60d","days_since_last_insider_buy","gics_sector"],"feature_types":["float","float","float","float","float","float","float","float","float","float","float","float","float","float","float","float","float","float","float","float","float","float","float","float","float","float","float","float","float","float","float","float","float","float","float","float","float","float","float","float","float","float","float","c"],"gradient_booster":{"model":{"cats":{"enc":[],"feature_segments":[],"sorted_idx":[]},"gbtree_model_param":{"num_parallel_tree":"1","num_trees":"14"},"iteration_indptr":[0,1,2,3,4,5,6,7,8,9,10,11,12,13,14],"tree_info":[0,0,0,0,0,0,0,0,0,0,0,0,0,0],"trees":[{"base_weights":[-9.387403E-6,6.4503394E-2,-4.876304E-4,-1.2611163E-1,7.0314445E-2,-5.4633074E-7,-8.951818E-3,-1.7147367E-1,1.260327E-1,2.8531099E-2,9.7911716E-2,-2.027896E-4,2.3254564E-2,9.664623E-3,-1.7052688E-2,-1.1527957E-3,-2.1787582E-5,9.5433265E-4,-1.5447622E-4,4.5114715E-4,-1.3179073E-4,5.640611E-4,-8.755801E-5,5.7022903E-6,-1.1271759E-5,5.366458E-4,9.51448E-5,3.9569215E-5,6.054222E-4,-4.9097533E-5,-2.9023242E-4],"categories":[3,4,8,9,11],"categories_nodes":[11],"categories_segments":[0],"categories_sizes":[5],"default_left":[0,0,0,0,0,0,0,0,0,0,0,1,0,0,0,0,0,0,0,0,0,0,0,0,0,0,0,0,0,0,0],"id":0,"left_children":[1,3,5,7,9,11,13,15,17,19,21,23,25,27,29,-1,-1,-1,-1,-1,-1,-1,-1,-1,-1,-1,-1,-1,-1,-1,-1],"loss_changes":[2.3244707E1,6.1411457E0,3.0832677E0,1.8764989E0,6.203682E0,3.3259451E0,6.1371937E0,1.2583232E0,2.3758319E-1,6.9472775E0,4.650873E0,1.8519653E0,2.3104253E0,2.5790594E0,8.3899765E0,0E0,0E0,0E0,0E0,0E0,0E0,0E0,0E0,0E0,0E0,0E0,0E0,0E0,0E0,0E0,0E0],"parents":[2147483647,0,0,1,1,2,2,3,3,4,4,5,5,6,6,7,7,8,8,9,9,10,10,11,11,12,12,13,13,14,14],"right_children":[2,4,6,8,10,12,14,16,18,20,22,24,26,28,30,-1,-1,-1,-1,-1,-1,-1,-1,-1,-1,-1,-1,-1,-1,-1,-1],"split_conditions":[-6.728866E-1,1.8814147E-1,3.602E1,1.0234331E0,-1.5553414E-2,7.103001E-1,4.0419948E-1,3.1599432E-2,-1.3952832E-1,3.9986813E1,9.67655E-1,1E-45,3.9986813E1,2.5691173E0,5.4228004E1,-1.1527957E-3,-2.1787582E-5,9.5433265E-4,-1.5447622E-4,4.5114715E-4,-1.3179073E-4,5.640611E-4,-8.755801E-5,5.7022903E-6,-1.1271759E-5,5.366458E-4,9.51448E-5,3.9569215E-5,6.054222E-4,-4.9097533E-5,-2.9023242E-4],"split_indices":[7,22,15,5,2,5,30,1,0,14,26,43,14,10,14,0,0,0,0,0,0,0,0,0,0,0,0,0,0,0,0],"split_type":[0,0,0,0,0,0,0,0,0,0,0,1,0,0,0,0,0,0,0,0,0,0,0,0,0,0,0,0,0,0,0],"sum_hessian":[7.53407E5,5.544E3,7.47863E5,1.64E2,5.38E3,7.07168E5,4.0695E4,1.39E2,2.5E1,2.14E3,3.24E3,7.01071E5,6.097E3,1.2339E4,2.8356E4,1.05E2,3.4E1,1.8E1,7E0,1.019E3,1.121E3,2.923E3,3.17E2,4.22754E5,2.78317E5,3.27E2,5.77E3,1.2125E4,2.14E2,2.3883E4,4.473E3],"tree_param":{"num_deleted":"0","num_feature":"44","num_nodes":"31","size_leaf_vector":"1"}},{"base_weights":[2.5320254E-5,7.176834E-2,-2.5433156E-4,1.0329933E-1,1.992779E-2,-6.4845686E-4,1.2527234E-2,-7.358593E-4,1.3558047E-1,1.0145044E-2,3.7087247E-1,-5.554806E-4,-8.521368E-2,4.2658984E-3,3.0707281E-2,-7.918655E-4,1.4909578E-4,5.40087E-4,1.0450381E-3,4.0341113E-4,-1.9101072E-4,1.7425555E-4,2.2387982E-3,1.1549091E-4,-3.565174E-6,-7.0200046E-4,-1.0958328E-4,3.5741745E-4,6.8142676E-6,1.6259805E-4,-2.0537477E-3],"categories":[],"categories_nodes":[],"categories_segments":[],"categories_sizes":[],"default_left":[0,1,0,0,1,0,0,0,0,0,0,0,0,0,0,0,0,0,0,0,0,0,0,0,0,0,0,0,0,0,0],"id":1,"left_children":[1,3,5,7,9,11,13,15,17,19,21,23,25,27,29,-1,-1,-1,-1,-1,-1,-1,-1,-1,-1,-1,-1,-1,-1,-1,-1],"loss_changes":[1.5124283E1,4.784417E0,3.7827377E0,6.112314E0,3.8005476E0,5.727464E0,3.3736012E0,1.9887607E0,2.8610458E0,3.521928E0,6.797781E-1,2.3967402E0,2.6614313E0,2.9745255E0,3.3817177E0,0E0,0E0,0E0,0E0,0E0,0E0,0E0,0E0,0E0,0E0,0E0,0E0,0E0,0E0,0E0,0E0],"parents":[2147483647,0,0,1,1,2,2,3,3,4,4,5,5,6,6,7,7,8,8,9,9,10,10,11,11,12,12,13,13,14,14],"right_children":[2,4,6,8,10,12,14,16,18,20,22,24,26,28,30,-1,-1,-1,-1,-1,-1,-1,-1,-1,-1,-1,-1,-1,-1,-1,-1],"split_conditions":[-5.409684E-1,5.8E1,2.0093417E0,9.478673E-3,2.4747865E0,1.431114E0,6.287049E-1,1.8814147E-1,2.1844466E0,3.967144E1,1.8237082E-2,-4.066635E-1,1.79E2,-1.7216803E-1,2.1E1,-7.918655E-4,1.4909578E-4,5.40087E-4,1.0450381E-3,4.0341113E-4,-1.9101072E-4,1.7425555E-4,2.2387982E-3,1.1549091E-4,-3.565174E-6,-7.0200046E-4,-1.0958328E-4,3.5741745E-4,6.8142676E-6,1.6259805E-4,-2.0537477E-3],"split_indices":[6,18,10,30,20,5,5,22,10,14,32,6,42,24,39,0,0,0,0,0,0,0,0,0,0,0,0,0,0,0,0],"split_type":[0,0,0,0,0,0,0,0,0,0,0,0,0,0,0,0,0,0,0,0,0,0,0,0,0,0,0,0,0,0,0],"sum_hessian":[7.53837E5,2.927E3,7.5091E5,1.82E3,1.107E3,7.28448E5,2.2462E4,4.31E2,1.389E3,1.077E3,3E1,7.27648E5,8E2,1.5444E4,7.018E3,7E1,3.61E2,9.69E2,4.2E2,4.4E2,6.37E2,5E0,2.5E1,4.442E3,7.23206E5,4.4E2,3.6E2,6.6E2,1.4784E4,7E3,1.8E1],"tree_param":{"num_deleted":"0","num_feature":"44","num_nodes":"31","size_leaf_vector":"1"}},{"base_weights":[2.5580835E-5,5.1235806E-2,-1.7724851E-4,9.39852E-2,-6.1345594E-3,-5.462494E-4,1.3435894E-2,1.9856215E-1,6.4553015E-2,-1.5854867E-2,2.8485787E-1,-4.9083086E-4,-4.834676E-2,3.6433753E-2,4.8791766E-3,3.2412697E-4,1.1680148E-3,5.516471E-4,1.231967E-4,-2.3003994E-4,3.3477152E-4,7.6820405E-4,2.1087448E-3,-4.0653917E-6,4.057795E-5,-8.193487E-4,-1.00971025E-4,1.7861174E-4,2.4301156E-3,1.6627928E-5,5.9274794E-4],"categories":[],"categories_nodes":[],"categories_segments":[],"categories_sizes":[],"default_left":[0,1,0,0,1,0,0,0,0,0,0,0,0,1,0,0,0,0,0,0,0,0,0,0,0,0,0,0,0,0,0],"id":2,"left_children":[1,3,5,7,9,11,13,15,17,19,21,23,25,27,29,-1,-1,-1,-1,-1,-1,-1,-1,-1,-1,-1,-1,-1,-1,-1,-1],"loss_changes":[7.8249574E0,7.2890387E0,3.7693248E0,5.241503E0,3.5895681E0,1.9353058E0,3.8969564E0,1.5170565E0,2.3330092E0,2.914348E0,7.0406103E-1,1.8753389E0,2.7086792E0,3.4870925E0,2.6063042E0,0E0,0E0,0E0,0E0,0E0,0E0,0E0,0E0,0E0,0E0,0E0,0E0,0E0,0E0,0E0,0E0],"parents":[2147483647,0,0,1,1,2,2,3,3,4,4,5,5,6,6,7,7,8,8,9,9,10,10,11,11,12,12,13,13,14,14],"right_children":[2,4,6,8,10,12,14,16,18,20,22,24,26,28,30,-1,-1,-1,-1,-1,-1,-1,-1,-1,-1,-1,-1,-1,-1,-1,-1],"split_conditions":[-4.945362E-1,4.7E1,9.538905E-1,6.2E1,1.1064898E0,1.431114E0,3.0294595E-2,8.4594595E-1,8.595989E-2,8.9E1,1.0477862E0,6.082681E-1,8.544474E-1,9.6363634E-1,1.0339114E-1,3.2412697E-4,1.1680148E-3,5.516471E-4,1.231967E-4,-2.3003994E-4,3.3477152E-4,7.6820405E-4,2.1087448E-3,-4.0653917E-6,4.057795E-5,-8.193487E-4,-1.00971025E-4,1.7861174E-4,2.4301156E-3,1.6627928E-5,5.9274794E-4],"split_indices":[1,18,29,17,22,5,21,27,30,18,4,5,28,38,13,0,0,0,0,0,0,0,0,0,0,0,0,0,0,0,0],"split_type":[0,0,0,0,0,0,0,0,0,0,0,0,0,0,0,0,0,0,0,0,0,0,0,0,0,0,0,0,0,0,0],"sum_hessian":[7.53346E5,2.972E3,7.50374E5,1.703E3,1.269E3,7.30571E5,1.9803E4,3.74E2,1.329E3,1.228E3,4.1E1,7.29725E5,8.46E2,5.37E3,1.4433E4,6.8E1,3.06E2,6.41E2,6.88E2,9.04E2,3.24E2,2E1,2.1E1,7.04269E5,2.5456E4,1.72E2,6.74E2,5.352E3,1.8E1,1.4225E4,2.08E2],"tree_param":{"num_deleted":"0","num_feature":"44","num_nodes":"31","size_leaf_vector":"1"}},{"base_weights":[2.40817E-5,6.469682E-2,-4.485292E-4,-1.1058081E-1,7.063155E-2,3.5239722E-5,-8.854946E-3,-1.4881098E-1,1.3623552E-1,2.9712884E-2,9.7850144E-2,-1.6341965E-4,2.2798914E-2,1.2069419E-2,-1.3805217E-2,-2.7028256E-5,-1.1305498E-3,9.5205754E-4,-7.229203E-5,-2.8067938E-4,2.1847703E-4,5.4082286E-4,-4.4870967E-4,6.1266446E-6,-1.1424548E-5,7.188008E-4,1.0342095E-4,3.5896263E-4,2.1497788E-5,-1.1897907E-4,2.0922782E-5],"categories":[3,4,8,9,11,0,3,4,5,6,7,8,9,10,11],"categories_nodes":[11,13],"categories_segments":[0,5],"categories_sizes":[5,10],"default_left":[0,0,0,0,0,0,0,0,0,0,0,1,0,1,1,0,0,0,0,0,0,0,0,0,0,0,0,0,0,0,0],"id":3,"left_children":[1,3,5,7,9,11,13,15,17,19,21,23,25,27,29,-1,-1,-1,-1,-1,-1,-1,-1,-1,-1,-1,-1,-1,-1,-1,-1],"loss_changes":[2.3029047E1,5.68606E0,3.0418494E0,1.6896448E0,5.8883533E0,3.198456E0,4.2159715E0,1.6117144E0,1.8098405E-1,2.3318553E0,4.710619E0,1.979711E0,1.8457255E0,3.562015E0,5.585016E0,0E0,0E0,0E0,0E0,0E0,0E0,0E0,0E0,0E0,0E0,0E0,0E0,0E0,0E0,0E0,0E0],"parents":[2147483647,0,0,1,1,2,2,3,3,4,4,5,5,6,6,7,7,8,8,9,9,10,10,11,11,12,12,13,13,14,14],"right_children":[2,4,6,8,10,12,14,16,18,20,22,24,26,28,30,-1,-1,-1,-1,-1,-1,-1,-1,-1,-1,-1,-1,-1,-1,-1,-1],"split_conditions":[-6.728866E-1,2.3791821E-1,3.602E1,1.0234331E0,-1.5553414E-2,7.103001E-1,-5.2258974E-1,2.5670977E0,-3.251215E-1,5.0147492E-2,9.3891585E-1,1E-45,-3.2776204E-1,1E-45,6.1E1,-2.7028256E-5,-1.1305498E-3,9.5205754E-4,-7.229203E-5,-2.8067938E-4,2.1847703E-4,5.4082286E-4,-4.4870967E-4,6.1266446E-6,-1.1424548E-5,7.188008E-4,1.0342095E-4,3.5896263E-4,2.1497788E-5,-1.1897907E-4,2.0922782E-5],"split_indices":[7,37,15,5,2,5,7,23,1,26,2,43,24,43,18,0,0,0,0,0,0,0,0,0,0,0,0,0,0,0,0],"split_type":[0,0,0,0,0,0,0,0,0,0,0,1,0,1,0,0,0,0,0,0,0,0,0,0,0,0,0,0,0,0,0],"sum_hessian":[7.53444E5,5.466E3,7.47978E5,1.79E2,5.287E3,7.07276E5,4.0702E4,1.55E2,2.4E1,2.112E3,3.175E3,7.01157E5,6.119E3,7.787E3,3.2915E4,5.2E1,1.03E2,1.8E1,6E0,2.82E2,1.83E3,3.044E3,1.31E2,4.23043E5,2.78114E5,1.3E2,5.989E3,9.27E2,6.86E3,2.1519E4,1.1396E4],"tree_param":{"num_deleted":"0","num_feature":"44","num_nodes":"31","size_leaf_vector":"1"}},{"base_weights":[4.1488005E-5,4.8609596E-2,-3.4114812E-4,-4.705764E-3,6.965539E-2,1.234617E-4,-8.594128E-3,-1.4268073E-1,1.3467888E-2,1.0397523E-1,3.495895E-2,-1.1335109E-4,2.5444763E-2,1.1528621E-2,-1.6646907E-2,8.6014357E-4,-8.3393767E-4,4.0051094E-4,-2.4662243E-4,5.815214E-4,-3.791478E-4,-1.3528565E-3,1.9486008E-4,6.1960936E-6,-1.0883872E-5,6.4189057E-4,1.0349764E-4,-6.446364E-5,1.15314215E-4,-4.7119403E-5,-2.8796832E-4],"categories":[0,3,5,6,7,9,10,11,4,6,8,3,4,8,9,11],"categories_nodes":[4,8,11],"categories_segments":[0,8,11],"categories_sizes":[8,3,5],"default_left":[0,0,0,0,1,0,0,0,1,0,0,1,0,0,0,0,0,0,0,0,0,0,0,0,0,0,0,0,0,0,0],"id":4,"left_children":[1,3,5,7,9,11,13,15,17,19,21,23,25,27,29,-1,-1,-1,-1,-1,-1,-1,-1,-1,-1,-1,-1,-1,-1,-1,-1],"loss_changes":[1.4003202E1,6.608984E0,2.8666935E0,4.180112E0,5.028599E0,4.244119E0,6.4566526E0,1.2390492E0,5.9028945E0,3.7187557E0,1.9991148E0,1.8750482E0,3.40948E0,3.0351844E0,8.390879E0,0E0,0E0,0E0,0E0,0E0,0E0,0E0,0E0,0E0,0E0,0E0,0E0,0E0,0E0,0E0,0E0],"parents":[2147483647,0,0,1,1,2,2,3,3,4,4,5,5,6,6,7,7,8,8,9,9,10,10,11,11,12,12,13,13,14,14],"right_children":[2,4,6,8,10,12,14,16,18,20,22,24,26,28,30,-1,-1,-1,-1,-1,-1,-1,-1,-1,-1,-1,-1,-1,-1,-1,-1],"split_conditions":[-4.574007E-1,1.6756757E-1,3.602E1,9.249012E-1,1E-45,7.103001E-1,4.0419948E-1,4.6001443E-1,1E-45,9.8876405E-1,1.8814147E-1,1E-45,3.967144E1,-1.5668258E-1,5.4228004E1,8.6014357E-4,-8.3393767E-4,4.0051094E-4,-2.4662243E-4,5.815214E-4,-3.791478E-4,-1.3528565E-3,1.9486008E-4,6.1960936E-6,-1.0883872E-5,6.4189057E-4,1.0349764E-4,-6.446364E-5,1.15314215E-4,-4.7119403E-5,-2.8796832E-4],"split_indices":[6,33,15,35,43,5,30,20,43,26,22,43,14,0,14,0,0,0,0,0,0,0,0,0,0,0,0,0,0,0,0],"split_type":[0,0,0,0,1,0,0,0,1,0,0,1,0,0,0,0,0,0,0,0,0,0,0,0,0,0,0,0,0,0,0],"sum_hessian":[7.53512E5,5.89E3,7.47622E5,1.667E3,4.223E3,7.07777E5,3.9845E4,1.94E2,1.473E3,2.123E3,2.1E3,7.01219E5,6.558E3,1.1388E4,2.8457E4,1.2E1,1.82E2,7.18E2,7.55E2,2.012E3,1.11E2,2.2E1,2.078E3,4.23059E5,2.7816E5,3.23E2,6.235E3,3.573E3,7.815E3,2.3974E4,4.483E3],"tree_param":{"num_deleted":"0","num_feature":"44","num_nodes":"31","size_leaf_vector":"1"}},{"base_weights":[-5.487207E-7,6.164469E-2,-4.5172812E-4,5.30455E-2,1.8311581E-1,1.31956E-2,-7.0452184E-4,-1.16973646E-1,5.853711E-2,1.3384089E-1,2.6306537E-1,2.552422E-3,1.2765555E-2,-5.525384E-4,-4.5085616E-2,-1.1620774E-3,1.6597274E-4,4.886559E-4,1.8932176E-4,8.3543593E-4,-3.7670627E-4,6.2733376E-4,1.5184253E-3,-8.4131854E-5,9.46779E-5,1.6556581E-4,-3.3371557E-6,-3.6724712E-4,-4.524584E-6],"categories":[0,3,4,6,9,10,11],"categories_nodes":[8],"categories_segments":[0],"categories_sizes":[7],"default_left":[0,0,0,0,0,0,0,0,1,0,0,0,0,0,0,0,0,0,0,0,0,0,0,0,0,0,0,0,0],"id":5,"left_children":[1,3,5,7,9,11,13,15,17,19,21,-1,23,25,27,-1,-1,-1,-1,-1,-1,-1,-1,-1,-1,-1,-1,-1,-1],"loss_changes":[2.0961926E1,5.7197876E0,2.5812454E0,4.7749996E0,1.4254389E0,2.8456464E0,4.9549437E0,2.641649E0,3.9483776E0,1.3792534E0,6.594353E-1,0E0,2.2902453E0,2.4258966E0,2.9681597E0,0E0,0E0,0E0,0E0,0E0,0E0,0E0,0E0,0E0,0E0,0E0,0E0,0E0,0E0],"parents":[2147483647,0,0,1,1,2,2,3,3,4,4,5,5,6,6,7,7,8,8,9,9,10,10,12,12,13,13,14,14],"right_children":[2,4,6,8,10,12,14,16,18,20,22,-1,24,26,28,-1,-1,-1,-1,-1,-1,-1,-1,-1,-1,-1,-1,-1,-1],"split_conditions":[-6.728866E-1,1.09797254E-1,-5.2258974E-1,1.6491228E-1,2.16E2,3.088803E-2,1.3511412E-1,9.401732E-1,1E-45,6.5E-1,-3.0483E5,2.552422E-3,-1.5446934E-1,-1.9463165E-1,6.2728733E1,-1.1620774E-3,1.6597274E-4,4.886559E-4,1.8932176E-4,8.3543593E-4,-3.7670627E-4,6.2733376E-4,1.5184253E-3,-8.4131854E-5,9.46779E-5,1.6556581E-4,-3.3371557E-6,-3.6724712E-4,-4.524584E-6],"split_indices":[7,13,7,37,42,37,13,4,43,33,41,0,12,13,14,0,0,0,0,0,0,0,0,0,0,0,0,0,0],"split_type":[0,0,0,0,0,0,0,0,1,0,0,0,0,0,0,0,0,0,0,0,0,0,0,0,0,0,0,0,0],"sum_hessian":[7.53672E5,5.476E3,7.48196E5,5.114E3,3.62E2,1.3607E4,7.34589E5,1.6E2,4.954E3,2.24E2,1.38E2,1.2E1,1.3595E4,7.32082E5,2.507E3,9.2E1,6.8E1,1.817E3,3.137E3,1.96E2,2.8E1,2.7E1,1.11E2,2.239E3,1.1356E4,2.227E3,7.29855E5,1.561E3,9.46E2],"tree_param":{"num_deleted":"0","num_feature":"44","num_nodes":"29","size_leaf_vector":"1"}},{"base_weights":[1.6702503E-5,6.231499E-2,-4.4442137E-4,-1.2514515E-1,6.7965426E-2,-3.6633876E-4,-4.5891885E-2,-2.3201498E-1,2.2613006E-2,2.797227E-2,9.395204E-2,1.673266E-2,-6.6223514E-4,-8.521345E-2,3.9971564E-2,-1.0156775E-3,-1.708494E-3,-1.5007345E-4,9.11602E-4,4.5035395E-4,-1.307318E-4,5.1894836E-4,-3.9877556E-4,2.5395483E-3,8.3368985E-5,-2.4938918E-6,-1.7459747E-4,-6.6347024E-4,-2.6526922E-4,6.509736E-4,-7.499112E-5],"categories":[],"categories_nodes":[],"categories_segments":[],"categories_sizes":[],"default_left":[0,0,0,0,0,0,0,0,0,0,0,0,0,0,0,0,0,0,0,0,0,0,0,0,0,0,0,0,0,0,0],"id":6,"left_children":[1,3,5,7,9,11,13,15,17,19,21,23,25,27,29,-1,-1,-1,-1,-1,-1,-1,-1,-1,-1,-1,-1,-1,-1,-1,-1],"loss_changes":[2.1648668E1,5.8651657E0,2.6545975E0,2.5585713E0,5.586132E0,3.7783265E0,4.3319187E0,3.1847048E-1,5.509776E-1,6.821455E0,4.263323E0,2.5443094E0,4.284038E0,1.3076978E0,1.925525E0,0E0,0E0,0E0,0E0,0E0,0E0,0E0,0E0,0E0,0E0,0E0,0E0,0E0,0E0,0E0,0E0],"parents":[2147483647,0,0,1,1,2,2,3,3,4,4,5,5,6,6,7,7,8,8,9,9,10,10,11,11,12,12,13,13,14,14],"right_children":[2,4,6,8,10,12,14,16,18,20,22,24,26,28,30,-1,-1,-1,-1,-1,-1,-1,-1,-1,-1,-1,-1,-1,-1,-1,-1],"split_conditions":[-6.728866E-1,1.8814147E-1,1.431114E0,9.401732E-1,-1.5553414E-2,-5.2258974E-1,2.8795075E0,8.5E1,1.0234331E0,3.9986813E1,9.3891585E-1,4.138565E-2,9.2246014E-1,4.5846155E-1,8.4682083E-1,-1.0156775E-3,-1.708494E-3,-1.5007345E-4,9.11602E-4,4.5035395E-4,-1.307318E-4,5.1894836E-4,-3.9877556E-4,2.5395483E-3,8.3368985E-5,-2.4938918E-6,-1.7459747E-4,-6.6347024E-4,-2.6526922E-4,6.509736E-4,-7.499112E-5],"split_indices":[7,22,5,4,2,7,10,18,5,14,2,22,5,26,25,0,0,0,0,0,0,0,0,0,0,0,0,0,0,0,0],"split_type":[0,0,0,0,0,0,0,0,0,0,0,0,0,0,0,0,0,0,0,0,0,0,0,0,0,0,0,0,0,0,0],"sum_hessian":[7.53594E5,5.537E3,7.48057E5,1.62E2,5.375E3,7.46774E5,1.283E3,9.4E1,6.8E1,2.117E3,3.258E3,1.2703E4,7.34071E5,8.8E2,4.03E2,7.1E1,2.3E1,5.1E1,1.7E1,9.97E2,1.12E3,3.12E3,1.38E2,1.1E1,1.2692E4,7.30275E5,3.796E3,3.76E2,5.04E2,1.55E2,2.48E2],"tree_param":{"num_deleted":"0","num_feature":"44","num_nodes":"31","size_leaf_vector":"1"}},{"base_weights":[-1.6716851E-5,6.385376E-2,-4.8516996E-4,-1.2105187E-1,6.973032E-2,-4.0406504E-4,-4.7257453E-2,-1.6388103E-1,1.2557377E-1,3.0005427E-2,9.598162E-2,1.6021224E-2,-6.874187E-4,-8.717614E-2,3.7992705E-2,1.3749364E-5,-1.1424641E-3,9.4595505E-4,-1.4133037E-4,4.5832965E-4,-1.2733473E-4,5.602299E-4,-7.4579504E-5,8.832095E-5,-1.3978068E-3,-2.7537214E-6,-2.2711916E-4,-3.3612212E-4,-7.763658E-4,6.374332E-4,-1.4499777E-4],"categories":[],"categories_nodes":[],"categories_segments":[],"categories_sizes":[],"default_left":[0,0,0,0,0,0,0,0,0,0,0,1,0,0,0,0,0,0,0,0,0,0,0,0,0,0,0,0,0,0,0],"id":7,"left_children":[1,3,5,7,9,11,13,15,17,19,21,23,25,27,29,-1,-1,-1,-1,-1,-1,-1,-1,-1,-1,-1,-1,-1,-1,-1,-1],"loss_changes":[2.2548138E1,5.9624195E0,2.8379617E0,1.7857704E0,5.5457306E0,3.4758425E0,4.407123E0,1.4322808E0,2.284385E-1,6.937541E0,4.835659E0,4.633913E0,4.771088E0,1.2219386E0,2.3781986E0,0E0,0E0,0E0,0E0,0E0,0E0,0E0,0E0,0E0,0E0,0E0,0E0,0E0,0E0,0E0,0E0],"parents":[2147483647,0,0,1,1,2,2,3,3,4,4,5,5,6,6,7,7,8,8,9,9,10,10,11,11,12,12,13,13,14,14],"right_children":[2,4,6,8,10,12,14,16,18,20,22,24,26,28,30,-1,-1,-1,-1,-1,-1,-1,-1,-1,-1,-1,-1,-1,-1,-1,-1],"split_conditions":[-6.728866E-1,1.6491228E-1,1.431114E0,1.0234331E0,-1.5553414E-2,-5.2258974E-1,2.8795075E0,2.5670977E0,-3.251215E-1,3.9986813E1,9.636804E-1,1.5413813E-1,1.3511412E-1,4.9343833E-1,3.6832586E-1,1.3749364E-5,-1.1424641E-3,9.4595505E-4,-1.4133037E-4,4.5832965E-4,-1.2733473E-4,5.602299E-4,-7.4579504E-5,8.832095E-5,-1.3978068E-3,-2.7537214E-6,-2.2711916E-4,-3.3612212E-4,-7.763658E-4,6.374332E-4,-1.4499777E-4],"split_indices":[7,37,5,5,2,7,10,23,1,14,26,21,13,30,1,0,0,0,0,0,0,0,0,0,0,0,0,0,0,0,0],"split_type":[0,0,0,0,0,0,0,0,0,0,0,0,0,0,0,0,0,0,0,0,0,0,0,0,0,0,0,0,0,0,0],"sum_hessian":[7.53606E5,5.487E3,7.48119E5,1.69E2,5.318E3,7.46824E5,1.295E3,1.44E2,2.5E1,2.116E3,3.202E3,1.2665E4,7.34159E5,8.82E2,4.13E2,3.8E1,1.06E2,1.8E1,7E0,1.014E3,1.102E3,2.85E3,3.52E2,1.261E4,5.5E1,7.31676E5,2.483E3,6.63E2,2.19E2,1.79E2,2.34E2],"tree_param":{"num_deleted":"0","num_feature":"44","num_nodes":"31","size_leaf_vector":"1"}},{"base_weights":[6.344635E-6,5.0538488E-2,-1.909373E-4,9.1788135E-2,-5.167343E-3,-5.4303085E-4,1.2811342E-2,1.9715588E-1,6.3236736E-2,3.8835764E-1,-1.2896445E-2,7.59161E-4,-2.9410527E-3,7.8418605E-2,1.0141435E-2,1.2365719E-3,3.7049287E-4,3.735481E-4,-7.214637E-4,1.138995E-3,2.2053786E-3,-2.395168E-4,4.0391044E-4,9.5272907E-7,8.0342186E-5,-1.263898E-5,-1.775397E-4,-2.5961603E-4,5.009332E-4,3.5240912E-4,3.90003E-5],"categories":[3,4,9,11,0,2,3,5,7,8,10,11],"categories_nodes":[5,7],"categories_segments":[0,4],"categories_sizes":[4,8],"default_left":[0,1,0,0,0,1,0,1,0,0,0,0,0,0,0,0,0,0,0,0,0,0,0,0,0,0,0,0,0,0,0],"id":8,"left_children":[1,3,5,7,9,11,13,15,17,19,21,23,25,27,29,-1,-1,-1,-1,-1,-1,-1,-1,-1,-1,-1,-1,-1,-1,-1,-1],"loss_changes":[7.513575E0,6.735046E0,3.4369802E0,5.065938E0,3.7930396E0,2.282567E0,3.4672081E0,2.0065336E0,2.6731663E0,1.6981626E-1,3.8208244E0,4.059807E0,3.8252976E0,1.9621449E0,2.807188E0,0E0,0E0,0E0,0E0,0E0,0E0,0E0,0E0,0E0,0E0,0E0,0E0,0E0,0E0,0E0,0E0],"parents":[2147483647,0,0,1,1,2,2,3,3,4,4,5,5,6,6,7,7,8,8,9,9,10,10,11,11,12,12,13,13,14,14],"right_children":[2,4,6,8,10,12,14,16,18,20,22,24,26,28,30,-1,-1,-1,-1,-1,-1,-1,-1,-1,-1,-1,-1,-1,-1,-1,-1],"split_conditions":[-4.945362E-1,4.7E1,9.538905E-1,6.1E1,-2.1304096E-1,1E-45,1.54639175E-2,1E-45,9.84326E-1,8.5252446E-1,8.9E1,5.736008E-1,1.0234331E0,9.649123E-1,-2.3731975E-1,1.2365719E-3,3.7049287E-4,3.735481E-4,-7.214637E-4,1.138995E-3,2.2053786E-3,-2.395168E-4,4.0391044E-4,9.5272907E-7,8.0342186E-5,-1.263898E-5,-1.775397E-4,-2.5961603E-4,5.009332E-4,3.5240912E-4,3.90003E-5],"split_indices":[1,18,29,17,24,43,34,43,26,5,18,5,5,29,24,0,0,0,0,0,0,0,0,0,0,0,0,0,0,0,0],"split_type":[0,0,0,0,0,1,0,1,0,0,0,0,0,0,0,0,0,0,0,0,0,0,0,0,0,0,0,0,0,0,0],"sum_hessian":[7.53688E5,2.931E3,7.50757E5,1.684E3,1.247E3,7.30963E5,1.9794E4,3.59E2,1.325E3,2.4E1,1.223E3,4.7372E5,2.57243E5,7.74E2,1.902E4,2.64E2,9.5E1,1.264E3,6.1E1,5E0,1.9E1,8.93E2,3.3E2,4.56258E5,1.7462E4,2.53516E5,3.727E3,1.02E2,6.72E2,7.78E2,1.8242E4],"tree_param":{"num_deleted":"0","num_feature":"44","num_nodes":"31","size_leaf_vector":"1"}},{"base_weights":[8.783977E-6,6.1396115E-2,-4.4180584E-4,5.2845933E-2,1.8322593E-1,-2.4276575E-4,-1.8793698E-2,-1.2312809E-1,5.8365524E-2,-3.910319E-2,1.9981907E-1,-6.311167E-4,1.2398246E-2,-2.0010588E-3,-4.5500197E-2,-1.1552139E-3,1.0746006E-4,3.1996056E-4,-5.242099E-4,-1.0084399E-3,1.8150816E-4,1.2522513E-3,5.281849E-4,-2.586536E-6,-2.2820507E-4,1.2672077E-4,-3.2458188E-6,-5.4570617E-5,2.3178203E-4,-2.4156779E-4,9.794972E-4],"categories":[],"categories_nodes":[],"categories_segments":[],"categories_sizes":[],"default_left":[0,0,0,0,0,0,0,0,0,0,0,0,0,0,1,0,0,0,0,0,0,0,0,0,0,0,0,0,0,0,0],"id":9,"left_children":[1,3,5,7,9,11,13,15,17,19,21,23,25,27,29,-1,-1,-1,-1,-1,-1,-1,-1,-1,-1,-1,-1,-1,-1,-1,-1],"loss_changes":[2.0840479E1,5.718569E0,2.7320762E0,4.9829645E0,1.3283348E0,3.6323924E0,3.5990002E0,2.3156545E0,3.4041252E0,2.956385E-1,1.4616623E0,3.9484804E0,3.564671E0,2.0251732E0,1.3048167E0,0E0,0E0,0E0,0E0,0E0,0E0,0E0,0E0,0E0,0E0,0E0,0E0,0E0,0E0,0E0,0E0],"parents":[2147483647,0,0,1,1,2,2,3,3,4,4,5,5,6,6,7,7,8,8,9,9,10,10,11,11,12,12,13,13,14,14],"right_children":[2,4,6,8,10,12,14,16,18,20,22,24,26,28,30,-1,-1,-1,-1,-1,-1,-1,-1,-1,-1,-1,-1,-1,-1,-1,-1],"split_conditions":[-6.728866E-1,1.09797254E-1,9.2246014E-1,1.6491228E-1,5.0758667E1,6.082681E-1,-4.8459974E-1,9.401732E-1,9.3891585E-1,1.8384402E-1,-1.7520837E-1,1.3511412E-1,3.5714287E-1,1.01876E5,6.940063E-1,-1.1552139E-3,1.0746006E-4,3.1996056E-4,-5.242099E-4,-1.0084399E-3,1.8150816E-4,1.2522513E-3,5.281849E-4,-2.586536E-6,-2.2820507E-4,1.2672077E-4,-3.2458188E-6,-5.4570617E-5,2.3178203E-4,-2.4156779E-4,9.794972E-4],"split_indices":[7,13,5,37,14,5,7,4,2,33,1,13,31,41,38,0,0,0,0,0,0,0,0,0,0,0,0,0,0,0,0],"split_type":[0,0,0,0,0,0,0,0,0,0,0,0,0,0,0,0,0,0,0,0,0,0,0,0,0,0,0,0,0,0,0],"sum_hessian":[7.53438E5,5.49E3,7.47948E5,5.13E3,3.6E2,7.39923E5,8.025E3,1.56E2,4.974E3,2.5E1,3.35E2,7.17869E5,2.2054E4,4.927E3,3.098E3,9.1E1,6.5E1,4.846E3,1.28E2,8E0,1.7E1,2.28E2,1.07E2,7.15838E5,2.031E3,1.1301E4,1.0753E4,4.164E3,7.63E2,3.075E3,2.3E1],"tree_param":{"num_deleted":"0","num_feature":"44","num_nodes":"31","size_leaf_vector":"1"}},{"base_weights":[-1.4093408E-5,6.157634E-2,-4.6576493E-4,5.2963004E-2,1.838468E-1,1.381674E-5,-8.790671E-3,-1.2083604E-1,5.856427E-2,1.3739352E-1,2.5976652E-1,-1.7645236E-4,2.1947987E-2,9.937532E-3,-1.6099209E-2,-1.159831E-3,9.801251E-5,-2.7450995E-4,3.345823E-4,8.456465E-4,-2.6342514E-4,5.969122E-4,1.5148305E-3,5.7556995E-6,-1.1023875E-5,3.1498223E-4,7.0706104E-5,1.0866208E-4,-4.0924948E-5,-4.5156143E-5,-2.5161158E-4],"categories":[3,4,8,9,11,0,1,2,4,5,6,8,9,10,0,4,8,9,10,11],"categories_nodes":[11,12,13],"categories_segments":[0,5,14],"categories_sizes":[5,9,6],"default_left":[0,0,0,0,0,0,0,0,0,0,0,1,1,1,0,0,0,0,0,0,0,0,0,0,0,0,0,0,0,0,0],"id":10,"left_children":[1,3,5,7,9,11,13,15,17,19,21,23,25,27,29,-1,-1,-1,-1,-1,-1,-1,-1,-1,-1,-1,-1,-1,-1,-1,-1],"loss_changes":[2.0963186E1,5.7774353E0,2.9866889E0,4.989335E0,1.2724628E0,2.951976E0,5.577421E0,2.3783913E0,3.855009E0,1.1896987E0,7.1792984E-1,1.8098632E0,1.9584079E0,2.3253539E0,7.0542493E0,0E0,0E0,0E0,0E0,0E0,0E0,0E0,0E0,0E0,0E0,0E0,0E0,0E0,0E0,0E0,0E0],"parents":[2147483647,0,0,1,1,2,2,3,3,4,4,5,5,6,6,7,7,8,8,9,9,10,10,11,11,12,12,13,13,14,14],"right_children":[2,4,6,8,10,12,14,16,18,20,22,24,26,28,30,-1,-1,-1,-1,-1,-1,-1,-1,-1,-1,-1,-1,-1,-1,-1,-1],"split_conditions":[-6.728866E-1,1.09797254E-1,3.602E1,1.6491228E-1,2.23E2,7.103001E-1,3.9595374E-1,9.401732E-1,5.0147492E-2,6.5E-1,-3.0483E5,1E-45,1E-45,1E-45,4.6815764E-2,-1.159831E-3,9.801251E-5,-2.7450995E-4,3.345823E-4,8.456465E-4,-2.6342514E-4,5.969122E-4,1.5148305E-3,5.7556995E-6,-1.1023875E-5,3.1498223E-4,7.0706104E-5,1.0866208E-4,-4.0924948E-5,-4.5156143E-5,-2.5161158E-4],"split_indices":[7,13,15,37,42,5,31,4,26,33,41,43,43,43,13,0,0,0,0,0,0,0,0,0,0,0,0,0,0,0,0],"split_type":[0,0,0,0,0,0,0,0,0,0,0,1,1,1,0,0,0,0,0,0,0,0,0,0,0,0,0,0,0,0,0],"sum_hessian":[7.53566E5,5.486E3,7.4808E5,5.125E3,3.61E2,7.07332E5,4.0748E4,1.6E2,4.965E3,2.24E2,1.37E2,7.01249E5,6.083E3,1.1438E4,2.931E4,9.1E1,6.9E1,2.88E2,4.677E3,1.95E2,2.9E1,2.8E1,1.09E2,4.23027E5,2.78222E5,1.032E3,5.051E3,7.012E3,4.426E3,2.4042E4,5.268E3],"tree_param":{"num_deleted":"0","num_feature":"44","num_nodes":"31","size_leaf_vector":"1"}},{"base_weights":[-4.6610054E-5,6.8679266E-2,-3.1442672E-4,8.028226E-2,-9.933952E-2,1.5105753E-3,-2.1539333E-3,1.0978211E-1,1.9768609E-2,-2.0531495E-1,-2.1534525E-2,8.6753117E-4,1.6349738E-2,-1.4673558E-3,-1.717791E-2,-6.525909E-5,7.0137094E-4,5.6730496E-4,-2.5444015E-4,-6.090541E-4,-1.8652835E-3,1.1271089E-3,-2.3521592E-4,8.8412645E-7,3.507804E-5,3.857065E-4,6.0996877E-5,-9.169731E-6,1.3263864E-4,-3.098593E-4,-6.5511114E-5],"categories":[2,3,4,8,9,11,4,6,9],"categories_nodes":[2,8],"categories_segments":[0,6],"categories_sizes":[6,3],"default_left":[0,0,1,1,0,0,0,0,1,0,0,1,0,0,0,0,0,0,0,0,0,0,0,0,0,0,0,0,0,0,0],"id":11,"left_children":[1,3,5,7,9,11,13,15,17,19,21,23,25,27,29,-1,-1,-1,-1,-1,-1,-1,-1,-1,-1,-1,-1,-1,-1,-1,-1],"loss_changes":[1.3874174E1,5.7045116E0,2.5207212E0,4.885927E0,1.5584652E0,3.5966315E0,3.857289E0,6.196478E0,5.694406E0,1.0998378E0,6.468536E-1,1.5047262E0,4.0847964E0,3.2088716E0,3.0947328E0,0E0,0E0,0E0,0E0,0E0,0E0,0E0,0E0,0E0,0E0,0E0,0E0,0E0,0E0,0E0,0E0],"parents":[2147483647,0,0,1,1,2,2,3,3,4,4,5,5,6,6,7,7,8,8,9,9,10,10,11,11,12,12,13,13,14,14],"right_children":[2,4,6,8,10,12,14,16,18,20,22,24,26,28,30,-1,-1,-1,-1,-1,-1,-1,-1,-1,-1,-1,-1,-1,-1,-1,-1],"split_conditions":[-5.409684E-1,9.802817E-1,1E-45,6.7E1,2.3631124E-1,6.082681E-1,3.919E1,1.0928961E-2,1E-45,1.431114E0,1.4E1,7.1066946E-1,3.763571E-2,7.496859E-1,-1.2025479E-1,-6.525909E-5,7.0137094E-4,5.6730496E-4,-2.5444015E-4,-6.090541E-4,-1.8652835E-3,1.1271089E-3,-2.3521592E-4,8.8412645E-7,3.507804E-5,3.857065E-4,6.0996877E-5,-9.169731E-6,1.3263864E-4,-3.098593E-4,-6.5511114E-5],"split_indices":[6,26,43,18,33,5,15,31,43,5,42,20,21,5,16,0,0,0,0,0,0,0,0,0,0,0,0,0,0,0,0],"split_type":[0,0,1,0,0,0,0,0,1,0,0,0,0,0,0,0,0,0,0,0,0,0,0,0,0,0,0,0,0,0,0],"sum_hessian":[7.53788E5,2.926E3,7.50862E5,2.737E3,1.89E2,3.76917E5,3.73945E5,1.84E3,8.97E2,8E1,1.09E2,3.61262E5,1.5655E4,3.57603E5,1.6342E4,3.37E2,1.503E3,3.88E2,5.09E2,5.2E1,2.8E1,1E1,9.9E1,3.23769E5,3.7493E4,1.087E3,1.4568E4,3.53387E5,4.216E3,1.489E3,1.4853E4],"tree_param":{"num_deleted":"0","num_feature":"44","num_nodes":"31","size_leaf_vector":"1"}},{"base_weights":[1.841517E-5,6.1478246E-2,-4.338674E-4,5.3149085E-2,1.7980209E-1,3.7067497E-5,-8.609588E-3,-1.14316635E-1,5.856143E-2,2.0796682E-1,8.5098855E-2,-1.5190519E-4,2.1731602E-2,9.285641E-3,-1.6413324E-2,-1.1265115E-3,1.3916417E-4,4.881978E-4,1.9215466E-4,3.4293818E-4,1.2197625E-3,6.6484377E-4,-2.442201E-4,5.800958E-6,-1.0775886E-5,3.0792298E-4,6.827671E-5,4.0141047E-5,6.1218534E-4,-1.3963475E-4,3.2956905E-5],"categories":[0,3,4,6,9,10,11,3,4,8,9,11,0,1,4,5,6,8,9,10],"categories_nodes":[8,11,12],"categories_segments":[0,7,12],"categories_sizes":[7,5,8],"default_left":[0,0,0,0,0,0,0,0,1,0,0,1,1,0,1,0,0,0,0,0,0,0,0,0,0,0,0,0,0,0,0],"id":12,"left_children":[1,3,5,7,9,11,13,15,17,19,21,23,25,27,29,-1,-1,-1,-1,-1,-1,-1,-1,-1,-1,-1,-1,-1,-1,-1,-1],"loss_changes":[2.09472E1,5.425207E0,2.8802316E0,4.661683E0,9.652395E-1,2.8997982E0,5.6897516E0,2.4194796E0,3.8608341E0,1.2079573E0,4.9676323E-1,1.7663347E0,1.9697042E0,1.9551864E0,7.0791454E0,0E0,0E0,0E0,0E0,0E0,0E0,0E0,0E0,0E0,0E0,0E0,0E0,0E0,0E0,0E0,0E0],"parents":[2147483647,0,0,1,1,2,2,3,3,4,4,5,5,6,6,7,7,8,8,9,9,10,10,11,11,12,12,13,13,14,14],"right_children":[2,4,6,8,10,12,14,16,18,20,22,24,26,28,30,-1,-1,-1,-1,-1,-1,-1,-1,-1,-1,-1,-1,-1,-1,-1,-1],"split_conditions":[-6.728866E-1,1.09797254E-1,3.602E1,1.6491228E-1,1.1393212E0,7.103001E-1,4.0419948E-1,9.401732E-1,1E-45,-1.2795661E-1,3.685376E-1,1E-45,1E-45,1.3E1,6.3E1,-1.1265115E-3,1.3916417E-4,4.881978E-4,1.9215466E-4,3.4293818E-4,1.2197625E-3,6.6484377E-4,-2.442201E-4,5.800958E-6,-1.0775886E-5,3.0792298E-4,6.827671E-5,4.0141047E-5,6.1218534E-4,-1.3963475E-4,3.2956905E-5],"split_indices":[7,13,15,37,9,5,30,4,43,8,2,43,43,39,18,0,0,0,0,0,0,0,0,0,0,0,0,0,0,0,0],"split_type":[0,0,0,0,0,0,0,0,1,0,0,1,1,0,0,0,0,0,0,0,0,0,0,0,0,0,0,0,0,0,0],"sum_hessian":[7.53572E5,5.505E3,7.48067E5,5.143E3,3.62E2,7.07324E5,4.0743E4,1.61E2,4.982E3,2.79E2,8.3E1,7.01216E5,6.108E3,1.2372E4,2.8371E4,9.2E1,6.9E1,1.802E3,3.18E3,5E1,2.29E2,6.2E1,2.1E1,4.22996E5,2.7822E5,1.09E3,5.018E3,1.2214E4,1.58E2,1.9204E4,9.167E3],"tree_param":{"num_deleted":"0","num_feature":"44","num_nodes":"31","size_leaf_vector":"1"}},{"base_weights":[-3.0999647E-5,5.95784E-2,-4.6994642E-4,5.1049586E-2,1.8369342E-1,1.3275021E-5,-8.847061E-3,-1.19321175E-1,5.6475457E-2,1.3759933E-1,2.6025164E-1,-1.7224134E-4,2.1331158E-2,7.914475E-3,-1.7236155E-2,-1.1378111E-3,1.15588045E-4,4.705793E-4,1.8354648E-4,8.7035995E-4,-1.0241547E-4,1.5086529E-3,6.5859547E-4,5.7187494E-6,-1.0910334E-5,2.9344394E-4,6.8634836E-5,3.1548694E-5,5.838018E-4,-1.4740806E-4,2.7527232E-5],"categories":[0,3,4,6,9,10,11,3,4,8,9,11,0,1,4,5,6,8,9,10],"categories_nodes":[8,11,12],"categories_segments":[0,7,12],"categories_sizes":[7,5,8],"default_left":[0,0,0,0,0,0,0,0,1,0,0,1,1,0,1,0,0,0,0,0,0,0,0,0,0,0,0,0,0,0,0],"id":13,"left_children":[1,3,5,7,9,11,13,15,17,19,21,23,25,27,29,-1,-1,-1,-1,-1,-1,-1,-1,-1,-1,-1,-1,-1,-1,-1,-1],"loss_changes":[1.9708504E1,5.8282223E0,3.0267837E0,4.762722E0,1.248539E0,2.7958333E0,5.734107E0,2.3329556E0,3.6554756E0,1.1405663E0,6.107235E-1,1.7766345E0,1.7390094E0,2.5171492E0,7.1395235E0,0E0,0E0,0E0,0E0,0E0,0E0,0E0,0E0,0E0,0E0,0E0,0E0,0E0,0E0,0E0,0E0],"parents":[2147483647,0,0,1,1,2,2,3,3,4,4,5,5,6,6,7,7,8,8,9,9,10,10,11,11,12,12,13,13,14,14],"right_children":[2,4,6,8,10,12,14,16,18,20,22,24,26,28,30,-1,-1,-1,-1,-1,-1,-1,-1,-1,-1,-1,-1,-1,-1,-1,-1],"split_conditions":[-6.728866E-1,1.09797254E-1,3.602E1,1.8814147E-1,2.23E2,7.103001E-1,4.3063584E-1,9.401732E-1,1E-45,1.2128881E0,1E0,1E-45,1E-45,2.5691173E0,6.2E1,-1.1378111E-3,1.15588045E-4,4.705793E-4,1.8354648E-4,8.7035995E-4,-1.0241547E-4,1.5086529E-3,6.5859547E-4,5.7187494E-6,-1.0910334E-5,2.9344394E-4,6.8634836E-5,3.1548694E-5,5.838018E-4,-1.4740806E-4,2.7527232E-5],"split_indices":[7,13,15,22,42,5,30,4,43,9,40,43,43,10,18,0,0,0,0,0,0,0,0,0,0,0,0,0,0,0,0],"split_type":[0,0,0,0,0,0,0,0,1,0,0,1,1,0,0,0,0,0,0,0,0,0,0,0,0,0,0,0,0,0,0],"sum_hessian":[7.53229E5,5.506E3,7.47723E5,5.152E3,3.54E2,7.06944E5,4.0779E4,1.59E2,4.993E3,2.21E2,1.33E2,7.00845E5,6.099E3,1.3602E4,2.7177E4,9.2E1,6.7E1,1.827E3,3.166E3,1.83E2,3.8E1,1.05E2,2.8E1,4.22731E5,2.78114E5,1.095E3,5.004E3,1.3383E4,2.19E2,1.7959E4,9.218E3],"tree_param":{"num_deleted":"0","num_feature":"44","num_nodes":"31","size_leaf_vector":"1"}}]},"name":"gbtree"},"learner_model_param":{"base_score":"[1.3351334E-3]","boost_from_average":"1","num_class":"0","num_feature":"44","num_target":"1"},"objective":{"name":"reg:squarederror","reg_loss_param":{"scale_pos_weight":"1"}}},"version":[3,2,0]}