{"learner":{"attributes":{"best_iteration":"3","best_score":"0.019168","scikit_learn":"{\"_estimator_type\": \"regressor\"}"},"feature_names":["ret_21d","ret_63d","macd_hist","atr_pct","vol_20d","vol_60d","dist_sma200","dist_52w_high","zscore_20d","zscore_60d","beta_60d","excess_ret_5d","excess_ret_21d","spy_ret_21d","spy_rsi_14","vix_level","excess_ret_21d_vs_sector","days_to_earnings","days_since_earnings","earnings_yield","book_to_market","roa","debt_to_equity","current_ratio","sales_growth_yoy","ret_63d_rank","macd_hist_rank","atr_pct_rank","vol_20d_rank","vol_60d_rank","dist_sma200_rank","dist_52w_high_rank","zscore_20d_rank","zscore_60d_rank","earnings_yield_rank","book_to_market_rank","roa_rank","debt_to_equity_rank","current_ratio_rank","gics_sector"],"feature_types":["float","float","float","float","float","float","float","float","float","float","float","float","float","float","float","float","float","float","float","float","float","float","float","float","float","float","float","float","float","float","float","float","float","float","float","float","float","float","float","c"],"gradient_booster":{"model":{"cats":{"enc":[],"feature_segments":[],"sorted_idx":[]},"gbtree_model_param":{"num_parallel_tree":"1","num_trees":"4"},"iteration_indptr":[0,1,2,3,4],"tree_info":[0,0,0,0],"trees":[{"base_weights":[3.358191E-5,5.244495E-2,-1.7393816E-4,6.1837632E-2,-1.1182662E-1,-5.569218E-4,1.3957044E-2,2.0069104E-2,5.228475E-3,5.3332816E-3,-2.8750896E-2,1.5982463E-4,-5.9075764E-4,6.654803E-3,9.151838E-4],"categories":[0,3,5,6,7,8,9,10,11,3,4,9,11],"categories_nodes":[3,5],"categories_segments":[0,9],"categories_sizes":[9,4],"default_left":[0,0,0,1,0,1,0,0,0,0,0,0,0,0,0],"id":0,"left_children":[1,3,5,7,9,11,13,-1,-1,-1,-1,-1,-1,-1,-1],"loss_changes":[6.318079E0,3.5553236E0,3.1314068E0,3.3147306E0,7.37854E-1,2.055754E0,2.9805603E0,0E0,0E0,0E0,0E0,0E0,0E0,0E0,0E0],"parents":[2147483647,0,0,1,1,2,2,3,3,4,4,5,5,6,6],"right_children":[2,4,6,8,10,12,14,-1,-1,-1,-1,-1,-1,-1,-1],"split_conditions":[-4.945362E-1,9.84326E-1,9.538905E-1,1E-45,9.230769E-1,1E-45,3.8282655E-2,2.0069104E-2,5.228475E-3,5.3332816E-3,-2.8750896E-2,1.5982463E-4,-5.9075764E-4,6.654803E-3,9.151838E-4],"split_indices":[1,26,29,39,29,39,21,0,0,0,0,0,0,0,0],"split_type":[0,0,0,1,0,1,0,0,0,0,0,0,0,0,0],"sum_hessian":[5.80892E5,2.288E3,5.78604E5,2.166E3,1.22E2,5.63339E5,1.5265E4,9.28E2,1.238E3,2.8E1,9.4E1,3.64939E5,1.984E5,4.53E3,1.0735E4],"tree_param":{"num_deleted":"0","num_feature":"40","num_nodes":"15","size_leaf_vector":"1"}},{"base_weights":[-8.981864E-6,6.660308E-2,-2.6953372E-4,7.762425E-2,-8.3016545E-2,-5.6698185E-4,1.5576207E-2,-6.8873917E-3,1.621823E-2,-2.026429E-3,-2.5607955E-2,-8.73703E-5,-1.6110418E-2,1.3271351E-2,2.136561E-3],"categories":[],"categories_nodes":[],"categories_segments":[],"categories_sizes":[],"default_left":[0,0,0,0,0,0,0,0,0,0,0,0,0,0,0],"id":1,"left_children":[1,3,5,7,9,11,13,-1,-1,-1,-1,-1,-1,-1,-1],"loss_changes":[1.0098232E1,3.7572718E0,2.7316866E0,2.1330166E0,6.013037E-1,4.9212265E0,2.4658966E0,0E0,0E0,0E0,0E0,0E0,0E0,0E0,0E0],"parents":[2147483647,0,0,1,1,2,2,3,3,4,4,5,5,6,6],"right_children":[2,4,6,8,10,12,14,-1,-1,-1,-1,-1,-1,-1,-1],"split_conditions":[-5.409684E-1,9.802817E-1,2.1844466E0,5.0147492E-2,-2.5400206E-1,1.431114E0,3.9986813E1,-6.8873917E-3,1.621823E-2,-2.026429E-3,-2.5607955E-2,-8.73703E-5,-1.6110418E-2,1.3271351E-2,2.136561E-3],"split_indices":[6,26,10,26,0,5,14,0,0,0,0,0,0,0,0],"split_type":[0,0,0,0,0,0,0,0,0,0,0,0,0,0,0],"sum_hessian":[5.81827E5,2.264E3,5.79563E5,2.11E3,1.54E2,5.68887E5,1.0676E4,1.5E2,1.96E3,6.7E1,8.7E1,5.68214E5,6.73E2,7.51E2,9.925E3],"tree_param":{"num_deleted":"0","num_feature":"40","num_nodes":"15","size_leaf_vector":"1"}},{"base_weights":[2.8614653E-5,-1.3587366E-4,4.181991E-2,2.5894863E-3,-1.2068583E-3,1.0305942E-2,1.2336564E-1,-1.9117067E-6,1.8592847E-3,-7.0406306E-5,-2.6884608E-3,1.6080482E-2,1.1150566E-4,2.8118936E-2,-8.262037E-3],"categories":[],"categories_nodes":[],"categories_segments":[],"categories_sizes":[],"default_left":[0,0,0,0,0,0,0,0,0,0,0,0,0,0,0],"id":2,"left_children":[1,3,5,7,9,11,13,-1,-1,-1,-1,-1,-1,-1,-1],"loss_changes":[3.9959018E0,1.6900432E0,5.8527784E0,3.1072793E0,4.5351334E0,1.2054813E0,2.831892E0,0E0,0E0,0E0,0E0,0E0,0E0,0E0,0E0],"parents":[2147483647,0,0,1,1,2,2,3,3,4,4,5,5,6,6],"right_children":[2,4,6,8,10,12,14,-1,-1,-1,-1,-1,-1,-1,-1],"split_conditions":[2.8795075E0,3.3333334E-1,3.502E1,2.148E1,3.602E1,-3.2707583E-2,7.7E1,-1.9117067E-6,1.8592847E-3,-7.0406306E-5,-2.6884608E-3,1.6080482E-2,1.1150566E-4,2.8118936E-2,-8.262037E-3],"split_indices":[10,31,15,15,15,13,18,0,0,0,0,0,0,0,0],"split_type":[0,0,0,0,0,0,0,0,0,0,0,0,0,0,0],"sum_hessian":[5.81286E5,5.7901E5,2.276E3,1.63343E5,4.15667E5,1.644E3,6.32E2,1.20526E5,4.2817E4,3.90887E5,2.478E4,1.85E2,1.459E3,5.46E2,8.6E1],"tree_param":{"num_deleted":"0","num_feature":"40","num_nodes":"15","size_leaf_vector":"1"}},{"base_weights":[2.3143237E-5,3.2435846E-2,-2.3149274E-4,-1.9160554E-2,5.3937554E-2,-4.688448E-4,1.0578131E-2,4.726524E-3,-1.62246E-2,1.6767183E-2,3.3677171E-3,1.4500237E-4,-4.3838765E-4,1.2094066E-2,1.2311266E-3],"categories":[4,8,0,3,5,6,7,9,10,11,3,4,8,9,11],"categories_nodes":[3,4,5],"categories_segments":[0,2,10],"categories_sizes":[2,8,5],"default_left":[0,0,0,1,1,1,0,0,0,0,0,0,0,0,0],"id":3,"left_children":[1,3,5,7,9,11,13,-1,-1,-1,-1,-1,-1,-1,-1],"loss_changes":[4.7975483E0,5.0297594E0,1.4797692E0,3.9898715E0,4.071603E0,1.3080914E0,2.6808326E0,0E0,0E0,0E0,0E0,0E0,0E0,0E0,0E0],"parents":[2147483647,0,0,1,1,2,2,3,3,4,4,5,5,6,6],"right_children":[2,4,6,8,10,12,14,-1,-1,-1,-1,-1,-1,-1,-1],"split_conditions":[-4.574007E-1,1.7179488E-1,9.594272E-1,1E-45,1E-45,1E-45,-1.7216803E-1,4.726524E-3,-1.62246E-2,1.6767183E-2,3.3677171E-3,1.4500237E-4,-4.3838765E-4,1.2094066E-2,1.2311266E-3],"split_indices":[6,33,29,39,39,39,24,0,0,0,0,0,0,0,0],"split_type":[0,0,0,1,1,1,0,0,0,0,0,0,0,0,0],"sum_hessian":[5.81273E5,4.528E3,5.76745E5,1.332E3,3.196E3,5.64356E5,1.2389E4,8.04E2,5.28E2,1.609E3,1.587E3,3.38965E5,2.25391E5,8.57E2,1.1532E4],"tree_param":{"num_deleted":"0","num_feature":"40","num_nodes":"15","size_leaf_vector":"1"}}]},"name":"gbtree"},"learner_model_param":{"base_score":"[1.3351334E-3]","boost_from_average":"1","num_class":"0","num_feature":"40","num_target":"1"},"objective":{"name":"reg:squarederror","reg_loss_param":{"scale_pos_weight":"1"}}},"version":[3,2,0]}